<?xml version="1.0"?>
<opencv_storage>
<opencv_ml_svm>
  <format>3</format>
  <svmType>C_SVC</svmType>
  <kernel>
    <type>POLY</type>
    <degree>2.</degree>
    <gamma>1.</gamma>
    <coef0>0.</coef0></kernel>
  <C>1.</C>
  <term_criteria><iterations>1000</iterations></term_criteria>
  <var_count>6400</var_count>
  <class_count>2</class_count>
  <class_labels type_id="opencv-matrix">
    <rows>2</rows>
    <cols>1</cols>
    <dt>i</dt>
    <data>
      1 2</data></class_labels>
  <sv_total>83</sv_total>
  <support_vectors>
    <_>
      9.60130274e-01 0. 0. 0. 2.82391254e-02 0. 0. 2.82391254e-02
      8.47173780e-02 2.82391254e-02 0. 0. 0. 0. 0. 2.82391254e-02 0. 0.
      0. 0. 0. 0. 0. 0. 0. 0. 0. 0. 2.82391254e-02 0. 0. 0.
      2.82391254e-02 0. 0. 0. 0. 0. 0. 0. 0. 0. 0. 0. 0. 0. 0. 0. 0. 0.
      0. 0. 0. 0. 2.82391254e-02 0. 2.82391254e-02 0. 0. 0. 0. 0.
      2.82391254e-02 0. 0. 0. 2.82391254e-02 0. 0. 0. 0. 0. 0. 0. 0. 0.
      0. 0. 0. 2.82391254e-02 2.82391254e-02 0. 0. 0. 0. 0. 0. 0. 0. 0.
      0. 0. 0. 0. 0. 0. 0. 0. 0. 2.82391254e-02 0. 0. 0. 0. 0.
      2.82391254e-02 0. 0. 0. 0. 0. 2.82391254e-02 2.82391254e-02 0.
      2.82391254e-02 0. 0. 0. 0. 0. 0. 0. 0. 2.82391254e-02 0. 0.
      2.82391254e-02 8.47173780e-02 8.47173780e-02 0. 0. 5.64782508e-02
      2.82391254e-02 0. 2.82391254e-02 2.82391254e-02 0. 2.82391254e-02
      0. 0. 0. 0. 0. 5.64782508e-02 2.82391254e-02 0. 0. 0. 0. 0. 0. 0.
      0. 0. 0. 2.82391254e-02 0. 0. 0. 0. 0. 0. 0. 0. 0. 0. 0. 0.
      2.82391254e-02 0. 0. 0. 0. 2.82391254e-02 2.82391254e-02 0. 0. 0.
      0. 0. 0. 0. 0. 0. 0. 0. 0. 0. 0. 0. 0. 5.64782508e-02
      8.47173780e-02 0. 0. 0. 0. 0. 0. 2.82391254e-02 0. 0. 0. 0. 0. 0.
      0. 2.82391254e-02 0. 0. 0. 0. 0. 0. 0. 0. 2.82391254e-02 0. 0. 0.
      0. 0. 0. 0. 5.64782508e-02 2.82391254e-02 0. 0. 0. 0. 0.
      2.82391254e-02 0. 0. 0. 0. 2.82391254e-02 0. 0. 0. 0. 0. 0.
      2.82391254e-02 0. 0. 0. 0. 5.64782508e-02 0. 2.82391254e-02 0.
      2.82391254e-02 5.64782508e-02 2.82391254e-02 0. 9.51329589e-01
      2.64258217e-02 2.64258217e-02 0. 0. 0. 0. 2.64258217e-02
      2.64258217e-02 0. 0. 0. 0. 0. 5.28516434e-02 2.64258217e-02 0. 0.
      0. 0. 0. 0. 0. 0. 2.64258217e-02 0. 0. 0. 2.64258217e-02 0. 0.
      2.64258217e-02 2.64258217e-02 0. 0. 0. 2.64258217e-02 0. 0. 0. 0.
      0. 0. 0. 0. 0. 0. 0. 0. 0. 0. 0. 0. 0. 0. 0. 0. 0. 0. 0.
      5.28516434e-02 0. 0. 2.64258217e-02 2.64258217e-02 0. 0.
      2.64258217e-02 0. 0. 0. 0. 0. 0. 0. 0. 0. 0. 0. 0. 0. 0. 0. 0. 0.
      0. 0. 0. 0. 0. 0. 0. 0. 0. 0. 0. 2.64258217e-02 0. 0. 0. 0. 0. 0.
      0. 0. 0. 0. 0. 0. 2.64258217e-02 0. 0. 0. 0. 0. 0. 0. 0. 0. 0. 0.
      0. 0. 0. 0. 0. 0. 0. 0. 0. 0. 1.05703287e-01 0. 0. 0. 0. 0. 0. 0.
      0. 0. 0. 0. 1.58554927e-01 0. 0. 0. 0. 0. 0. 0. 0. 0. 0. 0. 0. 0.
      0. 0. 2.64258217e-02 0. 0. 0. 0. 0. 0. 0. 0. 0. 0. 0. 0. 0. 0. 0.
      2.64258217e-02 0. 0. 0. 0. 0. 0. 0. 0. 0. 0. 0. 2.64258217e-02 0.
      0. 0. 0. 2.64258217e-02 0. 2.64258217e-02 7.92774633e-02 0. 0. 0.
      2.64258217e-02 0. 0. 0. 0. 0. 0. 0. 5.28516434e-02 2.64258217e-02
      2.64258217e-02 0. 0. 0. 0. 0. 0. 0. 0. 0. 0. 0. 0. 0.
      2.64258217e-02 2.64258217e-02 2.64258217e-02 0. 5.28516434e-02
      2.64258217e-02 0. 0. 0. 0. 0. 0. 0. 0. 0. 0. 0. 5.28516434e-02
      2.64258217e-02 0. 0. 0. 0. 0. 0. 2.64258217e-02 0. 0.
      2.64258217e-02 0. 1.32129103e-01 0. 0. 9.63863194e-01
      2.67739780e-02 2.67739780e-02 0. 2.67739780e-02 2.67739780e-02
      8.03219378e-02 2.67739780e-02 2.67739780e-02 0. 0. 0. 0. 0.
      5.35479560e-02 2.67739780e-02 0. 0. 0. 0. 0. 0. 0. 0.
      2.67739780e-02 0. 0. 0. 2.67739780e-02 0. 2.67739780e-02
      2.67739780e-02 0. 0. 0. 0. 0. 0. 0. 0. 2.67739780e-02 0. 0. 0. 0.
      0. 0. 0. 0. 0. 0. 0. 0. 0. 0. 2.67739780e-02 2.67739780e-02 0. 0.
      0. 0. 0. 2.67739780e-02 0. 0. 2.67739780e-02 0. 0. 0. 0. 0. 0. 0.
      0. 0. 0. 0. 0. 2.67739780e-02 0. 0. 0. 0. 0. 0. 0. 0. 0. 0. 0. 0.
      0. 0. 0. 0. 0. 0. 0. 0. 0. 0. 0. 0. 2.67739780e-02 0. 0. 0. 0. 0.
      0. 0. 2.67739780e-02 0. 0. 0. 0. 0. 0. 0. 0. 0. 0. 0. 0. 0. 0. 0.
      0. 0. 0. 2.67739780e-02 1.07095912e-01 2.67739780e-02
      2.67739780e-02 2.67739780e-02 5.35479560e-02 0. 0. 0. 0. 0. 0. 0.
      0. 0. 0. 0. 0. 0. 0. 0. 0. 0. 0. 0. 2.67739780e-02 0. 0. 0.
      5.35479560e-02 0. 0. 0. 0. 0. 0. 0. 0. 0. 0. 0. 2.67739780e-02 0.
      0. 0. 0. 0. 0. 0. 0. 0. 0. 0. 0. 0. 2.67739780e-02 0. 0. 0. 0. 0.
      0. 5.35479560e-02 2.67739780e-02 0. 5.35479560e-02 0. 0.
      2.67739780e-02 8.03219378e-02 0. 0. 0. 0. 0. 0. 0. 5.35479560e-02
      0. 0. 0. 0. 0. 0. 0. 0. 0. 0. 0. 0. 0. 0. 0. 0. 0. 5.35479560e-02
      0. 2.67739780e-02 0. 0. 0. 2.67739780e-02 2.67739780e-02 0. 0. 0.
      0. 2.67739780e-02 0. 2.67739780e-02 0. 0. 0. 0. 0. 0. 0.
      5.35479560e-02 0. 0. 0. 0. 0. 0. 0. 0. 9.14696038e-01 0. 0. 0. 0.
      0. 0. 0. 5.08164465e-02 0. 0. 0. 0. 2.54082233e-02 0.
      5.08164465e-02 0. 0. 0. 0. 0. 0. 0. 0. 2.54082233e-02 0. 0. 0.
      2.54082233e-02 0. 0. 0. 0. 0. 0. 0. 0. 0. 0. 0. 0. 0. 0. 0. 0. 0.
      0. 0. 0. 0. 0. 0. 0. 0. 0. 0. 0. 0. 0. 0. 0. 0. 0. 0. 0. 0. 0. 0.
      0. 0. 0. 0. 0. 0. 0. 0. 0. 0. 0. 0. 0. 0. 0. 0. 0. 0. 0. 0. 0. 0.
      0. 0. 0. 0. 0. 0. 2.54082233e-02 0. 0. 0. 0. 0. 0. 0. 0. 0. 0. 0.
      0. 0. 0. 0. 2.54082233e-02 0. 0. 0. 0. 0. 0. 2.54082233e-02
      1.27041116e-01 2.54082233e-02 0. 2.54082233e-02 0. 0.
      2.54082233e-02 2.54082233e-02 5.08164465e-02 0. 0. 2.54082233e-02
      0. 0. 0. 3.04898679e-01 0. 0. 0. 0. 0. 0. 0. 1.52449340e-01
      2.54082233e-02 0. 0. 0. 0. 0. 0. 0. 0. 0. 0. 0. 0. 0. 0. 0. 0. 0.
      0. 0. 0. 0. 0. 0. 0. 0. 0. 0. 0. 0. 0. 0. 0. 0. 0. 0. 0. 0. 0.
      2.54082233e-02 2.54082233e-02 0. 0. 0. 0. 0. 0. 0. 2.54082233e-02
      5.08164465e-02 0. 0. 0. 0. 0. 2.54082233e-02 0. 0. 0. 0. 0. 0. 0.
      0. 0. 0. 0. 0. 0. 0. 0. 2.54082233e-02 0. 0. 0. 0. 0. 0. 0. 0. 0.
      5.08164465e-02 0. 0. 0. 0. 0. 0. 0. 0. 0. 2.54082233e-02 0. 0. 0.
      2.54082233e-02 0. 2.54082233e-02 0. 0. 0. 0. 0. 5.08164465e-02
      2.54082233e-02 0. 0. 2.54082233e-02 2.54082233e-02 0.
      2.54082233e-02 0. 9.04903471e-01 0. 0. 5.17087691e-02 0. 0. 0.
      1.03417538e-01 0. 0. 0. 0. 2.58543845e-02 0. 0. 1.03417538e-01 0.
      0. 0. 0. 0. 0. 0. 0. 2.58543845e-02 0. 0. 0. 2.58543845e-02 0. 0.
      0. 0. 0. 0. 0. 0. 0. 0. 0. 0. 0. 0. 0. 0. 0. 0. 0. 0. 0. 0. 0. 0.
      0. 0. 0. 0. 0. 0. 0. 0. 0. 0. 0. 0. 0. 0. 0. 0. 0. 0. 0. 0. 0. 0.
      0. 0. 0. 0. 0. 0. 0. 0. 0. 0. 0. 0. 0. 0. 0. 0. 0. 0. 0. 0. 0. 0.
      0. 0. 0. 0. 0. 0. 0. 0. 0. 0. 0. 0. 0. 0. 0. 5.17087691e-02 0. 0.
      0. 0. 0. 0. 2.58543845e-02 7.75631517e-02 2.58543845e-02 0. 0. 0.
      0. 0. 2.58543845e-02 1.03417538e-01 0. 0. 7.75631517e-02 0. 0.
      2.58543845e-02 2.32689455e-01 5.17087691e-02 0. 0. 0. 0. 0. 0.
      2.06835076e-01 0. 0. 0. 0. 0. 0. 0. 0. 0. 0. 0. 0. 0. 0. 0. 0. 0.
      0. 0. 0. 0. 0. 0. 0. 0. 0. 0. 0. 0. 0. 0. 2.58543845e-02 0. 0. 0.
      0. 0. 0. 0. 0. 0. 0. 0. 0. 0. 0. 0. 0. 0. 0. 0. 0. 0. 0. 0.
      1.03417538e-01 0. 0. 0. 0. 0. 0. 0. 5.17087691e-02 0. 0. 0. 0. 0.
      0. 0. 0. 0. 0. 0. 0. 0. 0. 0. 0. 0. 0. 0. 0. 0. 0. 0. 0. 0. 0. 0.
      0. 0. 0. 0. 0. 2.58543845e-02 0. 0. 0. 0. 0. 0. 7.75631517e-02
      7.75631517e-02 0. 0. 2.58543845e-02 0. 0. 0. 0. 9.64507818e-01
      2.47309692e-02 0. 4.94619384e-02 0. 0. 0. 2.47309692e-02
      4.94619384e-02 0. 0. 0. 0. 0. 0. 4.94619384e-02 0. 0. 0. 0. 0. 0.
      0. 0. 2.47309692e-02 0. 0. 0. 2.47309692e-02 0. 0. 0. 0. 0. 0. 0.
      0. 0. 0. 0. 0. 0. 0. 0. 0. 0. 0. 0. 0. 0. 0. 0. 0. 0. 0. 0.
      2.47309692e-02 0. 0. 0. 0. 0. 0. 2.47309692e-02 0. 0. 0. 0. 0. 0.
      0. 0. 0. 0. 0. 0. 0. 0. 2.47309692e-02 2.47309692e-02 0. 0. 0. 0.
      0. 0. 0. 0. 0. 0. 0. 0. 0. 0. 0. 0. 0. 0. 0. 2.47309692e-02 0. 0.
      0. 0. 2.47309692e-02 0. 0. 0. 2.47309692e-02 0. 0. 4.94619384e-02
      2.47309692e-02 0. 0. 0. 0. 0. 0. 0. 2.47309692e-02 2.47309692e-02
      0. 0. 4.94619384e-02 0. 0. 2.47309692e-02 9.89238769e-02 0. 0.
      2.47309692e-02 0. 0. 0. 1.48385823e-01 4.94619384e-02
      2.47309692e-02 0. 2.47309692e-02 0. 0. 0. 4.94619384e-02 0. 0. 0.
      0. 0. 0. 0. 2.47309692e-02 0. 0. 0. 0. 0. 0. 0. 2.47309692e-02 0.
      0. 0. 0. 0. 0. 0. 0. 0. 0. 0. 0. 0. 0. 0. 0. 2.47309692e-02 0. 0.
      0. 0. 0. 0. 0. 0. 0. 0. 0. 0. 0. 0. 0. 2.47309692e-02 0. 0.
      2.47309692e-02 0. 0. 0. 2.47309692e-02 0. 0. 0. 0. 0. 0. 0.
      2.47309692e-02 0. 0. 0. 0. 0. 0. 0. 2.47309692e-02 0. 0. 0. 0. 0.
      0. 0. 0. 2.47309692e-02 2.47309692e-02 0. 0. 2.47309692e-02 0. 0.
      0. 0. 0. 0. 0. 0. 0. 0. 0. 0. 0. 0. 0. 0. 0. 0. 0. 4.94619384e-02
      0. 0. 0. 0. 2.47309692e-02 0. 0. 9.31692541e-01 2.58803479e-02
      2.58803479e-02 0. 2.58803479e-02 0. 0. 5.17606959e-02
      2.58803479e-02 0. 0. 0. 0. 0. 2.58803479e-02 5.17606959e-02 0. 0.
      0. 0. 0. 0. 0. 0. 2.58803479e-02 0. 0. 0. 2.58803479e-02 0. 0.
      2.58803479e-02 0. 0. 0. 0. 0. 0. 0. 0. 0. 0. 0. 0. 0. 0. 0. 0. 0.
      0. 0. 0. 0. 0. 0. 0. 0. 0. 0. 0. 0. 0. 0. 2.58803479e-02
      2.58803479e-02 0. 0. 0. 0. 0. 0. 0. 0. 0. 0. 0. 0. 0. 0. 0. 0. 0.
      0. 0. 0. 0. 0. 0. 0. 0. 0. 0. 0. 0. 0. 0. 0. 0. 0. 0. 0. 0. 0. 0.
      0. 2.58803479e-02 0. 0. 0. 0. 0. 0. 0. 0. 0. 0. 0. 0. 0. 0. 0. 0.
      0. 0. 0. 0. 0. 2.58803479e-02 2.58803479e-02 0. 0. 1.03521392e-01
      2.58803479e-02 0. 2.58803479e-02 2.58803487e-01 2.58803479e-02 0.
      0. 0. 0. 0. 0. 1.29401743e-01 0. 0. 0. 0. 0. 0. 0. 0.
      2.58803479e-02 2.58803479e-02 0. 0. 0. 0. 0. 2.58803479e-02 0. 0.
      0. 0. 0. 0. 0. 0. 0. 0. 0. 0. 2.58803479e-02 0. 0. 0. 0. 0. 0. 0.
      0. 0. 0. 0. 2.58803479e-02 0. 0. 0. 0. 0. 0. 0. 5.17606959e-02 0.
      2.58803479e-02 2.58803479e-02 0. 0. 0. 5.17606959e-02
      5.17606959e-02 0. 0. 0. 0. 0. 0. 5.17606959e-02 0. 0. 0. 0. 0. 0.
      0. 0. 0. 0. 0. 0. 0. 0. 0. 2.58803479e-02 0. 2.58803479e-02 0. 0.
      0. 0. 0. 5.17606959e-02 0. 0. 0. 0. 0. 0. 0. 0. 2.58803479e-02 0.
      0. 0. 0. 0. 0. 2.58803479e-02 0. 0. 0. 2.58803479e-02 0. 0. 0. 0.
      9.12560582e-01 2.60731596e-02 0. 5.21463193e-02 2.60731596e-02
      2.60731596e-02 0. 1.82512119e-01 2.60731596e-02 0. 0. 0. 0. 0. 0.
      2.60731596e-02 0. 0. 0. 0. 0. 0. 0. 0. 2.60731596e-02 0. 0. 0.
      2.60731596e-02 0. 0. 0. 0. 0. 0. 0. 0. 0. 0. 0. 0. 0. 0. 0. 0. 0.
      2.60731596e-02 0. 0. 0. 0. 0. 0. 0. 0. 0. 0. 0. 0. 0. 0. 0. 0. 0.
      0. 0. 0. 0. 0. 0. 0. 0. 2.60731596e-02 0. 0. 2.60731596e-02 0. 0.
      0. 0. 0. 0. 0. 0. 0. 0. 0. 0. 0. 0. 0. 0. 0. 0. 0. 0. 0. 0. 0. 0.
      0. 0. 0. 0. 0. 0. 0. 0. 0. 0. 0. 0. 0. 0. 0. 0. 0. 0. 0. 0. 0. 0.
      0. 0. 0. 0. 0. 0. 5.21463193e-02 5.21463193e-02 0. 5.21463193e-02
      0. 5.21463193e-02 2.60731596e-02 2.60731608e-01 0. 0.
      2.60731596e-02 0. 0. 0. 0. 1.56438962e-01 0. 0. 0. 0. 0. 0. 0.
      2.60731596e-02 0. 0. 0. 0. 0. 0. 0. 0. 0. 0. 0. 0. 0. 0. 0. 0. 0.
      0. 0. 0. 0. 0. 0. 0. 2.60731596e-02 0. 0. 0. 0. 0. 0. 0. 0. 0. 0.
      0. 0. 0. 2.60731596e-02 0. 2.60731596e-02 0. 0. 0. 2.60731596e-02
      0. 0. 5.21463193e-02 0. 0. 0. 0. 0. 0. 0. 7.82194808e-02 0. 0. 0.
      0. 0. 0. 0. 0. 0. 0. 0. 0. 0. 0. 0. 0. 0. 0. 0. 2.60731596e-02 0.
      0. 0. 5.21463193e-02 2.60731596e-02 0. 0. 0. 0. 0. 0.
      5.21463193e-02 0. 0. 0. 0. 0. 0. 0. 0. 2.60731596e-02 0. 0. 0. 0.
      0. 0. 0. 9.28150177e-01 0. 0. 0. 2.65185758e-02 0. 2.65185758e-02
      0. 2.65185758e-02 0. 0. 0. 7.95557275e-02 0. 0. 0. 0. 0. 0. 0. 0.
      0. 0. 0. 2.65185758e-02 0. 0. 0. 2.65185758e-02 0. 0. 0. 0. 0. 0.
      0. 0. 0. 0. 0. 0. 0. 0. 0. 0. 0. 0. 0. 0. 0. 0. 0. 0. 0. 0. 0. 0.
      0. 0. 0. 0. 0. 0. 7.95557275e-02 0. 0. 0. 0. 0. 0. 0. 0.
      2.65185758e-02 0. 0. 0. 0. 0. 0. 0. 0. 0. 0. 0. 0. 0. 0. 0. 0. 0.
      0. 0. 0. 0. 0. 0. 0. 0. 0. 0. 0. 0. 0. 2.65185758e-02
      2.65185758e-02 0. 0. 0. 0. 0. 0. 0. 2.65185758e-02 0. 0. 0. 0. 0.
      0. 0. 1.59111455e-01 0. 0. 2.65185758e-02 0. 0. 0. 2.65185758e-02
      5.30371517e-02 2.65185758e-02 0. 1.32592887e-01 0. 0.
      5.30371517e-02 1.06074303e-01 2.65185758e-02 0. 0. 0. 0. 0.
      2.65185758e-02 7.95557275e-02 0. 0. 0. 0. 0. 0. 0. 7.95557275e-02
      0. 0. 0. 0. 0. 0. 0. 2.65185758e-02 0. 0. 0. 0. 0. 0. 0. 0. 0. 0.
      0. 0. 0. 0. 0. 0. 0. 0. 0. 0. 0. 0. 0. 0. 0. 0. 0. 0. 0. 0. 0.
      1.06074303e-01 0. 0. 0. 5.30371517e-02 0. 0. 0. 1.59111455e-01 0.
      0. 0. 0. 0. 0. 0. 0. 0. 0. 0. 0. 0. 0. 0. 0. 0. 0. 0. 0. 0. 0. 0.
      2.65185758e-02 0. 0. 0. 0. 0. 0. 0. 0. 0. 0. 0. 0. 0. 0. 0. 0. 0.
      0. 0. 0. 0. 0. 0. 5.30371517e-02 0. 0. 0. 0. 0. 0. 0. 0.
      9.49587286e-01 2.79290378e-02 2.79290378e-02 0. 0. 0. 0.
      2.79290378e-02 2.79290378e-02 0. 0. 0. 2.79290378e-02 0. 0.
      5.58580756e-02 0. 0. 0. 0. 0. 0. 0. 0. 2.79290378e-02 0. 0. 0.
      2.79290378e-02 0. 0. 0. 2.79290378e-02 0. 0. 0. 0. 0. 0. 0. 0. 0.
      0. 0. 0. 0. 0. 0. 0. 0. 0. 0. 0. 0. 0. 0. 0. 0. 0. 0. 0. 0. 0. 0.
      5.58580756e-02 0. 2.79290378e-02 2.79290378e-02 2.79290378e-02 0.
      0. 0. 0. 0. 0. 0. 0. 0. 0. 0. 0. 0. 0. 0. 0. 0. 0. 0. 0. 0. 0. 0.
      0. 0. 0. 0. 0. 0. 0. 0. 0. 0. 0. 0. 0. 2.79290378e-02 0. 0.
      2.79290378e-02 0. 0. 2.79290378e-02 0. 2.79290378e-02 0. 0. 0. 0.
      0. 0. 2.79290378e-02 2.79290378e-02 0. 2.79290378e-02 0. 0. 0.
      2.79290378e-02 5.58580756e-02 2.79290378e-02 2.79290378e-02 0. 0.
      2.79290378e-02 2.79290378e-02 1.11716151e-01 0. 0. 0.
      2.79290378e-02 0. 0. 0. 8.37871134e-02 0. 0. 0. 0. 0. 0. 0. 0. 0.
      0. 0. 0. 0. 0. 0. 0. 0. 0. 0. 0. 0. 0. 0. 0. 0. 0. 0. 0. 0. 0. 0.
      0. 0. 0. 0. 2.79290378e-02 0. 0. 0. 0. 2.79290378e-02 0. 0. 0. 0.
      0. 0. 2.79290378e-02 2.79290378e-02 0. 0. 2.79290378e-02
      2.79290378e-02 0. 0. 1.11716151e-01 0. 0. 0. 0. 0. 0. 0.
      2.79290378e-02 0. 2.79290378e-02 0. 0. 0. 0. 0. 0. 0. 0. 0. 0. 0.
      0. 0. 0. 0. 0. 0. 0. 0. 0. 0. 0. 0. 0. 0. 0. 0. 0. 0.
      5.58580756e-02 2.79290378e-02 2.79290378e-02 0. 0. 0. 0. 0.
      1.39645189e-01 8.37871134e-02 0. 0. 2.79290378e-02 0. 0. 0. 0.
      9.70854640e-01 2.55488064e-02 2.55488064e-02 2.55488064e-02
      2.55488064e-02 0. 0. 0. 0. 2.55488064e-02 0. 0. 0. 0. 0. 0.
      2.55488064e-02 0. 0. 0. 0. 0. 0. 0. 2.55488064e-02 0. 0. 0.
      2.55488064e-02 0. 0. 0. 7.66464174e-02 0. 0. 0. 0. 0. 0. 0. 0. 0.
      0. 0. 0. 2.55488064e-02 0. 0. 0. 0. 0. 0. 0. 0. 0. 0. 0. 0. 0. 0.
      0. 0. 0. 2.55488064e-02 0. 0. 0. 0. 0. 0. 0. 0. 0. 0. 0. 0. 0. 0.
      0. 0. 0. 0. 0. 2.55488064e-02 0. 0. 0. 0. 2.55488064e-02 0. 0. 0.
      0. 0. 0. 0. 2.55488064e-02 0. 0. 0. 0. 0. 0. 0. 0. 0. 0. 0.
      2.55488064e-02 0. 0. 2.55488064e-02 0. 0. 0. 0. 0. 2.55488064e-02
      0. 0. 7.66464174e-02 0. 0. 0. 0. 0. 0. 2.55488064e-02
      1.02195226e-01 2.55488064e-02 0. 0. 0. 2.55488064e-02 0.
      2.55488064e-02 5.10976128e-02 0. 0. 0. 0. 0. 0. 0. 0. 0. 0. 0. 0.
      0. 0. 0. 0. 0. 0. 0. 0. 0. 0. 2.55488064e-02 2.55488064e-02 0. 0.
      0. 0. 0. 0. 0. 0. 0. 0. 0. 0. 0. 0. 0. 2.55488064e-02 0. 0. 0. 0.
      0. 0. 2.55488064e-02 2.55488064e-02 0. 0. 5.10976128e-02 0. 0.
      2.55488064e-02 2.55488064e-02 2.55488064e-02 0. 0. 0.
      2.55488064e-02 0. 0. 0. 0. 0. 0. 0. 2.55488064e-02 0. 0. 0.
      5.10976128e-02 0. 0. 0. 0. 0. 0. 0. 0. 0. 0. 0. 0. 2.55488064e-02
      0. 0. 0. 0. 0. 2.55488064e-02 0. 0. 0. 0. 0. 0. 0. 0. 0. 0. 0.
      2.55488064e-02 5.10976128e-02 0. 0. 2.55488064e-02 0. 0.
      2.55488064e-02 2.55488064e-02 2.55488064e-02 0. 0. 2.55488064e-02
      0. 0. 0. 0. 9.68015432e-01 2.54740901e-02 0. 0. 2.54740901e-02 0.
      0. 2.54740901e-02 2.54740901e-02 0. 0. 2.54740901e-02 0. 0. 0.
      7.64222741e-02 2.54740901e-02 0. 0. 0. 2.54740901e-02 0. 0. 0.
      5.09481803e-02 0. 0. 2.54740901e-02 2.54740901e-02 0.
      5.09481803e-02 5.09481803e-02 0. 0. 0. 0. 2.54740901e-02 0. 0. 0.
      0. 0. 2.54740901e-02 0. 0. 0. 0. 0. 2.54740901e-02 0. 0. 0. 0. 0.
      0. 0. 0. 0. 0. 0. 0. 0. 0. 0. 0. 0. 2.54740901e-02 0. 0. 0. 0. 0.
      0. 0. 2.54740901e-02 0. 0. 0. 0. 0. 0. 0. 0. 0. 0. 0. 0. 0.
      2.54740901e-02 0. 0. 0. 0. 0. 0. 0. 0. 0. 0. 0. 0. 0. 0. 0. 0.
      2.54740901e-02 0. 0. 0. 0. 0. 0. 0. 0. 0. 0. 0. 0. 0. 0. 0. 0. 0.
      0. 0. 0. 0. 5.09481803e-02 2.54740901e-02 0. 0. 0. 0. 0.
      2.54740901e-02 2.54740901e-02 0. 0. 0. 0. 0. 0. 0. 5.09481803e-02
      2.54740901e-02 0. 0. 0. 0. 0. 0. 0. 0. 0. 0. 0. 0. 0. 0.
      7.64222741e-02 0. 0. 0. 0. 0. 0. 0. 0. 0. 0. 0. 0. 0. 0. 0. 0.
      2.54740901e-02 2.54740901e-02 0. 0. 0. 0. 0. 0. 0. 0. 0. 0. 0. 0.
      0. 0. 2.54740901e-02 2.54740901e-02 0. 2.54740901e-02 0. 0. 0. 0.
      0. 0. 0. 0. 0. 0. 0. 0. 0. 0. 0. 0. 0. 0. 0. 0. 0. 0. 0.
      2.54740901e-02 0. 0. 0. 0. 5.09481803e-02 0. 0. 0. 0. 0.
      2.54740901e-02 2.54740901e-02 5.09481803e-02 0. 0. 0. 0. 0. 0. 0.
      0. 0. 0. 0. 2.54740901e-02 0. 0. 1.01896361e-01 2.54740901e-02 0.
      0. 5.09481803e-02 0. 2.54740901e-02 0. 0. 9.72146034e-01 0. 0.
      2.43036505e-02 0. 0. 0. 2.43036505e-02 2.43036505e-02 0. 0. 0.
      2.43036505e-02 0. 0. 0. 0. 2.43036505e-02 0. 0. 0. 0. 0. 0.
      2.43036505e-02 0. 0. 0. 2.43036505e-02 0. 2.43036505e-02 0.
      4.86073010e-02 0. 0. 0. 0. 0. 0. 2.43036505e-02 0. 0. 0. 0. 0. 0.
      2.43036505e-02 0. 0. 0. 0. 0. 0. 0. 0. 0. 0. 4.86073010e-02 0.
      2.43036505e-02 4.86073010e-02 0. 2.43036505e-02 0. 0. 0. 0. 0. 0.
      0. 0. 0. 0. 0. 0. 0. 0. 0. 2.43036505e-02 0. 0. 0. 0. 0. 0. 0. 0.
      0. 0. 0. 0. 0. 0. 0. 0. 0. 2.43036505e-02 0. 2.43036505e-02 0. 0.
      0. 0. 0. 2.43036505e-02 0. 0. 0. 0. 0. 0. 0. 0. 0. 0. 0. 0. 0. 0.
      0. 2.43036505e-02 0. 0. 0. 0. 0. 2.43036505e-02 2.43036505e-02
      4.86073010e-02 0. 2.43036505e-02 0. 0. 0. 4.86073010e-02
      2.43036505e-02 0. 0. 0. 2.43036505e-02 0. 0. 0. 7.29109496e-02 0.
      0. 0. 0. 0. 0. 0. 0. 0. 0. 0. 0. 0. 0. 0. 0. 0. 0. 0. 0. 0.
      2.43036505e-02 0. 0. 0. 0. 0. 0. 0. 0. 0. 0. 0. 0. 0. 0. 0. 0. 0.
      2.43036505e-02 0. 0. 0. 0. 0. 0. 0. 2.43036505e-02 0. 0.
      2.43036505e-02 9.72146019e-02 0. 0. 0. 7.29109496e-02 0. 0. 0. 0.
      2.43036505e-02 2.43036505e-02 0. 0. 0. 0. 0. 0. 0. 0. 0.
      2.43036505e-02 0. 0. 0. 0. 0. 2.43036505e-02 0. 0. 0. 0. 0. 0. 0.
      0. 0. 4.86073010e-02 0. 0. 0. 0. 0. 0. 0. 0. 2.43036505e-02 0. 0.
      0. 0. 0. 0. 0. 4.86073010e-02 0. 0. 0. 0. 0. 0. 0. 9.45080519e-01
      2.62522362e-02 0. 1.05008945e-01 0. 0. 0. 2.62522362e-02
      5.25044724e-02 2.62522362e-02 0. 0. 0. 0. 0. 0. 0. 0. 0. 0. 0. 0.
      0. 0. 2.62522362e-02 0. 0. 0. 2.62522362e-02 0. 0. 0. 0. 0. 0. 0.
      0. 0. 2.62522362e-02 0. 0. 0. 0. 0. 0. 0. 0. 0. 0. 0. 0. 0. 0. 0.
      0. 0. 0. 0. 0. 0. 0. 0. 0. 0. 0. 0. 0. 0. 0. 0. 0. 0. 0. 0. 0. 0.
      0. 2.62522362e-02 0. 0. 0. 0. 0. 0. 0. 0. 0. 0. 0. 0. 0. 0. 0. 0.
      0. 0. 2.62522362e-02 2.62522362e-02 0. 0. 0. 0. 0. 2.62522362e-02
      0. 0. 2.62522362e-02 0. 0. 0. 0. 0. 0. 0. 0. 0. 0. 0. 0. 0. 0. 0.
      0. 0. 0. 0. 0. 0. 2.62522362e-02 0. 0. 1.31261185e-01 0. 0.
      2.62522362e-02 1.31261185e-01 0. 0. 0. 0. 0. 0. 0. 1.05008945e-01
      0. 0. 0. 0. 0. 0. 0. 2.62522362e-02 0. 0. 0. 0. 0. 0. 0. 0. 0. 0.
      0. 0. 0. 0. 0. 2.62522362e-02 0. 2.62522362e-02 0. 0. 0. 0. 0. 0.
      0. 0. 0. 0. 0. 0. 0. 2.62522362e-02 0. 0. 0. 0. 0. 0. 0. 0. 0.
      2.62522362e-02 0. 2.62522362e-02 0. 0. 2.62522362e-02
      1.57513410e-01 0. 2.62522362e-02 0. 0. 0. 0. 0. 5.25044724e-02 0.
      0. 0. 2.62522362e-02 0. 0. 0. 0. 0. 0. 0. 0. 0. 0. 0.
      2.62522362e-02 0. 0. 0. 0. 0. 0. 0. 0. 0. 0. 0. 2.62522362e-02 0.
      0. 0. 2.62522362e-02 0. 0. 0. 0. 0. 0. 0. 5.25044724e-02 0. 0. 0.
      0. 0. 0. 0. 0. 9.54382002e-01 2.57941075e-02 0. 0. 0.
      2.57941075e-02 5.15882149e-02 2.57941075e-02 0. 2.57941075e-02 0.
      0. 2.57941075e-02 0. 0. 0. 0. 0. 0. 0. 0. 0. 0. 0. 2.57941075e-02
      0. 0. 0. 2.57941075e-02 0. 0. 0. 0. 0. 0. 0. 2.57941075e-02 0. 0.
      0. 2.57941075e-02 0. 0. 0. 0. 0. 0. 0. 0. 0. 0. 0. 0. 0. 0. 0. 0.
      0. 0. 2.57941075e-02 0. 0. 0. 2.57941075e-02 0. 0. 2.57941075e-02
      0. 0. 0. 0. 0. 2.57941075e-02 0. 0. 0. 2.57941075e-02 0. 0. 0. 0.
      0. 0. 0. 0. 0. 0. 0. 0. 0. 0. 0. 0. 0. 0. 0. 0. 0. 0. 0. 0. 0. 0.
      0. 2.57941075e-02 0. 0. 0. 0. 0. 2.57941075e-02 0. 2.57941075e-02
      0. 0. 0. 0. 0. 0. 2.57941075e-02 2.57941075e-02 5.15882149e-02 0.
      2.57941075e-02 0. 0. 0. 2.57941075e-02 0. 0. 0. 2.57941075e-02 0.
      0. 2.57941075e-02 1.54764652e-01 0. 2.57941075e-02 0. 0. 0. 0. 0.
      7.73823261e-02 0. 0. 0. 2.57941075e-02 0. 0. 0. 5.15882149e-02 0.
      0. 0. 0. 0. 0. 0. 0. 0. 0. 0. 0. 0. 0. 0. 2.57941075e-02 0. 0. 0.
      0. 0. 0. 0. 0. 0. 0. 0. 0. 0. 0. 0. 2.57941075e-02 0. 0. 0. 0. 0.
      0. 0. 7.73823261e-02 2.57941075e-02 0. 0. 0. 0. 0. 0.
      7.73823261e-02 0. 0. 0. 0. 0. 0. 0. 0. 0. 0. 0. 0. 0. 0. 0. 0. 0.
      0. 0. 0. 0. 0. 0. 2.57941075e-02 0. 0. 0. 0. 0. 0. 0. 0. 0. 0. 0.
      0. 0. 0. 0. 2.57941075e-02 0. 0. 0. 0. 0. 0. 0. 1.28970534e-01
      5.15882149e-02 0. 0. 0. 0. 0. 0. 0. 9.46984112e-01 0.
      2.70566884e-02 0. 2.70566884e-02 0. 0. 2.70566884e-02
      2.70566884e-02 0. 0. 2.70566884e-02 2.70566884e-02 0. 0.
      2.70566884e-02 0. 0. 0. 0. 0. 0. 0. 0. 2.70566884e-02 0. 0. 0.
      2.70566884e-02 0. 2.70566884e-02 0. 0. 0. 0. 0. 0. 0.
      2.70566884e-02 0. 0. 0. 0. 0. 0. 0. 0. 0. 0. 0. 0. 2.70566884e-02
      0. 0. 0. 0. 0. 0. 0. 0. 0. 0. 0. 5.41133769e-02 0. 0. 0. 0. 0. 0.
      0. 0. 0. 0. 0. 0. 0. 0. 0. 0. 0. 0. 0. 0. 0. 0. 0. 0. 0. 0. 0. 0.
      0. 0. 0. 0. 0. 0. 0. 0. 0. 0. 0. 2.70566884e-02 0. 0. 0. 0.
      2.70566884e-02 0. 0. 0. 2.70566884e-02 0. 0. 0. 0. 0. 0. 0. 0. 0.
      0. 0. 0. 0. 0. 8.11700672e-02 1.08226754e-01 2.70566884e-02 0.
      5.41133769e-02 0. 2.70566884e-02 0. 0. 5.41133769e-02 0. 0.
      2.70566884e-02 0. 0. 2.70566884e-02 1.35283440e-01 0.
      2.70566884e-02 0. 0. 0. 0. 0. 0. 0. 0. 0. 0. 0. 0. 0.
      5.41133769e-02 2.70566884e-02 0. 0. 0. 0. 0. 0. 0. 0. 0. 0. 0. 0.
      0. 0. 0. 0. 0. 0. 0. 0. 0. 0. 0. 0. 0. 0. 0. 0. 0. 0. 0. 0. 0. 0.
      0. 0. 0. 0. 5.41133769e-02 2.70566884e-02 0. 0. 0. 0. 0. 0.
      5.41133769e-02 0. 0. 0. 0. 0. 0. 0. 0. 0. 0. 0. 0. 0. 0. 0.
      2.70566884e-02 0. 0. 0. 2.70566884e-02 0. 0. 0. 2.70566884e-02 0.
      0. 0. 0. 0. 0. 0. 2.70566884e-02 1.62340134e-01 0. 0. 0. 0. 0. 0.
      2.70566884e-02 5.41133769e-02 0. 0. 0. 0. 0. 0. 0. 9.69262004e-01
      0. 4.97057438e-02 4.97057438e-02 2.48528719e-02 2.48528719e-02
      2.48528719e-02 7.45586157e-02 0. 2.48528719e-02 0. 0. 0. 0.
      2.48528719e-02 0. 0. 0. 0. 0. 0. 0. 0. 0. 7.45586157e-02 0. 0. 0.
      2.48528719e-02 0. 0. 0. 0. 0. 0. 0. 0. 0. 0. 0. 0. 0. 0. 0. 0. 0.
      0. 0. 0. 0. 0. 0. 0. 0. 0. 0. 0. 0. 0. 0. 0. 0. 0. 2.48528719e-02
      0. 0. 0. 0. 0. 0. 0. 0. 0. 0. 0. 0. 2.48528719e-02 0. 0. 0. 0. 0.
      0. 0. 0. 0. 0. 0. 0. 0. 0. 0. 0. 0. 0. 0. 0. 0. 0. 0. 0. 0. 0. 0.
      0. 0. 0. 0. 0. 0. 0. 0. 0. 0. 0. 0. 0. 0. 0. 4.97057438e-02
      7.45586157e-02 0. 0. 2.48528719e-02 0. 2.48528719e-02 0.
      2.48528719e-02 4.97057438e-02 0. 0. 4.97057438e-02 2.48528719e-02
      0. 0. 9.94114876e-02 2.48528719e-02 0. 0. 0. 2.48528719e-02 0.
      2.48528719e-02 2.48528719e-02 0. 0. 0. 0. 0. 0. 0. 0. 0. 0. 0.
      2.48528719e-02 0. 0. 0. 0. 0. 0. 0. 0. 0. 0. 0. 4.97057438e-02 0.
      0. 0. 0. 0. 0. 2.48528719e-02 0. 0. 0. 0. 0. 0. 2.48528719e-02 0.
      0. 0. 0. 0. 0. 0. 2.48528719e-02 0. 2.48528719e-02 0. 0. 0.
      2.48528719e-02 0. 0. 0. 2.48528719e-02 0. 2.48528719e-02 0. 0. 0.
      0. 0. 2.48528719e-02 0. 0. 0. 0. 0. 0. 0. 0. 2.48528719e-02 0. 0.
      0. 0. 0. 0. 0. 0. 0. 0. 0. 0. 0. 0. 0. 0. 0. 0. 0. 0. 0. 0.
      4.97057438e-02 0. 0. 0. 0. 0. 0. 0. 2.48528719e-02 0. 0. 0. 0. 0.
      0. 0. 0. 9.49029922e-01 7.69483745e-02 0. 0. 0. 0. 2.56494582e-02
      0. 0. 0. 0. 0. 0. 0. 0. 2.56494582e-02 0. 0. 0. 0. 0. 0. 0. 0.
      2.56494582e-02 0. 0. 0. 2.56494582e-02 0. 0. 0. 0. 0. 0.
      2.56494582e-02 0. 0. 0. 0. 0. 0. 0. 2.56494582e-02 0. 0. 0. 0. 0.
      0. 0. 0. 0. 0. 0. 0. 0. 0. 0. 0. 0. 0. 0. 0. 5.12989163e-02 0. 0.
      0. 0. 0. 0. 2.56494582e-02 0. 0. 0. 0. 0. 2.56494582e-02 0. 0. 0.
      0. 2.56494582e-02 0. 0. 0. 0. 0. 0. 0. 0. 0. 0. 0. 0. 0.
      2.56494582e-02 0. 0. 0. 0. 0. 0. 0. 2.56494582e-02 0. 0. 0. 0. 0.
      0. 0. 0. 0. 0. 2.56494582e-02 0. 0. 0. 0. 0. 5.12989163e-02 0. 0.
      0. 0. 0. 0. 0. 2.56494582e-02 0. 5.12989163e-02 0. 0.
      2.56494582e-02 1.79546207e-01 0. 0. 0. 0. 0. 0. 0. 7.69483745e-02
      0. 0. 0. 0. 0. 0. 0. 0. 0. 0. 0. 0. 0. 0. 0. 0. 0. 0. 0. 0. 0. 0.
      0. 0. 0. 0. 0. 0. 0. 0. 0. 7.69483745e-02 0. 0. 0. 0. 0. 0. 0. 0.
      0. 0. 0. 0. 2.56494582e-02 0. 0. 0. 0. 2.56494582e-02 0. 0. 0. 0.
      0. 7.69483745e-02 0. 0. 0. 0. 2.56494582e-02 0. 0. 0. 0. 0. 0. 0.
      0. 0. 0. 0. 0. 0. 0. 0. 0. 0. 0. 0. 5.12989163e-02 2.56494582e-02
      0. 0. 0. 0. 0. 0. 0. 0. 0. 0. 0. 0. 0. 2.56494582e-02
      2.56494582e-02 5.12989163e-02 0. 2.56494582e-02 2.56494582e-02 0.
      0. 2.56494582e-02 7.69483745e-02 2.56494582e-02 7.69483745e-02
      5.12989163e-02 0. 0. 0. 0. 9.73783553e-01 2.49688085e-02
      2.49688085e-02 0. 2.49688085e-02 0. 0. 0. 4.99376170e-02 0. 0. 0.
      0. 0. 0. 2.49688085e-02 0. 0. 0. 0. 0. 0. 0. 2.49688085e-02
      2.49688085e-02 0. 0. 0. 2.49688085e-02 0. 2.49688085e-02
      2.49688085e-02 2.49688085e-02 2.49688085e-02 0. 0. 0. 0. 0. 0. 0.
      0. 0. 0. 2.49688085e-02 0. 0. 0. 2.49688085e-02 0. 0. 0. 0. 0. 0.
      0. 2.49688085e-02 0. 0. 0. 0. 0. 2.49688085e-02 2.49688085e-02
      2.49688085e-02 0. 0. 0. 0. 0. 0. 0. 0. 0. 0. 0. 0. 0. 0. 0. 0. 0.
      0. 0. 0. 0. 0. 0. 0. 0. 0. 0. 0. 0. 0. 2.49688085e-02
      2.49688085e-02 0. 0. 0. 0. 0. 0. 0. 0. 0. 0. 0. 0. 0.
      2.49688085e-02 0. 4.99376170e-02 0. 0. 0. 0. 0. 0. 0.
      4.99376170e-02 0. 0. 0. 0. 0. 0. 2.49688085e-02 0. 0. 0. 0. 0. 0.
      0. 4.99376170e-02 2.49688085e-02 0. 0. 0. 0. 0. 0. 4.99376170e-02
      0. 2.49688085e-02 0. 0. 0. 0. 0. 2.49688085e-02 0. 0. 0. 0. 0. 0.
      0. 0. 2.49688085e-02 0. 0. 2.49688085e-02 0. 0. 0. 2.49688085e-02
      0. 0. 0. 0. 0. 0. 0. 4.99376170e-02 0. 0. 0. 0. 0. 0. 0. 0. 0. 0.
      0. 2.49688085e-02 0. 0. 0. 0. 0. 4.99376170e-02 0. 2.49688085e-02
      0. 0. 0. 4.99376170e-02 0. 0. 0. 0. 0. 0. 2.49688085e-02 0. 0. 0.
      0. 0. 0. 0. 0. 2.49688085e-02 0. 0. 0. 0. 0. 0. 2.49688085e-02 0.
      2.49688085e-02 0. 0. 0. 2.49688085e-02 0. 0. 0. 0. 0. 0. 0. 0. 0.
      0. 2.49688085e-02 0. 0. 0. 2.49688085e-02 0. 0. 0. 0.
      4.99376170e-02 7.49064237e-02 0. 2.49688085e-02 0. 0.
      2.49688085e-02 0. 9.70537961e-01 2.55404729e-02 5.10809459e-02 0.
      5.10809459e-02 0. 2.55404729e-02 0. 0. 0. 2.55404729e-02 0. 0. 0.
      0. 0. 0. 0. 2.55404729e-02 0. 0. 0. 0. 0. 5.10809459e-02 0. 0. 0.
      2.55404729e-02 0. 0. 2.55404729e-02 5.10809459e-02 0. 0.
      2.55404729e-02 0. 0. 0. 0. 0. 0. 0. 0. 0. 0. 0. 0. 0. 0. 0. 0. 0.
      0. 0. 0. 5.10809459e-02 0. 0. 2.55404729e-02 0. 0. 2.55404729e-02
      2.55404729e-02 0. 0. 2.55404729e-02 0. 0. 0. 2.55404729e-02 0. 0.
      0. 0. 0. 0. 0. 0. 0. 0. 0. 0. 0. 0. 0. 0. 0. 0. 0. 0. 0. 0. 0. 0.
      0. 0. 0. 0. 0. 0. 0. 0. 0. 2.55404729e-02 0. 0. 0. 0. 0. 0. 0. 0.
      0. 0. 2.55404729e-02 0. 0. 0. 2.55404729e-02 5.10809459e-02 0. 0.
      0. 5.10809459e-02 0. 0. 5.10809459e-02 0. 0. 5.10809459e-02
      2.55404729e-02 0. 0. 0. 5.10809459e-02 0. 0. 0. 0. 0. 0. 0.
      2.55404729e-02 2.55404729e-02 0. 0. 0. 2.55404729e-02 0. 0. 0. 0.
      0. 0. 0. 0. 2.55404729e-02 0. 5.10809459e-02 0. 0. 0. 0. 0. 0. 0.
      2.55404729e-02 0. 0. 2.55404729e-02 0. 0. 0. 0. 0. 0. 0. 0. 0. 0.
      0. 0. 0. 0. 0. 0. 0. 0. 0. 0. 0. 0. 0. 0. 2.55404729e-02 0. 0. 0.
      5.10809459e-02 0. 2.55404729e-02 0. 0. 0. 0. 0. 2.55404729e-02 0.
      0. 0. 0. 0. 0. 0. 0. 0. 0. 0. 0. 0. 0. 0. 5.10809459e-02 0. 0. 0.
      0. 0. 0. 0. 0. 0. 0. 0. 0. 0. 0. 0. 0. 0. 0. 0. 2.55404729e-02 0.
      0. 0. 7.66214207e-02 2.55404729e-02 0. 0. 2.55404729e-02 0. 0. 0.
      0. 9.64889765e-01 0. 2.53918357e-02 0. 0. 0. 0. 7.61755109e-02 0.
      0. 0. 2.53918357e-02 2.53918357e-02 2.53918357e-02 0.
      5.07836714e-02 0. 0. 0. 0. 0. 0. 0. 0. 2.53918357e-02 0. 0. 0.
      2.53918357e-02 0. 0. 0. 2.53918357e-02 0. 0. 0. 0. 0. 0. 0. 0. 0.
      0. 0. 0. 0. 0. 0. 0. 0. 0. 0. 0. 0. 0. 0. 0. 0. 0. 0. 0. 0. 0. 0.
      0. 0. 0. 0. 0. 0. 0. 2.53918357e-02 0. 0. 0. 0. 0. 0. 0.
      2.53918357e-02 0. 0. 0. 0. 0. 0. 0. 0. 0. 0. 0. 0. 0. 0. 0. 0. 0.
      0. 0. 0. 0. 0. 0. 0. 0. 0. 0. 0. 0. 0. 0. 5.07836714e-02 0. 0. 0.
      0. 0. 0. 0. 0. 0. 0. 0. 0. 0. 0. 0. 0. 7.61755109e-02
      2.53918357e-02 2.53918357e-02 5.07836714e-02 0. 0. 0.
      7.61755109e-02 0. 2.53918357e-02 0. 5.07836714e-02 0.
      5.07836714e-02 0. 7.61755109e-02 2.53918357e-02 0. 0. 0. 0. 0. 0.
      0. 0. 0. 0. 0. 0. 0. 2.53918357e-02 2.53918357e-02 0. 0. 0. 0. 0.
      0. 0. 0. 0. 0. 0. 2.53918357e-02 0. 0. 0. 0. 0. 0. 0. 0. 0. 0. 0.
      0. 0. 0. 0. 0. 0. 0. 0. 0. 0. 2.53918357e-02 0. 5.07836714e-02 0.
      0. 0. 0. 0. 0. 0. 0. 0. 2.53918357e-02 0. 2.53918357e-02 0. 0. 0.
      0. 0. 0. 0. 0. 0. 0. 0. 0. 0. 0. 0. 0. 5.07836714e-02 0. 0. 0. 0.
      0. 0. 7.61755109e-02 0. 0. 0. 0. 0. 0. 0. 0. 7.61755109e-02
      2.53918357e-02 0. 0. 0. 0. 0. 5.07836714e-02 2.53918357e-02 0. 0.
      0. 0. 0. 0. 0. 9.62410867e-01 2.53266022e-02 0. 0. 0.
      2.53266022e-02 0. 2.53266022e-02 0. 0. 0. 2.53266022e-02 0. 0. 0.
      2.53266022e-02 0. 0. 0. 0. 0. 0. 0. 0. 5.06532043e-02 0. 0. 0.
      2.53266022e-02 0. 0. 0. 2.53266022e-02 0. 0. 0. 0. 0. 0. 0. 0. 0.
      0. 0. 0. 0. 0. 0. 0. 0. 0. 2.53266022e-02 0. 0. 0. 0. 0. 0. 0. 0.
      0. 0. 0. 2.53266022e-02 0. 0. 2.53266022e-02 0. 0. 0. 0. 0. 0. 0.
      0. 0. 0. 0. 0. 0. 0. 0. 0. 0. 0. 0. 0. 0. 0. 0. 0. 0. 0. 0. 0. 0.
      2.53266022e-02 0. 0. 2.53266022e-02 0. 0. 0. 0. 0. 0. 0. 0. 0. 0.
      0. 2.53266022e-02 0. 0. 0. 0. 0. 0. 0. 0. 0. 0. 0. 0. 0. 0.
      2.53266022e-02 2.53266022e-02 7.59798065e-02 0. 5.06532043e-02
      2.53266022e-02 2.53266022e-02 0. 0. 1.01306409e-01 0.
      2.53266022e-02 0. 0. 0. 0. 0. 0. 0. 0. 0. 0. 0. 0. 0. 0. 0. 0. 0.
      0. 0. 0. 0. 0. 0. 0. 0. 2.53266022e-02 0. 0. 0. 0. 0. 0. 0.
      2.53266022e-02 0. 0. 0. 0. 0. 0. 0. 0. 0. 0. 0. 2.53266022e-02 0.
      0. 0. 0. 0. 0. 0. 0. 2.53266022e-02 0. 0. 1.01306409e-01 0. 0. 0.
      5.06532043e-02 0. 2.53266022e-02 0. 0. 0. 0. 0. 7.59798065e-02 0.
      0. 0. 0. 0. 2.53266022e-02 0. 2.53266022e-02 0. 0. 0. 0. 0. 0. 0.
      2.53266022e-02 0. 5.06532043e-02 0. 2.53266022e-02 0. 0. 0.
      7.59798065e-02 0. 0. 0. 0. 0. 0. 0. 5.06532043e-02 0.
      5.06532043e-02 0. 0. 0. 0. 2.53266022e-02 5.06532043e-02 0. 0. 0.
      0. 0. 0. 0. 0. 9.60085332e-01 2.66690366e-02 0. 5.33380732e-02 0.
      0. 0. 2.66690366e-02 0. 2.66690366e-02 0. 0. 0. 2.66690366e-02 0.
      0. 2.66690366e-02 0. 0. 0. 0. 0. 0. 0. 2.66690366e-02 0. 0. 0.
      5.33380732e-02 0. 0. 0. 2.66690366e-02 0. 0. 0. 0. 0. 0. 0. 0. 0.
      0. 0. 2.66690366e-02 0. 0. 0. 0. 0. 0. 0. 0. 0. 0. 0. 0. 0. 0. 0.
      0. 0. 0. 0. 0. 2.66690366e-02 2.66690366e-02 0. 0. 0. 0. 0. 0. 0.
      0. 0. 0. 0. 0. 0. 0. 0. 0. 0. 0. 0. 0. 2.66690366e-02 0. 0. 0. 0.
      0. 0. 0. 0. 0. 0. 0. 0. 0. 0. 0. 0. 0. 0. 0. 0. 0. 0. 0. 0.
      2.66690366e-02 0. 0. 0. 0. 0. 0. 0. 2.66690366e-02 0. 0. 0. 0. 0.
      0. 2.66690366e-02 5.33380732e-02 5.33380732e-02 0. 8.00071061e-02
      0. 0. 0. 0. 0. 0. 0. 2.66690366e-02 0. 0. 0. 2.66690366e-02 0. 0.
      0. 0. 0. 0. 0. 0. 0. 0. 0. 0. 0. 0. 0. 0. 2.66690366e-02 0. 0. 0.
      0. 0. 0. 0. 0. 0. 0. 0. 0. 0. 0. 0. 0. 2.66690366e-02 0. 0. 0. 0.
      0. 0. 0. 2.66690366e-02 0. 0. 0. 0. 0. 2.66690366e-02 0.
      5.33380732e-02 0. 2.66690366e-02 2.66690366e-02 0. 5.33380732e-02
      5.33380732e-02 0. 0. 0. 0. 0. 0. 0. 0. 0. 0. 0. 2.66690366e-02 0.
      0. 0. 0. 0. 2.66690366e-02 0. 0. 0. 0. 0. 0. 0. 0. 0.
      1.60014212e-01 0. 0. 0. 2.66690366e-02 2.66690366e-02 0. 0.
      2.66690366e-02 2.66690366e-02 0. 0. 2.66690366e-02 2.66690366e-02
      2.66690366e-02 0. 2.66690366e-02 0. 0. 0. 2.66690366e-02
      2.66690366e-02 0. 0. 2.66690366e-02 2.66690366e-02 2.66690366e-02
      0. 0. 9.74259377e-01 0. 0. 0. 0. 0. 2.37624235e-02 0. 0. 0.
      2.37624235e-02 0. 2.37624235e-02 0. 0. 0. 0. 0. 0. 0.
      4.75248471e-02 0. 0. 0. 2.37624235e-02 0. 0. 0. 4.75248471e-02 0.
      4.75248471e-02 0. 2.37624235e-02 0. 0. 0. 0. 0. 0. 0.
      2.37624235e-02 4.75248471e-02 0. 0. 0. 0. 0. 0. 0. 0. 0. 0. 0. 0.
      0. 0. 0. 0. 0. 0. 0. 0. 7.12872744e-02 2.37624235e-02
      2.37624235e-02 2.37624235e-02 0. 0. 0. 0. 0. 0. 0. 0. 0. 0. 0. 0.
      0. 0. 0. 0. 0. 0. 0. 0. 0. 0. 0. 0. 0. 0. 0. 0. 0. 0. 0.
      2.37624235e-02 0. 2.37624235e-02 0. 0. 0. 0. 0. 2.37624235e-02 0.
      2.37624235e-02 0. 0. 0. 0. 0. 0. 0. 0. 0. 0. 0. 0. 2.37624235e-02
      0. 0. 0. 0. 0. 0. 0. 4.75248471e-02 0. 2.37624235e-02 0. 0. 0. 0.
      0. 2.37624235e-02 0. 0. 0. 2.37624235e-02 0. 0. 0. 0. 0. 0. 0. 0.
      0. 0. 0. 0. 0. 0. 0. 0. 0. 0. 0. 0. 0. 0. 0. 0. 0. 0. 0. 0. 0. 0.
      0. 0. 0. 0. 0. 0. 0. 0. 0. 0. 0. 0. 4.75248471e-02 0. 0. 0. 0. 0.
      0. 0. 2.37624235e-02 2.37624235e-02 0. 0. 2.37624235e-02
      2.37624235e-02 0. 2.37624235e-02 4.75248471e-02 0. 2.37624235e-02
      0. 4.75248471e-02 0. 0. 0. 0. 0. 0. 0. 0. 0. 0. 0. 0. 0.
      2.37624235e-02 0. 0. 0. 0. 0. 2.37624235e-02 2.37624235e-02 0. 0.
      7.12872744e-02 0. 0. 0. 0. 0. 0. 0. 0. 0. 0. 0. 0. 0. 0.
      2.37624235e-02 4.75248471e-02 0. 0. 0. 4.75248471e-02 0.
      4.75248471e-02 0. 2.37624235e-02 0. 0. 0. 0. 9.59822834e-01 0.
      4.92216833e-02 2.46108416e-02 2.46108416e-02 0. 2.46108416e-02
      2.46108416e-02 0. 0. 0. 0. 0. 0. 0. 0. 0. 0. 0. 0. 0. 0. 0.
      2.46108416e-02 2.46108416e-02 0. 0. 0. 4.92216833e-02 0. 0. 0.
      2.46108416e-02 0. 0. 0. 0. 0. 0. 0. 0. 0. 0. 0. 0. 0. 0. 0. 0. 0.
      0. 0. 0. 0. 0. 0. 2.46108416e-02 2.46108416e-02 0. 0.
      2.46108416e-02 0. 0. 0. 0. 0. 0. 0. 2.46108416e-02 0. 0. 0. 0. 0.
      0. 0. 0. 0. 0. 2.46108416e-02 0. 0. 0. 0. 0. 0. 0. 0. 0. 0. 0. 0.
      0. 0. 0. 0. 0. 0. 0. 0. 0. 0. 0. 0. 2.46108416e-02 0. 0.
      2.46108416e-02 0. 0. 0. 0. 0. 0. 0. 0. 0. 0. 0. 0. 0. 0. 0. 0. 0.
      0. 2.46108416e-02 2.46108416e-02 2.46108416e-02 2.46108416e-02
      2.46108416e-02 9.84433666e-02 0. 0. 2.46108416e-02 9.84433666e-02
      0. 0. 0. 0. 0. 0. 0. 0. 0. 0. 0. 0. 0. 0. 0. 2.46108416e-02 0. 0.
      0. 2.46108416e-02 0. 0. 0. 0. 0. 0. 0. 0. 0. 0. 0. 0. 0. 0. 0. 0.
      0. 0. 0. 0. 0. 0. 0. 0. 0. 0. 0. 0. 0. 0. 0. 0. 0. 0. 0. 0. 0.
      4.92216833e-02 2.46108416e-02 1.23054206e-01 0. 0. 0.
      9.84433666e-02 0. 0. 0. 0. 0. 0. 0. 7.38325268e-02 0. 0. 0.
      2.46108416e-02 0. 0. 0. 0. 0. 0. 0. 0. 0. 0. 0. 2.46108416e-02 0.
      0. 0. 4.92216833e-02 2.46108416e-02 0. 0. 4.92216833e-02 0. 0. 0.
      0. 0. 0. 0. 2.46108416e-02 0. 0. 0. 0. 0. 0. 0. 2.46108416e-02 0.
      0. 0. 0. 0. 0. 0. 0.</_>
    <_>
      8.68680477e-01 0. 0. 0. 0. 0. 2.71462649e-02 2.71462649e-02
      2.71462649e-02 0. 0. 0. 0. 0. 5.42925298e-02 2.98608899e-01 0. 0.
      0. 0. 0. 0. 0. 0. 0. 0. 0. 0. 0. 0. 0. 1.35731325e-01 0. 0. 0. 0.
      0. 0. 0. 0. 0. 0. 0. 0. 0. 0. 0. 0. 2.71462649e-02 0. 0. 0. 0. 0.
      0. 0. 0. 2.71462649e-02 0. 0. 0. 0. 0. 2.71462649e-02 0. 0. 0. 0.
      0. 0. 0. 0. 0. 0. 0. 0. 0. 0. 0. 8.14387947e-02 0. 0. 0. 0. 0. 0.
      0. 0. 0. 0. 0. 0. 0. 0. 0. 0. 0. 0. 0. 0. 0. 0. 0. 0. 0. 0. 0. 0.
      0. 0. 0. 2.71462649e-02 0. 0. 0. 0. 0. 0. 0. 0. 0. 0. 0.
      2.71462649e-02 2.71462649e-02 0. 2.71462649e-02 1.08585060e-01
      2.71462649e-02 2.71462649e-02 0. 2.71462649e-02 0. 0. 0.
      2.71462649e-02 0. 0. 0. 0. 0. 0. 0. 8.14387947e-02 0. 0. 0. 0. 0.
      0. 0. 0. 2.71462649e-02 0. 0. 0. 0. 0. 0. 0. 0. 0. 0. 0. 0. 0. 0.
      0. 2.71462649e-02 0. 0. 0. 0. 0. 2.71462649e-02 0. 0. 0. 0. 0. 0.
      0. 0. 0. 0. 0. 0. 0. 0. 0. 0. 0. 0. 0. 0. 0. 0. 0. 0. 0. 0. 0. 0.
      0. 0. 0. 0. 0. 0. 0. 0. 0. 0. 0. 0. 0. 2.71462649e-02 0. 0. 0. 0.
      0. 0. 2.71462649e-02 2.71462649e-02 0. 0. 0. 0. 0. 0. 0. 0. 0. 0.
      0. 0. 0. 0. 2.71462649e-02 2.98608899e-01 0. 0. 0. 0. 0.
      5.42925298e-02 2.71462649e-02 0. 0. 0. 0. 2.71462649e-02 0.
      2.71462649e-02 0. 9.44567025e-01 0. 0. 0. 2.69876290e-02 0.
      2.69876290e-02 8.09628889e-02 2.69876290e-02 0. 0. 0.
      5.39752580e-02 2.69876290e-02 5.39752580e-02 1.88913405e-01 0. 0.
      0. 0. 0. 0. 0. 0. 2.69876290e-02 0. 0. 0. 0. 0. 5.39752580e-02 0.
      2.69876290e-02 0. 0. 0. 0. 0. 0. 0. 0. 0. 0. 0. 0. 0. 0.
      2.69876290e-02 0. 0. 0. 0. 0. 0. 0. 0. 0. 0. 0. 0. 5.39752580e-02
      0. 0. 5.39752580e-02 0. 0. 0. 0. 0. 0. 0. 0. 0. 0. 0. 0. 0. 0. 0.
      2.69876290e-02 0. 0. 0. 0. 0. 0. 0. 0. 0. 0. 0. 0. 0. 0. 0. 0. 0.
      0. 0. 0. 0. 0. 0. 2.69876290e-02 0. 0. 0. 0. 0. 0. 0. 0. 0. 0. 0.
      0. 0. 0. 0. 0. 0. 0. 0. 0. 0. 0. 0. 8.09628889e-02 2.69876290e-02
      2.69876290e-02 0. 8.09628889e-02 0. 0. 0. 8.09628889e-02 0. 0. 0.
      2.69876290e-02 0. 2.69876290e-02 0. 8.09628889e-02 0.
      2.69876290e-02 0. 0. 0. 0. 0. 2.69876290e-02 0. 0. 0. 0. 0. 0. 0.
      5.39752580e-02 0. 0. 0. 0. 0. 0. 0. 0. 0. 0. 0. 0. 0. 0. 0. 0. 0.
      0. 0. 0. 0. 0. 0. 0. 0. 0. 0. 0. 2.69876290e-02 2.69876290e-02 0.
      2.69876290e-02 0. 0. 0. 2.69876290e-02 0. 0. 0. 2.69876290e-02 0.
      0. 0. 0. 0. 0. 0. 2.69876290e-02 0. 0. 0. 0. 0. 0. 0. 0. 0. 0. 0.
      0. 0. 0. 0. 2.69876290e-02 0. 0. 0. 0. 0. 0. 0. 2.69876290e-02 0.
      0. 0. 0. 0. 0. 0. 5.39752580e-02 2.69876290e-02 2.69876290e-02 0.
      0. 0. 0. 0. 2.69876290e-02 0. 0. 0. 0. 0. 0. 0. 0. 9.34260607e-01
      0. 6.02748767e-02 0. 3.01374383e-02 3.01374383e-02 0.
      1.20549753e-01 0. 0. 0. 3.01374383e-02 3.01374383e-02 0.
      6.02748767e-02 1.50687188e-01 3.01374383e-02 0. 3.01374383e-02 0.
      0. 0. 0. 0. 0. 0. 0. 0. 0. 0. 3.01374383e-02 6.02748767e-02 0. 0.
      0. 3.01374383e-02 0. 0. 0. 0. 3.01374383e-02 0. 0. 0. 0. 0. 0. 0.
      0. 0. 0. 0. 0. 0. 0. 0. 0. 0. 0. 0. 0. 0. 3.01374383e-02
      3.01374383e-02 3.01374383e-02 0. 0. 0. 0. 0. 0. 0. 0. 0. 0. 0. 0.
      0. 0. 3.01374383e-02 0. 0. 0. 0. 0. 0. 0. 0. 0. 0. 0. 0. 0. 0. 0.
      0. 0. 0. 0. 0. 0. 0. 0. 0. 0. 0. 0. 0. 0. 0. 0. 0. 3.01374383e-02
      0. 0. 0. 0. 0. 0. 0. 6.02748767e-02 0. 0. 0. 3.01374383e-02 0. 0.
      3.01374383e-02 0. 0. 0. 9.04123187e-02 0. 0. 0. 1.20549753e-01 0.
      0. 0. 0. 0. 0. 0. 6.02748767e-02 3.01374383e-02 0. 0. 0. 0. 0. 0.
      0. 0. 0. 0. 0. 0. 0. 0. 3.01374383e-02 0. 0. 0. 0. 0. 0. 0. 0.
      3.01374383e-02 0. 0. 0. 0. 0. 3.01374383e-02 0. 0. 0. 0. 0. 0. 0.
      0. 3.01374383e-02 0. 0. 0. 0. 0. 0. 3.01374383e-02 0.
      3.01374383e-02 3.01374383e-02 0. 0. 0. 0. 0. 0. 3.01374383e-02 0.
      0. 0. 0. 3.01374383e-02 0. 1.20549753e-01 0. 0. 0. 0. 0. 0. 0. 0.
      3.01374383e-02 0. 0. 0. 0. 0. 0. 3.01374383e-02 3.01374383e-02 0.
      0. 3.01374383e-02 0. 0. 0. 0. 0. 0. 0. 3.01374383e-02 0. 0. 0.
      3.01374383e-02 3.01374383e-02 0. 0. 0. 0. 0. 0. 0. 6.02748767e-02
      0. 0. 0. 0. 3.01374383e-02 0. 0. 9.38272715e-01 0. 0. 0.
      2.84325071e-02 0. 2.84325071e-02 2.84325071e-02 1.42162532e-01 0.
      0. 2.84325071e-02 5.68650141e-02 0. 0. 1.13730028e-01 0. 0. 0. 0.
      0. 0. 0. 0. 2.84325071e-02 0. 2.84325071e-02 0. 2.84325071e-02
      2.84325071e-02 0. 0. 2.84325071e-02 0. 0. 0. 0. 0. 0. 0. 0. 0. 0.
      0. 0. 0. 0. 0. 0. 0. 0. 0. 0. 0. 0. 2.84325071e-02 0. 0. 0. 0. 0.
      2.84325071e-02 2.84325071e-02 0. 0. 0. 0. 0. 0. 0. 2.84325071e-02
      0. 0. 0. 0. 0. 0. 0. 0. 0. 0. 0. 0. 0. 0. 0. 0. 0. 0. 0. 0. 0. 0.
      0. 0. 0. 0. 0. 0. 0. 0. 0. 0. 0. 0. 0. 0. 0. 0. 0. 0. 0. 0. 0. 0.
      0. 0. 0. 0. 0. 1.42162532e-01 0. 0. 0. 2.84325071e-02 0.
      2.84325071e-02 8.52975249e-02 5.68650141e-02 2.84325071e-02 0. 0.
      0. 2.84325071e-02 0. 8.52975249e-02 0. 0. 0. 0. 2.84325071e-02 0.
      0. 5.68650141e-02 0. 0. 0. 0. 0. 0. 0. 0. 0. 0. 0. 0.
      2.84325071e-02 0. 0. 0. 0. 0. 0. 0. 0. 0. 0. 0. 0. 0. 0. 0. 0. 0.
      0. 0. 0. 2.84325071e-02 0. 0. 0. 0. 0. 2.84325071e-02 0. 0. 0. 0.
      5.68650141e-02 0. 2.84325071e-02 0. 0. 0. 0. 0. 0. 0. 0. 0. 0. 0.
      0. 0. 0. 0. 0. 0. 0. 0. 0. 0. 0. 0. 0. 0. 0. 0. 0. 0. 0. 0. 0.
      2.84325071e-02 0. 0. 0. 0. 0. 0. 0. 0. 0. 0. 0. 0. 2.84325071e-02
      0. 0. 2.84325071e-02 0. 0. 0. 0. 0. 0. 0. 1.13730028e-01
      2.84325071e-02 0. 0. 2.84325071e-02 2.84325071e-02 0.
      5.68650141e-02 0. 9.39793408e-01 0. 0. 2.84785889e-02 0. 0. 0.
      5.69571778e-02 5.69571778e-02 0. 2.84785889e-02 0. 0. 0. 0. 0. 0.
      0. 0. 0. 0. 0. 0. 0. 0. 0. 0. 0. 0. 0. 0. 0. 0. 0. 0. 0. 0. 0. 0.
      0. 0. 0. 0. 0. 0. 0. 0. 0. 0. 0. 0. 2.84785889e-02 0. 0. 0. 0. 0.
      0. 0. 2.84785889e-02 0. 0. 0. 0. 0. 0. 0. 0. 0. 0. 0. 0.
      2.84785889e-02 0. 0. 0. 0. 0. 0. 2.84785889e-02 0. 0. 0. 0. 0. 0.
      0. 0. 0. 0. 0. 0. 0. 0. 0. 0. 0. 0. 0. 0. 0. 0. 0. 0. 0. 0. 0. 0.
      0. 0. 0. 0. 0. 0. 0. 2.84785889e-02 0. 0. 0. 2.84785889e-02
      5.69571778e-02 2.84785889e-02 0. 2.84785889e-02 0. 0.
      2.84785889e-02 1.13914356e-01 2.84785889e-02 2.84785889e-02 0.
      2.84785889e-02 2.84785889e-02 0. 2.84785889e-02 2.27828711e-01
      2.84785889e-02 0. 0. 0. 5.69571778e-02 0. 0. 5.69571778e-02 0. 0.
      0. 0. 0. 2.84785889e-02 0. 2.84785889e-02 0. 0. 0. 0. 0. 0. 0.
      2.84785889e-02 0. 0. 0. 0. 0. 0. 0. 0. 2.84785889e-02 0. 0. 0. 0.
      0. 2.84785889e-02 0. 0. 0. 0. 2.84785889e-02 0. 0. 2.84785889e-02
      0. 0. 0. 0. 0. 0. 0. 0. 0. 2.84785889e-02 0. 0. 0. 0. 0. 0. 0. 0.
      0. 0. 0. 0. 0. 0. 0. 0. 0. 0. 0. 0. 0. 0. 0. 2.84785889e-02 0. 0.
      0. 0. 0. 0. 0. 2.84785889e-02 0. 0. 2.84785889e-02 0. 0. 0.
      2.84785889e-02 0. 0. 0. 0. 0. 2.84785889e-02 0. 0. 5.69571778e-02
      0. 0. 0. 0. 0. 0. 5.69571778e-02 5.69571778e-02 2.84785889e-02 0.
      2.84785889e-02 0. 0. 0. 0. 9.55946624e-01 0. 0. 0. 2.81160772e-02
      0. 2.81160772e-02 2.81160772e-02 2.81160772e-02 0. 2.81160772e-02
      2.81160772e-02 8.43482316e-02 0. 2.81160772e-02 5.62321544e-02
      2.81160772e-02 0. 0. 0. 0. 0. 0. 0. 2.81160772e-02 0. 0. 0. 0. 0.
      0. 1.40580386e-01 2.81160772e-02 0. 0. 0. 0. 0. 0. 0. 0. 0. 0. 0.
      0. 0. 0. 0. 2.81160772e-02 0. 0. 2.81160772e-02 0. 0. 0. 0.
      2.81160772e-02 0. 0. 2.81160772e-02 0. 0. 2.81160772e-02
      2.81160772e-02 2.81160772e-02 0. 0. 0. 0. 0. 0. 0. 0. 0. 0. 0. 0.
      0. 0. 2.81160772e-02 0. 0. 0. 0. 0. 0. 0. 0. 0. 0. 0. 0. 0. 0. 0.
      0. 0. 0. 0. 0. 0. 0. 0. 0. 0. 0. 2.81160772e-02 0. 0. 0. 0. 0.
      2.81160772e-02 0. 0. 0. 0. 0. 0. 0. 0. 0. 0. 0. 8.43482316e-02 0.
      2.81160772e-02 8.43482316e-02 2.81160772e-02 0. 0. 0. 0. 0. 0.
      5.62321544e-02 0. 2.81160772e-02 0. 0. 0. 0. 0. 2.81160772e-02 0.
      0. 0. 0. 0. 0. 0. 0. 0. 0. 0. 0. 0. 0. 0. 0. 0. 0. 0. 0. 0. 0. 0.
      0. 0. 0. 0. 0. 0. 0. 0. 0. 0. 0. 0. 0. 0. 0. 0. 2.81160772e-02 0.
      0. 0. 0. 2.81160772e-02 0. 0. 2.81160772e-02 0. 2.81160772e-02 0.
      0. 0. 0. 0. 2.81160772e-02 0. 0. 0. 0. 0. 0. 0. 2.81160772e-02 0.
      0. 0. 0. 0. 0. 0. 0. 0. 0. 0. 0. 2.81160772e-02 0. 0.
      2.81160772e-02 2.81160772e-02 2.81160772e-02 0. 0. 0. 0. 0.
      2.81160772e-02 0. 0. 0. 0. 0. 0. 0. 2.81160772e-02 5.62321544e-02
      2.81160772e-02 0. 2.81160772e-02 0. 0. 0. 0. 5.62321544e-02 0. 0.
      2.81160772e-02 2.81160772e-02 0. 2.81160772e-02 0. 9.49075520e-01
      0. 0. 0. 0. 0. 2.87598651e-02 2.87598651e-02 0. 0. 0. 0.
      2.87598651e-02 2.87598651e-02 0. 2.87598651e-02 0. 0. 0. 0. 0. 0.
      0. 0. 0. 0. 0. 0. 0. 0. 8.62795934e-02 2.87598651e-02 0. 0. 0.
      2.87598651e-02 0. 0. 0. 0. 0. 2.87598651e-02 0. 0. 0. 0. 0. 0. 0.
      0. 0. 0. 0. 0. 0. 0. 0. 0. 0. 0. 0. 0. 2.87598651e-02
      1.15039460e-01 2.87598651e-02 0. 0. 0. 0. 0. 0. 0. 0. 0. 0. 0. 0.
      0. 0. 2.87598651e-02 0. 0. 0. 0. 0. 0. 0. 0. 2.87598651e-02 0. 0.
      0. 0. 0. 0. 0. 2.87598651e-02 0. 0. 0. 0. 0. 0. 0. 0. 0. 0. 0. 0.
      0. 0. 0. 0. 0. 0. 2.87598651e-02 0. 0. 0. 0. 0. 0. 0. 0. 0. 0.
      5.75197302e-02 8.62795934e-02 5.75197302e-02 0. 0. 0. 0. 0. 0.
      1.15039460e-01 2.87598651e-02 0. 0. 0. 0. 0. 0. 2.87598651e-02 0.
      0. 0. 0. 2.87598651e-02 0. 0. 2.87598651e-02 0. 0. 0. 0. 0. 0. 0.
      8.62795934e-02 2.87598651e-02 0. 0. 0. 0. 0. 0. 0. 2.87598651e-02
      0. 0. 0. 0. 0. 2.87598651e-02 0. 0. 0. 0. 0. 0. 0. 0.
      2.87598651e-02 0. 0. 0. 0. 0. 0. 0. 2.87598651e-02 0. 0. 0. 0. 0.
      0. 2.87598651e-02 0. 2.87598651e-02 0. 0. 0. 0. 0. 0.
      2.87598651e-02 0. 0. 0. 0. 0. 0. 0. 0. 2.87598651e-02 0. 0. 0. 0.
      0. 0. 0. 2.87598651e-02 0. 0. 0. 2.87598651e-02 0. 0. 0. 0. 0. 0.
      0. 0. 0. 0. 0. 0. 8.62795934e-02 0. 2.87598651e-02 0. 0. 0.
      8.62795934e-02 2.87598651e-02 2.87598651e-02 0. 2.87598651e-02
      2.87598651e-02 0. 2.87598651e-02 0. 9.69996631e-01 0. 0. 0.
      2.62161251e-02 0. 5.24322502e-02 5.24322502e-02 2.62161251e-02 0.
      0. 0. 2.62161251e-02 0. 2.62161251e-02 0. 0. 0. 0. 0. 0. 0.
      2.62161251e-02 0. 0. 0. 0. 0. 0. 0. 0. 0. 2.62161251e-02 0. 0. 0.
      0. 0. 0. 2.62161251e-02 2.62161251e-02 2.62161251e-02 0. 0. 0. 0.
      0. 0. 0. 0. 0. 0. 0. 0. 0. 0. 0. 2.62161251e-02 0. 0. 0. 0.
      2.62161251e-02 2.62161251e-02 2.62161251e-02 0. 0. 0. 0. 0. 0. 0.
      2.62161251e-02 0. 0. 0. 0. 0. 0. 0. 0. 0. 0. 0. 0. 0. 0. 0. 0. 0.
      0. 0. 0. 0. 0. 0. 0. 0. 2.62161251e-02 0. 0. 0. 0. 0. 0. 0. 0. 0.
      0. 0. 0. 0. 0. 0. 0. 0. 0. 0. 0. 2.62161251e-02 2.62161251e-02
      2.62161251e-02 0. 0. 0. 0. 2.62161251e-02 2.62161251e-02
      5.24322502e-02 0. 0. 0. 0. 0. 5.24322502e-02 2.62161251e-02
      2.62161251e-02 0. 0. 0. 2.62161251e-02 0. 0. 0. 0. 0. 0. 0. 0. 0.
      0. 0. 0. 0. 0. 0. 0. 0. 0. 1.04864500e-01 0. 0. 0. 0. 0. 0. 0. 0.
      0. 0. 0. 0. 0. 0. 0. 0. 0. 0. 0. 2.62161251e-02 0. 0. 0. 0. 0. 0.
      0. 2.62161251e-02 2.62161251e-02 0. 0. 0. 5.24322502e-02 0. 0. 0.
      0. 0. 0. 2.62161251e-02 0. 0. 0. 0. 0. 0. 0. 0. 0. 0. 0. 0. 0. 0.
      0. 2.62161251e-02 5.24322502e-02 0. 0. 0. 0. 0. 0. 2.62161251e-02
      0. 5.24322502e-02 0. 0. 0. 0. 0. 0. 0. 0. 0. 0. 0. 0. 0.
      5.24322502e-02 2.62161251e-02 0. 0. 0. 0. 0. 2.62161251e-02 0.
      5.24322502e-02 2.62161251e-02 0. 2.62161251e-02 0. 2.62161251e-02
      0. 0. 9.53422844e-01 0. 0. 0. 0. 0. 0. 8.66748020e-02
      5.77832013e-02 0. 0. 0. 2.88916007e-02 0. 8.66748020e-02 0.
      2.88916007e-02 0. 0. 0. 0. 0. 0. 0. 5.77832013e-02 0. 0. 0. 0. 0.
      0. 0. 0. 0. 0. 0. 0. 0. 0. 2.88916007e-02 0. 0. 0. 0. 0. 0. 0.
      2.88916007e-02 2.88916007e-02 0. 0. 0. 0. 0. 0. 0. 8.66748020e-02
      0. 0. 0. 5.77832013e-02 0. 2.88916007e-02 2.88916007e-02 0. 0. 0.
      0. 0. 0. 0. 0. 0. 0. 0. 0. 0. 0. 0. 2.88916007e-02 0. 0. 0. 0. 0.
      0. 0. 0. 0. 0. 0. 0. 0. 0. 2.88916007e-02 0. 2.88916007e-02 0. 0.
      0. 0. 0. 0. 0. 2.88916007e-02 0. 0. 0. 0. 0. 0. 0. 0. 0. 0. 0. 0.
      0. 0. 0. 2.88916007e-02 2.88916007e-02 0. 2.88916007e-02
      2.88916007e-02 0. 0. 1.44457996e-01 2.88916007e-02 0. 0.
      2.88916007e-02 0. 0. 0. 2.88916007e-02 0. 0. 0. 0. 0.
      2.88916007e-02 2.88916007e-02 2.88916007e-02 0. 0. 0. 0. 0.
      2.88916007e-02 0. 0. 0. 0. 0. 0. 0. 0. 2.88916007e-02 0. 0. 0. 0.
      0. 0. 0. 0. 0. 2.88916007e-02 0. 0. 0. 0. 0. 2.88916007e-02 0. 0.
      0. 0. 0. 0. 0. 0. 2.88916007e-02 0. 0. 0. 0. 2.88916007e-02 0.
      2.88916007e-02 2.88916007e-02 2.88916007e-02 0. 0. 0. 0. 0. 0. 0.
      2.88916007e-02 0. 0. 0. 0. 0. 0. 5.77832013e-02 0. 0. 0. 0. 0. 0.
      0. 0. 2.88916007e-02 0. 0. 0. 2.88916007e-02 0. 2.88916007e-02 0.
      0. 0. 0. 0. 0. 0. 0. 0. 0. 0. 0. 0. 0. 0. 0. 0. 2.88916007e-02 0.
      0. 0. 0. 0. 2.88916007e-02 5.77832013e-02 0. 0. 0. 0. 0. 0.
      2.88916007e-02 0. 9.54333246e-01 0. 0. 0. 5.30185141e-02 0. 0.
      2.65092570e-02 0. 0. 0. 0. 5.30185141e-02 0. 0. 0. 0. 0. 0. 0. 0.
      0. 0. 0. 2.65092570e-02 0. 0. 0. 0. 0. 0. 0. 2.65092570e-02 0. 0.
      0. 0. 0. 0. 0. 0. 0. 0. 0. 2.65092570e-02 0. 0. 0. 0. 0. 0. 0. 0.
      0. 0. 0. 1.06037028e-01 0. 0. 2.65092570e-02 0. 0. 2.65092570e-02
      0. 5.30185141e-02 0. 0. 0. 0. 0. 0. 0. 0. 0. 0. 0. 0. 0. 0. 0. 0.
      0. 0. 0. 0. 0. 0. 0. 0. 0. 0. 0. 0. 0. 0. 0. 0. 0. 0. 0. 0. 0. 0.
      0. 2.65092570e-02 2.65092570e-02 0. 0. 0. 0. 0. 0. 0. 0. 0.
      2.65092570e-02 0. 0. 0. 0. 5.30185141e-02 2.65092570e-02 0. 0.
      2.65092570e-02 0. 0. 2.65092570e-02 5.30185141e-02 2.65092570e-02
      0. 2.65092570e-02 0. 0. 0. 1.59055546e-01 2.65092570e-02 0. 0. 0.
      0. 0. 0. 2.65092570e-02 0. 0. 0. 0. 0. 0. 0. 0. 2.65092570e-02 0.
      0. 0. 0. 0. 0. 0. 0. 0. 0. 0. 0. 0. 0. 0. 0. 0. 0. 0. 0. 0. 0. 0.
      2.65092570e-02 0. 0. 0. 0. 0. 0. 2.65092570e-02 0. 0. 0. 0.
      2.65092570e-02 0. 0. 0. 0. 2.65092570e-02 0. 0. 0. 0. 0. 0.
      2.65092570e-02 0. 0. 0. 0. 0. 0. 2.65092570e-02 0. 0. 0. 0. 0. 0.
      0. 0. 0. 0. 0. 0. 0. 0. 0. 2.65092570e-02 0. 0. 0. 5.30185141e-02
      0. 0. 0. 5.30185141e-02 0. 0. 0. 0. 0. 0. 0. 2.65092570e-02
      2.65092570e-02 2.65092570e-02 0. 2.65092570e-02 0. 0. 0.
      1.06037028e-01 0. 2.65092570e-02 0. 0. 2.65092570e-02
      2.65092570e-02 0. 0. 9.41557944e-01 0. 0. 3.03728376e-02 0. 0.
      6.07456751e-02 3.03728376e-02 9.11185145e-02 0. 0. 3.03728376e-02
      6.07456751e-02 0. 6.07456751e-02 3.03728376e-02 3.03728376e-02 0.
      0. 0. 0. 0. 0. 0. 0. 0. 0. 0. 0. 0. 6.07456751e-02 6.07456751e-02
      0. 0. 0. 0. 0. 0. 0. 0. 0. 0. 0. 0. 0. 0. 0. 6.07456751e-02 0. 0.
      0. 0. 0. 0. 0. 0. 3.03728376e-02 0. 0. 0. 0. 0. 0. 6.07456751e-02
      0. 0. 0. 0. 0. 0. 0. 0. 0. 0. 0. 0. 0. 0. 3.03728376e-02
      3.03728376e-02 0. 0. 0. 0. 0. 0. 0. 0. 0. 0. 0. 0. 0. 0. 0.
      3.03728376e-02 0. 0. 0. 0. 0. 0. 0. 0. 0. 0. 0. 0. 0. 0. 0.
      3.03728376e-02 0. 0. 0. 0. 0. 0. 3.03728376e-02 0. 3.03728376e-02
      0. 0. 0. 3.03728376e-02 0. 0. 9.11185145e-02 6.07456751e-02 0. 0.
      3.03728376e-02 3.03728376e-02 0. 3.03728376e-02 3.03728376e-02 0.
      0. 3.03728376e-02 3.03728376e-02 0. 3.03728376e-02 0.
      3.03728376e-02 3.03728376e-02 0. 0. 0. 0. 0. 0. 0. 0. 0. 0. 0. 0.
      0. 0. 6.07456751e-02 0. 0. 0. 0. 0. 0. 0. 0. 3.03728376e-02 0. 0.
      0. 0. 0. 3.03728376e-02 0. 0. 0. 0. 0. 0. 0. 0. 0. 0.
      3.03728376e-02 0. 0. 0. 0. 3.03728376e-02 0. 0. 0. 0. 0. 0. 0. 0.
      3.03728376e-02 0. 0. 0. 0. 0. 0. 0. 0. 0. 0. 0. 0. 0. 0. 0. 0.
      3.03728376e-02 0. 0. 0. 0. 0. 0. 0. 0. 0. 0. 0. 0. 0. 0. 0. 0. 0.
      0. 0. 0. 0. 0. 3.03728376e-02 1.51864186e-01 0. 0. 0.
      6.07456751e-02 0. 3.03728376e-02 6.07456751e-02 0. 3.03728376e-02
      0. 0. 3.03728376e-02 0. 6.07456751e-02 0. 9.64073956e-01 0.
      2.75449697e-02 2.75449697e-02 2.75449697e-02 0. 0. 5.50899394e-02
      2.75449697e-02 0. 0. 0. 0. 0. 2.75449697e-02 0. 0. 0. 0. 0. 0. 0.
      0. 0. 2.75449697e-02 2.75449697e-02 0. 2.75449697e-02
      2.75449697e-02 0. 5.50899394e-02 0. 5.50899394e-02 2.75449697e-02
      5.50899394e-02 0. 0. 0. 0. 0. 0. 0. 0. 0. 0. 0. 0. 0. 0. 0. 0. 0.
      0. 0. 0. 0. 5.50899394e-02 0. 0. 0. 2.75449697e-02 0.
      2.75449697e-02 0. 0. 0. 0. 0. 0. 0. 0. 0. 0. 0. 0. 0. 0. 0.
      2.75449697e-02 0. 0. 0. 0. 0. 0. 0. 0. 0. 0. 0. 0. 0. 0. 0. 0. 0.
      2.75449697e-02 0. 0. 0. 0. 0. 0. 0. 0. 0. 0. 0. 0. 0. 0. 0. 0. 0.
      2.75449697e-02 0. 0. 0. 0. 2.75449697e-02 0. 0. 0. 0. 0. 0. 0.
      5.50899394e-02 0. 2.75449697e-02 0. 2.75449697e-02 0. 0. 0.
      8.26349109e-02 0. 0. 0. 0. 0. 0. 0. 0. 0. 0. 0. 2.75449697e-02 0.
      0. 0. 0. 0. 0. 0. 2.75449697e-02 0. 2.75449697e-02 0.
      8.26349109e-02 0. 0. 0. 0. 0. 0. 0. 0. 0. 0. 0. 0. 0. 0. 0. 0. 0.
      0. 0. 0. 0. 0. 0. 0. 0. 0. 0. 0. 2.75449697e-02 0. 0. 0. 0. 0. 0.
      0. 0. 0. 2.75449697e-02 2.75449697e-02 0. 0. 0. 0. 0. 0. 0. 0. 0.
      0. 0. 0. 0. 0. 0. 0. 0. 0. 2.75449697e-02 0. 0. 0. 0.
      2.75449697e-02 5.50899394e-02 0. 0. 2.75449697e-02 0. 0. 0.
      2.75449697e-02 0. 0. 0. 0. 2.75449697e-02 0. 0. 0. 5.50899394e-02
      2.75449697e-02 0. 2.75449697e-02 0. 2.75449697e-02 0.
      2.75449697e-02 2.75449697e-02 8.26349109e-02 0. 0. 0. 0. 0. 0.
      9.38102663e-01 3.02613769e-02 0. 0. 3.02613769e-02 0.
      3.02613769e-02 3.02613769e-02 0. 0. 0. 0. 0. 0. 3.02613769e-02 0.
      0. 0. 0. 0. 0. 0. 0. 0. 3.02613769e-02 0. 3.02613769e-02 0. 0. 0.
      3.02613769e-02 6.05227537e-02 0. 0. 0. 0. 0. 0. 0. 0. 0. 0. 0. 0.
      0. 0. 0. 0. 0. 0. 0. 0. 3.02613769e-02 0. 0. 0. 0. 0. 0. 0.
      1.81568265e-01 0. 0. 1.21045507e-01 0. 0. 0. 0. 0. 0. 0. 0. 0. 0.
      0. 0. 0. 0. 0. 3.02613769e-02 0. 0. 0. 0. 0. 0. 0. 0. 0. 0. 0. 0.
      0. 0. 0. 0. 0. 0. 0. 0. 0. 0. 0. 0. 0. 0. 0. 0. 0. 0. 0.
      3.02613769e-02 0. 3.02613769e-02 3.02613769e-02 0. 0. 0. 0. 0.
      3.02613769e-02 0. 0. 0. 3.02613769e-02 0. 9.07841325e-02
      3.02613769e-02 0. 0. 0. 0. 0. 0. 3.02613769e-02 0. 0. 0. 0. 0. 0.
      0. 0. 6.05227537e-02 0. 0. 0. 0. 0. 0. 0. 6.05227537e-02 0. 0. 0.
      0. 0. 0. 0. 0. 0. 0. 0. 0. 0. 0. 0. 0. 3.02613769e-02 0. 0. 0. 0.
      0. 3.02613769e-02 0. 0. 0. 0. 0. 0. 0. 0. 0. 0. 3.02613769e-02 0.
      0. 3.02613769e-02 0. 0. 3.02613769e-02 9.07841325e-02
      3.02613769e-02 0. 3.02613769e-02 0. 0. 0. 6.05227537e-02
      3.02613769e-02 0. 0. 0. 0. 0. 0. 6.05227537e-02 0. 0. 0. 0. 0. 0.
      0. 0. 3.02613769e-02 0. 0. 0. 3.02613769e-02 0. 0. 3.02613769e-02
      0. 0. 0. 0. 0. 0. 0. 6.05227537e-02 0. 0. 0. 0. 0. 0. 0. 0. 0.
      3.02613769e-02 0. 0. 0. 0. 0. 3.02613769e-02 6.05227537e-02
      3.02613769e-02 0. 0. 0. 3.02613769e-02 3.02613769e-02 0.
      9.74697232e-01 2.63431687e-02 2.63431687e-02 0. 2.63431687e-02 0.
      2.63431687e-02 0. 2.63431687e-02 0. 2.63431687e-02 0.
      2.63431687e-02 0. 0. 2.63431687e-02 0. 0. 0. 0. 0. 0. 0. 0. 0. 0.
      0. 0. 5.26863374e-02 0. 0. 0. 2.63431687e-02 0. 0. 0. 0. 0. 0. 0.
      2.63431687e-02 0. 0. 0. 0. 0. 0. 2.63431687e-02 2.63431687e-02 0.
      0. 0. 0. 0. 0. 2.63431687e-02 2.63431687e-02 0. 0. 0.
      5.26863374e-02 0. 0. 0. 0. 0. 0. 0. 0. 0. 0. 0. 0. 0. 0. 0. 0. 0.
      0. 0. 0. 0. 0. 0. 0. 0. 0. 0. 0. 0. 0. 0. 0. 0. 0. 0.
      2.63431687e-02 0. 0. 0. 0. 0. 2.63431687e-02 0. 0. 0. 0. 0. 0. 0.
      0. 0. 2.63431687e-02 0. 0. 0. 0. 0. 0. 0. 5.26863374e-02 0. 0. 0.
      0. 0. 0. 5.26863374e-02 0. 0. 0. 5.26863374e-02 0. 0. 0.
      2.63431687e-02 0. 0. 2.63431687e-02 2.63431687e-02 0. 0.
      2.63431687e-02 0. 2.63431687e-02 0. 0. 0. 0. 0. 0. 0. 0. 0. 0. 0.
      0. 0. 2.63431687e-02 5.26863374e-02 0. 0. 0. 0. 0. 0. 0. 0. 0. 0.
      0. 0. 0. 0. 0. 0. 0. 0. 0. 2.63431687e-02 0. 0. 0. 0. 0. 0. 0. 0.
      5.26863374e-02 0. 0. 0. 0. 0. 2.63431687e-02 0. 0. 0. 0.
      5.26863374e-02 2.63431687e-02 0. 0. 2.63431687e-02 0. 0. 0. 0.
      2.63431687e-02 2.63431687e-02 0. 0. 0. 2.63431687e-02 0. 0. 0. 0.
      0. 0. 0. 0. 0. 2.63431687e-02 0. 0. 0. 0. 0. 0. 0. 0. 0. 0. 0. 0.
      0. 0. 0. 0. 5.26863374e-02 2.63431687e-02 0. 2.63431687e-02 0. 0.
      2.63431687e-02 0. 2.63431687e-02 2.63431687e-02 0. 0. 0. 0. 0. 0.
      9.47678149e-01 0. 0. 0. 0. 0. 0. 2.70765182e-02 2.70765182e-02 0.
      0. 0. 2.70765182e-02 0. 0. 5.41530363e-02 0. 0. 0. 0.
      2.70765182e-02 0. 0. 0. 0. 0. 0. 0. 2.70765182e-02 0. 0. 0.
      2.70765182e-02 0. 0. 0. 0. 0. 0. 0. 0. 0. 0. 0. 0. 0. 0. 0. 0. 0.
      0. 0. 0. 0. 0. 0. 2.70765182e-02 0. 2.70765182e-02 0. 0. 0. 0. 0.
      0. 0. 0. 0. 0. 0. 0. 0. 0. 0. 0. 0. 0. 0. 0. 2.70765182e-02 0. 0.
      0. 0. 0. 0. 0. 0. 0. 0. 0. 0. 0. 0. 0. 0. 2.70765182e-02 0. 0. 0.
      0. 0. 0. 0. 2.70765182e-02 0. 0. 0. 0. 0. 0. 0. 2.70765182e-02 0.
      0. 2.70765182e-02 0. 0. 0. 0. 1.62459105e-01 2.70765182e-02 0.
      2.70765182e-02 0. 0. 2.70765182e-02 1.08306073e-01 2.70765182e-02
      2.70765182e-02 0. 2.70765182e-02 0. 2.70765182e-02 2.70765182e-02
      1.62459105e-01 0. 0. 0. 0. 0. 0. 0. 2.70765182e-02 0. 0. 0. 0. 0.
      0. 0. 0. 2.70765182e-02 0. 0. 0. 0. 0. 0. 0. 0. 0. 0. 0. 0. 0. 0.
      0. 2.70765182e-02 0. 0. 0. 0. 0. 2.70765182e-02 0. 0. 0. 0. 0. 0.
      0. 0. 2.70765182e-02 0. 0. 0. 0. 0. 0. 0. 0. 0. 0. 0. 0. 0. 0. 0.
      2.70765182e-02 2.70765182e-02 0. 0. 0. 0. 0. 0. 0. 0. 0. 0. 0. 0.
      0. 0. 0. 2.70765182e-02 0. 0. 0. 0. 0. 0. 0. 2.70765182e-02 0. 0.
      0. 0. 0. 0. 0. 0. 0. 0. 0. 0. 0. 2.70765182e-02 0. 0. 0. 0.
      2.70765182e-02 0. 0. 0. 2.70765182e-02 0. 8.12295526e-02 0.
      2.70765182e-02 5.41530363e-02 0. 0. 0. 9.70142543e-01 0. 0.
      8.08452070e-02 2.69484036e-02 0. 2.69484036e-02 0. 2.69484036e-02
      0. 0. 0. 5.38968071e-02 0. 2.69484036e-02 2.69484036e-02
      2.69484036e-02 0. 0. 0. 0. 0. 0. 0. 5.38968071e-02 0.
      2.69484036e-02 0. 0. 0. 5.38968071e-02 2.69484036e-02
      2.69484036e-02 0. 0. 0. 0. 0. 0. 2.69484036e-02 0. 0. 0. 0. 0. 0.
      0. 0. 0. 0. 0. 0. 0. 0. 0. 0. 0. 0. 0. 0. 0. 0. 0. 2.69484036e-02
      0. 0. 0. 0. 0. 0. 0. 0. 0. 0. 0. 0. 0. 0. 0. 2.69484036e-02 0. 0.
      0. 0. 0. 0. 0. 0. 0. 0. 0. 0. 0. 0. 2.69484036e-02 2.69484036e-02
      0. 0. 2.69484036e-02 0. 0. 0. 0. 0. 0. 0. 0. 0. 0. 0. 0.
      2.69484036e-02 0. 0. 0. 0. 0. 0. 0. 0. 0. 0. 0. 2.69484036e-02 0.
      0. 0. 2.69484036e-02 0. 0. 0. 5.38968071e-02 0. 0. 0. 0. 0. 0. 0.
      0. 0. 0. 0. 0. 0. 2.69484036e-02 0. 0. 0. 0. 0. 0. 0. 0. 0. 0. 0.
      0. 0. 5.38968071e-02 2.69484036e-02 0. 0. 0. 0. 0. 0. 0. 0.
      2.69484036e-02 0. 0. 0. 0. 0. 0. 0. 2.69484036e-02 0.
      2.69484036e-02 0. 0. 0. 2.69484036e-02 0. 0. 0. 0. 5.38968071e-02
      0. 0. 0. 2.69484036e-02 0. 0. 2.69484036e-02 0. 0. 0.
      2.69484036e-02 0. 0. 0. 0. 0. 0. 0. 2.69484036e-02 0. 0. 0. 0. 0.
      0. 0. 0. 2.69484036e-02 0. 0. 0. 0. 0. 0. 5.38968071e-02 0. 0. 0.
      0. 0. 0. 0. 2.69484036e-02 0. 0. 0. 0. 0. 2.69484036e-02 0.
      2.69484036e-02 5.38968071e-02 5.38968071e-02 0. 0. 0. 0.
      2.69484036e-02 2.69484036e-02 0. 2.69484036e-02 0. 0. 0. 0.
      2.69484036e-02 0. 9.48683321e-01 0. 2.87479796e-02 0. 0. 0. 0.
      2.87479796e-02 2.87479796e-02 0. 0. 0. 2.87479796e-02 0. 0. 0. 0.
      0. 0. 0. 0. 0. 0. 0. 2.87479796e-02 0. 0. 0. 2.87479796e-02 0.
      2.87479796e-02 2.87479796e-02 8.62439424e-02 0. 2.87479796e-02 0.
      0. 0. 0. 0. 0. 0. 0. 0. 0. 0. 0. 0. 2.87479796e-02 0. 0. 0. 0. 0.
      0. 0. 2.87479796e-02 0. 0. 2.87479796e-02 1.14991918e-01 0.
      8.62439424e-02 2.87479796e-02 0. 0. 0. 0. 0. 0. 2.87479796e-02 0.
      0. 0. 0. 0. 2.87479796e-02 0. 0. 2.87479796e-02 0. 0. 0. 0. 0. 0.
      0. 0. 0. 0. 0. 0. 0. 0. 0. 0. 0. 0. 0. 0. 0. 0. 0. 0. 0. 0. 0. 0.
      0. 0. 0. 0. 0. 0. 0. 0. 0. 0. 0. 0. 2.87479796e-02 0. 0. 0.
      2.87479796e-02 0. 5.74959591e-02 5.74959591e-02 2.87479796e-02 0.
      0. 2.87479796e-02 0. 0. 0. 0. 0. 0. 0. 0. 0. 0. 0. 0. 0. 0. 0. 0.
      0. 0. 0. 0. 0. 0. 0. 0. 0. 0. 2.87479796e-02 0. 0. 0. 0. 0. 0. 0.
      0. 0. 2.87479796e-02 0. 0. 0. 0. 0. 2.87479796e-02 0. 0. 0. 0. 0.
      0. 0. 0. 0. 0. 2.87479796e-02 0. 0. 0. 0. 0. 0. 2.87479796e-02 0.
      0. 0. 0. 0. 0. 0. 0. 0. 0. 0. 2.87479796e-02 0. 0. 0. 0. 0. 0. 0.
      0. 0. 0. 0. 2.87479796e-02 0. 0. 0. 0. 0. 0. 0. 8.62439424e-02
      8.62439424e-02 0. 5.74959591e-02 0. 0. 0. 0. 0. 0. 0. 0.
      2.87479796e-02 0. 0. 0. 8.62439424e-02 5.74959591e-02 0. 0. 0. 0.
      0. 2.87479796e-02 8.62439424e-02 5.74959591e-02 0. 0.
      2.87479796e-02 2.87479796e-02 0. 0. 9.56703246e-01 0. 0. 0.
      2.81383302e-02 0. 1.12553321e-01 0. 2.81383302e-02 0.
      2.81383302e-02 0. 2.81383302e-02 0. 8.44149888e-02 5.62766604e-02
      0. 0. 0. 0. 0. 0. 0. 2.81383302e-02 0. 0. 0. 0. 2.81383302e-02 0.
      2.81383302e-02 0. 2.81383302e-02 0. 0. 0. 0. 0. 0. 0. 0. 0. 0. 0.
      0. 0. 0. 2.81383302e-02 2.81383302e-02 2.81383302e-02 0. 0. 0. 0.
      2.81383302e-02 0. 2.81383302e-02 0. 0. 2.81383302e-02
      2.81383302e-02 0. 2.81383302e-02 8.44149888e-02 0. 0. 0. 0. 0. 0.
      0. 0. 0. 0. 0. 0. 0. 0. 0. 0. 0. 0. 0. 0. 0. 0. 0. 0. 0. 0. 0. 0.
      0. 0. 0. 0. 0. 0. 0. 0. 0. 0. 0. 0. 0. 0. 0. 0. 0. 0. 0. 0. 0. 0.
      0. 0. 0. 0. 0. 0. 2.81383302e-02 0. 0. 0. 2.81383302e-02 0. 0.
      5.62766604e-02 2.81383302e-02 2.81383302e-02 0. 2.81383302e-02 0.
      0. 2.81383302e-02 0. 0. 0. 0. 0. 0. 0. 0. 1.40691653e-01 0. 0. 0.
      0. 0. 0. 0. 0. 2.81383302e-02 0. 0. 0. 2.81383302e-02 0. 0.
      2.81383302e-02 0. 0. 0. 0. 0. 0. 0. 0. 0. 0. 0. 0. 0. 0. 0. 0. 0.
      0. 0. 0. 0. 0. 0. 2.81383302e-02 0. 0. 0. 0. 2.81383302e-02 0. 0.
      2.81383302e-02 0. 0. 0. 0. 0. 0. 0. 0. 2.81383302e-02 0. 0. 0. 0.
      0. 0. 5.62766604e-02 0. 0. 0. 0. 0. 0. 0. 0. 0. 0. 0. 0. 0. 0. 0.
      0. 2.81383302e-02 0. 0. 0. 0. 0. 0. 0. 0. 0. 0. 0. 0. 0. 0.
      2.81383302e-02 0. 0. 0. 0. 0. 0. 0. 2.81383302e-02 0.
      2.81383302e-02 0. 0. 2.81383302e-02 2.81383302e-02 2.81383302e-02
      0. 9.60130274e-01 0. 0. 0. 2.82391254e-02 0. 0. 5.64782508e-02
      5.64782508e-02 0. 0. 2.82391254e-02 2.82391254e-02 0.
      2.82391254e-02 2.82391254e-02 0. 0. 0. 0. 0. 0. 0. 0. 0. 0. 0. 0.
      2.82391254e-02 0. 0. 1.12956502e-01 0. 2.82391254e-02 0. 0. 0. 0.
      2.82391254e-02 0. 2.82391254e-02 0. 0. 0. 0. 0. 0. 0.
      2.82391254e-02 0. 0. 0. 0. 0. 0. 0. 0. 0. 0. 2.82391254e-02
      2.82391254e-02 0. 0. 0. 0. 0. 0. 0. 0. 0. 0. 0. 5.64782508e-02 0.
      0. 0. 0. 0. 0. 2.82391254e-02 0. 0. 0. 0. 0. 0. 0. 0. 0. 0. 0. 0.
      0. 0. 0. 0. 0. 0. 0. 0. 0. 0. 0. 0. 0. 0. 0. 0. 2.82391254e-02 0.
      2.82391254e-02 0. 2.82391254e-02 0. 0. 0. 0. 0. 0. 0.
      8.47173780e-02 0. 0. 2.82391254e-02 0. 0. 0. 5.64782508e-02 0. 0.
      0. 2.82391254e-02 2.82391254e-02 0. 0. 0. 2.82391254e-02 0. 0. 0.
      0. 0. 0. 2.82391254e-02 0. 0. 0. 0. 2.82391254e-02 0.
      2.82391254e-02 0. 5.64782508e-02 0. 0. 0. 0. 0. 0. 5.64782508e-02
      0. 0. 0. 0. 0. 0. 0. 0. 2.82391254e-02 0. 0. 0. 0. 0.
      2.82391254e-02 0. 0. 0. 0. 0. 0. 0. 0. 0. 0. 0. 0. 0.
      5.64782508e-02 0. 0. 0. 0. 0. 0. 2.82391254e-02 0. 0. 0. 0. 0. 0.
      0. 0. 0. 2.82391254e-02 0. 2.82391254e-02 0. 0. 0. 0. 0. 0. 0.
      2.82391254e-02 2.82391254e-02 0. 0. 0. 0. 0. 0. 2.82391254e-02 0.
      0. 0. 0. 0. 0. 0. 0. 0. 0. 0. 0. 0. 0. 0. 0. 0. 0. 0. 0. 0. 0. 0.
      8.47173780e-02 5.64782508e-02 0. 0. 2.82391254e-02 0. 0. 0. 0.
      9.55569029e-01 0. 0. 0. 5.62099442e-02 0. 5.62099442e-02 0.
      5.62099442e-02 0. 0. 0. 0. 0. 0. 0. 2.81049721e-02 0. 0. 0. 0. 0.
      0. 0. 0. 0. 0. 0. 5.62099442e-02 0. 5.62099442e-02 5.62099442e-02
      2.81049721e-02 2.81049721e-02 0. 2.81049721e-02 0. 0. 0. 0. 0. 0.
      0. 0. 0. 0. 0. 0. 5.62099442e-02 0. 0. 0. 0. 0. 0. 2.81049721e-02
      2.81049721e-02 0. 0. 0. 0. 0. 0. 2.81049721e-02 2.81049721e-02 0.
      0. 0. 0. 0. 0. 0. 0. 0. 0. 0. 2.81049721e-02 0. 0. 0. 0. 0. 0. 0.
      0. 0. 0. 0. 0. 0. 0. 0. 0. 0. 0. 0. 0. 0. 0. 0. 0. 0. 0. 0. 0. 0.
      0. 0. 0. 0. 0. 0. 0. 0. 0. 0. 0. 0. 0. 0. 0. 0. 2.81049721e-02 0.
      0. 2.81049721e-02 2.81049721e-02 5.62099442e-02 2.81049721e-02 0.
      2.81049721e-02 0. 0. 0. 0. 2.81049721e-02 0. 0. 0. 0. 0. 0. 0. 0.
      0. 0. 0. 0. 0. 0. 0. 0. 0. 0. 0. 2.81049721e-02 2.81049721e-02 0.
      0. 2.81049721e-02 0. 0. 0. 0. 0. 0. 0. 0. 0. 0. 0. 0. 0. 0. 0. 0.
      2.81049721e-02 0. 0. 0. 0. 0. 0. 0. 0. 0. 0. 0. 2.81049721e-02
      2.81049721e-02 0. 0. 0. 2.81049721e-02 0. 1.12419888e-01 0. 0. 0.
      0. 2.81049721e-02 0. 0. 0. 0. 0. 0. 8.43149126e-02 0. 0. 0. 0. 0.
      0. 0. 0. 0. 0. 0. 0. 0. 0. 0. 0. 5.62099442e-02 2.81049721e-02 0.
      8.43149126e-02 0. 0. 0. 2.81049721e-02 0. 2.81049721e-02 0. 0. 0.
      0. 0. 0. 0. 2.81049721e-02 0. 0. 0. 0. 2.81049721e-02 0. 0.
      2.81049721e-02 0. 2.81049721e-02 2.81049721e-02 8.43149126e-02 0.
      0. 9.42809045e-01 0. 0. 0. 2.94627827e-02 0. 5.89255653e-02
      8.83883461e-02 2.94627827e-02 0. 0. 0. 2.94627827e-02 0.
      1.47313908e-01 5.89255653e-02 0. 0. 0. 0. 0. 0. 0. 2.94627827e-02
      2.94627827e-02 0. 0. 2.94627827e-02 0. 0. 5.89255653e-02
      8.83883461e-02 0. 0. 0. 0. 0. 0. 0. 0. 0. 2.94627827e-02 0. 0. 0.
      0. 0. 0. 2.94627827e-02 2.94627827e-02 0. 0. 0. 0. 0. 0. 0. 0.
      2.94627827e-02 0. 5.89255653e-02 0. 2.94627827e-02 0.
      2.94627827e-02 0. 0. 0. 0. 0. 0. 0. 0. 0. 0. 0. 0. 0. 0.
      2.94627827e-02 0. 0. 0. 0. 0. 0. 0. 0. 0. 0. 0. 0. 0. 0. 0. 0.
      2.94627827e-02 0. 0. 0. 0. 0. 2.94627827e-02 0. 0. 0. 0. 0. 0. 0.
      0. 0. 0. 2.94627827e-02 0. 0. 0. 0. 0. 0. 0. 0. 0. 0. 0. 0.
      8.83883461e-02 2.94627827e-02 0. 0. 0. 2.94627827e-02 0. 0. 0.
      2.94627827e-02 0. 0. 0. 0. 2.94627827e-02 0. 0. 2.94627827e-02 0.
      0. 0. 0. 0. 0. 0. 0. 0. 0. 0. 0. 0. 0. 2.94627827e-02
      8.83883461e-02 0. 0. 0. 2.94627827e-02 0. 0. 0. 0. 2.94627827e-02
      0. 0. 0. 0. 0. 2.94627827e-02 0. 0. 0. 0. 0. 0. 0. 0. 0. 0. 0. 0.
      0. 0. 0. 0. 2.94627827e-02 0. 0. 0. 2.94627827e-02 0. 0. 0.
      2.94627827e-02 0. 0. 0. 0. 0. 0. 0. 5.89255653e-02 0. 0. 0. 0. 0.
      0. 0. 0. 5.89255653e-02 0. 0. 0. 0. 0. 0. 8.83883461e-02 0. 0. 0.
      0. 0. 0. 0. 0. 0. 0. 0. 0. 0. 0. 0. 0. 0. 2.94627827e-02 0.
      2.94627827e-02 0. 0. 0. 0. 2.94627827e-02 0. 0. 0. 2.94627827e-02
      2.94627827e-02 2.94627827e-02 0. 9.38314855e-01 0. 2.60643009e-02
      0. 2.60643009e-02 0. 0. 0. 0. 0. 0. 0. 2.60643009e-02 0.
      2.60643009e-02 0. 0. 0. 0. 0. 0. 0. 0. 0. 0. 0. 0. 0.
      5.21286018e-02 0. 2.60643009e-02 2.60643009e-02 7.81929046e-02 0.
      0. 0. 0. 0. 0. 0. 0. 0. 0. 0. 0. 0. 0. 0. 2.60643009e-02 0. 0. 0.
      0. 0. 0. 2.60643009e-02 1.30321503e-01 0. 0. 0. 1.56385809e-01 0.
      1.04257204e-01 7.81929046e-02 0. 0. 0. 0. 0. 0. 0. 0. 0. 0. 0. 0.
      0. 0. 0. 0. 0. 0. 0. 0. 0. 0. 0. 0. 0. 0. 0. 0. 0. 0. 0. 0.
      2.60643009e-02 0. 0. 0. 0. 0. 0. 0. 0. 0. 0. 0. 0. 0. 0. 0. 0. 0.
      0. 0. 0. 0. 0. 0. 2.60643009e-02 0. 0. 0. 5.21286018e-02 0.
      1.30321503e-01 2.60643009e-02 0. 0. 0. 0. 0. 0. 0. 0. 0. 0. 0. 0.
      0. 0. 0. 0. 0. 0. 0. 0. 0. 0. 0. 0. 0. 0. 0. 0. 0. 0. 0.
      5.21286018e-02 0. 0. 0. 0. 0. 0. 0. 0. 0. 0. 0. 0. 0. 0. 0. 0. 0.
      0. 0. 0. 0. 0. 0. 0. 2.60643009e-02 0. 0. 0. 2.60643009e-02 0. 0.
      0. 0. 5.21286018e-02 0. 5.21286018e-02 2.60643009e-02 0. 0. 0. 0.
      0. 0. 0. 0. 0. 0. 0. 0. 0. 0. 0. 0. 0. 0. 0. 0. 0. 0. 0. 0. 0. 0.
      2.60643009e-02 5.21286018e-02 5.21286018e-02 2.60643009e-02
      7.81929046e-02 0. 0. 0. 0. 0. 0. 0. 0. 0. 0. 0. 0. 0. 0. 0.
      2.60643009e-02 0. 0. 0. 0. 0. 0. 0. 0. 2.60643009e-02 0.
      2.60643009e-02 0. 9.20940161e-01 0. 0. 0. 0. 0. 0. 5.58145568e-02
      0. 0. 2.79072784e-02 0. 8.37218314e-02 0. 1.39536396e-01 0. 0. 0.
      0. 0. 0. 0. 0. 0. 2.79072784e-02 0. 2.79072784e-02 0. 0. 0.
      1.39536396e-01 8.37218314e-02 0. 0. 0. 0. 0. 0. 0. 0.
      2.79072784e-02 0. 0. 0. 2.79072784e-02 0. 0. 0. 0. 2.79072784e-02
      0. 0. 0. 0. 2.79072784e-02 0. 8.37218314e-02 0. 0. 0.
      1.67443663e-01 0. 5.58145568e-02 5.58145568e-02 0. 0. 0. 0.
      2.79072784e-02 0. 0. 0. 0. 0. 0. 0. 0. 0. 0. 2.79072784e-02 0. 0.
      0. 0. 0. 0. 0. 0. 0. 0. 0. 0. 0. 0. 0. 0. 0. 0. 0. 0. 0. 0. 0. 0.
      0. 0. 0. 0. 0. 0. 0. 0. 0. 0. 0. 0. 0. 0. 0. 2.79072784e-02 0. 0.
      0. 0. 2.79072784e-02 0. 0. 1.11629114e-01 0. 0. 0. 0. 0. 0.
      2.79072784e-02 2.79072784e-02 0. 0. 0. 0. 2.79072784e-02 0. 0. 0.
      0. 0. 0. 0. 0. 0. 0. 0. 0. 0. 0. 0. 0. 0. 0. 8.37218314e-02 0. 0.
      0. 0. 0. 0. 0. 0. 2.79072784e-02 0. 0. 0. 0. 0. 2.79072784e-02 0.
      0. 2.79072784e-02 0. 0. 0. 0. 0. 0. 0. 0. 0. 0. 0. 0. 0.
      1.39536396e-01 0. 0. 0. 0. 0. 0. 0. 0. 0. 0. 0. 0. 0. 0. 0. 0. 0.
      0. 0. 0. 0. 0. 0. 0. 2.79072784e-02 0. 0. 0. 0. 0. 2.79072784e-02
      0. 0. 0. 0. 0. 0. 0. 0. 0. 0. 0. 0. 0. 0. 0. 0. 0. 0.
      2.79072784e-02 0. 0. 0. 0. 0. 0. 0. 0. 0. 0. 0. 0. 0. 0.
      9.70142543e-01 0. 0. 2.69484036e-02 5.38968071e-02 0. 0. 0. 0. 0.
      0. 0. 2.69484036e-02 0. 5.38968071e-02 2.69484036e-02 0. 0. 0. 0.
      0. 0. 0. 0. 0. 0. 2.69484036e-02 0. 0. 0. 2.69484036e-02
      2.69484036e-02 5.38968071e-02 0. 0. 0. 0. 0. 0. 0. 2.69484036e-02
      0. 0. 0. 0. 0. 0. 2.69484036e-02 0. 0. 0. 2.69484036e-02 0. 0.
      2.69484036e-02 0. 0. 0. 0. 0. 0. 0. 2.69484036e-02 5.38968071e-02
      0. 0. 0. 0. 0. 0. 0. 0. 0. 2.69484036e-02 0. 0. 2.69484036e-02 0.
      0. 0. 0. 0. 0. 0. 0. 0. 0. 0. 0. 0. 0. 0. 0. 0. 0. 0. 0. 0.
      2.69484036e-02 0. 0. 0. 0. 0. 2.69484036e-02 0. 0. 0. 0. 0. 0. 0.
      2.69484036e-02 0. 0. 0. 0. 0. 0. 0. 2.69484036e-02 0. 0. 0.
      2.69484036e-02 2.69484036e-02 0. 2.69484036e-02 2.69484036e-02 0.
      2.69484036e-02 0. 0. 0. 2.69484036e-02 2.69484036e-02 0. 0. 0.
      2.69484036e-02 0. 0. 0. 2.69484036e-02 0. 0. 0. 0. 0. 0. 0.
      2.69484036e-02 2.69484036e-02 0. 0. 0. 2.69484036e-02 0. 0.
      5.38968071e-02 0. 0. 0. 0. 0. 2.69484036e-02 0. 0. 0. 0. 0. 0. 0.
      0. 0. 0. 0. 0. 0. 0. 0. 0. 0. 0. 0. 0. 0. 2.69484036e-02
      2.69484036e-02 0. 0. 0. 2.69484036e-02 0. 0. 0. 0. 2.69484036e-02
      0. 2.69484036e-02 0. 0. 0. 0. 0. 0. 0. 2.69484036e-02 0. 0. 0. 0.
      0. 0. 0. 0. 0. 0. 0. 0. 0. 0. 0. 0. 0. 0. 0. 0. 0. 0. 0.
      2.69484036e-02 0. 2.69484036e-02 0. 0. 0. 0. 0. 2.69484036e-02
      2.69484036e-02 5.38968071e-02 0. 0. 0. 0. 0. 8.08452070e-02
      2.69484036e-02 2.69484036e-02 0. 2.69484036e-02 2.69484036e-02 0.
      5.38968071e-02 0. 9.51835036e-01 2.88434867e-02 2.88434867e-02 0.
      0. 0. 2.88434867e-02 5.76869734e-02 2.88434867e-02 0.
      2.88434867e-02 0. 2.88434867e-02 0. 0. 5.76869734e-02 0. 0. 0. 0.
      0. 0. 0. 0. 8.65304619e-02 0. 0. 0. 0. 0. 0. 2.88434867e-02 0. 0.
      0. 0. 0. 0. 2.88434867e-02 0. 0. 0. 0. 0. 0. 0. 2.88434867e-02 0.
      0. 0. 0. 0. 0. 0. 0. 2.88434867e-02 2.88434867e-02 0. 0. 0.
      2.88434867e-02 0. 1.73060924e-01 5.76869734e-02 0. 0. 0. 0. 0. 0.
      0. 0. 0. 2.88434867e-02 0. 0. 0. 0. 0. 2.88434867e-02 0. 0. 0. 0.
      0. 0. 0. 0. 0. 0. 0. 0. 0. 0. 0. 2.88434867e-02 0. 0. 0. 0. 0. 0.
      0. 0. 0. 0. 0. 0. 0. 0. 2.88434867e-02 0. 0. 0. 0. 0. 0. 0. 0. 0.
      0. 0. 0. 0. 5.76869734e-02 0. 0. 5.76869734e-02 2.88434867e-02 0.
      0. 2.88434867e-02 0. 0. 2.88434867e-02 2.88434867e-02 0. 0. 0. 0.
      0. 0. 0. 2.88434867e-02 0. 0. 0. 0. 0. 0. 0. 0. 0. 0. 0.
      2.88434867e-02 0. 2.88434867e-02 0. 2.88434867e-02 0. 0. 0. 0. 0.
      0. 0. 2.88434867e-02 2.88434867e-02 0. 0. 0. 0. 0. 2.88434867e-02
      0. 0. 2.88434867e-02 0. 0. 0. 0. 0. 0. 2.88434867e-02 0. 0. 0.
      2.88434867e-02 0. 0. 5.76869734e-02 2.88434867e-02 0. 0.
      2.88434867e-02 0. 0. 0. 0. 0. 0. 0. 0. 0. 0. 2.88434867e-02
      5.76869734e-02 0. 0. 0. 0. 0. 0. 0. 2.88434867e-02 2.88434867e-02
      0. 0. 0. 0. 0. 0. 0. 0. 0. 0. 0. 0. 0. 0. 0. 0. 0. 0. 0. 0. 0. 0.
      2.88434867e-02 0. 0. 0. 0. 0. 0. 0. 2.88434867e-02 0. 0. 0.
      2.88434867e-02 2.88434867e-02 0. 2.88434867e-02 0.</_>
    <_>
      7.93945909e-01 0. 0. 0. 0. 0. 4.41081077e-02 0. 8.82162154e-02
      4.41081077e-02 4.41081077e-02 0. 0. 0. 0. 0. 4.41081077e-02 0. 0.
      0. 4.41081077e-02 0. 0. 0. 4.41081077e-02 0. 4.41081077e-02 0.
      8.82162154e-02 0. 0. 0. 0. 0. 0. 0. 0. 0. 4.41081077e-02 0. 0. 0.
      0. 0. 0. 0. 0. 4.41081077e-02 4.41081077e-02 0. 0. 0. 0. 0.
      8.82162154e-02 0. 8.82162154e-02 0. 0. 0. 4.41081077e-02
      4.41081077e-02 4.41081077e-02 4.41081077e-02 4.41081077e-02
      4.41081077e-02 0. 0. 2.20540538e-01 0. 0. 0. 0. 0. 0. 0. 0. 0. 0.
      0. 0. 0. 0. 0. 0. 1.76432431e-01 0. 0. 0. 0. 0. 0. 4.41081077e-02
      0. 0. 0. 0. 0. 0. 0. 0. 0. 0. 0. 0. 0. 4.41081077e-02 0. 0. 0. 0.
      0. 4.41081077e-02 0. 0. 0. 2.20540538e-01 0. 0. 0. 4.41081077e-02
      0. 4.41081077e-02 0. 0. 4.41081077e-02 8.82162154e-02
      1.76432431e-01 0. 0. 0. 0. 4.41081077e-02 0. 0. 0. 0. 0. 0. 0. 0.
      4.41081077e-02 0. 0. 4.41081077e-02 0. 0. 0. 0. 0. 0. 0. 0. 0. 0.
      0. 8.82162154e-02 0. 0. 4.41081077e-02 4.41081077e-02 0. 0. 0. 0.
      0. 4.41081077e-02 4.41081077e-02 0. 0. 0. 0. 0. 0. 2.20540538e-01
      0. 0. 0. 0. 0. 0. 0. 0. 0. 0. 0. 0. 0. 4.41081077e-02 0.
      1.76432431e-01 8.82162154e-02 0. 0. 0. 0. 0. 0. 0. 0.
      4.41081077e-02 0. 0. 0. 0. 0. 0. 0. 0. 0. 0. 0. 0. 0.
      4.41081077e-02 4.41081077e-02 4.41081077e-02 0. 0. 0. 0. 0. 0. 0.
      0. 0. 0. 0. 0. 0. 0. 0. 0. 0. 0. 0. 0. 0. 0. 0. 0. 0. 0. 0. 0. 0.
      0. 0. 0. 0. 0. 8.82162154e-02 0. 0. 4.41081077e-02 0.
      7.51745582e-01 0. 0. 0. 4.69840989e-02 0. 9.39681977e-02 0.
      1.40952289e-01 0. 0. 0. 4.69840989e-02 0. 4.69840989e-02 0. 0. 0.
      4.69840989e-02 4.69840989e-02 0. 0. 0. 0. 0. 4.69840989e-02 0. 0.
      0. 0. 4.69840989e-02 0. 0. 0. 0. 0. 0. 0. 0. 0. 0. 0. 0. 0. 0. 0.
      0. 0. 0. 0. 0. 0. 0. 0. 9.39681977e-02 0. 0. 0. 0. 0. 0.
      9.39681977e-02 0. 9.39681977e-02 0. 0. 0. 0. 2.81904578e-01 0. 0.
      0. 0. 0. 0. 0. 0. 0. 0. 0. 0. 0. 0. 0. 0. 1.87936395e-01
      4.69840989e-02 0. 0. 0. 0. 0. 4.69840989e-02 0. 0. 0. 0. 0. 0. 0.
      0. 0. 0. 0. 0. 0. 0. 0. 0. 0. 9.39681977e-02 0. 4.69840989e-02 0.
      0. 0. 2.34920502e-01 0. 0. 0. 9.39681977e-02 0. 0. 4.69840989e-02
      0. 4.69840989e-02 0. 4.69840989e-02 0. 4.69840989e-02 0.
      4.69840989e-02 0. 0. 0. 4.69840989e-02 4.69840989e-02 0. 0. 0. 0.
      0. 0. 0. 0. 0. 0. 0. 0. 0. 0. 0. 0. 0. 0. 0. 0. 0. 0.
      9.39681977e-02 4.69840989e-02 0. 0. 0. 0. 4.69840989e-02 0. 0. 0.
      0. 0. 0. 0. 0. 2.34920502e-01 0. 0. 0. 0. 0. 0. 0. 0.
      4.69840989e-02 0. 0. 0. 0. 0. 0. 0. 1.87936395e-01 0.
      4.69840989e-02 4.69840989e-02 4.69840989e-02 0. 0. 0. 0.
      4.69840989e-02 0. 0. 0. 9.39681977e-02 0. 0. 0. 0. 0. 0. 0. 0. 0.
      0. 4.69840989e-02 4.69840989e-02 0. 0. 0. 0. 0. 0. 9.39681977e-02
      0. 4.69840989e-02 0. 0. 0. 0. 0. 0. 0. 0. 0. 0. 0. 0. 0. 0. 0. 0.
      0. 4.69840989e-02 4.69840989e-02 0. 0. 4.69840989e-02 0. 0. 0. 0.
      0. 0. 9.39681977e-02 0. 7.79193699e-01 0. 0. 0. 0. 4.58349250e-02
      0. 0. 9.16698501e-02 9.16698501e-02 0. 0. 0. 4.58349250e-02 0. 0.
      4.58349250e-02 0. 0. 0. 0. 0. 0. 0. 9.16698501e-02 0. 0. 0. 0. 0.
      0. 0. 0. 0. 0. 0. 0. 0. 0. 0. 4.58349250e-02 0. 0. 0. 0. 0. 0. 0.
      4.58349250e-02 0. 0. 0. 0. 0. 0. 4.58349250e-02 4.58349250e-02 0.
      0. 0. 0. 0. 4.58349250e-02 0. 9.16698501e-02 0. 0. 0.
      2.29174629e-01 0. 0. 4.58349250e-02 0. 0. 0. 0. 0. 4.58349250e-02
      0. 0. 0. 0. 0. 0. 0. 1.83339700e-01 0. 0. 0. 0. 0. 4.58349250e-02
      4.58349250e-02 4.58349250e-02 0. 0. 0. 0. 0. 0. 0. 0.
      4.58349250e-02 4.58349250e-02 0. 0. 0. 0. 0. 0. 0. 0.
      9.16698501e-02 0. 0. 4.58349250e-02 2.75009543e-01 0. 0. 0.
      4.58349250e-02 4.58349250e-02 0. 0. 4.58349250e-02 4.58349250e-02
      4.58349250e-02 4.58349250e-02 1.37504771e-01 0. 0. 0.
      4.58349250e-02 0. 0. 4.58349250e-02 0. 0. 0. 0. 0. 0. 0. 0. 0. 0.
      0. 0. 0. 0. 0. 0. 0. 0. 0. 0. 0. 0. 0. 0. 9.16698501e-02 0. 0. 0.
      0. 0. 0. 0. 0. 0. 0. 0. 0. 0. 2.29174629e-01 0. 0. 0. 0. 0. 0. 0.
      0. 4.58349250e-02 0. 0. 0. 0. 0. 0. 1.83339700e-01 0. 0. 0. 0. 0.
      0. 0. 0. 0. 4.58349250e-02 0. 0. 0. 0. 0. 4.58349250e-02 0. 0. 0.
      0. 0. 0. 0. 0. 0. 4.58349250e-02 0. 0. 0. 0. 0. 0. 0. 0. 0. 0. 0.
      0. 0. 0. 4.58349250e-02 4.58349250e-02 0. 0. 4.58349250e-02 0. 0.
      0. 0. 4.58349250e-02 0. 0. 0. 0. 4.58349250e-02 0. 0. 0.
      4.58349250e-02 0. 0. 0. 4.58349250e-02 4.58349250e-02 0.
      8.02180648e-01 0. 0. 0. 0. 0. 0. 4.22200337e-02 0. 0. 0. 0. 0. 0.
      0. 0. 4.22200337e-02 0. 0. 0. 0. 0. 0. 4.22200337e-02 0. 0. 0. 0.
      0. 0. 0. 0. 0. 0. 0. 0. 4.22200337e-02 0. 0. 0. 0. 0. 0. 0. 0. 0.
      0. 0. 8.44400674e-02 0. 0. 0. 0. 0. 0. 0. 0. 0. 0. 0. 0. 0. 0. 0.
      4.22200337e-02 0. 4.22200337e-02 0. 2.11100161e-01 0. 0. 0.
      4.22200337e-02 0. 4.22200337e-02 0. 0. 0. 0. 0. 0. 0. 0. 0. 0.
      1.68880135e-01 0. 0. 0. 0. 0. 0. 0. 0. 0. 0. 4.22200337e-02 0. 0.
      0. 0. 0. 0. 0. 0. 0. 0. 0. 0. 0. 0. 0. 4.22200337e-02 0. 0.
      8.44400674e-02 2.11100161e-01 0. 0. 0. 8.44400674e-02
      8.44400674e-02 4.22200337e-02 8.44400674e-02 4.22200337e-02 0. 0.
      2.11100161e-01 1.26660109e-01 0. 0. 0. 4.22200337e-02 0.
      4.22200337e-02 4.22200337e-02 4.22200337e-02 4.22200337e-02 0. 0.
      4.22200337e-02 0. 0. 8.44400674e-02 0. 0. 0. 0. 0. 0. 0. 0.
      4.22200337e-02 0. 0. 0. 0. 0. 0. 0. 4.22200337e-02 0. 0. 0. 0. 0.
      0. 0. 0. 0. 0. 0. 0. 0. 2.11100161e-01 0. 0. 0. 0. 0. 0. 0. 0. 0.
      0. 0. 0. 0. 0. 0. 0. 0. 4.22200337e-02 0. 0. 0. 0. 0. 0. 0.
      8.44400674e-02 0. 0. 0. 0. 0. 0. 0. 0. 0. 0. 0. 0. 0. 0. 0.
      4.22200337e-02 0. 0. 0. 0. 0. 0. 0. 0. 0. 0. 0. 0. 0. 0. 0.
      4.22200337e-02 0. 0. 0. 4.22200337e-02 0. 4.22200337e-02 0. 0. 0.
      0. 0. 0. 0. 4.22200337e-02 1.68880135e-01 4.22200337e-02
      8.44400674e-02 0. 0. 0. 0. 0. 0. 8.34783852e-01 0. 0. 0. 0. 0.
      4.17391919e-02 4.17391919e-02 1.25217572e-01 0. 0. 0. 0. 0. 0. 0.
      0. 0. 4.17391919e-02 0. 0. 0. 0. 0. 4.17391919e-02 0. 0. 0. 0. 0.
      0. 0. 0. 0. 0. 0. 0. 0. 0. 0. 4.17391919e-02 0. 0. 0. 0. 0.
      4.17391919e-02 0. 4.17391919e-02 0. 0. 0. 0. 0. 4.17391919e-02 0.
      0. 0. 0. 0. 4.17391919e-02 0. 0. 0. 0. 0. 0. 0. 2.08695963e-01 0.
      0. 0. 4.17391919e-02 0. 0. 0. 0. 0. 0. 0. 0. 0. 0. 0. 0.
      1.66956767e-01 0. 0. 0. 0. 0. 0. 0. 0. 0. 0. 4.17391919e-02 0. 0.
      0. 4.17391919e-02 0. 0. 0. 0. 0. 0. 0. 0. 0. 0. 0. 4.17391919e-02
      0. 0. 0. 2.50435144e-01 0. 4.17391919e-02 8.34783837e-02
      8.34783837e-02 8.34783837e-02 4.17391919e-02 0. 0. 4.17391919e-02
      0. 4.17391919e-02 8.34783837e-02 0. 0. 0. 0. 0. 0. 0.
      8.34783837e-02 0. 0. 0. 0. 4.17391919e-02 0. 0. 0. 0. 0. 0. 0. 0.
      0. 4.17391919e-02 4.17391919e-02 0. 0. 0. 0. 0. 0. 4.17391919e-02
      4.17391919e-02 0. 0. 0. 0. 0. 0. 0. 0. 0. 0. 0. 0. 0.
      2.08695963e-01 4.17391919e-02 4.17391919e-02 0. 0. 0. 0. 0. 0. 0.
      0. 0. 0. 0. 4.17391919e-02 0. 0. 4.17391919e-02 4.17391919e-02 0.
      0. 0. 0. 0. 0. 0. 4.17391919e-02 0. 0. 0. 0. 0. 0. 0. 0. 0. 0. 0.
      0. 0. 0. 4.17391919e-02 8.34783837e-02 0. 0. 0. 0. 0. 0. 0. 0. 0.
      0. 0. 0. 0. 0. 0. 0. 0. 0. 0. 0. 0. 0. 0. 0. 0. 0. 4.17391919e-02
      0. 0. 4.17391919e-02 8.34783837e-02 0. 0. 0. 8.34783837e-02 0. 0.
      0. 0. 7.04761505e-01 0. 0. 0. 9.39681977e-02 0. 4.69840989e-02
      4.69840989e-02 1.87936395e-01 0. 0. 0. 1.40952289e-01 0.
      9.39681977e-02 0. 0. 0. 0. 0. 4.69840989e-02 0. 0. 4.69840989e-02
      4.69840989e-02 0. 0. 0. 1.87936395e-01 0. 4.69840989e-02
      9.39681977e-02 4.69840989e-02 0. 0. 0. 0. 0. 0. 0. 0. 0. 0. 0. 0.
      0. 0. 0. 0. 4.69840989e-02 0. 0. 0. 0. 0. 0. 0. 0. 0. 0. 0. 0.
      9.39681977e-02 2.34920502e-01 4.69840989e-02 0. 0. 0.
      2.34920502e-01 0. 0. 0. 0. 0. 0. 0. 0. 0. 0. 0. 0. 0. 0. 0. 0.
      1.87936395e-01 0. 0. 0. 0. 0. 0. 0. 4.69840989e-02 0. 0. 0.
      4.69840989e-02 0. 0. 0. 0. 0. 0. 0. 0. 0. 0. 0. 0. 0. 0.
      4.69840989e-02 0. 0. 0. 2.34920502e-01 0. 0. 4.69840989e-02
      4.69840989e-02 0. 0. 0. 0. 0. 4.69840989e-02 1.40952289e-01 0. 0.
      0. 0. 0. 0. 0. 0. 0. 0. 0. 0. 0. 0. 0. 0. 4.69840989e-02 0. 0. 0.
      0. 0. 0. 9.39681977e-02 0. 0. 0. 0. 0. 0. 0. 9.39681977e-02
      4.69840989e-02 0. 0. 0. 0. 0. 0. 0. 0. 0. 0. 0. 0. 0.
      2.34920502e-01 0. 0. 0. 0. 0. 0. 0. 0. 0. 0. 0. 0. 4.69840989e-02
      0. 0. 4.69840989e-02 1.40952289e-01 0. 0. 0. 0. 4.69840989e-02 0.
      4.69840989e-02 0. 4.69840989e-02 0. 0. 0. 0. 0. 0. 0. 0. 0.
      4.69840989e-02 0. 0. 0. 0. 0. 4.69840989e-02 0. 0. 0. 0. 0. 0. 0.
      0. 0. 0. 0. 4.69840989e-02 0. 0. 4.69840989e-02 0. 0. 0.
      4.69840989e-02 0. 0. 0. 0. 0. 0. 0. 0. 0. 0. 0. 0. 0. 0. 0.
      4.69840989e-02 0. 0. 4.69840989e-02 0. 7.88594306e-01 0. 0. 0.
      4.38107960e-02 0. 4.38107960e-02 4.38107960e-02 8.76215920e-02 0.
      0. 0. 4.38107960e-02 0. 0. 0. 0. 0. 0. 0. 8.76215920e-02 0. 0.
      4.38107960e-02 0. 0. 0. 0. 8.76215920e-02 4.38107960e-02 0. 0. 0.
      0. 0. 0. 0. 0. 0. 0. 0. 4.38107960e-02 0. 0. 0. 0. 0. 0. 0. 0. 0.
      0. 0. 0. 4.38107960e-02 0. 8.76215920e-02 0. 0. 0. 1.75243184e-01
      4.38107960e-02 8.76215920e-02 0. 0. 0. 0. 0. 2.19053984e-01 0. 0.
      0. 8.76215920e-02 0. 0. 0. 0. 0. 0. 4.38107960e-02 0. 0. 0. 0. 0.
      1.75243184e-01 0. 0. 0. 0. 0. 0. 0. 0. 0. 0. 0. 0. 0. 0. 0. 0. 0.
      0. 0. 0. 4.38107960e-02 0. 0. 0. 0. 0. 4.38107960e-02 0. 0. 0.
      2.62864769e-01 0. 0. 0. 4.38107960e-02 4.38107960e-02 0.
      4.38107960e-02 0. 4.38107960e-02 4.38107960e-02 1.31432384e-01 0.
      0. 0. 0. 0. 0. 4.38107960e-02 0. 4.38107960e-02 0. 0. 0.
      8.76215920e-02 0. 0. 0. 0. 0. 0. 0. 0. 0. 4.38107960e-02 0.
      4.38107960e-02 4.38107960e-02 0. 0. 0. 0. 0. 0. 4.38107960e-02 0.
      0. 0. 0. 0. 0. 0. 0. 0. 0. 0. 0. 0. 2.19053984e-01 0. 0. 0. 0. 0.
      0. 0. 0. 4.38107960e-02 0. 0. 0. 0. 4.38107960e-02 0.
      4.38107960e-02 8.76215920e-02 0. 0. 0. 0. 0. 0. 0. 0.
      4.38107960e-02 0. 0. 0. 0. 0. 0. 0. 0. 0. 0. 0. 0. 0. 0. 0.
      4.38107960e-02 0. 0. 0. 0. 0. 0. 0. 0. 0. 0. 0. 0. 0. 0. 0. 0. 0.
      0. 0. 0. 0. 0. 0. 0. 0. 0. 0. 0. 0. 0. 8.76215920e-02 0. 0. 0. 0.
      4.38107960e-02 4.38107960e-02 8.76215920e-02 0. 7.91768968e-01
      4.65746447e-02 0. 4.65746447e-02 0. 0. 0. 0. 9.31492895e-02 0. 0.
      0. 9.31492895e-02 0. 0. 0. 0. 0. 0. 0. 0. 0. 0. 0. 0. 0. 0. 0. 0.
      0. 0. 0. 4.65746447e-02 0. 0. 0. 0. 0. 0. 9.31492895e-02
      4.65746447e-02 0. 0. 0. 0. 0. 0. 0. 0. 0. 0. 0. 4.65746447e-02 0.
      9.31492895e-02 0. 0. 0. 0. 4.65746447e-02 0. 0. 0. 4.65746447e-02
      0. 0. 0. 0. 2.32873231e-01 0. 0. 0. 4.65746447e-02 4.65746447e-02
      0. 0. 0. 0. 0. 4.65746447e-02 0. 0. 0. 0. 0. 1.86298579e-01 0. 0.
      0. 0. 4.65746447e-02 0. 0. 4.65746447e-02 0. 0. 0. 4.65746447e-02
      0. 0. 0. 0. 0. 0. 0. 0. 0. 0. 0. 0. 0. 0. 4.65746447e-02 0. 0. 0.
      2.32873231e-01 0. 0. 0. 9.31492895e-02 0. 0. 0. 9.31492895e-02 0.
      0. 0. 9.31492895e-02 4.65746447e-02 0. 0. 4.65746447e-02 0. 0. 0.
      0. 0. 0. 0. 0. 0. 0. 0. 0. 0. 4.65746447e-02 0. 0. 0. 0. 0. 0. 0.
      0. 0. 9.31492895e-02 0. 9.31492895e-02 0. 4.65746447e-02 0. 0. 0.
      0. 0. 0. 0. 0. 0. 0. 0. 0. 0. 2.32873231e-01 0. 0. 0. 0.
      4.65746447e-02 0. 0. 0. 0. 0. 0. 0. 0. 0. 0. 0. 4.65746447e-02
      4.65746447e-02 0. 0. 0. 0. 0. 0. 4.65746447e-02 4.65746447e-02
      4.65746447e-02 0. 0. 0. 0. 0. 0. 0. 0. 0. 4.65746447e-02 0. 0. 0.
      4.65746447e-02 4.65746447e-02 0. 0. 4.65746447e-02 0. 0. 0.
      9.31492895e-02 0. 4.65746447e-02 0. 0. 0. 0. 0. 9.31492895e-02 0.
      0. 0. 0. 4.65746447e-02 0. 0. 0. 0. 0. 0. 0. 0. 0. 4.65746447e-02
      4.65746447e-02 0. 0. 0. 9.31492895e-02 0. 0. 4.65746447e-02 0.
      8.34812105e-01 0. 0. 4.39374782e-02 4.39374782e-02 0. 0.
      4.39374782e-02 4.39374782e-02 0. 0. 8.78749564e-02 4.39374782e-02
      0. 4.39374782e-02 0. 0. 0. 4.39374782e-02 0. 0. 0. 0. 0. 0. 0. 0.
      0. 0. 0. 0. 0. 4.39374782e-02 0. 4.39374782e-02 0. 0. 0. 0. 0. 0.
      0. 0. 0. 0. 0. 0. 0. 8.78749564e-02 0. 0. 0. 0. 0. 0.
      4.39374782e-02 0. 0. 0. 0. 0. 4.39374782e-02 4.39374782e-02
      8.78749564e-02 8.78749564e-02 0. 0. 4.39374782e-02 2.19687387e-01
      0. 0. 0. 0. 0. 0. 0. 0. 0. 0. 0. 0. 0. 0. 0. 4.39374782e-02
      1.75749913e-01 0. 0. 0. 0. 0. 0. 0. 0. 0. 0. 0. 0. 0. 0. 0. 0. 0.
      0. 0. 0. 0. 0. 0. 0. 0. 4.39374782e-02 4.39374782e-02 0. 0. 0.
      2.19687387e-01 0. 4.39374782e-02 0. 4.39374782e-02 0. 0. 0.
      4.39374782e-02 0. 0. 8.78749564e-02 0. 4.39374782e-02 0. 0.
      4.39374782e-02 0. 4.39374782e-02 0. 0. 0. 4.39374782e-02 0.
      4.39374782e-02 0. 0. 0. 4.39374782e-02 0. 0. 0. 4.39374782e-02 0.
      0. 0. 0. 4.39374782e-02 0. 0. 0. 0. 0. 4.39374782e-02
      4.39374782e-02 0. 0. 0. 0. 0. 0. 0. 0. 0. 0. 0. 0. 0.
      2.19687387e-01 0. 0. 0. 0. 0. 0. 0. 0. 0. 0. 0. 0. 0.
      4.39374782e-02 0. 4.39374782e-02 4.39374782e-02 4.39374782e-02 0.
      0. 0. 0. 0. 4.39374782e-02 0. 4.39374782e-02 0. 0. 0. 0. 0. 0. 0.
      0. 0. 0. 0. 0. 0. 0. 0. 4.39374782e-02 4.39374782e-02 0. 0. 0. 0.
      0. 8.78749564e-02 0. 0. 0. 0. 0. 0. 0. 0. 0. 0. 0. 0. 0. 0. 0. 0.
      0. 0. 4.39374782e-02 4.39374782e-02 0. 0. 0. 4.39374782e-02 0. 0.
      0. 0. 0. 4.39374782e-02 4.39374782e-02 0. 7.91768968e-01
      4.65746447e-02 0. 4.65746447e-02 0. 0. 0. 4.65746447e-02
      4.65746447e-02 0. 0. 0. 0. 0. 4.65746447e-02 0. 9.31492895e-02 0.
      0. 0. 0. 0. 0. 4.65746447e-02 9.31492895e-02 0. 0. 0. 0. 0. 0.
      4.65746447e-02 4.65746447e-02 0. 0. 0. 0. 0. 0. 4.65746447e-02 0.
      0. 0. 0. 0. 0. 0. 4.65746447e-02 9.31492895e-02 0. 0. 0.
      4.65746447e-02 0. 0. 0. 4.65746447e-02 0. 0. 0. 0. 0. 0. 0. 0. 0.
      0. 0. 2.32873231e-01 0. 0. 4.65746447e-02 0. 0. 0. 0. 0. 0. 0. 0.
      0. 0. 0. 0. 0. 1.86298579e-01 0. 0. 0. 0. 0. 0. 0. 0. 0.
      4.65746447e-02 4.65746447e-02 0. 0. 0. 0. 0. 0. 0. 0. 0. 0. 0. 0.
      0. 0. 0. 4.65746447e-02 0. 4.65746447e-02 0. 2.32873231e-01 0. 0.
      0. 1.39723927e-01 0. 0. 0. 4.65746447e-02 9.31492895e-02
      9.31492895e-02 9.31492895e-02 0. 0. 0. 0. 4.65746447e-02
      4.65746447e-02 4.65746447e-02 0. 0. 0. 0. 0. 4.65746447e-02 0. 0.
      4.65746447e-02 0. 0. 0. 0. 0. 0. 0. 0. 0. 0. 0. 0. 0. 0. 0. 0.
      4.65746447e-02 0. 0. 0. 0. 0. 0. 0. 0. 4.65746447e-02 0. 0. 0. 0.
      2.32873231e-01 0. 0. 4.65746447e-02 0. 0. 0. 0. 0. 0. 0. 0. 0. 0.
      0. 4.65746447e-02 0. 9.31492895e-02 0. 0. 0. 0. 0. 0. 0. 0.
      4.65746447e-02 0. 0. 0. 0. 0. 4.65746447e-02 0. 0. 0.
      4.65746447e-02 0. 0. 0. 0. 0. 4.65746447e-02 0. 0. 0. 0. 0.
      4.65746447e-02 4.65746447e-02 0. 0. 0. 0. 0. 0. 0. 0. 0. 0. 0. 0.
      0. 0. 0. 0. 0. 0. 0. 0. 0. 0. 0. 4.65746447e-02 0. 9.31492895e-02
      0. 9.31492895e-02 0. 4.65746447e-02 4.65746447e-02 0.
      7.83318639e-01 0. 9.21551362e-02 0. 0. 0. 4.60775681e-02 0. 0.
      4.60775681e-02 4.60775681e-02 0. 9.21551362e-02 0. 4.60775681e-02
      0. 0. 0. 9.21551362e-02 0. 4.60775681e-02 0. 4.60775681e-02 0.
      4.60775681e-02 0. 0. 0. 1.84310272e-01 0. 9.21551362e-02 0. 0. 0.
      0. 0. 0. 0. 0. 0. 0. 0. 0. 0. 0. 0. 0. 0. 0. 0. 0. 0. 0. 0. 0. 0.
      0. 0. 4.60775681e-02 0. 4.60775681e-02 0. 4.60775681e-02
      9.21551362e-02 0. 0. 0. 0. 2.30387837e-01 0. 4.60775681e-02 0. 0.
      0. 0. 0. 0. 0. 0. 0. 0. 0. 0. 0. 0. 1.84310272e-01 0. 0. 0. 0. 0.
      0. 0. 0. 0. 0. 0. 4.60775681e-02 0. 0. 0. 4.60775681e-02 0. 0. 0.
      0. 0. 0. 0. 0. 0. 0. 4.60775681e-02 0. 0. 0. 2.30387837e-01 0. 0.
      0. 4.60775681e-02 0. 0. 0. 4.60775681e-02 0. 4.60775681e-02 0. 0.
      0. 0. 0. 4.60775681e-02 0. 0. 0. 0. 0. 0. 0. 0. 0. 0. 0. 0. 0. 0.
      0. 0. 0. 0. 0. 0. 0. 0. 0. 0. 0. 0. 0. 4.60775681e-02 0. 0.
      4.60775681e-02 0. 0. 0. 0. 0. 0. 0. 0. 0. 4.60775681e-02
      2.30387837e-01 0. 0. 0. 0. 0. 0. 0. 0. 0. 0. 0. 0. 0. 0. 0.
      9.21551362e-02 0. 0. 9.21551362e-02 4.60775681e-02 4.60775681e-02
      0. 4.60775681e-02 0. 0. 4.60775681e-02 4.60775681e-02 0. 0. 0. 0.
      0. 0. 0. 0. 0. 0. 0. 0. 0. 0. 4.60775681e-02 0. 0. 0. 0.
      4.60775681e-02 0. 9.21551362e-02 0. 4.60775681e-02 0.
      9.21551362e-02 0. 0. 0. 4.60775681e-02 0. 0. 0. 0. 0.
      4.60775681e-02 0. 4.60775681e-02 0. 0. 0. 9.21551362e-02 0. 0. 0.
      4.60775681e-02 0. 4.60775681e-02 0. 0. 0. 0. 4.60775681e-02 0.
      8.09858263e-01 0. 1.34976387e-01 0. 8.99842530e-02 0. 0. 0. 0. 0.
      0. 0. 4.49921265e-02 0. 0. 0. 0. 0. 0. 0. 0. 0. 4.49921265e-02
      4.49921265e-02 4.49921265e-02 0. 0. 0. 8.99842530e-02
      4.49921265e-02 0. 0. 0. 4.49921265e-02 0. 0. 8.99842530e-02 0.
      4.49921265e-02 0. 8.99842530e-02 0. 0. 0. 4.49921265e-02 0. 0. 0.
      0. 0. 0. 0. 0. 0. 0. 0. 0. 0. 4.49921265e-02 0. 0. 4.49921265e-02
      0. 0. 0. 0. 0. 0. 2.24960625e-01 0. 0. 0. 0. 0. 0. 0. 0. 0. 0. 0.
      0. 0. 4.49921265e-02 0. 0. 1.79968506e-01 0. 0. 4.49921265e-02 0.
      0. 0. 0. 0. 0. 4.49921265e-02 0. 0. 4.49921265e-02 0. 0. 0. 0. 0.
      0. 0. 0. 0. 0. 0. 0. 0. 4.49921265e-02 0. 0. 0. 2.24960625e-01 0.
      0. 0. 4.49921265e-02 0. 4.49921265e-02 0. 0. 0. 4.49921265e-02
      4.49921265e-02 0. 0. 0. 0. 0. 0. 0. 0. 0. 0. 0. 0. 0. 0. 0. 0. 0.
      0. 0. 0. 0. 0. 4.49921265e-02 0. 0. 0. 0. 0. 0. 0. 0.
      4.49921265e-02 4.49921265e-02 0. 0. 0. 0. 0. 0. 0. 0. 0. 0. 0. 0.
      0. 2.24960625e-01 0. 0. 0. 0. 0. 0. 4.49921265e-02 0. 0. 0. 0. 0.
      0. 0. 0. 0. 4.49921265e-02 0. 0. 0. 0. 0. 0. 0. 0. 4.49921265e-02
      0. 0. 0. 0. 4.49921265e-02 0. 0. 0. 0. 0. 0. 0. 0. 0. 0.
      8.99842530e-02 0. 0. 4.49921265e-02 0. 4.49921265e-02
      1.34976387e-01 4.49921265e-02 4.49921265e-02 0. 0. 0. 0. 0. 0. 0.
      0. 0. 0. 0. 0. 0. 0. 4.49921265e-02 4.49921265e-02 0. 0. 0. 0.
      4.49921265e-02 0. 4.49921265e-02 0. 8.99842530e-02 0.
      4.49921265e-02 0. 4.49921265e-02 4.49921265e-02 0. 7.69800365e-01
      4.81125228e-02 9.62250456e-02 4.81125228e-02 4.81125228e-02 0.
      4.81125228e-02 0. 9.62250456e-02 0. 0. 0. 4.81125228e-02 0. 0.
      4.81125228e-02 0. 0. 4.81125228e-02 4.81125228e-02 0. 0. 0. 0. 0.
      0. 0. 0. 4.81125228e-02 0. 0. 0. 4.81125228e-02 0. 0. 0. 0. 0. 0.
      0. 4.81125228e-02 0. 0. 0. 0. 0. 0. 0. 4.81125228e-02 0. 0. 0. 0.
      0. 4.81125228e-02 4.81125228e-02 4.81125228e-02 0. 4.81125228e-02
      0. 1.44337565e-01 4.81125228e-02 0. 0. 0. 0. 0. 0. 2.40562618e-01
      0. 0. 0. 0. 0. 0. 0. 0. 0. 0. 0. 0. 4.81125228e-02 0. 0.
      4.81125228e-02 1.92450091e-01 0. 0. 0. 0. 0. 0. 4.81125228e-02 0.
      0. 0. 0. 0. 4.81125228e-02 0. 0. 0. 0. 0. 0. 0. 0. 0. 0. 0. 0. 0.
      9.62250456e-02 0. 0. 0. 2.40562618e-01 0. 0. 0. 9.62250456e-02 0.
      4.81125228e-02 0. 4.81125228e-02 0. 4.81125228e-02 0. 0. 0. 0. 0.
      9.62250456e-02 0. 0. 0. 0. 0. 0. 0. 0. 0. 0. 0. 0. 0. 0. 0. 0. 0.
      0. 0. 0. 0. 0. 0. 0. 0. 0. 9.62250456e-02 4.81125228e-02 0. 0. 0.
      0. 0. 0. 0. 0. 0. 0. 0. 0. 0. 2.40562618e-01 0. 0. 0. 0. 0. 0. 0.
      0. 0. 0. 0. 0. 0. 0. 0. 0. 4.81125228e-02 0. 4.81125228e-02 0. 0.
      0. 0. 0. 0. 4.81125228e-02 0. 0. 0. 0. 0. 0. 0. 0. 0. 0. 0. 0. 0.
      0. 0. 4.81125228e-02 0. 0. 0. 0. 0. 4.81125228e-02 1.44337565e-01
      4.81125228e-02 0. 4.81125228e-02 0. 0. 0. 0. 0. 0. 0. 0. 0. 0. 0.
      0. 0. 0. 0. 0. 0. 0. 0. 0. 4.81125228e-02 0. 9.62250456e-02
      4.81125228e-02 0. 9.62250456e-02 4.81125228e-02 0. 0.
      8.22210371e-01 0. 8.65484625e-02 4.32742313e-02 4.32742313e-02 0.
      0. 0. 1.29822701e-01 4.32742313e-02 4.32742313e-02 0. 0.
      4.32742313e-02 4.32742313e-02 0. 0. 0. 0. 0. 4.32742313e-02 0. 0.
      0. 0. 0. 0. 0. 0. 0. 0. 0. 0. 0. 0. 0. 0. 0. 0. 0. 0. 0. 0. 0. 0.
      0. 0. 0. 0. 0. 0. 0. 0. 0. 4.32742313e-02 0. 0. 0. 0. 0.
      4.32742313e-02 0. 4.32742313e-02 0. 4.32742313e-02 0. 0. 0.
      2.16371149e-01 0. 0. 0. 4.32742313e-02 0. 0. 0. 0. 0. 0. 0. 0. 0.
      0. 0. 0. 1.73096925e-01 0. 0. 0. 0. 4.32742313e-02 0. 0. 0. 0. 0.
      4.32742313e-02 0. 0. 0. 0. 0. 0. 0. 0. 0. 0. 0. 0. 0. 0.
      8.65484625e-02 4.32742313e-02 0. 0. 4.32742313e-02 2.16371149e-01
      0. 0. 0. 4.32742313e-02 0. 0. 0. 0. 0. 4.32742313e-02
      1.29822701e-01 0. 0. 0. 0. 4.32742313e-02 0. 0. 0. 4.32742313e-02
      0. 0. 0. 0. 0. 0. 4.32742313e-02 4.32742313e-02 0. 0. 0. 0. 0. 0.
      0. 0. 0. 0. 0. 4.32742313e-02 0. 0. 0. 4.32742313e-02 0. 0. 0. 0.
      0. 0. 0. 0. 0. 0. 0. 0. 0. 2.16371149e-01 0. 0. 0. 0. 0. 0.
      4.32742313e-02 0. 0. 0. 0. 0. 0. 0. 0. 8.65484625e-02
      4.32742313e-02 4.32742313e-02 0. 0. 0. 0. 0. 0. 4.32742313e-02
      4.32742313e-02 0. 0. 0. 0. 0. 0. 4.32742313e-02 0. 0.
      4.32742313e-02 0. 0. 0. 4.32742313e-02 4.32742313e-02
      8.65484625e-02 4.32742313e-02 0. 0. 0. 0. 0. 0. 0. 0. 0. 0. 0. 0.
      0. 0. 0. 0. 0. 0. 0. 0. 0. 4.32742313e-02 0. 0. 0. 0. 0. 0. 0.
      8.65484625e-02 0. 0. 0. 8.65484625e-02 0. 8.65484625e-02
      4.32742313e-02 0. 7.73389220e-01 4.83368263e-02 0. 4.83368263e-02
      4.83368263e-02 0. 0. 4.83368263e-02 4.83368263e-02 0. 0. 0.
      4.83368263e-02 0. 0. 1.45010471e-01 0. 0. 0. 0. 0. 0. 0. 0. 0. 0.
      0. 0. 0. 0. 0. 9.66736525e-02 0. 0. 0. 4.83368263e-02 0. 0. 0. 0.
      4.83368263e-02 0. 0. 0. 0. 0. 0. 0. 4.83368263e-02 4.83368263e-02
      0. 0. 0. 0. 9.66736525e-02 0. 0. 0. 0. 0. 0. 4.83368263e-02 0.
      9.66736525e-02 4.83368263e-02 4.83368263e-02 0. 0. 2.41684139e-01
      4.83368263e-02 0. 0. 0. 0. 0. 0. 0. 4.83368263e-02 0. 0. 0. 0. 0.
      0. 0. 1.93347305e-01 0. 0. 0. 0. 0. 0. 0. 0. 0. 0. 4.83368263e-02
      0. 0. 0. 0. 0. 0. 0. 9.66736525e-02 0. 4.83368263e-02 0. 0. 0. 0.
      0. 4.83368263e-02 0. 0. 0. 2.41684139e-01 0. 0. 4.83368263e-02
      4.83368263e-02 0. 0. 4.83368263e-02 4.83368263e-02 0.
      4.83368263e-02 0. 4.83368263e-02 0. 0. 0. 4.83368263e-02 0. 0. 0.
      4.83368263e-02 0. 0. 0. 0. 0. 0. 9.66736525e-02 0. 0. 0. 0. 0. 0.
      0. 0. 0. 0. 0. 0. 0. 0. 0. 0. 4.83368263e-02 0. 0. 0. 0. 0. 0.
      9.66736525e-02 0. 0. 0. 0. 0. 0. 2.41684139e-01 0. 4.83368263e-02
      0. 0. 0. 0. 0. 0. 0. 0. 0. 0. 4.83368263e-02 0. 0. 0.
      4.83368263e-02 0. 0. 0. 0. 0. 0. 4.83368263e-02 4.83368263e-02
      4.83368263e-02 4.83368263e-02 0. 0. 0. 0. 0. 4.83368263e-02 0. 0.
      0. 0. 0. 0. 0. 0. 4.83368263e-02 0. 0. 0. 0. 0. 0. 9.66736525e-02
      0. 0. 4.83368263e-02 0. 0. 0. 0. 0. 0. 0. 0. 0. 0. 0. 0.
      4.83368263e-02 0. 0. 0. 0. 0. 0. 0. 4.83368263e-02 0. 0. 0.
      9.66736525e-02 0. 0. 4.83368263e-02 0. 7.50000000e-01
      5.00000007e-02 5.00000007e-02 5.00000007e-02 0. 0. 0. 0. 0. 0. 0.
      0. 0. 0. 0. 5.00000007e-02 0. 0. 5.00000007e-02 0. 0. 0. 0. 0.
      5.00000007e-02 0. 0. 0. 5.00000007e-02 0. 1.50000006e-01 0.
      1.00000001e-01 0. 0. 0. 0. 0. 0. 5.00000007e-02 0. 0. 0.
      5.00000007e-02 0. 0. 0. 0. 1.00000001e-01 0. 0. 0. 0. 0. 0. 0. 0.
      0. 0. 0. 5.00000007e-02 5.00000007e-02 5.00000007e-02
      5.00000007e-02 0. 0. 0. 0. 2.50000000e-01 0. 0. 0. 0. 0. 0. 0.
      5.00000007e-02 0. 0. 0. 0. 0. 0. 0. 0. 2.00000003e-01 0. 0. 0. 0.
      0. 0. 5.00000007e-02 0. 0. 0. 1.00000001e-01 0. 0. 0. 0. 0. 0. 0.
      5.00000007e-02 0. 0. 0. 0. 0. 0. 0. 1.00000001e-01 0. 0. 0.
      2.50000000e-01 0. 0. 0. 1.00000001e-01 0. 0. 0. 5.00000007e-02 0.
      0. 5.00000007e-02 0. 0. 0. 0. 0. 5.00000007e-02 0. 0. 0. 0. 0. 0.
      0. 0. 0. 5.00000007e-02 0. 0. 0. 0. 0. 0. 5.00000007e-02 0. 0. 0.
      0. 0. 0. 0. 0. 0. 5.00000007e-02 0. 0. 5.00000007e-02 0. 0. 0. 0.
      0. 0. 0. 0. 0. 0. 2.50000000e-01 0. 0. 0. 0. 0. 0. 0. 0. 0.
      5.00000007e-02 0. 0. 0. 0. 5.00000007e-02 0. 0. 0. 1.00000001e-01
      0. 0. 0. 0. 0. 0. 5.00000007e-02 0. 0. 0. 0. 0. 0. 0. 0.
      5.00000007e-02 0. 0. 0. 0. 0. 0. 5.00000007e-02 0. 0. 0.
      5.00000007e-02 0. 0. 0. 5.00000007e-02 5.00000007e-02
      5.00000007e-02 5.00000007e-02 0. 0. 0. 5.00000007e-02 0. 0. 0. 0.
      0. 5.00000007e-02 0. 0. 0. 0. 0. 1.00000001e-01 0. 0. 0. 0.
      5.00000007e-02 5.00000007e-02 0. 0. 0. 1.50000006e-01
      5.00000007e-02 0. 7.89205194e-01 0. 4.64238338e-02 0.
      4.64238338e-02 0. 4.64238338e-02 0. 0. 0. 4.64238338e-02 0.
      4.64238338e-02 0. 0. 0. 0. 0. 4.64238338e-02 0. 0. 0. 0. 0.
      4.64238338e-02 0. 0. 0. 9.28476676e-02 4.64238338e-02 0.
      9.28476676e-02 9.28476676e-02 4.64238338e-02 0. 0. 0. 0.
      9.28476676e-02 0. 0. 0. 0. 0. 0. 0. 0. 0. 0. 4.64238338e-02 0. 0.
      4.64238338e-02 0. 0. 0. 0. 0. 9.28476676e-02 0. 0. 4.64238338e-02
      4.64238338e-02 0. 4.64238338e-02 0. 4.64238338e-02 0.
      2.32119173e-01 0. 0. 0. 0. 0. 0. 0. 0. 0. 0. 0. 0. 0. 0. 0. 0.
      1.85695335e-01 0. 0. 0. 0. 0. 0. 0. 0. 4.64238338e-02
      4.64238338e-02 4.64238338e-02 4.64238338e-02 4.64238338e-02 0. 0.
      0. 0. 0. 0. 0. 0. 0. 0. 0. 0. 0. 4.64238338e-02 0. 0. 0.
      2.32119173e-01 0. 0. 0. 4.64238338e-02 0. 0. 0. 0. 0.
      9.28476676e-02 0. 0. 0. 0. 0. 0. 0. 0. 0. 0. 0. 0. 0. 0. 0. 0. 0.
      4.64238338e-02 0. 0. 0. 0. 0. 0. 0. 0. 0. 0. 4.64238338e-02 0. 0.
      0. 0. 4.64238338e-02 0. 0. 0. 0. 0. 0. 0. 0. 0. 0. 0. 0. 0.
      2.32119173e-01 0. 0. 0. 0. 0. 0. 0. 0. 0. 0. 0. 0. 0.
      4.64238338e-02 0. 4.64238338e-02 4.64238338e-02 4.64238338e-02 0.
      0. 0. 0. 0. 0. 0. 4.64238338e-02 0. 0. 0. 0. 0. 0. 0. 0. 0. 0.
      4.64238338e-02 0. 0. 4.64238338e-02 0. 4.64238338e-02 0. 0.
      4.64238338e-02 0. 0. 0. 1.39271498e-01 0. 0. 0. 0. 0.
      4.64238338e-02 0. 0. 0. 0. 0. 0. 0. 1.39271498e-01 0. 0. 0. 0. 0.
      4.64238338e-02 0. 0. 0. 0. 0. 4.64238338e-02 0. 0. 0.
      4.64238338e-02 9.28476676e-02 0. 7.87509799e-01 0. 1.38972312e-01
      4.63241041e-02 0. 0. 4.63241041e-02 0. 9.26482081e-02 0. 0. 0.
      4.63241041e-02 4.63241041e-02 0. 0. 0. 0. 0. 0. 0. 0. 0. 0. 0. 0.
      0. 0. 4.63241041e-02 0. 4.63241041e-02 0. 9.26482081e-02 0. 0. 0.
      0. 0. 0. 0. 0. 0. 0. 0. 0. 0. 0. 4.63241041e-02 0. 0. 0. 0. 0.
      4.63241041e-02 0. 0. 0. 0. 0. 0. 4.63241041e-02 0. 0.
      4.63241041e-02 0. 0. 0. 0. 2.31620520e-01 0. 0. 0. 0. 0. 0. 0. 0.
      0. 0. 4.63241041e-02 0. 0. 0. 0. 0. 1.85296416e-01 0. 0. 0. 0. 0.
      0. 0. 0. 0. 4.63241041e-02 4.63241041e-02 0. 0. 0. 0. 0. 0. 0. 0.
      0. 0. 0. 0. 0. 0. 0. 4.63241041e-02 0. 0. 0. 2.31620520e-01 0. 0.
      4.63241041e-02 9.26482081e-02 4.63241041e-02 4.63241041e-02
      9.26482081e-02 0. 0. 0. 4.63241041e-02 0. 4.63241041e-02 0. 0. 0.
      4.63241041e-02 0. 0. 0. 0. 0. 0. 0. 0. 0. 4.63241041e-02 0. 0. 0.
      0. 0. 0. 0. 0. 0. 0. 0. 0. 0. 0. 0. 4.63241041e-02 4.63241041e-02
      0. 0. 0. 0. 0. 0. 0. 0. 0. 0. 0. 0. 0. 2.31620520e-01 0. 0. 0. 0.
      0. 0. 0. 0. 0. 4.63241041e-02 0. 0. 0. 0. 0. 0. 0. 0.
      4.63241041e-02 0. 0. 0. 0. 0. 0. 4.63241041e-02 0. 0. 0.
      4.63241041e-02 0. 0. 9.26482081e-02 0. 0. 0. 0. 0. 0. 0. 0.
      4.63241041e-02 4.63241041e-02 0. 0. 0. 0. 0. 4.63241041e-02
      4.63241041e-02 4.63241041e-02 0. 4.63241041e-02 0. 0. 0.
      4.63241041e-02 0. 0. 0. 0. 0. 4.63241041e-02 0. 4.63241041e-02 0.
      0. 0. 4.63241041e-02 0. 0. 4.63241041e-02 4.63241041e-02
      4.63241041e-02 4.63241041e-02 0. 0. 0. 1.85296416e-01 0. 0.
      7.80013442e-01 4.58831452e-02 0. 9.17662904e-02 4.58831452e-02
      4.58831452e-02 0. 0. 0. 0. 4.58831452e-02 0. 4.58831452e-02 0. 0.
      4.58831452e-02 0. 0. 0. 4.58831452e-02 4.58831452e-02 0. 0. 0. 0.
      0. 0. 0. 9.17662904e-02 0. 4.58831452e-02 0. 4.58831452e-02 0. 0.
      0. 0. 0. 0. 0. 0. 0. 0. 0. 4.58831452e-02 0. 0. 0. 0. 0. 0. 0.
      4.58831452e-02 0. 0. 0. 4.58831452e-02 0. 0. 0. 0. 0. 0. 0. 0. 0.
      0. 4.58831452e-02 2.29415730e-01 0. 0. 0. 0. 0. 0. 0. 0. 0. 0. 0.
      0. 0. 0. 0. 0. 1.83532581e-01 0. 4.58831452e-02 0. 0. 0. 0. 0. 0.
      0. 4.58831452e-02 0. 0. 0. 0. 0. 0. 0. 0. 0. 0. 0. 0. 0. 0. 0. 0.
      4.58831452e-02 0. 0. 0. 2.29415730e-01 0. 0. 0. 4.58831452e-02 0.
      0. 0. 0. 0. 0. 1.37649432e-01 0. 0. 0. 0. 0. 0. 0. 0. 0. 0. 0. 0.
      0. 0. 0. 0. 0. 0. 0. 0. 0. 0. 0. 0. 0. 0. 0. 0. 0. 0.
      4.58831452e-02 0. 4.58831452e-02 4.58831452e-02 0. 9.17662904e-02
      0. 0. 4.58831452e-02 0. 0. 4.58831452e-02 0. 0. 0. 0.
      2.29415730e-01 0. 0. 0. 0. 0. 0. 0. 0. 0. 0. 0. 0. 0.
      4.58831452e-02 0. 4.58831452e-02 4.58831452e-02 0. 4.58831452e-02
      0. 9.17662904e-02 4.58831452e-02 0. 0. 0. 4.58831452e-02
      4.58831452e-02 0. 0. 0. 0. 0. 1.83532581e-01 0. 4.58831452e-02 0.
      0. 0. 0. 0. 0. 4.58831452e-02 0. 0. 0. 0. 4.58831452e-02 0.
      1.83532581e-01 0. 0. 4.58831452e-02 0. 0. 0. 0. 0. 0. 0. 0. 0. 0.
      0. 0. 4.58831452e-02 0. 0. 4.58831452e-02 0. 0. 0. 0.
      4.58831452e-02 0. 4.58831452e-02 0. 0. 0. 0. 0. 0. 7.78376520e-01
      4.57868539e-02 0. 0. 9.15737078e-02 0. 0. 0. 9.15737078e-02 0. 0.
      0. 4.57868539e-02 0. 0. 0. 0. 0. 0. 0. 0. 0. 0. 0. 0. 0. 0. 0. 0.
      0. 4.57868539e-02 0. 4.57868539e-02 0. 0. 0. 0. 0. 0. 0. 0. 0. 0.
      0. 0. 0. 0. 9.15737078e-02 0. 0. 0. 0. 0. 0. 0. 0. 9.15737078e-02
      0. 0. 0. 0. 0. 4.57868539e-02 4.57868539e-02 0. 0. 0. 0.
      2.28934273e-01 0. 0. 0. 0. 4.57868539e-02 0. 0. 0. 4.57868539e-02
      0. 4.57868539e-02 0. 0. 0. 4.57868539e-02 0. 1.83147416e-01 0. 0.
      0. 0. 0. 0. 0. 0. 0. 0. 0. 0. 0. 0. 0. 0. 0. 4.57868539e-02 0. 0.
      0. 0. 0. 0. 0. 4.57868539e-02 4.57868539e-02 4.57868539e-02 0. 0.
      2.28934273e-01 0. 0. 0. 2.28934273e-01 0. 0. 4.57868539e-02 0. 0.
      4.57868539e-02 1.37360558e-01 4.57868539e-02 4.57868539e-02 0.
      4.57868539e-02 0. 0. 0. 0. 0. 0. 0. 0. 4.57868539e-02 0. 0. 0. 0.
      0. 0. 0. 4.57868539e-02 0. 4.57868539e-02 4.57868539e-02 0. 0. 0.
      0. 0. 0. 0. 0. 4.57868539e-02 0. 0. 0. 0. 0. 0. 0. 0. 0. 0. 0. 0.
      0. 2.28934273e-01 0. 0. 0. 0. 0. 0. 0. 0. 9.15737078e-02 0. 0. 0.
      0. 0. 0. 0. 9.15737078e-02 4.57868539e-02 0. 0. 0. 0.
      4.57868539e-02 0. 0. 4.57868539e-02 0. 0. 4.57868539e-02 0.
      4.57868539e-02 0. 0. 0. 0. 0. 0. 0. 0. 0. 4.57868539e-02
      4.57868539e-02 0. 0. 0. 0. 0. 0. 4.57868539e-02 0. 0. 0.
      9.15737078e-02 0. 0. 0. 4.57868539e-02 0. 0. 0. 4.57868539e-02 0.
