<?xml version="1.0"?>
<opencv_storage>
<opencv_ml_svm>
  <format>3</format>
  <svmType>C_SVC</svmType>
  <kernel>
    <type>RBF</type>
    <gamma>8.0000000000000002e-02</gamma></kernel>
  <C>3.</C>
  <term_criteria><iterations>1000</iterations></term_criteria>
  <var_count>2304</var_count>
  <class_count>2</class_count>
  <class_labels type_id="opencv-matrix">
    <rows>2</rows>
    <cols>1</cols>
    <dt>i</dt>
    <data>
      1 2</data></class_labels>
  <sv_total>85</sv_total>
  <support_vectors>
    <_>
      9.29981112e-01 0. 0. 2.90619098e-02 0. 0. 2.90619098e-02
      1.16247639e-01 2.90619098e-02 0. 0. 2.90619098e-02 0. 0.
      2.90619098e-02 8.71857256e-02 0. 0. 0. 0. 0. 0. 0. 0. 0. 0. 0. 0.
      0. 0. 0. 0. 0. 0. 0. 0. 0. 0. 0. 0. 0. 0. 0. 0. 0. 0. 0. 0. 0. 0.
      0. 0. 0. 2.90619098e-02 0. 0. 0. 0. 0. 0. 0. 0. 0. 0.
      2.90619098e-02 0. 2.90619098e-02 0. 0. 0. 0. 0. 0. 0. 0. 0. 0. 0.
      0. 0. 0. 0. 0. 0. 0. 2.90619098e-02 0. 0. 0. 0. 0. 0. 0. 0. 0. 0.
      0. 0. 0. 2.90619098e-02 0. 0. 0. 0. 0. 0. 0. 0. 0. 0. 0. 0.
      5.81238195e-02 0. 0. 0. 0. 0. 0. 0. 0. 0. 0. 0. 0. 0. 0. 0.
      5.81238195e-02 2.90619098e-02 0. 0. 0. 0. 0. 8.71857256e-02 0. 0.
      0. 0. 0. 0. 0. 1.74371451e-01 0. 0. 0. 2.90619098e-02 0. 0. 0. 0.
      0. 0. 0. 0. 0. 0. 0. 2.90619098e-02 0. 0. 0. 0. 0. 0. 0. 0. 0. 0.
      0. 0. 0. 0. 2.90619098e-02 0. 0. 0. 0. 0. 0. 0. 0. 0. 0. 0. 0. 0.
      0. 0. 0. 0. 5.81238195e-02 2.90619098e-02 0. 0. 0. 2.90619098e-02
      0. 5.81238195e-02 0. 0. 0. 0. 0. 0. 0. 5.81238195e-02 0. 0. 0. 0.
      0. 0. 0. 0. 0. 0. 0. 0. 0. 0. 0. 2.90619098e-02 2.90619098e-02
      2.90619098e-02 0. 8.71857256e-02 0. 0. 0. 5.81238195e-02 0.
      5.81238195e-02 0. 0. 0. 0. 0. 5.81238195e-02 1.16247639e-01
      5.81238195e-02 0. 2.90619098e-02 0. 2.90619098e-02 0.
      5.81238195e-02 0. 5.81238195e-02 0. 0. 0. 0. 0. 0. 8.78169000e-01
      0. 0. 0. 2.58284993e-02 2.58284993e-02 0. 1.29142493e-01 0. 0.
      2.58284993e-02 0. 2.58284993e-02 0. 2.58284993e-02 3.87427479e-01
      0. 0. 0. 0. 0. 0. 0. 0. 2.58284993e-02 0. 0. 0. 0. 0. 0.
      7.74855018e-02 2.58284993e-02 0. 0. 0. 0. 0. 0. 0. 0. 0. 0. 0. 0.
      0. 2.58284993e-02 2.58284993e-02 2.58284993e-02 0. 0. 0. 0.
      2.58284993e-02 0. 0. 0. 0. 0. 0. 0. 0. 0. 2.58284993e-02 0. 0.
      2.58284993e-02 0. 0. 0. 0. 0. 0. 0. 0. 0. 0. 0. 0. 0. 0. 0. 0. 0.
      0. 2.58284993e-02 0. 0. 0. 0. 0. 0. 0. 0. 0. 0. 0. 0. 0. 0. 0. 0.
      2.58284993e-02 0. 0. 0. 0. 0. 0. 0. 0. 0. 0. 0. 0. 0. 0. 0. 0. 0.
      0. 0. 0. 0. 0. 0. 0. 2.58284993e-02 0. 2.58284993e-02 0. 0. 0. 0.
      0. 1.03313997e-01 0. 0. 0. 2.58284993e-02 0. 0. 0. 1.54971004e-01
      0. 2.58284993e-02 0. 0. 0. 0. 0. 0. 0. 0. 0. 0. 0. 0.
      2.58284993e-02 2.58284993e-02 0. 0. 0. 0. 0. 0. 0. 0. 0. 0. 0. 0.
      0. 0. 2.58284993e-02 2.58284993e-02 0. 0. 0. 0. 0. 0. 0. 0. 0. 0.
      0. 0. 0. 0. 0. 0. 0. 0. 0. 0. 0. 0. 0. 0. 0. 0. 0. 0. 0. 0. 0. 0.
      0. 0. 0. 0. 0. 0. 0. 0. 0. 0. 0. 0. 2.58284993e-02 0. 0.
      5.16569987e-02 0. 0. 0. 0. 0. 0. 0. 0. 0. 0. 0. 0. 0. 0. 0. 0.
      2.58284993e-02 0. 0. 0. 0. 0. 0. 0. 2.58284993e-02 0. 0. 0. 0.
      2.58284993e-02 2.58284993e-02 0. 8.30887198e-01 0. 0. 0. 0. 0.
      2.68028136e-02 8.04084390e-02 0. 0. 0. 0. 0. 0. 0. 2.68028136e-02
      0. 0. 0. 0. 0. 0. 0. 0. 0. 0. 0. 0. 0. 0. 0. 2.68028136e-02 0. 0.
      0. 0. 0. 0. 0. 0. 0. 0. 0. 0. 0. 0. 0. 0. 0. 0. 0. 0. 0.
      2.68028136e-02 2.68028136e-02 0. 8.04084390e-02 0. 0. 0.
      1.07211255e-01 0. 2.68028136e-02 5.36056273e-02 0. 0.
      2.68028136e-02 0. 0. 0. 0. 0. 0. 0. 0. 0. 0. 0. 0. 0. 0. 0. 0. 0.
      0. 2.68028136e-02 0. 0. 0. 0. 0. 0. 0. 0. 0. 0. 0. 0. 0. 0. 0. 0.
      0. 0. 0. 0. 0. 0. 0. 0. 0. 0. 0. 0. 0. 0. 0. 0. 0. 0.
      5.36056273e-02 0. 0. 0. 1.34014070e-01 0. 0. 2.68028136e-02 0. 0.
      0. 8.04084390e-02 0. 0. 0. 4.55647826e-01 0. 0. 0. 0. 0. 0. 0.
      8.04084390e-02 0. 0. 0. 0. 0. 0. 0. 0. 0. 0. 0. 0. 0. 0. 0.
      1.07211255e-01 0. 0. 0. 0. 0. 0. 0. 0. 0. 0. 0. 0. 0. 0.
      2.68028136e-02 2.68028136e-02 0. 0. 0. 0. 0. 0. 0. 0. 0. 0. 0. 0.
      0. 0. 0. 8.04084390e-02 0. 0. 0. 0. 0. 0. 0. 1.07211255e-01 0. 0.
      0. 0. 0. 0. 0. 0. 0. 0. 0. 0. 0. 0. 0. 0. 0. 0. 0. 0. 0. 0. 0.
      5.36056273e-02 0. 0. 0. 0. 0. 0. 0. 0. 0. 0. 0. 0. 0. 0. 0. 0.
      2.68028136e-02 0. 0. 0. 0. 0. 0. 0. 0. 0. 0. 0. 0. 0. 0. 0.
      9.73719001e-01 2.56241839e-02 0. 0. 2.56241839e-02 0. 0. 0. 0. 0.
      0. 0. 0. 0. 0. 0. 0. 0. 0. 0. 2.56241839e-02 0. 0. 2.56241839e-02
      0. 0. 0. 0. 0. 0. 0. 0. 0. 0. 0. 0. 0. 0. 0. 0. 0. 0. 0. 0. 0. 0.
      0. 0. 0. 0. 0. 0. 0. 2.56241839e-02 0. 0. 0. 0. 0. 0. 0. 0. 0. 0.
      0. 0. 2.56241839e-02 0. 0. 2.56241839e-02 0. 0. 0. 0. 0. 0. 0. 0.
      0. 0. 0. 0. 0. 0. 0. 2.56241839e-02 0. 0. 0. 0. 0. 0. 0. 0. 0. 0.
      5.12483679e-02 0. 0. 0. 0. 0. 0. 2.56241839e-02 0. 0. 0. 0. 0. 0.
      0. 0. 0. 2.56241839e-02 0. 2.56241839e-02 0. 0. 2.56241839e-02 0.
      2.56241839e-02 2.56241839e-02 0. 0. 0. 0. 0. 0. 2.56241839e-02 0.
      0. 0. 2.56241839e-02 0. 0. 0. 0. 0. 0. 0. 0. 0. 0. 0.
      2.56241839e-02 0. 0. 0. 0. 0. 0. 0. 0. 0. 0. 0. 0. 0. 0. 0. 0. 0.
      0. 0. 0. 0. 0. 0. 2.56241839e-02 2.56241839e-02 2.56241839e-02 0.
      0. 0. 2.56241839e-02 0. 2.56241839e-02 0. 0. 2.56241839e-02 0. 0.
      0. 0. 0. 0. 0. 0. 0. 0. 0. 2.56241839e-02 5.12483679e-02 0.
      2.56241839e-02 0. 0. 0. 0. 0. 0. 0. 0. 0. 0. 0. 0. 0. 0. 0. 0. 0.
      2.56241839e-02 0. 0. 0. 0. 2.56241839e-02 0. 2.56241839e-02 0. 0.
      0. 2.56241839e-02 0. 0. 0. 2.56241839e-02 0. 2.56241839e-02 0. 0.
      5.12483679e-02 2.56241839e-02 0. 5.12483679e-02 0. 0. 0.
      5.12483679e-02 5.12483679e-02 5.12483679e-02 0. 0. 0.
      2.56241839e-02 0. 5.12483679e-02 0. 7.68725500e-02 0.
      5.12483679e-02 0. 0. 2.56241839e-02 0. 9.33084488e-01 0.
      2.66595576e-02 0. 0. 0. 2.66595576e-02 0. 0. 0. 0. 0. 0. 0. 0. 0.
      2.66595576e-02 0. 0. 0. 0. 0. 0. 0. 0. 0. 0. 0. 0. 0. 0.
      2.66595576e-02 2.66595576e-02 0. 0. 0. 0. 0. 0. 0. 0. 0. 0. 0.
      2.66595576e-02 0. 2.66595576e-02 0. 0. 0. 2.66595576e-02 0. 0.
      2.66595576e-02 0. 0. 7.99786747e-02 0. 0. 0. 0. 0. 0.
      2.66595576e-02 0. 0. 2.66595576e-02 0. 0. 0. 0. 0. 2.66595576e-02
      0. 0. 0. 0. 0. 0. 0. 0. 0. 0. 0. 0. 2.66595576e-02 0. 0.
      2.66595576e-02 0. 0. 0. 0. 2.66595576e-02 0. 0. 0. 0. 0. 0. 0. 0.
      0. 0. 0. 0. 0. 0. 0. 0. 0. 0. 1.06638230e-01 0. 2.66595576e-02 0.
      0. 0. 0. 0. 1.86616898e-01 0. 0. 0. 0. 2.66595576e-02
      2.66595576e-02 1.06638230e-01 5.33191152e-02 0. 0. 0. 0. 0. 0. 0.
      0. 0. 0. 0. 0. 0. 0. 2.66595576e-02 0. 0. 0. 0. 0. 0. 0. 0.
      5.33191152e-02 0. 0. 0. 0. 2.66595576e-02 0. 0. 0. 0. 0. 0. 0. 0.
      0. 0. 0. 0. 0. 0. 0. 0. 2.66595576e-02 0. 0. 0. 0. 0. 0. 0. 0. 0.
      5.33191152e-02 0. 0. 0. 0. 2.66595576e-02 2.66595576e-02 0. 0. 0.
      0. 0. 0. 0. 0. 0. 0. 0. 0. 0. 0. 0. 0. 0. 0. 0. 0. 0.
      2.66595576e-02 0. 0. 0. 2.66595576e-02 0. 0. 0. 0. 0. 0. 0. 0. 0.
      0. 0. 0. 0. 0. 0. 0. 0. 0. 0. 0. 0. 0. 0. 5.33191152e-02 0. 0. 0.
      0. 0. 0. 0. 1.86616898e-01 0. 0. 0. 2.66595576e-02 0.
      2.66595576e-02 0. 8.67833376e-01 0. 0. 0. 2.79946253e-02 0. 0. 0.
      0. 0. 0. 0. 0. 0. 2.79946253e-02 0. 2.79946253e-02 0. 0. 0. 0. 0.
      2.79946253e-02 0. 0. 0. 2.79946253e-02 0. 2.79946253e-02 0.
      8.39838758e-02 1.39973134e-01 0. 0. 0. 0. 0. 0. 0. 0.
      2.79946253e-02 0. 0. 0. 2.79946253e-02 0. 0. 0. 2.79946253e-02 0.
      0. 0. 0. 2.79946253e-02 0. 0. 5.59892505e-02 2.79946253e-02 0. 0.
      1.67967752e-01 0. 8.39838758e-02 2.79946253e-02 0. 0.
      2.79946253e-02 0. 0. 0. 0. 0. 0. 0. 0. 0. 0. 0. 0. 0. 0. 0. 0. 0.
      0. 2.79946253e-02 0. 0. 0. 0. 0. 0. 2.79946253e-02 0. 0. 0. 0. 0.
      0. 0. 0. 0. 0. 0. 0. 0. 0. 0. 0. 0. 0. 0. 5.59892505e-02 0. 0. 0.
      0. 0. 0. 0. 3.63930136e-01 0. 0. 0. 1.11978501e-01 0. 0. 0. 0. 0.
      0. 0. 0. 0. 0. 0. 0. 0. 0. 0. 0. 0. 0. 0. 0. 0. 0. 0. 0. 0. 0. 0.
      0. 0. 0. 0. 0. 0. 0. 8.39838758e-02 0. 0. 0. 0. 0. 0. 0. 0. 0. 0.
      0. 0. 0. 0. 2.79946253e-02 0. 0. 0. 0. 0. 0. 0. 0. 2.79946253e-02
      0. 0. 0. 0. 0. 0. 2.79946253e-02 2.79946253e-02 0. 0. 0. 0. 0. 0.
      0. 0. 0. 0. 0. 0. 0. 0. 0. 0. 0. 0. 0. 0. 0. 0. 0. 0. 0. 0. 0. 0.
      0. 0. 0. 0. 0. 0. 0. 0. 0. 0. 0. 0. 0. 0. 0. 0. 0. 0. 0. 0.
      2.79946253e-02 0. 0. 0. 0. 0. 0. 0. 8.39838758e-02 0. 0. 0.
      5.59892505e-02 0. 2.79946253e-02 0. 9.38435614e-01 0. 0. 0. 0. 0.
      0. 0. 0. 0. 0. 0. 0. 0. 0. 0. 0. 0. 0. 0. 0. 0. 0. 0. 0. 0. 0. 0.
      0. 0. 0. 0. 0. 0. 0. 0. 2.68124454e-02 0. 0. 0. 0. 2.68124454e-02
      0. 0. 0. 0. 0. 0. 0. 0. 0. 0. 0. 2.68124454e-02 0. 0. 0. 0. 0. 0.
      0. 0. 0. 0. 5.36248907e-02 0. 5.36248907e-02 0. 0. 0. 0. 0. 0. 0.
      0. 0. 0. 0. 0. 0. 0. 0. 0. 2.68124454e-02 0. 2.68124454e-02 0. 0.
      0. 0. 0. 0. 0. 0. 0. 0. 5.36248907e-02 0. 0. 0. 0. 0. 0. 0. 0. 0.
      0. 0. 0. 0. 0. 0. 5.36248907e-02 2.68124454e-02 0. 0. 0. 0. 0. 0.
      0. 0. 0. 0. 0. 2.68124454e-02 0. 0. 2.68124454e-02 0. 0.
      8.04373324e-02 0. 0. 0. 0. 0. 0. 0. 0. 0. 0. 0. 0. 0. 0. 0. 0. 0.
      0. 0. 0. 0. 0. 0. 0. 0. 0. 0. 0. 0. 0. 0. 0. 0. 0. 0. 0. 0. 0. 0.
      0. 0. 2.68124454e-02 2.68124454e-02 0. 0. 0. 0. 0. 0. 0. 0. 0. 0.
      2.68124454e-02 0. 0. 0. 0. 0. 0. 1.07249781e-01 2.68124454e-02 0.
      2.68124454e-02 2.68124454e-02 0. 0. 0. 0. 0. 0. 0. 0. 0. 0. 0. 0.
      0. 0. 0. 0. 2.68124454e-02 0. 0. 0. 0. 0. 2.68124454e-02 0. 0. 0.
      2.68124454e-02 5.36248907e-02 1.07249781e-01 0. 2.68124454e-02 0.
      0. 0. 0. 0. 0. 0. 0. 0. 0. 0. 0. 1.07249781e-01 1.07249781e-01
      5.36248907e-02 1.07249781e-01 0. 0. 0. 2.68124454e-02 0.
      8.04373324e-02 0. 1.34062231e-01 0. 0. 0. 0. 9.25303876e-01
      2.89157461e-02 0. 0. 0. 0. 0. 0. 0. 0. 0. 0. 0. 0. 0. 0. 0. 0. 0.
      0. 0. 0. 0. 0. 2.89157461e-02 0. 0. 0. 2.89157461e-02 0. 0. 0. 0.
      0. 0. 0. 0. 0. 0. 0. 0. 0. 0. 0. 0. 0. 0. 0. 2.89157461e-02 0. 0.
      0. 0. 2.89157461e-02 0. 0. 0. 0. 0. 2.89157461e-02 5.78314923e-02
      0. 5.78314923e-02 0. 2.89157461e-02 0. 2.89157461e-02 0. 0. 0. 0.
      0. 0. 0. 0. 0. 0. 0. 0. 0. 0. 0. 0. 0. 0. 2.89157461e-02 0. 0. 0.
      0. 0. 0. 0. 0. 0. 0. 0. 0. 0. 0. 5.78314923e-02 0. 0. 0. 0. 0. 0.
      0. 0. 0. 0. 0. 1.15662985e-01 0. 0. 0. 0. 0. 0. 2.89157461e-02
      8.67472365e-02 0. 0. 0. 5.78314923e-02 2.89157461e-02
      2.89157461e-02 0. 0. 0. 0. 0. 0. 0. 0. 0. 0. 0. 0. 0. 0. 0. 0. 0.
      0. 0. 0. 0. 0. 0. 0. 0. 0. 0. 0. 0. 0. 0. 0. 0. 0. 0. 0. 0. 0. 0.
      0. 0. 0. 0. 0. 0. 0. 0. 2.89157461e-02 0. 2.89157461e-02 0. 0. 0.
      0. 0. 0. 0. 0. 0. 0. 0. 0. 0. 0. 2.89157461e-02 0. 0. 0. 0. 0. 0.
      0. 0. 0. 0. 0. 0. 0. 0. 2.89157461e-02 0. 0. 0. 0. 0. 0.
      2.89157461e-02 0. 0. 0. 0. 0. 0. 0. 0. 0. 0. 0. 0. 0. 0. 0. 0. 0.
      0. 0. 0. 0. 2.89157461e-02 0. 0. 0. 0. 1.73494473e-01
      2.89157461e-02 8.67472365e-02 0. 2.89157461e-02 0. 0.
      2.89157461e-02 1.73494473e-01 1.15662985e-01 0. 5.78314923e-02
      5.78314923e-02 2.89157461e-02 5.78314923e-02 0. 8.95046771e-01 0.
      0. 0. 0. 0. 0. 0. 0. 0. 0. 0. 0. 0. 0. 0. 2.63249055e-02 0. 0. 0.
      0. 0. 0. 0. 2.63249055e-02 0. 0. 0. 5.26498109e-02 0.
      2.63249055e-02 0. 2.63249055e-02 0. 0. 0. 2.63249055e-02 0. 0. 0.
      0. 0. 2.63249055e-02 0. 0. 0. 0. 0. 5.26498109e-02 0.
      2.63249055e-02 0. 5.26498109e-02 2.63249055e-02 0. 0.
      2.63249055e-02 0. 2.63249055e-02 0. 3.42223763e-01 0.
      1.05299622e-01 0. 0. 0. 2.63249055e-02 0. 0. 0. 0. 0. 0. 0. 0. 0.
      0. 0. 0. 0. 0. 0. 0. 0. 0. 2.63249055e-02 0. 0. 0. 0. 0. 0.
      2.63249055e-02 0. 2.63249055e-02 0. 0. 0. 2.63249055e-02 0. 0. 0.
      0. 0. 0. 0. 0. 0. 0. 0. 0. 0. 0. 0. 0. 0. 0. 0. 0. 0.
      2.63249055e-02 0. 0. 0. 1.57949433e-01 0. 2.63249055e-02 0. 0. 0.
      0. 0. 0. 0. 0. 0. 0. 0. 0. 0. 0. 0. 0. 0. 0. 0. 0. 0. 0. 0. 0. 0.
      0. 0. 0. 0. 0. 0. 0. 0. 0. 0. 0. 0. 0. 0. 0. 0. 0. 0. 0. 0. 0. 0.
      2.63249055e-02 0. 0. 0. 0. 0. 0. 0. 0. 0. 0. 0. 0. 0.
      2.63249055e-02 0. 0. 0. 0. 0. 0. 0. 0. 0. 0. 0. 0. 0. 0. 0. 0. 0.
      0. 2.63249055e-02 0. 0. 0. 0. 0. 0. 0. 0. 0. 0. 0. 0. 0.
      2.63249055e-02 0. 0. 0. 0. 0. 0. 0. 0. 0. 0. 0. 0. 0. 0. 0. 0. 0.
      0. 2.63249055e-02 0. 0. 0. 0. 0. 0. 0. 0. 2.63249055e-02
      2.63249055e-02 2.63249055e-02 7.89747164e-02 5.26498109e-02
      1.05299622e-01 0.</_>
    <_>
      8.20347011e-01 0. 0. 0. 0. 0. 0. 0. 0. 0. 0. 0. 0. 0.
      1.58776835e-01 2.64628064e-02 0. 0. 0. 2.64628064e-02 0. 0. 0. 0.
      1.05851226e-01 0. 2.64628064e-02 2.64628064e-02 0. 0.
      7.93884173e-02 2.64628064e-02 0. 0. 0. 0. 0. 0. 0. 0. 0. 0. 0. 0.
      0. 0. 0. 0. 0. 0. 0. 0. 0. 0. 0. 0. 2.11702451e-01 0. 0. 0. 0. 0.
      5.29256128e-02 2.64628064e-02 0. 0. 0. 0. 0. 0. 0. 0. 0. 0. 0. 0.
      0. 0. 0. 0. 0. 0. 0. 0. 0. 0. 0. 0. 0. 0. 0. 0. 0. 0. 0. 0. 0. 0.
      0. 0. 0. 0. 0. 0. 0. 0. 0. 0. 0. 0. 0. 0. 0. 0. 0. 0. 0. 0. 0. 0.
      2.11702451e-01 0. 0. 0. 3.70479286e-01 0. 1.32314026e-01 0. 0. 0.
      0. 0. 0. 0. 0. 0. 0. 0. 0. 0. 0. 0. 0. 0. 0. 0. 0. 0. 0. 0. 0. 0.
      0. 0. 0. 0. 0. 0. 0. 0. 0. 0. 0. 0. 0. 0. 0. 0. 0. 0. 0. 0. 0. 0.
      0. 0. 2.64628064e-02 0. 0. 0. 0. 0. 0. 0. 0. 0. 0. 0. 0. 0. 0. 0.
      0. 0. 0. 0. 0. 0. 0. 0. 0. 0. 0. 0. 0. 0. 0. 0. 0. 0. 0. 0. 0. 0.
      0. 0. 0. 0. 0. 0. 0. 0. 0. 0. 0. 0. 0. 0. 0. 0. 0. 0. 0. 0. 0. 0.
      0. 0. 0. 0. 1.05851226e-01 0. 0. 0. 0. 0. 0. 0. 1.32314026e-01 0.
      0. 0. 5.29256128e-02 2.64628064e-02 0. 0. 9.08006966e-01 0.
      2.83752177e-02 0. 0. 0. 5.67504354e-02 0. 2.83752177e-02 0. 0. 0.
      0. 0. 1.98626518e-01 5.67504354e-02 0. 0. 0. 2.83752177e-02 0. 0.
      0. 0. 8.51256549e-02 0. 2.83752177e-02 0. 2.83752177e-02 0. 0.
      2.83752177e-02 0. 0. 0. 0. 0. 0. 0. 0. 0. 0. 0. 0. 0. 0. 0. 0. 0.
      0. 0. 0. 0. 0. 0. 0. 0. 0. 0. 0. 2.83752177e-02 0. 0.
      2.83752177e-02 0. 0. 0. 0. 0. 0. 0. 0. 0. 0. 0. 0. 0. 0. 0. 0. 0.
      0. 0. 0. 0. 0. 0. 0. 0. 0. 0. 0. 0. 0. 0. 0. 0. 0. 0. 0. 0. 0. 0.
      0. 0. 0. 0. 0. 0. 0. 0. 0. 0. 0. 0. 0. 0. 0. 0. 0. 1.70251310e-01
      0. 0. 0. 1.13500871e-01 0. 0. 8.51256549e-02 2.83752177e-02 0. 0.
      1.13500871e-01 0. 0. 0. 2.83752177e-02 2.83752177e-02 0. 0. 0. 0.
      0. 0. 8.51256549e-02 0. 0. 0. 5.67504354e-02 0. 0. 0. 0. 0. 0. 0.
      0. 0. 0. 0. 0. 0. 0. 0. 0. 0. 0. 0. 0. 0. 0. 0. 0. 0. 0. 0. 0. 0.
      0. 0. 0. 0. 0. 0. 0. 0. 2.83752177e-02 0. 2.83752177e-02 0.
      2.83752177e-02 0. 0. 0. 0. 0. 0. 0. 0. 0. 5.67504354e-02 0. 0. 0.
      0. 0. 0. 0. 0. 0. 0. 0. 0. 0. 0. 0. 0. 0. 0. 0. 0. 0. 0. 0. 0. 0.
      0. 0. 0. 0. 0. 0. 0. 0. 0. 0. 0. 0. 0. 0. 0. 1.41876087e-01
      2.83752177e-02 0. 0. 0. 0. 0. 5.67504354e-02 8.51256549e-02 0. 0.
      0. 5.67504354e-02 2.83752177e-02 0. 0. 7.65024126e-01 0. 0. 0. 0.
      0. 0. 0. 0. 0. 0. 0. 0. 0. 7.40345865e-02 2.46781968e-02 0. 0.
      2.46781968e-02 2.46781968e-02 0. 0. 0. 0. 4.93563935e-02 0.
      2.46781968e-02 0. 0. 0. 7.40345865e-02 0. 0. 2.46781968e-02 0. 0.
      0. 0. 0. 0. 0. 0. 0. 0. 0. 0. 0. 0. 0. 0. 0. 0. 0. 0. 0. 0.
      2.96138346e-01 0. 0. 0. 3.94851148e-01 0. 2.46781968e-02
      9.87127870e-02 0. 0. 0. 0. 0. 0. 0. 0. 0. 0. 0. 0. 0. 0. 0. 0. 0.
      0. 0. 0. 0. 0. 0. 0. 0. 0. 0. 0. 0. 0. 0. 0. 0. 0. 0. 0. 0. 0. 0.
      0. 0. 0. 0. 0. 0. 0. 0. 0. 2.46781968e-02 0. 0. 0. 0. 0. 0. 0.
      4.93563935e-02 0. 0. 0. 3.70172948e-01 0. 0. 0. 0. 0. 0. 0. 0. 0.
      0. 0. 0. 0. 0. 0. 0. 0. 0. 0. 0. 0. 0. 0. 0. 0. 0. 0. 0. 0. 0. 0.
      0. 0. 0. 2.46781968e-02 0. 0. 0. 2.46781968e-02 0. 0. 0. 0. 0. 0.
      0. 0. 0. 0. 0. 0. 0. 0. 0. 0. 0. 0. 0. 0. 0. 0. 0. 0. 0. 0. 0. 0.
      0. 0. 0. 0. 0. 0. 0. 0. 0. 0. 0. 0. 0. 0. 0. 0. 0. 0. 0. 0. 0. 0.
      0. 0. 0. 0. 0. 0. 0. 0. 0. 0. 0. 0. 0. 0. 0. 0. 0. 0. 0. 0. 0. 0.
      0. 0. 0. 0. 0. 0. 0. 0. 0. 0. 0. 0. 0. 2.46781968e-02 0. 0. 0.
      4.93563935e-02 0. 0. 6.74550951e-01 0. 0. 0. 0. 0. 0. 0. 0. 0. 0.
      0. 0. 0. 2.17597075e-02 2.17597075e-02 0. 0. 0. 2.17597075e-02 0.
      0. 0. 0. 2.17597075e-02 0. 2.17597075e-02 0. 0. 0. 0. 0. 0. 0. 0.
      0. 0. 0. 0. 0. 0. 0. 0. 0. 0. 0. 0. 0. 0. 0. 0. 0. 0. 0. 0. 0. 0.
      0. 0. 0. 0. 0. 0. 0. 0. 0. 0. 0. 0. 0. 0. 0. 0. 0. 0. 0. 0. 0. 0.
      0. 0. 0. 0. 0. 0. 0. 0. 0. 0. 0. 0. 0. 0. 0. 0. 0. 0. 0. 0. 0. 0.
      0. 0. 0. 0. 0. 0. 0. 0. 0. 0. 0. 4.35194150e-02 0. 0. 0. 0. 0. 0.
      0. 5.87512076e-01 0. 0. 0. 0. 0. 0. 0. 0. 0. 0. 0. 0. 0. 0. 0. 0.
      0. 0. 0. 0. 0. 0. 0. 0. 0. 0. 0. 0. 0. 0. 0. 0. 0. 0. 0. 0. 0. 0.
      0. 0. 0. 0. 0. 0. 0. 0. 0. 0. 0. 0. 0. 0. 0. 0. 0. 0. 0. 0. 0. 0.
      0. 0. 0. 0. 0. 0. 0. 0. 0. 0. 0. 0. 0. 0. 0. 0. 0. 0. 0. 0. 0. 0.
      0. 0. 0. 0. 0. 0. 0. 0. 0. 0. 0. 0. 0. 0. 0. 0. 0. 0. 0. 0. 0.
      6.52791262e-02 0. 0. 0. 0. 0. 0. 2.17597075e-02 2.17597075e-02 0.
      0. 0. 0. 0. 0. 0. 2.61116505e-01 0. 0. 0. 0. 0. 2.17597075e-02 0.
      3.48155320e-01 0. 0. 0. 2.17597075e-02 0. 0. 0. 8.61586511e-01 0.
      0. 0. 0. 0. 0. 0. 2.61086822e-02 0. 0. 0. 2.61086822e-02 0.
      5.22173643e-02 5.22173643e-02 0. 0. 2.61086822e-02 2.61086822e-02
      0. 0. 0. 0. 2.61086822e-02 0. 2.61086822e-02 0. 0. 0.
      2.61086822e-02 0. 0. 0. 0. 0. 0. 0. 0. 0. 0. 0. 0. 0. 0. 0. 0. 0.
      0. 0. 0. 0. 0. 0. 0. 0. 1.56652093e-01 0. 0. 0. 0. 0.
      2.61086822e-02 0. 0. 0. 0. 0. 0. 0. 0. 0. 0. 0. 0. 0. 0. 0. 0. 0.
      0. 0. 0. 0. 0. 0. 0. 0. 0. 0. 0. 0. 0. 0. 0. 0. 0. 0. 0. 0. 0. 0.
      0. 0. 0. 0. 0. 0. 0. 0. 0. 0. 0. 0. 0. 0. 0. 0. 0. 0.
      3.65521550e-01 0. 0. 0. 1.30543411e-01 0. 2.61086822e-02
      2.61086822e-02 0. 2.61086822e-02 0. 0. 0. 0. 0. 0. 2.61086822e-02
      0. 0. 0. 0. 0. 0. 2.61086822e-02 0. 0. 0. 0. 0. 0. 0. 0. 0. 0. 0.
      2.61086822e-02 0. 0. 0. 0. 0. 0. 0. 0. 0. 0. 0. 0. 0. 0. 0. 0. 0.
      0. 0. 0. 0. 0. 0. 0. 0. 0. 0. 0. 0. 2.61086822e-02 0. 0. 0. 0. 0.
      0. 0. 0. 0. 0. 0. 0. 0. 0. 0. 0. 0. 0. 0. 0. 0. 0. 0. 0. 0. 0. 0.
      0. 0. 0. 0. 0. 0. 0. 0. 0. 0. 0. 0. 0. 0. 0. 0. 0. 0. 0. 0. 0. 0.
      0. 0. 0. 0. 0. 1.04434729e-01 0. 0. 0. 0. 2.61086822e-02 0. 0.
      2.08869457e-01 0. 0. 0. 1.04434729e-01 0. 2.61086822e-02 0.
      8.43385935e-01 0. 0. 2.55571492e-02 0. 0. 0. 0. 0. 0. 0. 0. 0. 0.
      1.27785742e-01 5.11142984e-02 0. 0. 0. 2.55571492e-02 0. 0. 0. 0.
      5.11142984e-02 0. 2.55571492e-02 0. 1.53342903e-01 0.
      5.11142984e-02 5.11142984e-02 0. 0. 0. 0. 2.55571492e-02 0. 0. 0.
      0. 0. 0. 0. 0. 0. 0. 0. 0. 0. 0. 0. 0. 0. 0. 0. 5.11142984e-02 0.
      0. 0. 4.08914387e-01 0. 7.66714513e-02 0. 0. 0. 0. 0. 0. 0. 0. 0.
      0. 0. 0. 0. 0. 0. 2.55571492e-02 0. 0. 0. 0. 0. 0. 0. 0. 0. 0. 0.
      0. 0. 0. 0. 0. 0. 0. 0. 0. 0. 0. 0. 0. 0. 0. 0. 0. 0. 0. 0. 0. 0.
      0. 0. 0. 0. 0. 0. 0. 0. 2.55571492e-02 0. 0. 0. 2.04457194e-01 0.
      5.11142984e-02 1.02228597e-01 0. 0. 0. 0. 0. 0. 0. 0. 0. 0. 0. 0.
      0. 0. 0. 2.55571492e-02 0. 0. 0. 0. 0. 0. 0. 0. 0. 0. 0. 0. 0. 0.
      0. 2.55571492e-02 0. 0. 0. 0. 0. 0. 0. 0. 0. 0. 0. 0. 0. 0. 0. 0.
      0. 0. 0. 0. 0. 0. 0. 0. 0. 0. 0. 2.55571492e-02 0. 0. 0. 0. 0. 0.
      0. 0. 0. 0. 2.55571492e-02 0. 0. 0. 0. 0. 0. 0. 0. 0. 0. 0. 0. 0.
      0. 0. 0. 0. 0. 0. 0. 0. 0. 0. 0. 0. 0. 0. 0. 0. 0. 0. 0. 0. 0. 0.
      0. 0. 0. 0. 0. 0. 0. 0. 0. 0. 0. 0. 0. 2.55571492e-02 0.
      2.55571492e-02 0. 0. 0. 0. 0. 0. 9.01855826e-01 0. 2.81829946e-02
      0. 0. 0. 0. 0. 0. 2.81829946e-02 0. 0. 0. 0. 1.97280958e-01
      2.81829946e-02 2.81829946e-02 0. 0. 2.81829946e-02 0. 0. 0. 0.
      2.81829946e-02 0. 2.81829946e-02 0. 0. 0. 5.63659891e-02
      8.45489800e-02 2.81829946e-02 0. 0. 2.81829946e-02 0. 0. 0. 0. 0.
      0. 0. 0. 0. 0. 0. 0. 0. 0. 2.81829946e-02 0. 0. 0. 0. 0.
      5.63659891e-02 0. 0. 0. 0. 0. 8.45489800e-02 8.45489800e-02 0. 0.
      0. 0. 0. 0. 0. 0. 0. 0. 0. 0. 0. 0. 0. 0. 0. 0. 0. 0. 0. 0. 0. 0.
      0. 0. 0. 0. 0. 0. 0. 0. 0. 0. 0. 0. 0. 0. 0. 0. 0. 0. 0. 0. 0. 0.
      0. 0. 0. 0. 0. 0. 0. 0. 0. 0. 0. 0. 0. 0. 0. 0. 0. 0. 0. 0. 0.
      2.81829946e-02 0. 0. 0. 0. 0. 0. 0. 0. 0. 0. 0. 5.63659891e-02 0.
      0. 0. 0. 0. 0. 0. 0. 0. 0. 0. 0. 0. 0. 0. 5.63659891e-02
      2.81829946e-02 0. 0. 0. 0. 0. 0. 0. 0. 0. 0. 0. 0. 0. 0. 0. 0. 0.
      0. 0. 0. 0. 0. 0. 0. 0. 0. 0. 0. 0. 0. 2.81829946e-02 0. 0. 0. 0.
      0. 0. 0. 0. 0. 0. 0. 0. 0. 0. 0. 0. 0. 0. 0. 0. 0. 0. 0. 0. 0. 0.
      0. 0. 0. 0. 0. 0. 1.12731978e-01 8.45489800e-02 0. 2.81829946e-02
      0. 0. 0. 0. 0. 0. 0. 0. 0. 0. 0. 0. 1.40914977e-01 2.25463957e-01
      0. 5.63659891e-02 0. 0. 0. 0. 8.45489800e-02 2.81829946e-02 0.
      2.81829946e-02 0. 0. 0. 0. 8.91924798e-01 0. 0. 0. 0. 0. 0. 0. 0.
      0. 0. 0. 0. 0. 2.87717674e-02 2.87717674e-02 0. 0. 0.
      2.87717674e-02 0. 0. 0. 0. 2.87717674e-02 0. 2.87717674e-02 0. 0.
      0. 0. 0. 0. 0. 0. 0. 0. 0. 0. 0. 0. 0. 0. 0. 0. 0. 0. 0. 0. 0. 0.
      0. 0. 0. 0. 0. 1.43858835e-01 0. 0. 0. 5.75435348e-02 0. 0. 0. 0.
      0. 0. 0. 0. 0. 0. 0. 0. 0. 0. 0. 0. 0. 0. 0. 0. 0. 0. 0. 0. 0. 0.
      0. 0. 0. 0. 0. 0. 0. 0. 0. 0. 0. 0. 0. 0. 0. 0. 0. 0. 0. 0. 0. 0.
      0. 0. 0. 0. 0. 0. 0. 0. 0. 0. 0. 1.72630608e-01 0. 0. 0.
      1.43858835e-01 0. 1.15087070e-01 0. 0. 2.87717674e-02 0. 0. 0. 0.
      0. 0. 2.87717674e-02 0. 0. 0. 0. 0. 0. 0. 0. 0. 0. 0. 0. 0. 0. 0.
      0. 0. 0. 0. 2.87717674e-02 0. 0. 2.87717674e-02 0. 0. 0. 0. 0. 0.
      0. 0. 0. 0. 0. 0. 0. 0. 0. 0. 0. 0. 0. 0. 0. 0. 0. 0. 0. 0. 0. 0.
      0. 0. 0. 0. 0. 0. 0. 2.87717674e-02 0. 0. 0. 2.87717674e-02
      2.87717674e-02 0. 0. 0. 0. 0. 0. 2.87717674e-02 0. 0. 0. 0. 0. 0.
      0. 0. 0. 0. 0. 0. 0. 0. 0. 0. 2.01402366e-01 5.75435348e-02 0. 0.
      0. 0. 0. 0. 2.87717674e-02 0. 0. 0. 0. 0. 0. 2.87717674e-02
      5.75435348e-02 2.87717674e-02 0. 1.72630608e-01 0. 0. 0.
      2.87717674e-02 1.43858835e-01 5.75435348e-02 0. 2.87717674e-02 0.
      2.87717674e-02 0. 0. 9.09472704e-01 0. 2.84210220e-02 0. 0. 0. 0.
      0. 0. 0. 0. 0. 0. 0. 5.68420440e-02 2.84210220e-02 0. 0. 0.
      2.84210220e-02 0. 0. 0. 0. 2.84210220e-02 0. 2.84210220e-02 0.
      2.84210220e-02 0. 0. 2.84210220e-02 5.68420440e-02 0. 0. 0. 0. 0.
      2.84210220e-02 2.84210220e-02 0. 0. 0. 0. 0. 0. 0. 0. 0. 0. 0. 0.
      0. 0. 0. 0. 2.84210220e-02 0. 2.84210220e-02 0. 2.84210205e-01 0.
      2.84210220e-02 0. 0. 0. 2.84210220e-02 0. 0. 0. 0. 0. 0. 0. 0. 0.
      0. 0. 0. 0. 0. 0. 0. 0. 0. 0. 0. 0. 0. 0. 0. 0. 0. 0. 0. 0. 0. 0.
      0. 0. 0. 0. 0. 0. 0. 0. 0. 0. 0. 0. 0. 0. 0. 0. 0. 0. 0. 0. 0. 0.
      5.68420440e-02 0. 0. 0. 1.70526132e-01 0. 5.68420440e-02 0. 0. 0.
      0. 0. 0. 0. 0. 0. 0. 0. 0. 0. 0. 0. 0. 0. 0. 0. 0. 0. 0. 0. 0. 0.
      0. 0. 0. 0. 0. 0. 0. 5.68420440e-02 0. 0. 0. 0. 0. 0. 0. 0. 0. 0.
      0. 0. 0. 0. 0. 2.84210220e-02 0. 0. 0. 0. 0. 0. 0. 0. 0. 0. 0. 0.
      0. 0. 0. 0. 0. 0. 0. 8.52630660e-02 0. 0. 0. 0. 0. 0. 0. 0. 0. 0.
      0. 5.68420440e-02 0. 0. 0. 0. 0. 0. 0. 0. 0. 0. 0. 0. 0. 0. 0. 0.
      1.13684088e-01 2.84210220e-02 0. 2.84210220e-02 0. 0. 0.
      2.84210220e-02 0. 0. 0. 0. 0. 0. 0. 2.84210220e-02 0. 0. 0.
      8.52630660e-02 0. 0. 0. 0. 0. 0. 0. 0. 2.84210220e-02 0.
      2.84210220e-02 0.</_>
    <_>
      1.18887663e-01 0. 1.18887663e-01 0. 0. 0. 0. 0. 0. 0. 0. 0. 0. 0.
      5.94438314e-02 0. 1.78331494e-01 0. 0. 0. 0. 0. 0. 0.
      5.94438314e-02 0. 0. 0. 5.94438314e-02 0. 5.94438314e-02 0.
      1.18887663e-01 0. 0. 0. 5.94438314e-02 0. 0. 0. 0. 0. 0. 0. 0. 0.
      0. 0. 0. 0. 0. 0. 0. 0. 0. 0. 5.94438314e-02 5.94438314e-02 0. 0.
      3.56662989e-01 0. 1.18887663e-01 0. 0. 0. 0. 0. 0. 0. 0. 0. 0. 0.
      0. 0. 0. 0. 5.94438314e-02 0. 5.94438314e-02 0. 0. 0. 0. 0. 0. 0.
      0. 0. 0. 0. 0. 0. 0. 0. 0. 0. 0. 0. 0. 0. 0. 0. 0. 0. 0. 0. 0. 0.
      5.94438314e-02 0. 5.94438314e-02 0. 0. 0. 0. 0. 0. 0.
      4.16106820e-01 0. 0. 0. 2.97219157e-01 5.94438314e-02
      5.94438314e-02 0. 0. 0. 0. 0. 0. 0. 0. 0. 0. 0. 0. 0. 0. 0. 0. 0.
      0. 0. 0. 0. 0. 0. 0. 0. 0. 0. 0. 0. 0. 0. 0. 0. 0. 0. 0. 0. 0. 0.
      5.94438314e-02 0. 5.94438314e-02 0. 1.18887663e-01 1.78331494e-01
      0. 0. 1.18887663e-01 5.94438314e-02 0. 2.97219157e-01
      5.94438314e-02 1.18887663e-01 2.37775326e-01 5.94438314e-02
      1.78331494e-01 0. 2.37775326e-01 1.78331494e-01 5.94438314e-02
      1.18887663e-01 0. 1.18887663e-01 0. 0. 0. 5.94438314e-02
      5.94438314e-02 0. 5.94438314e-02 0. 0. 0. 0. 0. 0. 0. 0. 0. 0. 0.
      0. 0. 0. 0. 0. 0. 0. 0. 0. 0. 0. 0. 0. 0. 0. 0. 0. 5.94438314e-02
      0. 0. 0. 0. 0. 0. 0. 0. 0. 0. 0. 0. 0. 0. 5.94438314e-02
      5.94438314e-02 0. 5.94438314e-02 0. 0. 0. 0. 1.18887663e-01
      1.18887663e-01 5.94438314e-02 1.18887663e-01 5.94438314e-02
      1.18887663e-01 0. 0. 1.98245585e-01 0. 0. 0. 6.60818592e-02 0. 0.
      1.32163718e-01 1.98245585e-01 0. 0. 0. 6.60818592e-02 0.
      2.64327437e-01 6.60818592e-02 0. 0. 0. 0. 0. 0. 0. 0. 0. 0. 0. 0.
      6.60818592e-02 0. 6.60818592e-02 0. 0. 0. 0. 0. 0. 0. 0. 0.
      6.60818592e-02 0. 0. 0. 0. 0. 0. 0. 0. 0. 0. 0. 0. 0. 0. 0.
      6.60818592e-02 6.60818592e-02 0. 0. 6.60818592e-02 0. 0.
      2.64327437e-01 6.60818592e-02 0. 0. 0. 6.60818592e-02 0. 0. 0. 0.
      0. 0. 0. 0. 0. 0. 0. 0. 0. 0. 0. 0. 0. 0. 0. 0. 0. 0. 0. 0. 0. 0.
      0. 0. 0. 0. 0. 6.60818592e-02 0. 0. 0. 0. 0. 0. 0. 6.60818592e-02
      0. 0. 0. 0. 0. 0. 0. 0. 0. 6.60818592e-02 6.60818592e-02
      3.30409288e-01 0. 0. 0. 6.60818592e-02 6.60818592e-02 0.
      6.60818592e-02 6.60818592e-02 0. 0. 0. 6.60818592e-02 0. 0.
      6.60818592e-02 6.60818592e-02 0. 0. 0. 0. 0. 0. 6.60818592e-02 0.
      0. 0. 1.32163718e-01 0. 0. 0. 6.60818592e-02 0. 0. 0. 0.
      6.60818592e-02 0. 0. 1.32163718e-01 0. 0. 0. 0. 0. 0.
      6.60818592e-02 0. 6.60818592e-02 0. 1.32163718e-01 1.98245585e-01
      0. 0. 1.32163718e-01 6.60818592e-02 0. 3.30409288e-01
      6.60818592e-02 1.32163718e-01 2.64327437e-01 6.60818592e-02
      1.98245585e-01 6.60818592e-02 1.98245585e-01 2.64327437e-01
      6.60818592e-02 1.32163718e-01 0. 6.60818592e-02 0. 1.32163718e-01
      0. 0. 0. 0. 0. 0. 6.60818592e-02 0. 0. 0. 0. 0. 0. 0. 0. 0. 0. 0.
      0. 0. 0. 0. 0. 0. 0. 0. 0. 6.60818592e-02 0. 0. 0. 6.60818592e-02
      0. 0. 0. 0. 0. 0. 0. 0. 0. 0. 0. 0. 6.60818592e-02 0. 0. 0. 0. 0.
      0. 0. 0. 0. 0. 6.60818592e-02 0. 0. 0. 0. 0. 0. 0. 0.
      1.30465612e-01 0. 6.52328059e-02 0. 6.52328059e-02 0. 0. 0. 0. 0.
      0. 0. 0. 0. 0. 0. 0. 0. 0. 0. 0. 0. 6.52328059e-02 0. 0. 0. 0. 0.
      0. 0. 0. 0. 6.52328059e-02 0. 0. 0. 0. 0. 0. 0. 0. 0. 0. 0. 0. 0.
      0. 0. 6.52328059e-02 6.52328059e-02 0. 0. 0. 0. 0. 0.
      6.52328059e-02 6.52328059e-02 0. 0. 6.52328059e-02 6.52328059e-02
      0. 0. 0. 0. 6.52328059e-02 0. 0. 0. 0. 0. 0. 0. 0. 0. 0. 0. 0. 0.
      1.30465612e-01 0. 6.52328059e-02 0. 0. 0. 0. 0. 0. 0.
      6.52328059e-02 0. 0. 6.52328059e-02 6.52328059e-02 0.
      6.52328059e-02 0. 0. 0. 6.52328059e-02 0. 0. 0. 0. 6.52328059e-02
      0. 0. 0. 0. 0. 0. 6.52328059e-02 0. 0. 0. 0. 6.52328059e-02 0. 0.
      3.91396821e-01 0. 1.30465612e-01 0. 6.52328059e-02 0. 0. 0. 0. 0.
      0. 0. 0. 0. 0. 0. 0. 0. 0. 0. 0. 0. 0. 0. 0. 0. 0. 0. 0. 0. 0. 0.
      0. 0. 0. 0. 0. 0. 0. 0. 6.52328059e-02 0. 0. 0. 0. 0.
      6.52328059e-02 0. 6.52328059e-02 0. 1.30465612e-01 1.95698410e-01
      0. 0. 1.30465612e-01 1.30465612e-01 0. 3.26164037e-01
      6.52328059e-02 1.30465612e-01 2.60931224e-01 6.52328059e-02
      1.95698410e-01 0. 1.95698410e-01 1.95698410e-01 6.52328059e-02
      1.30465612e-01 0. 6.52328059e-02 0. 6.52328059e-02 0. 0. 0. 0. 0.
      0. 0. 0. 0. 0. 0. 0. 0. 0. 0. 0. 0. 0. 0. 0. 0. 0. 0. 0. 0. 0.
      6.52328059e-02 0. 0. 0. 0. 6.52328059e-02 0. 0. 0. 0.
      6.52328059e-02 0. 0. 0. 0. 0. 0. 0. 0. 0. 0. 0. 0. 6.52328059e-02
      0. 6.52328059e-02 0. 6.52328059e-02 0. 0. 1.30465612e-01
      1.30465612e-01 6.52328059e-02 6.52328059e-02 1.30465612e-01
      3.26164037e-01 2.60931224e-01 0. 1.07832775e-01 0. 2.15665549e-01
      0. 1.07832775e-01 0. 1.07832775e-01 0. 0. 0. 0. 0. 0. 0. 0. 0. 0.
      0. 1.07832775e-01 0. 0. 0. 0. 0. 0. 0. 0. 0. 5.39163873e-02 0.
      1.61749154e-01 0. 1.07832775e-01 0. 0. 0. 1.61749154e-01 0. 0. 0.
      0. 0. 0. 0. 1.07832775e-01 0. 1.07832775e-01 0. 0. 0. 0. 0. 0. 0.
      0. 0. 0. 0. 0. 0. 6.46996617e-01 1.07832775e-01 0. 5.39163873e-02
      0. 0. 5.39163873e-02 0. 0. 0. 0. 0. 0. 0. 0. 0. 0. 0. 0. 0. 0. 0.
      0. 0. 0. 0. 5.39163873e-02 0. 0. 0. 0. 0. 0. 0. 0. 0. 0. 0. 0. 0.
      0. 0. 0. 0. 0. 0. 0. 0. 0. 0. 0. 0. 0. 0. 0. 0. 0. 0. 0. 0. 0. 0.
      0. 0. 5.39163873e-02 0. 5.39163873e-02 0. 0. 0. 0. 0. 0. 0. 0. 0.
      0. 0. 0. 0. 0. 0. 0. 0. 0. 0. 0. 0. 0. 0. 0. 0. 0. 0.
      5.39163873e-02 0. 0. 0. 0. 5.39163873e-02 0. 0. 0. 0. 0. 0.
      5.39163873e-02 0. 5.39163873e-02 0. 1.07832775e-01 1.61749154e-01
      0. 0. 1.07832775e-01 5.39163873e-02 0. 2.69581944e-01
      5.39163873e-02 1.07832775e-01 2.15665549e-01 5.39163873e-02
      1.61749154e-01 0. 1.61749154e-01 1.61749154e-01 5.39163873e-02
      1.07832775e-01 0. 1.61749154e-01 5.39163873e-02 1.07832775e-01 0.
      0. 0. 0. 0. 0. 0. 0. 0. 0. 0. 0. 0. 0. 0. 0. 0. 0. 5.39163873e-02
      5.39163873e-02 0. 0. 0. 0. 0. 0. 0. 5.39163873e-02 0. 0. 0.
      1.61749154e-01 0. 0. 0. 0. 0. 0. 0. 0. 0. 0. 0. 0. 0. 0. 0. 0. 0.
      0. 0. 0. 0. 0. 0. 0. 0. 0. 0. 0. 0. 5.39163873e-02 0. 0.
      2.26093367e-01 0. 0. 0. 5.65233417e-02 0. 5.65233417e-02 0. 0. 0.
      0. 0. 0. 0. 0. 0. 0. 0. 0. 0. 0. 0. 0. 0. 5.65233417e-02 0.
      5.65233417e-02 0. 5.65233417e-02 0. 2.26093367e-01 5.65233417e-02
      0. 0. 1.13046683e-01 0. 5.65233417e-02 0. 0. 0. 0. 0. 0. 0.
      1.13046683e-01 0. 0. 0. 0. 0. 5.65233417e-02 0. 0. 0.
      5.65233417e-02 0. 0. 5.65233417e-02 0. 5.65233417e-02
      3.95663381e-01 0. 5.08710086e-01 1.13046683e-01 0. 0. 0. 0. 0. 0.
      0. 0. 0. 0. 0. 0. 0. 0. 0. 0. 0. 0. 0. 0. 0. 0. 0. 0.
      5.65233417e-02 0. 0. 0. 0. 0. 0. 0. 0. 0. 0. 0. 0. 0. 0. 0. 0. 0.
      0. 0. 0. 0. 0. 0. 0. 0. 0. 0. 0. 0. 0. 0. 0. 0. 0. 0.
      5.65233417e-02 0. 5.65233417e-02 0. 0. 0. 0. 0. 0. 0. 0. 0. 0. 0.
      0. 0. 0. 0. 0. 0. 0. 0. 0. 0. 0. 0. 0. 0. 0. 0. 0. 0. 0. 0. 0. 0.
      0. 0. 0. 0. 0. 0. 5.65233417e-02 0. 5.65233417e-02 0.
      1.13046683e-01 1.69570029e-01 0. 0. 1.13046683e-01 5.65233417e-02
      0. 2.82616705e-01 5.65233417e-02 1.13046683e-01 2.26093367e-01
      5.65233417e-02 1.69570029e-01 0. 1.69570029e-01 1.69570029e-01
      5.65233417e-02 1.13046683e-01 0. 1.69570029e-01 0. 5.65233417e-02
      0. 0. 0. 0. 0. 0. 0. 0. 0. 0. 0. 0. 0. 0. 0. 0. 0. 0. 0. 0. 0. 0.
      0. 0. 0. 0. 5.65233417e-02 0. 0. 5.65233417e-02 1.69570029e-01
      5.65233417e-02 0. 0. 0. 0. 0. 0. 0. 0. 0. 0. 0. 0. 0. 0. 0. 0. 0.
      0. 0. 0. 0. 0. 0. 0. 0. 0. 0. 0. 0. 1.13046683e-01 0. 0.
      1.32744655e-01 0. 0. 0. 0. 0. 6.63723275e-02 0. 0. 0. 0. 0. 0. 0.
      0. 0. 0. 0. 0. 0. 0. 0. 0. 0. 0. 0. 0. 0. 0. 0. 0. 0.
      1.32744655e-01 0. 6.63723275e-02 0. 6.63723275e-02 0.
      6.63723275e-02 0. 0. 0. 6.63723275e-02 0. 0. 0. 0. 6.63723275e-02
      2.65489310e-01 0. 1.32744655e-01 0. 0. 0. 0. 0. 0. 0.
      6.63723275e-02 0. 0. 0. 0. 0. 0. 0. 6.63723275e-02 0. 0. 0. 0. 0.
      0. 0. 0. 0. 0. 0. 0. 0. 0. 0. 0. 0. 0. 0. 0. 0. 0. 0. 0. 0. 0. 0.
      0. 0. 0. 0. 6.63723275e-02 0. 0. 0. 0. 0. 0. 0. 0. 0.
      6.63723275e-02 0. 0. 0. 0. 0. 0. 0. 0. 0. 0. 0. 0. 0. 0.
      6.63723275e-02 1.32744655e-01 0. 0. 0. 0. 0. 0. 6.63723275e-02 0.
      0. 0. 0. 0. 0. 0. 0. 0. 0. 0. 0. 0. 0. 0. 0. 0. 0. 0. 0. 0. 0. 0.
      0. 0. 0. 0. 0. 0. 0. 0. 0. 0. 0. 6.63723275e-02 0. 6.63723275e-02
      0. 1.32744655e-01 1.99116975e-01 0. 0. 1.32744655e-01
      6.63723275e-02 0. 3.31861645e-01 6.63723275e-02 1.99116975e-01
      2.65489310e-01 6.63723275e-02 1.99116975e-01 0. 1.99116975e-01
      1.99116975e-01 6.63723275e-02 1.32744655e-01 0. 6.63723275e-02 0.
      6.63723275e-02 0. 6.63723275e-02 0. 6.63723275e-02 0. 0. 0. 0. 0.
      0. 0. 0. 0. 0. 6.63723275e-02 0. 0. 0. 0. 0. 0. 0. 0. 0. 0. 0. 0.
      0. 0. 0. 6.63723275e-02 6.63723275e-02 6.63723275e-02
      1.32744655e-01 1.32744655e-01 1.99116975e-01 0. 0. 0.
      1.99116975e-01 0. 0. 0. 0. 0. 6.63723275e-02 0. 1.32744655e-01 0.
      1.32744655e-01 0. 0. 0. 0. 6.63723275e-02 0. 0. 6.63723275e-02 0.
      1.32744655e-01 1.32744655e-01 3.31861645e-01 6.63723275e-02 0.
      1.11978501e-01 0. 1.67967752e-01 0. 1.11978501e-01 0.
      1.67967752e-01 0. 5.59892505e-02 0. 0. 0. 0. 0. 5.59892505e-02 0.
      0. 0. 0. 0. 0. 0. 5.59892505e-02 0. 0. 0. 5.59892505e-02 0.
      1.11978501e-01 0. 5.59892535e-01 1.67967752e-01 0. 0. 0. 0. 0. 0.
      0. 0. 0. 0. 0. 0. 1.67967752e-01 0. 0. 0. 0. 0. 0. 0. 0. 0. 0. 0.
      0. 0. 0. 0. 1.67967752e-01 5.59892505e-02 2.79946268e-01
      1.11978501e-01 0. 0. 0. 0. 0. 0. 0. 0. 0. 0. 0. 0. 0. 0. 0. 0. 0.
      0. 0. 0. 0. 0. 0. 0. 0. 0. 0. 0. 0. 0. 0. 0. 0. 0. 0. 0. 0. 0. 0.
      0. 0. 0. 0. 0. 0. 0. 0. 0. 0. 0. 0. 0. 0. 0. 0. 0. 0. 0. 0. 0. 0.
      0. 0. 5.59892505e-02 0. 0. 0. 0. 0. 0. 0. 0. 0. 0. 0. 0. 0. 0. 0.
      0. 0. 0. 0. 0. 0. 0. 0. 0. 0. 0. 0. 0. 5.59892505e-02 0. 0.
      1.11978501e-01 0. 0. 0. 0. 0. 0. 5.59892505e-02 0. 5.59892505e-02
      0. 1.11978501e-01 1.67967752e-01 0. 0. 1.11978501e-01
      5.59892505e-02 0. 2.79946268e-01 5.59892505e-02 1.11978501e-01
      2.23957002e-01 5.59892505e-02 1.67967752e-01 0. 1.67967752e-01
      1.67967752e-01 5.59892505e-02 1.11978501e-01 0. 1.11978501e-01
      5.59892505e-02 1.11978501e-01 0. 0. 0. 0. 0. 0. 0. 0. 0. 0. 0. 0.
      0. 0. 0. 0. 0. 0. 5.59892505e-02 0. 0. 0. 0. 0. 0. 0. 0. 0. 0. 0.
      1.11978501e-01 1.11978501e-01 0. 0. 0. 0. 0. 0. 0. 0. 0. 0. 0. 0.
      0. 0. 0. 0. 0. 0. 0. 0. 0. 0. 0. 0. 0. 0. 0. 0. 0. 1.11978501e-01
      5.59892505e-02 0. 0. 0. 0. 0. 0. 0. 2.86651831e-02 0. 0. 0. 0. 0.
      2.86651831e-02 0. 0. 0. 0. 0. 0. 0. 0. 0. 0. 0. 0. 0. 0. 0. 0. 0.
      2.57986635e-01 8.59955475e-02 2.86651831e-02 0. 0. 0. 0. 0. 0. 0.
      0. 0. 0. 0. 2.86651831e-02 0. 0. 0. 0. 0. 2.86651831e-02 0. 0. 0.
      0. 0. 0. 0. 2.86651831e-02 0. 2.00656280e-01 0. 8.88620675e-01
      5.73303662e-02 0. 0. 0. 0. 0. 0. 0. 0. 0. 0. 0. 0. 0. 0. 0. 0. 0.
      0. 0. 0. 0. 0. 0. 0. 0. 0. 0. 0. 0. 0. 0. 0. 0. 0. 0. 0. 0. 0. 0.
      0. 0. 0. 0. 0. 0. 0. 0. 0. 0. 0. 0. 0. 0. 0. 0. 0. 0. 0. 0. 0. 0.
      0. 5.73303662e-02 0. 0. 0. 0. 0. 0. 0. 0. 0. 0. 0. 0. 0. 0. 0. 0.
      0. 0. 0. 0. 0. 0. 0. 0. 0. 0. 0. 0. 0. 0. 0. 2.86651831e-02 0. 0.
      0. 0. 0. 0. 0. 2.86651831e-02 0. 2.86651831e-02 0. 5.73303662e-02
      8.59955475e-02 0. 0. 5.73303662e-02 2.86651831e-02 0.
      1.43325910e-01 2.86651831e-02 5.73303662e-02 1.14660732e-01
      2.86651831e-02 8.59955475e-02 0. 8.59955475e-02 8.59955475e-02
      2.86651831e-02 5.73303662e-02 0. 2.86651831e-02 0. 2.86651831e-02
      0. 0. 0. 0. 0. 0. 0. 0. 0. 0. 0. 0. 0. 0. 0. 0. 0. 0. 0. 0. 0. 0.
      0. 0. 0. 0. 0. 0. 0. 0. 2.86651831e-02 0. 0. 0. 0. 0. 0. 0. 0. 0.
      0. 0. 0. 0. 0. 0. 0. 0. 0. 0. 0. 0. 0. 0. 0. 0. 0. 0. 0. 0. 0. 0.
      0. 0. 0. 0. 7.80274346e-02 0. 0. 0. 0. 0. 0. 0. 0. 0. 0. 0. 0. 0.
      0. 0. 0. 0. 0. 0. 0. 0. 3.90137173e-02 0. 0. 0. 0. 0.
      3.90137173e-02 0. 0. 0. 7.80274346e-02 0. 0. 0. 0. 0. 0. 0. 0. 0.
      0. 0. 0. 0. 0. 0. 0. 0. 0. 0. 0. 0. 0. 0. 0. 0. 3.90137173e-02 0.
      5.07178307e-01 0. 0. 0. 0. 0. 0. 0. 0. 0. 0. 0. 0. 0. 0. 0. 0. 0.
      0. 0. 0. 0. 0. 0. 0. 0. 0. 0. 0. 0. 0. 0. 0. 0. 0. 0. 0. 0. 0. 0.
      0. 0. 0. 0. 0. 0. 0. 0. 0. 0. 0. 0. 0. 0. 0. 0. 0. 0. 0. 0. 0. 0.
      0. 0. 0. 0. 0. 0. 0. 3.90137173e-02 0. 0. 0. 0. 0. 0. 0. 0. 0. 0.
      0. 0. 0. 0. 0. 0. 0. 0. 0. 0. 0. 0. 0. 0. 0. 0. 0. 0.
      3.90137173e-02 0. 0. 3.90137173e-02 0. 0. 3.90137173e-02 0.
      3.90137173e-02 0. 7.80274346e-02 1.17041156e-01 0. 0.
      7.80274346e-02 3.90137173e-02 0. 1.95068583e-01 3.90137173e-02
      7.80274346e-02 1.56054869e-01 3.90137173e-02 1.17041156e-01 0.
      1.17041156e-01 1.17041156e-01 3.90137173e-02 7.80274346e-02 0.
      3.90137173e-02 0. 0. 0. 0. 0. 7.80274346e-02 0. 0. 0. 0. 0. 0. 0.
      0. 0. 0. 0. 3.90137173e-02 0. 0. 0. 0. 0. 0. 0. 0. 0. 0. 0. 0. 0.
      0. 0. 3.90137173e-02 0. 3.90137173e-02 0. 7.41260648e-01 0. 0.
      3.90137173e-02 0. 0. 0. 0. 0. 0. 0. 0. 7.80274346e-02 0. 0. 0. 0.
      0. 0. 0. 0. 0. 0. 0. 0. 0. 3.90137173e-02 0. 0.</_>
    <_>
      1.31558701e-01 0. 0. 4.38528992e-02 0. 0. 0. 0. 0. 0. 0. 0. 0. 0.
      0. 4.38528992e-02 0. 0. 0. 0. 0. 0. 4.38528992e-02 0. 0. 0. 0. 0.
      0. 0. 0. 8.77057984e-02 0. 0. 0. 0. 0. 0. 0. 0. 0. 0. 0. 0. 0. 0.
      0. 0. 0. 0. 0. 0. 0. 0. 0. 0. 0. 0. 0. 4.38528992e-02 0. 0.
      4.38528992e-02 0. 0. 4.38528992e-02 0. 4.38528992e-02
      4.38528992e-02 4.38528992e-02 0. 0. 4.38528992e-02 4.38528992e-02
      0. 0. 0. 0. 0. 0. 0. 0. 0. 0. 4.38528992e-02 0. 0. 0. 0. 0. 0. 0.
      0. 0. 4.38528992e-02 0. 0. 0. 0. 0. 0. 4.38528992e-02 0.
      4.38528992e-02 0. 4.38528992e-02 0. 0. 0. 0. 0. 0. 0. 0. 0. 0. 0.
      0. 0. 0. 4.38528992e-02 0. 4.38528992e-02 0. 4.38528992e-02 0.
      8.77057984e-02 8.77057984e-02 0. 0. 4.38528992e-02 0. 0. 0. 0. 0.
      0. 4.38528992e-02 0. 0. 4.38528992e-02 0. 4.38528992e-02 0. 0. 0.
      4.38528992e-02 0. 4.38528992e-02 0. 0. 0. 0. 0. 0. 0. 0. 0. 0. 0.
      0. 0. 4.38528992e-02 0. 0. 0. 0. 0. 4.38528992e-02 0. 0. 0. 0. 0.
      4.38528992e-02 0. 0. 0. 0. 0. 0. 0. 0. 4.38528992e-02 0. 0.
      4.38528992e-02 0. 0. 0. 0. 0. 8.77057984e-02 0. 0. 0. 0. 0. 0. 0.
      0. 0. 0. 0. 0. 0. 0. 0. 0. 0. 0. 0. 0. 0. 0. 0. 0. 0. 0. 0. 0. 0.
      0. 0. 3.94676089e-01 4.38528992e-02 0. 1.31558701e-01
      4.38528992e-02 0. 0. 1.31558701e-01 4.38528992e-02 4.38528992e-02
      0. 0. 0. 0. 0. 0. 6.13940597e-01 2.19264492e-01 0. 4.38528985e-01
      0. 4.38528992e-02 0. 0. 2.63117403e-01 0. 0. 0. 8.77057984e-02 0.
      0. 0. 2.28292063e-01 0. 0. 5.70730157e-02 0. 0. 0. 0. 0. 0. 0. 0.
      1.14146031e-01 0. 1.71219051e-01 2.28292063e-01 0. 0. 0. 0. 0. 0.
      5.70730157e-02 0. 0. 0. 0. 0. 0. 0. 0. 1.14146031e-01 0. 0. 0. 0.
      0. 0. 5.70730157e-02 0. 0. 0. 0. 0. 0. 0. 0. 0. 0. 0. 0. 0. 0. 0.
      0. 0. 3.99511099e-01 0. 0. 5.70730157e-02 5.70730157e-02 0.
      1.71219051e-01 2.28292063e-01 0. 5.70730157e-02 0. 5.70730157e-02
      5.70730157e-02 5.70730157e-02 0. 0. 5.70730157e-02 5.70730157e-02
      0. 0. 0. 0. 0. 0. 0. 0. 0. 0. 5.70730157e-02 0. 0. 0. 0. 0. 0. 0.
      0. 0. 5.70730157e-02 0. 0. 0. 0. 0. 0. 5.70730157e-02 0.
      5.70730157e-02 0. 5.70730157e-02 0. 0. 0. 0. 5.70730157e-02 0. 0.
      0. 5.70730157e-02 0. 0. 0. 0. 0. 3.99511099e-01 0. 5.70730157e-02
      0. 1.14146031e-01 0. 3.42438102e-01 1.14146031e-01 0. 0.
      5.70730157e-02 1.14146031e-01 0. 0. 0. 0. 0. 5.70730157e-02 0. 0.
      5.70730157e-02 0. 5.70730157e-02 0. 5.70730157e-02 0.
      5.70730157e-02 0. 5.70730157e-02 0. 0. 0. 0. 5.70730157e-02 0. 0.
      0. 0. 0. 0. 0. 0. 5.70730157e-02 0. 0. 0. 0. 0. 5.70730157e-02 0.
      0. 0. 0. 0. 5.70730157e-02 0. 5.70730157e-02 0. 0. 0. 0. 0. 0.
      5.70730157e-02 0. 0. 5.70730157e-02 0. 0. 0. 0. 0. 0. 0. 0. 0. 0.
      0. 0. 0. 0. 0. 0. 0. 0. 0. 0. 0. 0. 0. 0. 0. 0. 0. 0. 0. 0. 0. 0.
      0. 0. 0. 0. 0. 5.70730157e-02 0. 0. 0. 0. 0. 0. 2.28292063e-01 0.
      0. 0. 0. 0. 0. 0. 0. 2.28292063e-01 0. 0. 1.14146031e-01 0.
      5.70730157e-02 0. 0. 2.28292063e-01 0. 0. 0. 0. 0. 0. 0.
      2.07112148e-01 0. 0. 5.17780371e-02 0. 0. 0. 0. 0. 0. 0. 0. 0. 0.
      1.03556074e-01 0. 0. 0. 5.17780371e-02 0. 0. 0. 5.17780371e-02 0.
      5.17780371e-02 0. 0. 0. 5.17780371e-02 0. 1.55334115e-01
      1.55334115e-01 5.17780371e-02 0. 0. 0. 0. 0. 0. 0. 0. 0. 0. 0. 0.
      0. 0. 0. 0. 0. 0. 0. 0. 0. 0. 0. 4.66002345e-01 0. 5.17780371e-02
      5.17780371e-02 3.10668230e-01 0. 4.14224297e-01 5.17780371e-02 0.
      5.17780371e-02 0. 5.17780371e-02 5.17780371e-02 5.17780371e-02 0.
      0. 5.17780371e-02 5.17780371e-02 0. 0. 0. 0. 0. 0. 0. 0. 0. 0.
      5.17780371e-02 0. 0. 0. 0. 0. 0. 0. 0. 0. 5.17780371e-02 0. 0. 0.
      0. 0. 0. 5.17780371e-02 0. 5.17780371e-02 0. 5.17780371e-02 0. 0.
      0. 0. 0. 0. 0. 0. 0. 0. 0. 0. 0. 0. 2.58890182e-01 0.
      5.17780371e-02 0. 4.14224297e-01 0. 1.55334115e-01 1.55334115e-01
      0. 0. 5.17780371e-02 0. 0. 0. 0. 0. 0. 5.17780371e-02 0. 0.
      5.17780371e-02 0. 5.17780371e-02 0. 0. 0. 5.17780371e-02
      5.17780371e-02 5.17780371e-02 0. 0. 0. 0. 0. 0. 0. 0. 0. 0. 0. 0.
      0. 5.17780371e-02 0. 0. 0. 0. 0. 5.17780371e-02 0. 0. 0. 0. 0.
      5.17780371e-02 0. 0. 0. 0. 0. 0. 0. 0. 5.17780371e-02
      5.17780371e-02 0. 5.17780371e-02 0. 0. 0. 0. 0. 0. 0. 0. 0. 0. 0.
      0. 0. 0. 0. 0. 0. 0. 0. 0. 0. 0. 0. 0. 0. 0. 0. 0. 0.
      5.17780371e-02 0. 0. 0. 0. 0. 0. 0. 5.17780371e-02 0. 0. 0. 0. 0.
      0. 1.03556074e-01 0. 0. 0. 0. 0. 0. 0. 0. 0. 0. 0. 0. 0.
      5.17780371e-02 0. 0. 1.03556074e-01 0. 0. 0. 5.17780371e-02 0.
      5.17780371e-02 0. 1.48522124e-01 0. 0. 4.95073758e-02 0. 0. 0. 0.
      0. 0. 0. 0. 0. 0. 0. 0. 0. 0. 0. 0. 0. 0. 4.95073758e-02 0. 0. 0.
      0. 0. 0. 0. 0. 4.95073758e-02 0. 0. 0. 0. 0. 0. 0. 0. 0. 0. 0. 0.
      0. 0. 0. 0. 0. 0. 0. 0. 0. 0. 0. 0. 0. 0. 0. 4.95073758e-02 0. 0.
      4.95073758e-02 0. 0. 4.95073758e-02 0. 4.95073758e-02
      4.95073758e-02 4.95073758e-02 0. 0. 4.95073758e-02 4.95073758e-02
      0. 0. 0. 0. 0. 0. 0. 0. 0. 0. 4.95073758e-02 0. 0. 0. 0. 0. 0. 0.
      0. 0. 4.95073758e-02 0. 9.90147516e-02 0. 0. 0. 0. 4.95073758e-02
      0. 4.95073758e-02 0. 4.95073758e-02 0. 0. 0. 0. 0. 0.
      1.48522124e-01 0. 0. 0. 0. 0. 0. 0. 9.90147516e-02 0.
      4.95073758e-02 0. 9.90147516e-02 0. 0. 4.95073758e-02
      9.90147516e-02 0. 4.95073758e-02 0. 0. 0. 0. 0. 9.90147516e-02
      4.95073758e-02 0. 0. 4.95073758e-02 0. 4.95073758e-02 0. 0. 0.
      4.95073758e-02 0. 4.95073758e-02 0. 0. 0. 0. 0. 0. 0. 0. 0. 0. 0.
      0. 0. 4.95073758e-02 0. 0. 0. 0. 0. 4.95073758e-02 0. 0. 0. 0. 0.
      4.95073758e-02 0. 0. 0. 0. 0. 0. 0. 0. 4.95073758e-02 0. 0.
      4.95073758e-02 0. 0. 0. 0. 0. 0. 9.90147516e-02 0. 0. 0. 0. 0. 0.
      4.95073758e-02 0. 0. 0. 0. 0. 0. 0. 0. 0. 0. 0. 0. 0. 0. 0. 0. 0.
      0. 0. 0. 0. 0. 0. 2.47536883e-01 4.95073758e-02 4.95073758e-02
      2.97044247e-01 0. 0. 0. 9.90147516e-02 4.95073758e-02 0. 0.
      4.95073758e-02 0. 0. 0. 0. 6.43595874e-01 1.98029503e-01
      4.95073758e-02 1.48522124e-01 0. 4.95073758e-02 0. 4.95073758e-02
      3.96059006e-01 4.95073758e-02 0. 0. 9.90147516e-02 4.95073758e-02
      0. 0. 9.72305536e-02 0. 0. 3.24101858e-02 0. 0. 0. 0. 0. 0. 0. 0.
      0. 0. 0. 0. 0. 0. 0. 0. 0. 0. 3.24101858e-02 0. 0. 0. 0.
      3.24101858e-02 0. 0. 0. 3.24101858e-02 0. 0. 0. 0. 0. 0. 0. 0. 0.
      0. 0. 0. 0. 0. 0. 0. 0. 0. 0. 0. 0. 0. 0. 0. 9.72305536e-02
      3.24101858e-02 0. 3.24101858e-02 0. 0. 3.24101858e-02
      3.24101858e-02 0. 3.24101858e-02 0. 3.24101858e-02 3.24101858e-02
      3.24101858e-02 0. 0. 3.24101858e-02 3.24101858e-02 0. 0. 0. 0. 0.
      0. 0. 0. 0. 0. 3.24101858e-02 0. 0. 0. 0. 0. 0. 0. 0. 0.
      3.24101858e-02 0. 0. 0. 0. 0. 0. 3.24101858e-02 0. 3.24101858e-02
      0. 3.24101858e-02 0. 0. 0. 0. 0. 0. 3.24101858e-02 0. 0. 0. 0. 0.
      0. 0. 8.75075042e-01 0. 3.24101858e-02 0. 1.94461107e-01 0.
      9.72305536e-02 6.48203716e-02 0. 0. 3.24101858e-02 0. 0. 0. 0. 0.
      0. 3.24101858e-02 0. 0. 3.24101858e-02 0. 3.24101858e-02 0. 0. 0.
      3.24101858e-02 0. 3.24101858e-02 0. 0. 0. 0. 0. 0. 0. 0. 0. 0.
      3.24101858e-02 0. 0. 3.24101858e-02 0. 0. 0. 0. 0. 3.24101858e-02
      0. 0. 0. 0. 0. 3.24101858e-02 0. 0. 0. 0. 0. 0. 0. 0.
      3.24101858e-02 0. 0. 3.24101858e-02 0. 0. 0. 0. 3.24101858e-02 0.
      0. 0. 0. 0. 0. 0. 0. 0. 0. 0. 0. 0. 0. 0. 3.24101858e-02 0. 0. 0.
      0. 0. 0. 0. 0. 0. 0. 0. 0. 0. 0. 0. 0. 0. 0. 0. 0. 0. 0. 0.
      9.72305536e-02 0. 0. 0. 0. 0. 0. 0. 0. 0. 0. 0. 3.24101858e-02 0.
      3.24101858e-02 0. 0. 3.24101865e-01 3.24101858e-02 0. 0.
      9.72305536e-02 0. 0. 0. 1.93347305e-01 0. 0. 4.83368263e-02 0. 0.
      0. 0. 0. 0. 0. 0. 0. 0. 0. 0. 0. 0. 0. 0. 0. 0. 4.83368263e-02 0.
      0. 0. 0. 0. 0. 0. 0. 4.83368263e-02 0. 0. 0. 0. 0. 0. 0. 0. 0. 0.
      0. 0. 0. 0. 0. 0. 0. 0. 0. 0. 0. 0. 0. 0. 2.41684139e-01 0. 0.
      4.83368263e-02 1.45010471e-01 0. 9.66736525e-02 0. 0.
      4.83368263e-02 0. 4.83368263e-02 4.83368263e-02 4.83368263e-02 0.
      0. 4.83368263e-02 4.83368263e-02 0. 0. 0. 0. 0. 0. 0. 0. 0. 0.
      4.83368263e-02 0. 0. 0. 0. 0. 0. 0. 0. 0. 4.83368263e-02 0.
      9.66736525e-02 0. 0. 0. 0. 4.83368263e-02 4.83368263e-02
      4.83368263e-02 0. 4.83368263e-02 0. 0. 0. 0. 0. 0. 0. 0. 0. 0. 0.
      0. 0. 0. 6.76715553e-01 0. 4.83368263e-02 0. 2.90020943e-01 0.
      1.45010471e-01 4.83368263e-02 0. 0. 4.83368263e-02 0. 0. 0. 0. 0.
      0. 4.83368263e-02 0. 0. 4.83368263e-02 0. 4.83368263e-02 0. 0. 0.
      4.83368263e-02 0. 4.83368263e-02 0. 0. 0. 0. 0. 0. 0. 0. 0. 0. 0.
      0. 0. 4.83368263e-02 0. 0. 0. 0. 0. 4.83368263e-02 0. 0. 0. 0. 0.
      4.83368263e-02 0. 0. 0. 0. 0. 0. 0. 0. 4.83368263e-02 0. 0.
      4.83368263e-02 0. 0. 0. 0. 0. 0. 0. 0. 2.90020943e-01 0. 0. 0.
      4.83368263e-02 0. 0. 0. 0. 0. 0. 0. 0. 0. 0. 0. 0. 0. 0. 0. 0. 0.
      0. 0. 0. 0. 0. 0. 0. 1.93347305e-01 0. 0. 9.66736525e-02 0. 0. 0.
      9.66736525e-02 0. 0. 0. 0. 0. 0. 0. 0. 9.66736525e-02 0.
      9.66736525e-02 9.66736525e-02 0. 4.83368263e-02 0. 4.83368263e-02
      1.45010471e-01 0. 0. 0. 1.93347305e-01 0. 0. 0. 2.21766382e-01 0.
      0. 7.39221275e-02 0. 0. 0. 0. 0. 0. 0. 0. 0. 0. 2.21766382e-01 0.
      0. 0. 0. 0. 0. 0. 7.39221275e-02 0. 0. 0. 0. 7.39221275e-02 0. 0.
      0. 1.47844255e-01 0. 0. 0. 0. 0. 0. 0. 0. 0. 0. 0. 0. 0. 0. 0. 0.
      0. 0. 0. 0. 0. 0. 0. 7.39221275e-02 2.21766382e-01 0.
      7.39221275e-02 7.39221275e-02 2.21766382e-01 0. 1.47844255e-01 0.
      0. 7.39221275e-02 0. 7.39221275e-02 7.39221275e-02 7.39221275e-02
      0. 0. 7.39221275e-02 7.39221275e-02 0. 0. 0. 0. 7.39221275e-02 0.
      0. 0. 0. 0. 7.39221275e-02 0. 0. 0. 0. 0. 0. 0. 0. 0.
      7.39221275e-02 0. 0. 0. 0. 0. 0. 7.39221275e-02 0. 7.39221275e-02
      0. 7.39221275e-02 0. 0. 0. 0. 0. 0. 0. 0. 0. 0. 0. 0. 0. 0. 0. 0.
      1.47844255e-01 0. 7.39221275e-02 0. 1.47844255e-01 2.21766382e-01
      0. 0. 7.39221275e-02 1.47844255e-01 0. 0. 0. 0. 0. 7.39221275e-02
      0. 0. 7.39221275e-02 0. 7.39221275e-02 1.47844255e-01 0. 0.
      7.39221275e-02 0. 7.39221275e-02 0. 0. 0. 0. 7.39221275e-02 0. 0.
      0. 0. 0. 1.47844255e-01 0. 0. 7.39221275e-02 0. 0. 0. 0. 0.
      7.39221275e-02 0. 0. 0. 0. 0. 7.39221275e-02 0. 0. 0. 0.
      7.39221275e-02 0. 0. 0. 1.47844255e-01 0. 0. 7.39221275e-02 0.
      7.39221275e-02 7.39221275e-02 0. 7.39221275e-02 0. 0. 0.
      7.39221275e-02 0. 0. 0. 0. 0. 0. 0. 0. 0. 0. 0. 7.39221275e-02 0.
      0. 0. 0. 0. 0. 0. 0. 0. 0. 0. 0. 0. 0. 0. 0. 2.95688510e-01 0. 0.
      1.47844255e-01 0. 0. 0. 2.95688510e-01 0. 0. 0. 0. 0. 0.
      7.39221275e-02 0. 0. 1.47844255e-01 0. 7.39221275e-02 0.
      7.39221275e-02 0. 7.39221275e-02 3.69610637e-01 0. 0. 0.
      7.39221275e-02 0. 0. 0. 1.97814137e-01 0. 1.31876096e-01
      6.59380481e-02 0. 0. 0. 0. 6.59380481e-02 0. 0. 0. 0. 0. 0. 0. 0.
      0. 0. 0. 0. 0. 6.59380481e-02 0. 0. 0. 0. 0. 0. 0. 0.
      6.59380481e-02 6.59380481e-02 0. 0. 0. 0. 0. 0. 0. 0. 0. 0. 0. 0.
      0. 6.59380481e-02 0. 1.31876096e-01 0. 0. 0. 0. 0. 0. 0.
      1.31876096e-01 0. 6.59380481e-02 6.59380481e-02 6.59380481e-02 0.
      6.59380481e-02 0. 0. 6.59380481e-02 0. 6.59380481e-02
      6.59380481e-02 6.59380481e-02 6.59380481e-02 0. 6.59380481e-02
      6.59380481e-02 0. 0. 0. 0. 0. 0. 0. 0. 0. 0. 6.59380481e-02 0. 0.
      0. 0. 0. 0. 0. 0. 0. 6.59380481e-02 0. 0. 0. 0. 0. 0.
      6.59380481e-02 0. 6.59380481e-02 0. 6.59380481e-02 0. 0. 0. 0.
      6.59380481e-02 0. 6.59380481e-02 0. 0. 0. 0. 0. 0. 0.
      6.59380481e-02 0. 1.31876096e-01 0. 2.63752192e-01 0.
      1.97814137e-01 6.59380481e-02 0. 0. 6.59380481e-02 0.
      6.59380481e-02 0. 0. 0. 1.31876096e-01 6.59380481e-02 0. 0.
      6.59380481e-02 0. 6.59380481e-02 0. 0. 0. 6.59380481e-02 0.
      6.59380481e-02 0. 0. 0. 0. 0. 0. 0. 0. 0. 0. 0. 0. 0.
      6.59380481e-02 0. 0. 0. 0. 0. 6.59380481e-02 0. 0. 0. 0. 0.
      6.59380481e-02 0. 0. 0. 0. 0. 0. 0. 0. 6.59380481e-02 0. 0.
      6.59380481e-02 0. 0. 0. 0. 0. 0. 0. 0. 0. 0. 0. 0. 1.31876096e-01
      0. 0. 0. 0. 0. 0. 0. 6.59380481e-02 0. 0. 0. 0. 0. 0. 0. 0. 0. 0.
      0. 0. 0. 0. 0. 6.59380481e-02 6.59380481e-02 0. 0. 0. 0. 0. 0.
      1.97814137e-01 0. 0. 0. 0. 0. 0. 0. 0. 0. 6.59380481e-02 0.
      6.59380481e-02 0. 6.59380481e-02 0. 0. 5.27504385e-01
      1.97814137e-01 0. 1.31876096e-01 3.29690248e-01 6.59380481e-02
      2.63752192e-01 0. 1.42695457e-01 0. 0. 9.51303020e-02 0. 0. 0. 0.
      0. 0. 0. 0. 0. 0. 0. 0. 0. 0. 0. 0. 0. 0. 4.75651510e-02 0. 0. 0.
      0. 0. 0. 0. 0. 4.75651510e-02 0. 0. 0. 0. 0. 0. 0. 0. 0. 0. 0. 0.
      0. 0. 0. 0. 0. 0. 0. 0. 0. 0. 0. 0. 0. 0. 0. 4.75651510e-02 0. 0.
      4.75651510e-02 0. 0. 4.75651510e-02 0. 4.75651510e-02
      4.75651510e-02 4.75651510e-02 0. 0. 4.75651510e-02 4.75651510e-02
      0. 0. 0. 0. 0. 0. 0. 0. 0. 0. 4.75651510e-02 0. 0. 0. 0. 0. 0. 0.
      0. 0. 4.75651510e-02 0. 0. 0. 0. 0. 0. 4.75651510e-02 0.
      4.75651510e-02 0. 4.75651510e-02 0. 0. 0. 0. 0. 0. 0. 0. 0. 0. 0.
      0. 0. 0. 0. 0. 4.75651510e-02 0. 4.75651510e-02 0. 0.
      4.75651510e-02 0. 4.75651510e-02 4.75651510e-02 1.42695457e-01 0.
      0. 0. 0. 0. 4.75651510e-02 0. 0. 4.75651510e-02 0. 4.75651510e-02
      9.51303020e-02 0. 0. 4.75651510e-02 0. 4.75651510e-02 0. 0. 0. 0.
      0. 0. 0. 0. 0. 0. 0. 0. 4.75651510e-02 4.75651510e-02 0. 0. 0. 0.
      0. 4.75651510e-02 0. 0. 0. 0. 0. 4.75651510e-02 0. 0. 0. 0. 0. 0.
      0. 0. 4.75651510e-02 0. 0. 4.75651510e-02 0. 0. 0. 0. 0. 0.
      9.51303020e-02 0. 3.80521208e-01 0. 0. 0. 9.51303020e-02 0. 0. 0.
      0. 0. 0. 0. 4.75651510e-02 0. 0. 0. 0. 0. 0. 0. 0. 0. 0. 0. 0. 0.
      0. 0. 0. 2.37825751e-01 2.85390913e-01 0. 6.65912092e-01 0. 0. 0.
      2.85390913e-01 0. 0. 0. 0. 0. 0. 0. 4.75651510e-02 0.
      4.75651510e-02 0. 1.42695457e-01 0. 4.75651510e-02 0.
      4.75651510e-02 0. 9.51303020e-02 0. 4.75651510e-02 0. 0.
      4.75651510e-02 0.</_>
    <_>
      4.02911484e-01 2.41746902e-01 0. 0. 8.05822983e-02 8.05822983e-02
      0. 0. 1.61164597e-01 0. 0. 0. 8.05822983e-02 0. 8.05822983e-02
      2.41746902e-01 8.05822983e-02 8.05822983e-02 0. 0. 0.
      8.05822983e-02 0. 0. 0. 8.05822983e-02 0. 0. 0. 0. 0.
      1.61164597e-01 0. 0. 0. 0. 0. 8.05822983e-02 0. 0. 0.
      8.05822983e-02 0. 0. 8.05822983e-02 8.05822983e-02 0. 0.
      8.05822983e-02 0. 0. 0. 8.05822983e-02 0. 0. 0. 8.05822983e-02 0.
      0. 8.05822983e-02 0. 0. 0. 1.61164597e-01 0. 8.05822983e-02 0. 0.
      8.05822983e-02 0. 0. 0. 0. 8.05822983e-02 0. 0. 0. 0.
      8.05822983e-02 1.61164597e-01 8.05822983e-02 0. 0. 0.
      8.05822983e-02 0. 0. 0. 0. 0. 0. 0. 8.05822983e-02 0.
      8.05822983e-02 0. 8.05822983e-02 0. 0. 0. 0. 0. 8.05822983e-02 0.
      8.05822983e-02 0. 0. 0. 8.05822983e-02 0. 0. 0. 8.05822983e-02 0.
      8.05822983e-02 0. 0. 8.05822983e-02 0. 8.05822983e-02 0. 0. 0. 0.
      0. 0. 0. 0. 0. 8.05822983e-02 8.05822983e-02 8.05822983e-02 0. 0.
      0. 0. 0. 0. 0. 0. 0. 0. 0. 8.05822983e-02 8.05822983e-02
      8.05822983e-02 0. 0. 0. 0. 0. 0. 0. 0. 0. 0. 8.05822983e-02 0. 0.
      0. 1.61164597e-01 1.61164597e-01 8.05822983e-02 0. 0.
      8.05822983e-02 0. 0. 0. 0. 8.05822983e-02 0. 0. 0. 0. 0. 0. 0.
      8.05822983e-02 0. 0. 0. 8.05822983e-02 0. 0. 0. 0. 0. 0. 0. 0. 0.
      0. 0. 8.05822983e-02 0. 0. 0. 0. 0. 0. 8.05822983e-02 0. 0. 0. 0.
      0. 8.05822983e-02 0. 0. 8.05822983e-02 8.05822983e-02
      8.05822983e-02 0. 0. 0. 0. 0. 0. 0. 0. 0. 8.05822983e-02
      1.61164597e-01 8.05822983e-02 1.61164597e-01 0. 8.05822983e-02 0.
      8.05822983e-02 0. 1.61164597e-01 0. 0. 0. 8.05822983e-02 0. 0. 0.
      1.61164597e-01 8.05822983e-02 1.61164597e-01 0. 0. 0. 0. 0.
      8.05822983e-02 0. 8.05822983e-02 1.61164597e-01 0. 0.
      1.61164597e-01 8.05822983e-02 0. 3.65636200e-01 0. 2.19381720e-01
      0. 0. 7.31272399e-02 7.31272399e-02 0. 0. 0. 0. 0. 0. 0.
      7.31272399e-02 0. 0. 0. 7.31272399e-02 0. 0. 7.31272399e-02 0. 0.
      7.31272399e-02 0. 0. 0. 0. 0. 0. 0. 7.31272399e-02 0. 0. 0. 0.
      7.31272399e-02 0. 0. 0. 7.31272399e-02 0. 0. 7.31272399e-02
      7.31272399e-02 0. 0. 1.46254480e-01 0. 1.46254480e-01 0.
      7.31272399e-02 0. 0. 0. 0. 0. 7.31272399e-02 0. 0. 7.31272399e-02
      0. 7.31272399e-02 0. 7.31272399e-02 0. 0. 7.31272399e-02 0. 0. 0.
      0. 7.31272399e-02 0. 0. 0. 0. 0. 0. 7.31272399e-02 0. 0. 0.
      7.31272399e-02 0. 0. 0. 7.31272399e-02 0. 0. 0. 7.31272399e-02 0.
      7.31272399e-02 0. 0. 0. 0. 0. 0. 0. 0. 0. 7.31272399e-02 0. 0. 0.
      0. 0. 7.31272399e-02 0. 7.31272399e-02 0. 7.31272399e-02 0. 0.
      7.31272399e-02 0. 7.31272399e-02 0. 0. 7.31272399e-02 0. 0.
      7.31272399e-02 0. 0. 0. 1.46254480e-01 0. 0. 0. 0. 0. 0. 0. 0. 0.
      0. 0. 0. 0. 7.31272399e-02 7.31272399e-02 0. 0. 0. 0. 0. 0. 0. 0.
      0. 0. 0. 7.31272399e-02 0. 0. 0. 0. 7.31272399e-02 7.31272399e-02
      0. 0. 7.31272399e-02 0. 0. 0. 0. 7.31272399e-02 0. 0.
      7.31272399e-02 0. 0. 0. 0. 7.31272399e-02 0. 0. 0. 7.31272399e-02
      0. 0. 0. 0. 0. 0. 0. 0. 0. 1.46254480e-01 0. 7.31272399e-02
      2.92508960e-01 0. 0. 7.31272399e-02 7.31272399e-02 0.
      7.31272399e-02 0. 7.31272399e-02 0. 0. 0. 0. 7.31272399e-02 0.
      7.31272399e-02 7.31272399e-02 7.31272399e-02 0. 0. 7.31272399e-02
      0. 0. 0. 0. 0. 0. 0. 0. 1.46254480e-01 1.46254480e-01 0.
      1.46254480e-01 0. 7.31272399e-02 0. 7.31272399e-02 0. 0. 0.
      7.31272399e-02 0. 7.31272399e-02 0. 0. 0. 1.46254480e-01 0.
      7.31272399e-02 0. 0. 0. 7.31272399e-02 0. 0. 1.46254480e-01
      1.46254480e-01 0. 4.38763440e-01 1.46254480e-01 0. 3.22078317e-01
      0. 0. 0. 0. 6.44156635e-02 0. 0. 0. 0. 0. 0. 6.44156635e-02 0.
      6.44156635e-02 0. 1.28831327e-01 0. 0. 0. 0. 6.44156635e-02 0. 0.
      0. 0. 0. 0. 1.28831327e-01 0. 6.44156635e-02 1.28831327e-01 0. 0.
      0. 0. 0. 6.44156635e-02 0. 0. 0. 6.44156635e-02 0. 0.
      6.44156635e-02 6.44156635e-02 0. 0. 6.44156635e-02 6.44156635e-02
      0. 0. 6.44156635e-02 0. 0. 0. 1.93246990e-01 0. 6.44156635e-02 0.
      5.15325308e-01 6.44156635e-02 0. 1.28831327e-01 6.44156635e-02
      6.44156635e-02 0. 0. 6.44156635e-02 0. 0. 0. 0. 6.44156635e-02 0.
      0. 0. 0. 0. 0. 0. 0. 0. 0. 6.44156635e-02 0. 0. 0. 0. 0. 0. 0.
      6.44156635e-02 0. 6.44156635e-02 0. 0. 0. 6.44156635e-02 0.
      6.44156635e-02 0. 0. 0. 6.44156635e-02 0. 0. 0. 0. 0. 0. 0.
      6.44156635e-02 6.44156635e-02 6.44156635e-02 0. 0. 6.44156635e-02
      0. 6.44156635e-02 0. 0. 6.44156635e-02 0. 1.28831327e-01 0.
      6.44156635e-02 0. 0. 6.44156635e-02 0. 0. 0. 0. 0. 0. 0. 0. 0. 0.
      0. 0. 0. 6.44156635e-02 6.44156635e-02 0. 0. 0. 0. 0. 0. 0. 0. 0.
      0. 0. 6.44156635e-02 0. 0. 0. 6.44156635e-02 0. 6.44156635e-02 0.
      0. 6.44156635e-02 0. 0. 0. 0. 6.44156635e-02 0. 0. 0. 0. 0. 0. 0.
      6.44156635e-02 0. 0. 0. 6.44156635e-02 0. 0. 0. 0. 0. 0. 0.
      1.28831327e-01 0. 0. 6.44156635e-02 1.28831327e-01 0. 0. 0. 0. 0.
      0. 6.44156635e-02 0. 0. 0. 0. 0. 0. 0. 0. 6.44156635e-02
      6.44156635e-02 6.44156635e-02 0. 0. 0. 0. 0. 0. 6.44156635e-02
      6.44156635e-02 0. 0. 0. 0. 4.50909644e-01 0. 1.28831327e-01
      6.44156635e-02 0. 0. 6.44156635e-02 0. 0. 0. 6.44156635e-02 0.
      6.44156635e-02 0. 0. 1.28831327e-01 0. 0. 0. 0. 0. 0. 0. 0. 0.
      6.44156635e-02 0. 0. 1.28831327e-01 6.44156635e-02 0.
      4.91539180e-01 8.19231942e-02 0. 0. 0. 8.19231942e-02 0. 0.
      1.63846388e-01 0. 8.19231942e-02 0. 0. 0. 0. 8.19231942e-02
      8.19231942e-02 0. 0. 0. 0. 8.19231942e-02 0. 0. 0. 8.19231942e-02
      0. 0. 8.19231942e-02 0. 0. 8.19231942e-02 0. 0. 8.19231942e-02 0.
      0. 8.19231942e-02 0. 0. 0. 8.19231942e-02 0. 0. 8.19231942e-02
      8.19231942e-02 8.19231942e-02 0. 1.63846388e-01 8.19231942e-02 0.
      0. 8.19231942e-02 0. 0. 0. 0. 0. 0. 0. 0. 0. 0. 8.19231942e-02
      8.19231942e-02 8.19231942e-02 0. 8.19231942e-02 8.19231942e-02 0.
      0. 0. 8.19231942e-02 8.19231942e-02 0. 8.19231942e-02 0. 0. 0. 0.
      0. 0. 0. 0. 8.19231942e-02 0. 0. 0. 8.19231942e-02 0. 0. 0.
      8.19231942e-02 0. 8.19231942e-02 0. 0. 0. 8.19231942e-02 0. 0. 0.
      0. 0. 8.19231942e-02 0. 0. 0. 0. 0. 0. 0. 0. 0. 8.19231942e-02 0.
      0. 8.19231942e-02 0. 1.63846388e-01 0. 0. 0. 0. 0. 0. 0. 0. 0.
      8.19231942e-02 0. 0. 0. 0. 0. 0. 0. 0. 0. 8.19231942e-02 0. 0. 0.
      1.63846388e-01 8.19231942e-02 8.19231942e-02 0. 0. 0. 0. 0.
      8.19231942e-02 0. 0. 0. 0. 8.19231942e-02 0. 8.19231942e-02 0. 0.
      8.19231942e-02 8.19231942e-02 0. 0. 8.19231942e-02 0. 0. 0. 0.
      8.19231942e-02 0. 0. 0. 0. 0. 0. 0. 8.19231942e-02 8.19231942e-02
      0. 0. 8.19231942e-02 0. 0. 0. 0. 0. 0. 0. 0. 8.19231942e-02 0. 0.
      8.19231942e-02 0. 0. 0. 0. 0. 0. 8.19231942e-02 0. 0. 0. 0.
      8.19231942e-02 0. 0. 8.19231942e-02 8.19231942e-02 8.19231942e-02
      8.19231942e-02 0. 0. 0. 0. 0. 0. 0. 8.19231942e-02 0. 0.
      8.19231942e-02 0. 3.27692777e-01 0. 8.19231942e-02 0.
      8.19231942e-02 0. 0. 0. 1.63846388e-01 0. 8.19231942e-02 0. 0. 0.
      8.19231942e-02 8.19231942e-02 8.19231942e-02 0. 8.19231942e-02
      8.19231942e-02 0. 8.19231942e-02 1.63846388e-01 8.19231942e-02 0.
      0. 8.19231942e-02 1.63846388e-01 8.19231942e-02 0. 0.
      5.64276516e-01 0. 7.05345646e-02 0. 0. 7.05345646e-02
      7.05345646e-02 0. 7.05345646e-02 0. 0. 0. 7.05345646e-02 0.
      1.41069129e-01 0. 0. 0. 0. 0. 0. 7.05345646e-02 0. 0. 0.
      1.41069129e-01 0. 0. 0. 0. 0. 0. 7.05345646e-02 7.05345646e-02 0.
      0. 0. 7.05345646e-02 0. 0. 0. 7.05345646e-02 0. 0. 7.05345646e-02
      7.05345646e-02 0. 0. 0. 0. 0. 0. 7.05345646e-02 7.05345646e-02 0.
      0. 0. 0. 0. 0. 0. 0. 0. 7.05345646e-02 0. 7.05345646e-02
      7.05345646e-02 0. 7.05345646e-02 0. 0. 7.05345646e-02 0.
      7.05345646e-02 0. 7.05345646e-02 0. 0. 0. 0. 0. 0. 0. 0.
      7.05345646e-02 0. 0. 0. 0. 0. 0. 0. 7.05345646e-02 0.
      7.05345646e-02 0. 7.05345646e-02 0. 0. 0. 0. 0. 7.05345646e-02 0.
      7.05345646e-02 0. 0. 0. 0. 0. 7.05345646e-02 7.05345646e-02 0. 0.
      7.05345646e-02 0. 7.05345646e-02 7.05345646e-02 0. 7.05345646e-02
      7.05345646e-02 0. 0. 0. 0. 0. 0. 7.05345646e-02 0. 7.05345646e-02
      0. 0. 0. 0. 0. 0. 0. 0. 0. 0. 0. 0. 0. 7.05345646e-02
      7.05345646e-02 0. 0. 0. 0. 0. 0. 0. 0. 0. 0. 0. 7.05345646e-02 0.
      0. 1.41069129e-01 0. 0. 7.05345646e-02 0. 0. 7.05345646e-02 0. 0.
      0. 0. 7.05345646e-02 0. 0. 7.05345646e-02 0. 0. 7.05345646e-02 0.
      7.05345646e-02 0. 0. 0. 7.05345646e-02 0. 7.05345646e-02 0. 0. 0.
      0. 0. 0. 0. 7.05345646e-02 7.05345646e-02 7.05345646e-02 0. 0. 0.
      0. 0. 0. 7.05345646e-02 0. 0. 0. 0. 0. 0. 0. 0. 7.05345646e-02
      1.41069129e-01 7.05345646e-02 0. 0. 0. 0. 0. 0. 7.05345646e-02 0.
      0. 0. 0. 1.41069129e-01 7.05345646e-02 0. 0. 0. 0. 0. 0. 0. 0.
      7.05345646e-02 7.05345646e-02 7.05345646e-02 0. 0. 0.
      2.11603701e-01 2.11603701e-01 0. 7.05345646e-02 7.05345646e-02 0.
      0. 7.05345646e-02 2.82138258e-01 2.82138258e-01 0. 0.
      1.41069129e-01 7.05345646e-02 7.05345646e-02 0. 5.89767814e-01
      7.37209767e-02 7.37209767e-02 0. 0. 7.37209767e-02 0. 0. 0. 0.
      7.37209767e-02 0. 0. 0. 0. 0. 7.37209767e-02 0. 7.37209767e-02 0.
      0. 7.37209767e-02 0. 0. 0. 0. 0. 0. 7.37209767e-02 0.
      7.37209767e-02 7.37209767e-02 7.37209767e-02 7.37209767e-02 0. 0.
      0. 7.37209767e-02 0. 0. 0. 7.37209767e-02 0. 0. 7.37209767e-02
      7.37209767e-02 0. 0. 1.47441953e-01 7.37209767e-02 0. 0.
      7.37209767e-02 0. 0. 0. 0. 0. 0. 0. 7.37209767e-02 0.
      1.47441953e-01 7.37209767e-02 0. 1.47441953e-01 0. 7.37209767e-02
      7.37209767e-02 0. 0. 0. 0. 7.37209767e-02 7.37209767e-02 0. 0.
      7.37209767e-02 0. 0. 0. 0. 0. 0. 7.37209767e-02 0. 0. 0. 0. 0. 0.
      0. 7.37209767e-02 0. 7.37209767e-02 0. 0. 7.37209767e-02 0. 0.
      7.37209767e-02 0. 0. 0. 7.37209767e-02 0. 0. 0. 0. 0. 0. 0. 0. 0.
      7.37209767e-02 0. 0. 7.37209767e-02 0. 7.37209767e-02
      7.37209767e-02 0. 0. 0. 0. 0. 1.47441953e-01 0. 0. 7.37209767e-02
      0. 0. 0. 7.37209767e-02 0. 0. 0. 0. 0. 0. 0. 0. 0. 7.37209767e-02
      7.37209767e-02 0. 0. 0. 0. 0. 0. 0. 0. 0. 7.37209767e-02 0.
      7.37209767e-02 0. 0. 0. 0. 0. 7.37209767e-02 0. 0. 7.37209767e-02
      0. 0. 0. 0. 7.37209767e-02 0. 0. 0. 0. 0. 0. 0. 7.37209767e-02 0.
      0. 0. 7.37209767e-02 0. 0. 0. 0. 0. 0. 0. 0. 0. 7.37209767e-02
      1.47441953e-01 7.37209767e-02 1.47441953e-01 0. 0. 0. 0. 0.
      7.37209767e-02 0. 0. 0. 0. 0. 0. 0. 0. 7.37209767e-02
      7.37209767e-02 7.37209767e-02 0. 0. 7.37209767e-02 0. 0.
      7.37209767e-02 0. 0. 0. 0. 0. 1.47441953e-01 2.94883907e-01 0.
      1.47441953e-01 7.37209767e-02 7.37209767e-02 0. 0. 0. 0. 0.
      1.47441953e-01 7.37209767e-02 0. 7.37209767e-02 7.37209767e-02 0.
      7.37209767e-02 0. 0. 0. 0. 0. 7.37209767e-02 7.37209767e-02 0. 0.
      0. 1.47441953e-01 7.37209767e-02 7.37209767e-02 0. 4.78852153e-01
      0. 1.59617379e-01 0. 0. 7.98086897e-02 0. 7.98086897e-02 0. 0. 0.
      0. 7.98086897e-02 0. 7.98086897e-02 0. 0. 0. 7.98086897e-02 0. 0.
      7.98086897e-02 0. 0. 0. 0. 7.98086897e-02 0. 7.98086897e-02 0.
      7.98086897e-02 0. 1.59617379e-01 0. 0. 0. 7.98086897e-02
      7.98086897e-02 0. 0. 0. 7.98086897e-02 0. 0. 1.59617379e-01
      7.98086897e-02 0. 1.59617379e-01 7.98086897e-02 0. 0. 0.
      7.98086897e-02 0. 7.98086897e-02 0. 0. 7.98086897e-02 0. 0.
      7.98086897e-02 0. 1.59617379e-01 7.98086897e-02 0. 7.98086897e-02
      7.98086897e-02 0. 7.98086897e-02 0. 0. 0. 0. 7.98086897e-02 0. 0.
      0. 0. 0. 0. 0. 7.98086897e-02 0. 0. 7.98086897e-02 0. 0. 0. 0. 0.
      0. 0. 7.98086897e-02 0. 7.98086897e-02 0. 7.98086897e-02 0.
      7.98086897e-02 0. 0. 0. 0. 0. 7.98086897e-02 0. 0. 0. 0. 0. 0. 0.
      0. 0. 7.98086897e-02 0. 0. 7.98086897e-02 7.98086897e-02
      7.98086897e-02 0. 0. 0. 0. 0. 0. 0. 0. 0. 7.98086897e-02
      7.98086897e-02 7.98086897e-02 0. 0. 0. 0. 0. 0. 0. 0. 0. 0. 0.
      7.98086897e-02 7.98086897e-02 0. 0. 0. 0. 0. 0. 0. 0. 0. 0.
      7.98086897e-02 7.98086897e-02 0. 0. 1.59617379e-01 0. 0.
      7.98086897e-02 0. 0. 7.98086897e-02 0. 0. 0. 0. 7.98086897e-02 0.
      0. 0. 0. 0. 0. 0. 7.98086897e-02 0. 0. 0. 7.98086897e-02 0. 0. 0.
      0. 7.98086897e-02 0. 0. 0. 1.59617379e-01 0. 0. 7.98086897e-02
      7.98086897e-02 0. 0. 0. 0. 0. 7.98086897e-02 0. 0. 0. 0. 0.
      7.98086897e-02 0. 7.98086897e-02 7.98086897e-02 7.98086897e-02
      7.98086897e-02 0. 0. 0. 0. 0. 0. 0. 0. 0. 0. 2.39426076e-01
      1.59617379e-01 0. 0. 7.98086897e-02 0. 7.98086897e-02 0. 0. 0. 0.
      0. 7.98086897e-02 0. 0. 0. 0. 7.98086897e-02 1.59617379e-01 0. 0.
      0. 7.98086897e-02 0. 0. 0. 7.98086897e-02 0. 2.39426076e-01
      7.98086897e-02 1.59617379e-01 7.98086897e-02 0. 3.49215150e-01
      6.98430315e-02 0. 0. 0. 6.98430315e-02 1.39686063e-01
      6.98430315e-02 0. 0. 0. 0. 6.98430315e-02 0. 0. 0. 0. 0. 0. 0. 0.
      6.98430315e-02 0. 0. 0. 0. 0. 0. 0. 0. 0. 0. 6.98430315e-02 0.
      6.98430315e-02 0. 0. 6.98430315e-02 0. 0. 0. 6.98430315e-02 0. 0.
      6.98430315e-02 6.98430315e-02 0. 0. 0. 0. 0. 1.39686063e-01
      6.98430315e-02 0. 0. 0. 1.39686063e-01 0. 0. 0. 0. 0. 0.
      6.98430315e-02 0. 6.98430315e-02 0. 0. 6.98430315e-02 0. 0. 0. 0.
      6.98430315e-02 0. 0. 0. 0. 0. 0. 0. 0. 0. 0. 6.98430315e-02 0. 0.
      0. 0. 0. 0. 0. 6.98430315e-02 0. 6.98430315e-02 0. 0. 0.
      6.98430315e-02 0. 0. 0. 0. 0. 6.98430315e-02 0. 0. 0. 0. 0. 0. 0.
      2.09529102e-01 0. 6.98430315e-02 0. 0. 6.98430315e-02 0.
      6.98430315e-02 2.09529102e-01 0. 0. 0. 2.09529102e-01 0. 0. 0. 0.
      6.98430315e-02 6.98430315e-02 0. 0. 0. 0. 0. 0. 0. 0. 0. 0. 0. 0.
      6.98430315e-02 6.98430315e-02 0. 0. 0. 0. 0. 0. 0. 0. 0. 0.
      6.98430315e-02 6.98430315e-02 0. 0. 0. 0. 0. 6.98430315e-02 0. 0.
      6.98430315e-02 0. 6.98430315e-02 0. 0. 6.98430315e-02 0. 0. 0. 0.
      0. 0. 0. 6.98430315e-02 0. 0. 0. 6.98430315e-02 0. 0. 0. 0. 0. 0.
      0. 0. 0. 0. 0. 6.98430315e-02 0. 0. 0. 0. 6.98430315e-02 0.
      6.98430315e-02 0. 6.98430315e-02 0. 0. 0. 0. 0. 0. 6.98430315e-02
      6.98430315e-02 6.98430315e-02 0. 0. 0. 0. 0. 0. 6.98430315e-02 0.
      0. 0. 6.98430315e-02 1.39686063e-01 1.39686063e-01 0. 0. 0. 0. 0.
      1.39686063e-01 0. 0. 0. 6.98430315e-02 0. 6.98430315e-02 0. 0.
      2.79372126e-01 1.39686063e-01 0. 1.39686063e-01 0. 0. 0.
      6.98430315e-02 2.09529102e-01 1.39686063e-01 0. 0. 4.19058204e-01
      1.39686063e-01 1.39686063e-01 0. 2.20192760e-01 5.50481901e-02
      1.10096380e-01 1.10096380e-01 0. 5.50481901e-02 0. 0. 0. 0. 0. 0.
      0. 0. 0. 0. 0. 0. 0. 0. 0. 5.50481901e-02 0. 0. 0. 0. 0. 0. 0. 0.
      0. 0. 0. 0. 0. 1.10096380e-01 0. 5.50481901e-02 0. 0. 0.
      5.50481901e-02 0. 0. 5.50481901e-02 5.50481901e-02 0. 0. 0. 0. 0.
      0. 5.50481901e-02 0. 0. 0. 0. 0. 0. 0. 0. 0. 0. 5.50481901e-02
      5.50481901e-02 1.10096380e-01 5.50481901e-02 0. 5.50481901e-02 0.
      0. 0. 0. 5.50481901e-02 0. 0. 0. 0. 0. 0. 0. 0. 0. 0.
      5.50481901e-02 0. 0. 0. 0. 0. 0. 0. 5.50481901e-02 0.
      5.50481901e-02 0. 0. 0. 0. 0. 0. 0. 0. 0. 5.50481901e-02 0. 0. 0.
      0. 0. 0. 0. 0. 0. 5.50481901e-02 0. 0. 5.50481901e-02 0.
      5.50481901e-02 0. 0. 0. 0. 0. 0. 0. 0. 0. 2.20192760e-01 0.
      5.50481901e-02 0. 0. 0. 0. 0. 0. 0. 0. 0. 0. 0. 5.50481901e-02
      5.50481901e-02 0. 0. 0. 0. 0. 0. 0. 0. 0. 0. 0. 5.50481901e-02 0.
      0. 0. 0. 0. 5.50481901e-02 5.50481901e-02 0. 5.50481901e-02 0. 0.
      0. 0. 5.50481901e-02 0. 0. 0. 0. 0. 0. 0. 5.50481901e-02 0. 0. 0.
      5.50481901e-02 0. 0. 0. 0. 0. 0. 0. 0. 0. 5.50481901e-02
      1.65144563e-01 5.50481901e-02 6.05530083e-01 0. 0. 0.
      1.10096380e-01 0. 5.50481901e-02 0. 0. 0. 0. 0. 0. 0. 0.
      5.50481901e-02 5.50481901e-02 5.50481901e-02 0. 0. 5.50481901e-02
      0. 0. 0. 0. 0. 0. 0. 1.10096380e-01 1.10096380e-01 2.75240958e-01
      0. 4.40385520e-01 0. 5.50481901e-02 0. 1.10096380e-01 0. 0. 0.
      5.50481901e-02 0. 0. 0. 1.10096380e-01 0. 0. 0. 0. 0.
      5.50481901e-02 0. 5.50481901e-02 0. 0. 0. 5.50481901e-02 0. 0.
      5.50481901e-02 0.</_>
    <_>
      9.50003684e-01 7.91669786e-02 0. 2.63889916e-02 2.63889916e-02 0.
      0. 2.63889916e-02 0. 0. 0. 0. 0. 0. 0. 7.91669786e-02 0. 0. 0. 0.
      0. 0. 0. 0. 0. 0. 0. 0. 0. 0. 0. 0. 0. 0. 0. 0. 0. 0. 0. 0. 0. 0.
      0. 0. 0. 0. 0. 0. 0. 0. 0. 0. 0. 0. 0. 0. 0. 0. 0. 0. 0. 0. 0. 0.
      2.63889916e-02 0. 0. 0. 0. 0. 0. 0. 0. 0. 0. 0. 0. 0.
      2.63889916e-02 0. 0. 0. 0. 0. 0. 2.63889916e-02 0. 0. 0. 0. 0. 0.
      0. 0. 0. 0. 2.63889916e-02 7.91669786e-02 0. 0. 0. 0. 0. 0. 0. 0.
      0. 0. 0. 0. 0. 0. 0. 0. 0. 0. 0. 0. 0. 0. 0. 0. 0. 0. 0. 0. 0.
      2.63889916e-02 0. 2.63889916e-02 0. 0. 0. 0. 0. 2.63889916e-02 0.
      0. 0. 0. 0. 0. 0. 0. 0. 2.63889916e-02 0. 0. 0. 0. 0.
      2.63889916e-02 0. 0. 0. 0. 0. 0. 0. 0. 2.63889916e-02
      2.63889916e-02 0. 0. 0. 0. 0. 2.63889916e-02 0. 0. 0. 0. 0. 0.
      2.63889916e-02 0. 0. 0. 0. 0. 0. 0. 0. 0. 0. 0. 0. 0. 0. 0. 0. 0.
      2.63889916e-02 0. 0. 0. 0. 0. 0. 5.27779832e-02 0. 0. 0. 0. 0. 0.
      2.63889916e-02 5.27779832e-02 0. 2.63889916e-02 0. 0. 0. 0. 0. 0.
      0. 0. 0. 0. 0. 0. 0. 5.27779832e-02 1.31944954e-01 5.27779832e-02
      0. 2.63889916e-02 2.63889916e-02 0. 0. 0. 0. 0. 0. 2.63889916e-02
      0. 0. 0. 5.27779832e-02 1.05555966e-01 1.05555966e-01 0.
      5.27779832e-02 0. 2.63889916e-02 0. 2.63889916e-02 0.
      5.27779832e-02 0. 5.27779832e-02 0. 0. 0. 0. 9.37893748e-01 0. 0.
      2.84210220e-02 2.84210220e-02 0. 2.84210220e-02 8.52630660e-02 0.
      0. 0. 2.84210220e-02 5.68420440e-02 0. 5.68420440e-02
      1.42105103e-01 5.68420440e-02 0. 0. 0. 0. 0. 0. 0. 8.52630660e-02
      0. 0. 2.84210220e-02 2.84210220e-02 0. 0. 2.84210220e-02 0. 0. 0.
      0. 0. 0. 0. 0. 0. 0. 0. 0. 0. 0. 0. 2.84210220e-02 2.84210220e-02
      2.84210220e-02 0. 0. 0. 0. 0. 0. 5.68420440e-02 0. 0. 0.
      5.68420440e-02 0. 2.84210220e-02 5.68420440e-02 0. 0. 0. 0. 0. 0.
      0. 0. 0. 0. 0. 0. 0. 0. 0. 2.84210220e-02 0. 0. 0. 0. 0.
      2.84210220e-02 0. 0. 0. 0. 0. 0. 0. 0. 0. 2.84210220e-02 0. 0. 0.
      0. 0. 0. 0. 0. 0. 0. 0. 0. 0. 0. 0. 2.84210220e-02 2.84210220e-02
      0. 0. 0. 0. 0. 0. 0. 2.84210220e-02 0. 0. 0. 0. 0. 2.84210220e-02
      1.13684088e-01 0. 2.84210220e-02 0. 2.84210220e-02 0.
      2.84210220e-02 0. 0. 0. 0. 0. 0. 0. 0. 0. 1.42105103e-01
      2.84210220e-02 0. 0. 0. 0. 0. 0. 0. 0. 0. 0. 0. 0. 0. 0.
      5.68420440e-02 0. 0. 0. 0. 0. 0. 0. 0. 0. 0. 0. 0. 0. 0.
      2.84210220e-02 0. 0. 0. 0. 0. 0. 0. 0. 0. 5.68420440e-02 0. 0. 0.
      0. 0. 0. 5.68420440e-02 0. 0. 0. 0. 0. 0. 2.84210220e-02
      2.84210220e-02 0. 0. 0. 0. 0. 0. 0. 0. 0. 0. 0. 0. 0. 0. 0. 0. 0.
      0. 0. 0. 0. 0. 0. 0. 0. 0. 0. 0. 0. 0. 0. 0. 0. 0. 0. 0. 0. 0. 0.
      0. 0. 0. 0. 0. 0. 0. 0. 0. 0. 0. 0. 0. 0. 0. 5.68420440e-02 0.
      9.58423257e-01 0. 0. 0. 5.04433289e-02 0. 0. 0. 2.52216645e-02 0.
      0. 0. 2.52216645e-02 2.52216645e-02 2.52216645e-02 2.52216645e-02
      2.52216645e-02 0. 0. 0. 0. 0. 0. 0. 0. 0. 0. 0. 5.04433289e-02 0.
      5.04433289e-02 0. 0. 0. 0. 0. 2.52216645e-02 0. 0. 0. 0. 0. 0. 0.
      0. 0. 0. 0. 5.04433289e-02 0. 0. 0. 2.52216645e-02 0. 0. 0.
      1.00886658e-01 0. 0. 2.52216645e-02 2.52216645e-02 0. 0. 0.
      2.52216645e-02 0. 0. 0. 0. 0. 0. 0. 2.52216645e-02 0. 0. 0. 0. 0.
      0. 0. 0. 0. 0. 0. 0. 2.52216645e-02 2.52216645e-02 0. 0. 0.
      2.52216645e-02 0. 0. 0. 7.56649971e-02 0. 2.52216645e-02 0. 0. 0.
      0. 0. 0. 0. 0. 0. 0. 0. 0. 0. 0. 0. 0. 0. 0. 0. 2.52216645e-02 0.
      2.52216645e-02 0. 1.26108319e-01 0. 0. 0. 5.04433289e-02 0.
      5.04433289e-02 1.00886658e-01 0. 0. 0. 0. 0. 0. 0. 0. 0. 0. 0. 0.
      0. 0. 0. 0. 0. 0. 0. 0. 0. 0. 2.52216645e-02 0. 0. 0. 0. 0. 0. 0.
      2.52216645e-02 0. 0. 0. 0. 0. 0. 0. 0. 0. 0. 0. 0. 0. 0. 0.
      2.52216645e-02 0. 0. 0. 0. 0. 0. 0. 0. 0. 5.04433289e-02 0. 0. 0.
      0. 0. 0. 2.52216645e-02 0. 0. 0. 0. 0. 0. 0. 0. 0. 0. 0. 0. 0. 0.
      0. 0. 0. 0. 0. 0. 0. 0. 0. 0. 0. 0. 2.52216645e-02 0. 0. 0. 0. 0.
      0. 0. 0. 0. 0. 0. 0. 0. 0. 0. 0. 0. 0. 0. 0. 0. 0. 0. 0. 0.
      2.52216645e-02 0. 2.52216645e-02 0. 0. 0. 0. 0. 0. 0.
      7.56649971e-02 0. 9.69861209e-01 0. 2.48682369e-02 0.
      2.48682369e-02 0. 2.48682369e-02 0. 0. 0. 0. 0. 2.48682369e-02 0.
      0. 0. 2.48682369e-02 0. 2.48682369e-02 0. 0. 0. 0. 0. 0. 0. 0. 0.
      0. 0. 0. 0. 2.48682369e-02 0. 2.48682369e-02 0. 0. 0. 0. 0.
      2.48682369e-02 0. 0. 0. 0. 0. 0. 0. 2.48682369e-02 2.48682369e-02
      0. 0. 0. 0. 0. 0. 2.48682369e-02 0. 0. 0. 0. 2.48682369e-02 0.
      2.48682369e-02 0. 0. 2.48682369e-02 0. 0. 0. 0. 0. 0. 0. 0. 0. 0.
      0. 0. 0. 0. 0. 0. 0. 0. 2.48682369e-02 0. 0. 0. 0. 0. 0. 0. 0.
      2.48682369e-02 0. 0. 2.48682369e-02 0. 2.48682369e-02 0. 0. 0. 0.
      0. 0. 2.48682369e-02 0. 0. 0. 0. 0. 0. 0. 0. 2.48682369e-02
      4.97364737e-02 0. 0. 0. 0. 0. 0. 0. 0. 0. 0. 0. 0. 0.
      2.48682369e-02 0. 2.48682369e-02 0. 0. 0. 0. 0. 0. 0. 0. 0. 0. 0.
      0. 0. 0. 0. 2.48682369e-02 0. 0. 0. 0. 0. 0. 0. 0. 0. 0. 0. 0.
      2.48682369e-02 2.48682369e-02 0. 0. 0. 0. 0. 0. 0. 0. 0. 0. 0.
      2.48682369e-02 0. 0. 2.48682369e-02 0. 0. 0. 0. 0. 0. 0. 0. 0. 0.
      0. 0. 0. 2.48682369e-02 2.48682369e-02 0. 0. 0. 0. 0. 0. 0.
      2.48682369e-02 0. 0. 0. 0. 0. 0. 2.48682369e-02 2.48682369e-02 0.
      0. 0. 0. 0. 0. 0. 0. 0. 0. 0. 0. 0. 0. 2.48682369e-02
      7.46047124e-02 0. 0. 0. 0. 0. 0. 0. 2.48682369e-02 0. 0. 0. 0. 0.
      0. 0. 0. 2.48682369e-02 4.97364737e-02 0. 0. 0. 2.48682369e-02 0.
      2.48682369e-02 4.97364737e-02 0. 2.48682369e-02 0. 1.49209425e-01
      0. 0. 9.54064667e-01 0. 0. 0. 2.57855318e-02 0. 0. 0. 0. 0. 0. 0.
      0. 0. 0. 0. 7.73565918e-02 2.57855318e-02 0. 0. 0. 0. 0. 0.
      2.57855318e-02 0. 0. 0. 0. 0. 0. 0. 2.57855318e-02 0. 0. 0. 0. 0.
      0. 0. 0. 0. 0. 0. 0. 0. 0. 0. 0. 0. 0. 0. 0. 0. 0. 0. 0. 0. 0. 0.
      0. 0. 0. 0. 0. 0. 0. 0. 0. 0. 0. 0. 0. 0. 0. 0. 0. 0. 0. 0.
      2.57855318e-02 0. 0. 0. 0. 2.57855318e-02 0. 0. 0. 0. 0.
      2.57855318e-02 0. 0. 0. 0. 0. 0. 0. 0. 0. 0. 0. 0. 0. 0. 0. 0. 0.
      0. 2.57855318e-02 0. 5.15710637e-02 0. 0. 2.57855318e-02 0. 0.
      5.15710637e-02 0. 7.73565918e-02 0. 2.57855318e-02 2.57855318e-02
      0. 0. 0. 5.15710637e-02 1.03142127e-01 0. 0. 0. 0. 0. 0. 0.
      5.15710637e-02 0. 0. 0. 0. 0. 0. 0. 2.57855318e-02 2.57855318e-02
      0. 0. 0. 0. 0. 0. 0. 0. 0. 0. 0. 0. 0. 0. 0. 0. 0. 0. 0. 0. 0. 0.
      0. 0. 0. 0. 0. 0. 2.57855318e-02 0. 0. 0. 0. 0. 0. 0. 0. 0. 0. 0.
      0. 0. 2.57855318e-02 0. 0. 0. 5.15710637e-02 0. 0. 0. 0. 0. 0.
      2.57855318e-02 0. 0. 2.57855318e-02 0. 0. 0. 0. 0. 0. 0. 0. 0. 0.
      0. 0. 0. 0. 0. 0. 0. 0. 0. 0. 0. 0. 0. 0. 0. 0. 0. 0. 0.
      2.57855318e-02 0. 0. 0. 0. 0. 0. 2.57855318e-02 1.03142127e-01
      2.57855318e-02 0. 0. 5.15710637e-02 0. 0. 7.73565918e-02
      1.28927663e-01 0. 0. 2.57855318e-02 2.57855318e-02 2.57855318e-02
      5.15710637e-02 0. 9.72674370e-01 2.62884963e-02 0. 2.62884963e-02
      2.62884963e-02 0. 0. 0. 2.62884963e-02 0. 0. 2.62884963e-02
      2.62884963e-02 2.62884963e-02 2.62884963e-02 0. 0. 0.
      2.62884963e-02 0. 0. 0. 0. 0. 0. 0. 0. 0. 0. 0. 0. 0. 0.
      2.62884963e-02 0. 0. 0. 0. 0. 0. 0. 0. 0. 0. 0. 0. 0. 0. 0. 0. 0.
      0. 0. 0. 0. 0. 0. 0. 0. 0. 0. 0. 0. 0. 2.62884963e-02 0. 0. 0. 0.
      0. 0. 0. 0. 0. 2.62884963e-02 0. 0. 0. 0. 5.25769927e-02 0. 0. 0.
      0. 2.62884963e-02 2.62884963e-02 0. 0. 0. 0. 0. 0. 2.62884963e-02
      0. 0. 0. 0. 0. 0. 0. 0. 0. 0. 2.62884963e-02 0. 0. 0.
      5.25769927e-02 0. 0. 0. 0. 0. 2.62884963e-02 0. 0. 0. 0. 0.
      2.62884963e-02 2.62884963e-02 0. 0. 0. 0. 0. 0. 2.62884963e-02
      7.88654909e-02 5.25769927e-02 2.62884963e-02 0. 0. 0. 0. 0. 0. 0.
      0. 0. 0. 0. 2.62884963e-02 0. 0. 0. 0. 0. 0. 0. 0. 0. 0. 0. 0. 0.
      0. 0. 0. 0. 0. 0. 2.62884963e-02 0. 0. 0. 0. 0. 0. 0. 0. 0. 0. 0.
      2.62884963e-02 0. 2.62884963e-02 0. 0. 0. 0. 0. 0. 2.62884963e-02
      0. 2.62884963e-02 0. 0. 0. 0. 0. 2.62884963e-02 2.62884963e-02
      2.62884963e-02 0. 0. 0. 0. 0. 0. 0. 0. 0. 0. 0. 2.62884963e-02 0.
      2.62884963e-02 2.62884963e-02 0. 2.62884963e-02 0. 0. 0. 0. 0.
      2.62884963e-02 0. 2.62884963e-02 0. 0. 0. 0. 0. 5.25769927e-02 0.
      0. 0. 0. 0. 0. 2.62884963e-02 0. 0. 0. 0. 0. 0. 0. 0. 0. 0. 0. 0.
      2.62884963e-02 0. 2.62884963e-02 5.25769927e-02 0. 0. 0.
      2.62884963e-02 0. 0. 7.88654909e-02 0. 9.75964427e-01 0. 0. 0.
      5.13665490e-02 0. 0. 0. 2.56832745e-02 2.56832745e-02 0. 0.
      2.56832745e-02 0. 2.56832745e-02 0. 7.70498216e-02 0. 0. 0.
      2.56832745e-02 0. 0. 0. 2.56832745e-02 0. 2.56832745e-02 0.
      5.13665490e-02 0. 2.56832745e-02 5.13665490e-02 2.56832745e-02 0.
      2.56832745e-02 0. 0. 0. 0. 0. 0. 0. 0. 0. 0. 0. 2.56832745e-02
      2.56832745e-02 0. 0. 0. 0. 2.56832745e-02 2.56832745e-02 0. 0. 0.
      0. 0. 0. 0. 0. 5.13665490e-02 5.13665490e-02 0. 0. 0. 0. 0. 0. 0.
      0. 0. 0. 0. 0. 0. 0. 0. 2.56832745e-02 0. 0. 0. 0. 0.
      2.56832745e-02 0. 0. 0. 0. 0. 0. 0. 0. 2.56832745e-02
      2.56832745e-02 0. 0. 0. 0. 0. 0. 0. 0. 0. 0. 0. 0. 0. 0. 0. 0. 0.
      0. 0. 0. 0. 0. 0. 0. 2.56832745e-02 0. 0. 0. 0. 0. 2.56832745e-02
      2.56832745e-02 0. 0. 0. 2.56832745e-02 0. 2.56832745e-02 0. 0. 0.
      0. 0. 0. 0. 0. 2.56832745e-02 0. 0. 0. 0. 0. 0. 0. 0. 0. 0. 0. 0.
      0. 2.56832745e-02 0. 2.56832745e-02 0. 0. 0. 0. 0. 2.56832745e-02
      0. 0. 0. 0. 0. 0. 0. 0. 0. 2.56832745e-02 0. 0. 0. 0. 0.
      2.56832745e-02 0. 0. 2.56832745e-02 0. 2.56832745e-02 0. 0. 0.
      2.56832745e-02 0. 0. 0. 0. 0. 0. 0. 0. 0. 0. 0. 0. 0. 0.
      2.56832745e-02 0. 0. 0. 0. 0. 0. 0. 0. 0. 2.56832745e-02 0. 0. 0.
      0. 0. 0. 0. 0. 2.56832745e-02 0. 0. 0. 2.56832745e-02 0. 0. 0. 0.
      0. 0. 0. 0. 0. 0. 2.56832745e-02 2.56832745e-02 0. 2.56832745e-02
      0. 0. 0. 0. 0. 0. 0. 2.56832745e-02 0. 2.56832745e-02 0.
      2.56832745e-02 2.56832745e-02 0. 9.74695444e-01 2.49921903e-02
      2.49921903e-02 0. 2.49921903e-02 0. 0. 0. 2.49921903e-02 0. 0. 0.
      0. 0. 0. 0. 0. 0. 0. 0. 0. 0. 2.49921903e-02 0. 0. 0. 0. 0. 0. 0.
      0. 0. 2.49921903e-02 0. 0. 0. 0. 0. 0. 0. 0. 0. 0. 0. 0. 0. 0. 0.
      0. 0. 0. 0. 0. 0. 0. 0. 0. 0. 2.49921903e-02 2.49921903e-02 0. 0.
      0. 0. 4.99843806e-02 0. 0. 0. 0. 0. 0. 0. 0. 0. 0. 0. 0. 0. 0. 0.
      2.49921903e-02 0. 0. 0. 0. 2.49921903e-02 0. 0. 0. 2.49921903e-02
      0. 0. 0. 2.49921903e-02 0. 0. 4.99843806e-02 2.49921903e-02 0. 0.
      0. 0. 0. 0. 4.99843806e-02 2.49921903e-02 0. 0. 0. 0. 0. 0. 0. 0.
      0. 0. 0. 0. 0. 0. 2.49921903e-02 0. 0. 2.49921903e-02
      2.49921903e-02 0. 0. 2.49921903e-02 0. 0. 0. 0. 0. 0. 0. 0. 0. 0.
      0. 0. 0. 0. 0. 0. 0. 0. 2.49921903e-02 0. 0. 0. 4.99843806e-02 0.
      0. 0. 2.49921903e-02 0. 0. 0. 0. 0. 0. 0. 0. 0. 0. 0. 0. 0. 0. 0.
      0. 0. 0. 0. 2.49921903e-02 0. 0. 2.49921903e-02 0. 2.49921903e-02
      0. 0. 0. 0. 0. 0. 0. 2.49921903e-02 0. 0. 0. 2.49921903e-02
      2.49921903e-02 0. 0. 2.49921903e-02 2.49921903e-02 0. 0. 0. 0. 0.
      0. 0. 4.99843806e-02 0. 0. 0. 0. 2.49921903e-02 0. 2.49921903e-02
      0. 0. 0. 0. 0. 0. 0. 0. 0. 0. 0. 4.99843806e-02 0. 0. 0. 0. 0. 0.
      0. 4.99843806e-02 0. 2.49921903e-02 2.49921903e-02 2.49921903e-02
      0. 0. 0. 2.49921903e-02 0. 0. 0. 0. 0. 0. 0. 2.49921903e-02 0. 0.
      0. 9.99687612e-02 0. 2.49921903e-02 0. 0. 9.51661885e-01
      2.64350530e-02 5.28701060e-02 5.28701060e-02 2.64350530e-02 0. 0.
      2.64350530e-02 0. 0. 0. 0. 0. 0. 0. 0. 0. 2.64350530e-02 0. 0. 0.
      0. 0. 0. 0. 0. 0. 0. 0. 0. 0. 0. 2.64350530e-02 0. 5.28701060e-02
      0. 2.64350530e-02 0. 0. 0. 0. 0. 2.64350530e-02 0. 0. 0. 0. 0. 0.
      0. 0. 0. 0. 0. 0. 0. 0. 0. 0. 0. 0. 0. 0. 0. 0. 2.64350530e-02 0.
      2.64350530e-02 0. 2.64350530e-02 0. 0. 0. 0. 0. 0. 0. 0. 0. 0. 0.
      0. 2.64350530e-02 0. 0. 2.64350530e-02 0. 0. 0. 0. 0. 0. 0. 0. 0.
      0. 0. 0. 0. 0. 0. 0. 0. 0. 0. 0. 0. 0. 0. 0. 0. 0. 0. 0. 0. 0. 0.
      0. 0. 0. 0. 0. 0. 0. 0. 0. 0. 0. 0. 2.64350530e-02 0.
      7.93051571e-02 0. 2.64350530e-02 0. 0. 0. 0. 0. 0. 0. 0. 0. 0. 0.
      0. 0. 0. 0. 0. 0. 0. 0. 0. 0. 0. 0. 0. 0. 0. 2.64350530e-02 0. 0.
      2.64350530e-02 0. 0. 0. 0. 0. 0. 0. 0. 0. 2.64350530e-02
      2.64350530e-02 0. 0. 0. 0. 0. 0. 0. 0. 0. 0. 0. 0. 0. 0. 0. 0. 0.
      2.64350530e-02 2.64350530e-02 2.64350530e-02 1.58610314e-01 0. 0.
      0. 2.64350530e-02 2.64350530e-02 0. 0. 2.64350530e-02 0. 0. 0. 0.
      0. 0. 0. 0. 0. 0. 0. 0. 0. 0. 0. 0. 0. 2.64350530e-02 0.
      1.05740212e-01 0. 5.28701060e-02 0. 1.05740212e-01 2.64350530e-02
      2.64350530e-02 0. 2.64350530e-02 0. 0. 0. 0. 0. 0. 0.
      5.28701060e-02 0. 0. 0. 0. 0. 0. 0. 5.28701060e-02 0. 0.
      2.64350530e-02 5.28701060e-02 0. 2.64350530e-02 0. 0.</_>
    <_>
      4.64293957e-01 7.73823261e-02 7.73823261e-02 0. 7.73823261e-02 0.
      0. 0. 7.73823261e-02 7.73823261e-02 7.73823261e-02 0. 0. 0. 0.
      7.73823261e-02 7.73823261e-02 7.73823261e-02 0. 0. 7.73823261e-02
      0. 0. 0. 1.54764652e-01 7.73823261e-02 7.73823261e-02 0. 0. 0. 0.
      7.73823261e-02 1.54764652e-01 7.73823261e-02 0. 0. 0. 0. 0. 0. 0.
      0. 0. 7.73823261e-02 0. 0. 7.73823261e-02 0. 2.32146978e-01 0. 0.
      7.73823261e-02 7.73823261e-02 0. 0. 0. 7.73823261e-02
      7.73823261e-02 0. 0. 0. 0. 0. 0. 2.32146978e-01 7.73823261e-02 0.
      0. 1.54764652e-01 0. 0. 0. 0. 7.73823261e-02 0. 0. 0.
      7.73823261e-02 0. 7.73823261e-02 7.73823261e-02 0. 7.73823261e-02
      0. 7.73823261e-02 0. 0. 7.73823261e-02 0. 0. 0. 1.54764652e-01 0.
      0. 2.32146978e-01 0. 7.73823261e-02 0. 0. 0. 0. 7.73823261e-02 0.
      0. 0. 0. 0. 0. 0. 0. 7.73823261e-02 0. 0. 7.73823261e-02 0.
      7.73823261e-02 0. 0. 0. 0. 7.73823261e-02 0. 0. 0. 0. 0. 0.
      7.73823261e-02 1.54764652e-01 0. 0. 7.73823261e-02 0.
      7.73823261e-02 0. 0. 0. 0. 0. 0. 0. 0. 0. 0. 0. 0. 0. 0. 0. 0. 0.
      0. 0. 7.73823261e-02 0. 0. 7.73823261e-02 0. 0. 0. 0.
      7.73823261e-02 0. 0. 7.73823261e-02 0. 0. 0. 0. 0. 0. 0. 0. 0.
      7.73823261e-02 0. 0. 7.73823261e-02 0. 0. 0. 0. 0. 0. 0. 0. 0. 0.
      0. 7.73823261e-02 0. 0. 7.73823261e-02 0. 0. 0. 0. 0. 0. 0. 0. 0.
      0. 0. 7.73823261e-02 0. 0. 0. 0. 0. 0. 0. 0. 7.73823261e-02 0. 0.
      0. 0. 0. 0. 0. 0. 7.73823261e-02 7.73823261e-02 0. 7.73823261e-02
      0. 7.73823261e-02 7.73823261e-02 7.73823261e-02 0. 0. 0.
      7.73823261e-02 7.73823261e-02 0. 0. 0. 7.73823261e-02
      7.73823261e-02 2.32146978e-01 7.73823261e-02 7.73823261e-02 0. 0.
      7.73823261e-02 0. 0. 2.32146978e-01 7.73823261e-02 0.
      7.73823261e-02 0. 0. 1.54764652e-01 0. 4.53557372e-01 0.
      3.02371591e-01 0. 1.51185796e-01 0. 0. 0. 7.55928978e-02
      7.55928978e-02 0. 0. 7.55928978e-02 0. 7.55928978e-02 0. 0. 0. 0.
      0. 7.55928978e-02 7.55928978e-02 0. 7.55928978e-02 1.51185796e-01
      7.55928978e-02 0. 0. 0. 0. 1.51185796e-01 0. 2.26778686e-01 0. 0.
      0. 0. 0. 0. 0. 0. 0. 0. 7.55928978e-02 0. 0. 7.55928978e-02 0.
      7.55928978e-02 0. 7.55928978e-02 7.55928978e-02 7.55928978e-02 0.
      0. 0. 7.55928978e-02 0. 0. 0. 0. 0. 0. 0. 0. 7.55928978e-02 0. 0.
      1.51185796e-01 0. 0. 0. 0. 7.55928978e-02 0. 0. 0. 7.55928978e-02
      0. 7.55928978e-02 0. 0. 7.55928978e-02 0. 7.55928978e-02 0. 0.
      1.51185796e-01 0. 0. 0. 7.55928978e-02 0. 0. 7.55928978e-02 0. 0.
      0. 0. 0. 0. 7.55928978e-02 0. 0. 0. 0. 0. 0. 0. 0. 0. 0.
      1.51185796e-01 0. 7.55928978e-02 7.55928978e-02 7.55928978e-02 0.
      0. 7.55928978e-02 1.51185796e-01 0. 0. 0. 0. 7.55928978e-02
      7.55928978e-02 7.55928978e-02 1.51185796e-01 1.51185796e-01 0.
      7.55928978e-02 0. 7.55928978e-02 0. 0. 7.55928978e-02 0. 0. 0. 0.
      0. 0. 0. 0. 0. 0. 0. 0. 0. 7.55928978e-02 0. 0. 0. 0. 0.
      7.55928978e-02 0. 0. 0. 0. 0. 0. 0. 0. 0. 0. 0. 0. 0. 0. 0. 0. 0.
      7.55928978e-02 7.55928978e-02 0. 0. 0. 7.55928978e-02 0. 0. 0. 0.
      0. 0. 0. 0. 0. 0. 7.55928978e-02 7.55928978e-02 0. 0. 0. 0. 0. 0.
      0. 0. 0. 0. 0. 0. 7.55928978e-02 0. 0. 0. 0. 0. 0. 0. 0.
      7.55928978e-02 0. 0. 0. 0. 0. 0. 1.51185796e-01 0. 0. 0.
      1.51185796e-01 7.55928978e-02 0. 0. 7.55928978e-02 0. 0.
      1.51185796e-01 7.55928978e-02 0. 7.55928978e-02 0. 0. 0. 0. 0.
      7.55928978e-02 7.55928978e-02 0. 0. 0. 7.55928978e-02 0. 0.
      1.51185796e-01 0. 7.55928978e-02 7.55928978e-02 0. 2.26778686e-01
      7.55928978e-02 0. 3.24101865e-01 0. 0. 0. 6.48203716e-02 0. 0. 0.
      0. 6.48203716e-02 6.48203716e-02 0. 0. 0. 0. 0. 6.48203716e-02 0.
      0. 0. 6.48203716e-02 0. 0. 0. 1.29640743e-01 6.48203716e-02 0. 0.
      0. 0. 0. 0. 1.94461107e-01 0. 0. 0. 0. 0. 0. 0. 0. 0. 0.
      6.48203716e-02 0. 0. 6.48203716e-02 0. 2.59281486e-01 0. 0.
      6.48203716e-02 6.48203716e-02 0. 0. 0. 1.94461107e-01 0. 0. 0.
      4.53742594e-01 0. 1.29640743e-01 0. 6.48203716e-02 6.48203716e-02
      0. 0. 1.29640743e-01 0. 0. 0. 0. 6.48203716e-02 0. 0. 0.
      6.48203716e-02 0. 6.48203716e-02 0. 0. 6.48203716e-02 0.
      6.48203716e-02 0. 0. 6.48203716e-02 1.29640743e-01 0. 0.
      6.48203716e-02 0. 0. 6.48203716e-02 0. 6.48203716e-02 0. 0. 0. 0.
      6.48203716e-02 0. 0. 6.48203716e-02 0. 0. 0. 0. 0. 0. 0.
      6.48203716e-02 0. 6.48203716e-02 6.48203716e-02 0. 0. 0. 0.
      1.94461107e-01 6.48203716e-02 0. 0. 6.48203716e-02 0.
      1.94461107e-01 6.48203716e-02 6.48203716e-02 0. 0. 6.48203716e-02
      0. 6.48203716e-02 0. 0. 0. 0. 0. 0. 0. 0. 0. 0. 0. 0. 0. 0. 0. 0.
      0. 0. 0. 0. 0. 0. 6.48203716e-02 6.48203716e-02 0. 0.
      6.48203716e-02 0. 0. 0. 0. 0. 0. 0. 0. 0. 0. 0. 0. 0.
      6.48203716e-02 0. 0. 0. 0. 0. 6.48203716e-02 0. 0. 0. 0. 0. 0. 0.
      6.48203716e-02 0. 0. 0. 6.48203716e-02 0. 0. 0. 0. 0. 0. 0. 0. 0.
      0. 0. 6.48203716e-02 0. 0. 0. 0. 0. 0. 0. 0. 6.48203716e-02 0. 0.
      0. 0. 0. 0. 0. 0. 6.48203716e-02 6.48203716e-02 0. 0. 0. 0.
      6.48203716e-02 0. 0. 0. 0. 0. 6.48203716e-02 0. 0. 0. 0. 0. 0.
      6.48203716e-02 0. 1.29640743e-01 0. 0. 0. 0. 2.59281486e-01
      6.48203716e-02 0. 0. 2.59281486e-01 1.29640743e-01 1.94461107e-01
      0. 4.87713099e-01 0. 6.96732998e-02 6.96732998e-02 6.96732998e-02
      0. 0. 6.96732998e-02 0. 1.39346600e-01 0. 0. 0. 6.96732998e-02
      6.96732998e-02 1.39346600e-01 6.96732998e-02 0. 0. 0.
      6.96732998e-02 0. 0. 0. 6.96732998e-02 6.96732998e-02 0. 0. 0. 0.
      0. 6.96732998e-02 0. 6.96732998e-02 0. 0. 0. 0. 0. 0. 0. 0.
      1.39346600e-01 6.96732998e-02 0. 0. 6.96732998e-02 0.
      2.09019899e-01 0. 0. 6.96732998e-02 6.96732998e-02 0. 0. 0. 0.
      6.96732998e-02 0. 6.96732998e-02 0. 0. 0. 0. 0. 6.96732998e-02 0.
      0. 1.39346600e-01 0. 0. 0. 0. 6.96732998e-02 0. 0. 0.
      6.96732998e-02 6.96732998e-02 6.96732998e-02 0. 0. 6.96732998e-02
      0. 6.96732998e-02 0. 0. 6.96732998e-02 0. 0. 0. 6.96732998e-02 0.
      0. 6.96732998e-02 0. 0. 0. 0. 0. 0. 6.96732998e-02 0. 0. 0. 0. 0.
      0. 0. 0. 6.96732998e-02 6.96732998e-02 0. 6.96732998e-02 0.
      6.96732998e-02 0. 0. 0. 0. 6.96732998e-02 0. 0. 0. 0. 0.
      6.96732998e-02 0. 1.39346600e-01 6.96732998e-02 0. 6.96732998e-02
      0. 6.96732998e-02 0. 0. 0. 0. 0. 0. 0. 0. 0. 0. 0. 0. 0. 0. 0. 0.
      0. 0. 0. 0. 0. 0. 6.96732998e-02 0. 0. 0. 6.96732998e-02 0. 0. 0.
      0. 0. 0. 0. 0. 0. 0. 0. 0. 0. 6.96732998e-02 0. 0. 0. 0. 0. 0. 0.
      0. 0. 0. 0. 0. 6.96732998e-02 0. 0. 0. 6.96732998e-02 0.
      6.96732998e-02 0. 0. 0. 0. 0. 6.96732998e-02 0. 0. 0. 0.
      6.96732998e-02 0. 0. 6.96732998e-02 0. 0. 0. 0. 0. 6.96732998e-02
      0. 0. 0. 0. 0. 0. 0. 0. 6.96732998e-02 0. 6.96732998e-02 0. 0. 0.
      1.39346600e-01 0. 0. 6.96732998e-02 0. 0. 6.96732998e-02 0. 0.
      6.96732998e-02 0. 1.39346600e-01 4.18039799e-01 2.78693199e-01 0.
      6.96732998e-02 6.96732998e-02 1.39346600e-01 0. 6.96732998e-02
      1.39346600e-01 0. 0. 0. 0. 0. 1.39346600e-01 0. 3.68604898e-01
      1.47441953e-01 0. 0. 7.37209767e-02 0. 0. 1.47441953e-01
      1.47441953e-01 7.37209767e-02 0. 7.37209767e-02 0. 0.
      1.47441953e-01 2.21162930e-01 0. 0. 0. 0. 7.37209767e-02 0. 0. 0.
      1.47441953e-01 7.37209767e-02 0. 0. 0. 7.37209767e-02
      7.37209767e-02 7.37209767e-02 7.37209767e-02 0. 0. 0. 0. 0. 0. 0.
      0. 0. 0. 7.37209767e-02 0. 0. 7.37209767e-02 0. 7.37209767e-02 0.
      0. 7.37209767e-02 7.37209767e-02 0. 0. 7.37209767e-02 0. 0. 0. 0.
      0. 0. 0. 1.47441953e-01 0. 7.37209767e-02 0. 0. 1.47441953e-01 0.
      0. 0. 0. 7.37209767e-02 0. 0. 0. 7.37209767e-02 0. 7.37209767e-02
      0. 0. 7.37209767e-02 0. 7.37209767e-02 0. 0. 7.37209767e-02 0. 0.
      0. 7.37209767e-02 0. 0. 7.37209767e-02 0. 0. 0. 0. 7.37209767e-02
      0. 7.37209767e-02 0. 0. 0. 0. 0. 0. 0. 0. 0. 7.37209767e-02
      7.37209767e-02 0. 0. 7.37209767e-02 7.37209767e-02 0. 0. 0.
      1.47441953e-01 0. 7.37209767e-02 0. 1.47441953e-01 0.
      2.21162930e-01 7.37209767e-02 7.37209767e-02 0. 0. 7.37209767e-02
      0. 7.37209767e-02 0. 0. 7.37209767e-02 0. 0. 0. 0. 7.37209767e-02
      0. 1.47441953e-01 7.37209767e-02 0. 0. 0. 0. 0. 7.37209767e-02 0.
      0. 0. 0. 0. 7.37209767e-02 0. 0. 0. 0. 0. 0. 0. 0. 0. 0. 0. 0. 0.
      0. 0. 0. 0. 7.37209767e-02 0. 7.37209767e-02 0. 0. 0. 0. 0. 0. 0.
      0. 0. 0. 0. 0. 0. 0. 7.37209767e-02 0. 0. 0. 0. 0. 0. 0. 0. 0. 0.
      0. 0. 7.37209767e-02 0. 0. 0. 7.37209767e-02 0. 0. 0. 0.
      7.37209767e-02 0. 0. 0. 0. 0. 0. 0. 0. 0. 0. 0. 0. 0. 0.
      7.37209767e-02 0. 7.37209767e-02 0. 0. 0. 7.37209767e-02 0. 0. 0.
      0. 0. 3.68604898e-01 0. 0. 0. 0. 0. 0. 0. 2.94883907e-01 0. 0. 0.
      7.37209767e-02 2.21162930e-01 7.37209767e-02 0. 2.36939549e-01 0.
      5.92348874e-02 0. 5.92348874e-02 0. 0. 0. 0. 5.92348874e-02 0.
      5.92348874e-02 0. 0. 0. 0. 5.92348874e-02 0. 0. 0. 5.92348874e-02
      0. 0. 0. 1.77704662e-01 5.92348874e-02 0. 0. 1.18469775e-01 0.
      5.92348874e-02 0. 0. 0. 0. 0. 0. 0. 0. 0. 0. 0. 0. 5.92348874e-02
      0. 0. 5.92348874e-02 0. 5.92348874e-02 0. 0. 5.92348874e-02
      5.92348874e-02 0. 0. 0. 3.55409324e-01 0. 0. 0. 2.36939549e-01 0.
      5.92348874e-02 5.92348874e-02 0. 5.92348874e-02 0. 0.
      1.18469775e-01 0. 0. 0. 5.92348874e-02 5.92348874e-02 0. 0. 0.
      5.92348874e-02 0. 5.92348874e-02 0. 0. 5.92348874e-02 0.
      5.92348874e-02 0. 0. 5.92348874e-02 0. 0. 0. 5.92348874e-02 0. 0.
      5.92348874e-02 0. 5.92348874e-02 0. 0. 0. 0. 5.92348874e-02 0. 0.
      0. 0. 0. 0. 0. 0. 0. 0. 0. 0. 0. 5.92348874e-02 5.92348874e-02 0.
      0. 0. 2.36939549e-01 0. 0. 0. 4.14644212e-01 0. 4.14644212e-01
      2.96174437e-01 1.18469775e-01 0. 0. 1.18469775e-01 0.
      5.92348874e-02 0. 0. 0. 0. 0. 0. 0. 0. 0. 0. 0. 0. 0. 0. 0. 0. 0.
      5.92348874e-02 5.92348874e-02 0. 0. 0. 5.92348874e-02 0.
      5.92348874e-02 0. 0. 0. 0. 0. 0. 0. 0. 0. 0. 0. 0. 0. 0. 0.
      5.92348874e-02 0. 5.92348874e-02 0. 0. 0. 0. 0. 0. 0.
      5.92348874e-02 0. 0. 0. 0. 0. 0. 0. 0. 0. 0. 0. 0. 0. 0.
      5.92348874e-02 0. 0. 0. 0. 1.18469775e-01 0. 0. 0. 0. 0. 0. 0. 0.
      5.92348874e-02 0. 0. 5.92348874e-02 0. 0. 0. 0. 0. 0. 0.
      5.92348874e-02 0. 0. 0. 5.92348874e-02 0. 0. 0. 0. 0.
      5.92348874e-02 0. 0. 0. 0. 5.92348874e-02 0. 0. 5.92348874e-02 0.
      0. 0. 0. 0. 1.18469775e-01 0. 0. 0. 0. 0. 0. 0. 3.90434414e-01 0.
      7.80868828e-02 0. 7.80868828e-02 7.80868828e-02 0. 0. 0.
      7.80868828e-02 0. 0. 7.80868828e-02 0. 0. 0. 0. 0. 0. 0.
      7.80868828e-02 0. 0. 0. 7.80868828e-02 7.80868828e-02 0. 0.
      1.56173766e-01 0. 7.80868828e-02 0. 7.80868828e-02 0.
      2.34260648e-01 0. 7.80868828e-02 0. 7.80868828e-02 0. 0. 0. 0.
      7.80868828e-02 0. 0. 7.80868828e-02 0. 7.80868828e-02 0. 0.
      7.80868828e-02 7.80868828e-02 0. 0. 0. 1.56173766e-01 0. 0. 0.
      2.34260648e-01 0. 3.12347531e-01 7.80868828e-02 7.80868828e-02
      7.80868828e-02 0. 0. 1.56173766e-01 0. 0. 0. 0. 7.80868828e-02 0.
      0. 0. 7.80868828e-02 0. 7.80868828e-02 0. 0. 7.80868828e-02 0.
      7.80868828e-02 0. 0. 7.80868828e-02 0. 0. 0. 7.80868828e-02 0. 0.
      1.56173766e-01 0. 0. 0. 7.80868828e-02 0. 0. 7.80868828e-02 0. 0.
      0. 0. 0. 0. 0. 0. 0. 0. 7.80868828e-02 0. 0. 7.80868828e-02 0. 0.
      0. 0. 7.80868828e-02 0. 7.80868828e-02 0. 7.80868828e-02 0.
      7.80868828e-02 7.80868828e-02 7.80868828e-02 0. 0. 7.80868828e-02
      0. 7.80868828e-02 0. 0. 0. 0. 0. 0. 0. 0. 0. 0. 0. 0.
      7.80868828e-02 0. 0. 0. 0. 0. 0. 0. 0. 0. 7.80868828e-02 0. 0.
      7.80868828e-02 0. 0. 0. 0. 0. 0. 0. 0. 0. 0. 0. 0. 0. 0.
      7.80868828e-02 0. 0. 0. 0. 0. 0. 0. 0. 0. 0. 0. 0. 0. 0. 0.
      7.80868828e-02 7.80868828e-02 0. 7.80868828e-02 0. 0. 0. 0.
      7.80868828e-02 0. 0. 0. 0. 0. 7.80868828e-02 0. 0. 0. 0. 0. 0. 0.
      0. 7.80868828e-02 0. 0. 0. 0. 7.80868828e-02 1.56173766e-01
      7.80868828e-02 0. 0. 0. 7.80868828e-02 7.80868828e-02 0. 0.
      7.80868828e-02 0. 0. 0. 0. 0. 7.80868828e-02 7.80868828e-02 0. 0.
      0. 0. 0. 0. 0. 7.80868828e-02 0. 0. 0. 7.80868828e-02
      1.56173766e-01 0. 0. 2.34260648e-01 7.80868828e-02 2.34260648e-01
      1.56173766e-01 0. 4.37594980e-01 0. 1.45864993e-01 0.
      1.45864993e-01 0. 0. 0. 0. 7.29324967e-02 0. 0. 0. 0. 0. 0.
      7.29324967e-02 0. 0. 0. 7.29324967e-02 0. 0. 0. 2.18797490e-01
      7.29324967e-02 0. 0. 7.29324967e-02 0. 7.29324967e-02 0.
      2.91729987e-01 0. 0. 7.29324967e-02 7.29324967e-02 0. 0. 0. 0. 0.
      0. 7.29324967e-02 0. 0. 7.29324967e-02 0. 7.29324967e-02 0. 0.
      7.29324967e-02 7.29324967e-02 0. 0. 0. 0. 0. 0. 7.29324967e-02 0.
      7.29324967e-02 0. 0. 0. 7.29324967e-02 0. 0. 1.45864993e-01 0. 0.
      0. 0. 7.29324967e-02 0. 0. 0. 7.29324967e-02 0. 7.29324967e-02 0.
      0. 7.29324967e-02 0. 7.29324967e-02 0. 0. 7.29324967e-02 0. 0. 0.
      7.29324967e-02 0. 0. 7.29324967e-02 0. 0. 0. 0. 0. 0.
      7.29324967e-02 0. 0. 0. 0. 0. 0. 7.29324967e-02 0. 0. 0.
      2.18797490e-01 0. 7.29324967e-02 7.29324967e-02 0. 0. 0. 0.
      1.45864993e-01 0. 7.29324967e-02 7.29324967e-02 1.45864993e-01 0.
      0. 1.45864993e-01 1.45864993e-01 0. 0. 7.29324967e-02 0.
      7.29324967e-02 0. 0. 7.29324967e-02 0. 0. 0. 0. 0. 0. 0. 0. 0. 0.
      0. 0. 0. 0. 0. 0. 0. 0. 0. 7.29324967e-02 0. 0. 0. 0. 0. 0. 0. 0.
      0. 0. 0. 0. 0. 0. 0. 0. 0. 7.29324967e-02 0. 7.29324967e-02 0. 0.
      7.29324967e-02 0. 0. 0. 0. 0. 7.29324967e-02 0. 0. 0. 0. 0. 0. 0.
      0. 0. 0. 0. 0. 0. 0. 0. 0. 0. 0. 7.29324967e-02 0. 0.
      7.29324967e-02 0. 0. 0. 0. 0. 7.29324967e-02 0. 0. 0. 0. 0.
      7.29324967e-02 0. 0. 0. 0. 7.29324967e-02 0. 0. 0. 1.45864993e-01
      0. 0. 0. 0. 0. 7.29324967e-02 0. 7.29324967e-02 0. 0. 0.
      7.29324967e-02 7.29324967e-02 0. 0. 0. 7.29324967e-02
      7.29324967e-02 7.29324967e-02 3.64662468e-01 1.45864993e-01
      7.29324967e-02 0. 7.29324967e-02 7.29324967e-02 1.45864993e-01 0.
      4.81931567e-01 8.03219303e-02 0. 0. 8.03219303e-02 0.
      8.03219303e-02 0. 0. 1.60643861e-01 8.03219303e-02 0. 0. 0.
      8.03219303e-02 0. 0. 0. 0. 0. 1.60643861e-01 0. 0. 0.
      1.60643861e-01 8.03219303e-02 0. 0. 0. 8.03219303e-02 0. 0. 0. 0.
      0. 0. 0. 0. 0. 0. 0. 0. 0. 8.03219303e-02 0. 0. 8.03219303e-02 0.
      2.40965784e-01 0. 0. 8.03219303e-02 8.03219303e-02 0. 0.
      8.03219303e-02 1.60643861e-01 0. 0. 0. 0. 0. 0. 8.03219303e-02
      8.03219303e-02 8.03219303e-02 8.03219303e-02 0. 1.60643861e-01 0.
      0. 0. 0. 8.03219303e-02 0. 0. 0. 8.03219303e-02 0. 8.03219303e-02
      0. 0. 8.03219303e-02 0. 8.03219303e-02 0. 0. 8.03219303e-02 0. 0.
      8.03219303e-02 8.03219303e-02 0. 0. 8.03219303e-02 0. 0. 0. 0. 0.
      0. 8.03219303e-02 0. 0. 0. 0. 0. 0. 0. 0. 0. 0. 8.03219303e-02 0.
      0. 8.03219303e-02 0. 0. 8.03219303e-02 8.03219303e-02
      8.03219303e-02 0. 0. 0. 0. 0. 8.03219303e-02 0. 8.03219303e-02
      1.60643861e-01 0. 8.03219303e-02 0. 8.03219303e-02 0. 0. 0. 0. 0.
      0. 0. 0. 0. 8.03219303e-02 0. 0. 0. 0. 0. 0. 0. 0. 8.03219303e-02
      0. 8.03219303e-02 0. 8.03219303e-02 0. 0. 0. 0. 0. 0. 0. 0. 0. 0.
      0. 0. 0. 0. 0. 0. 0. 8.03219303e-02 0. 0. 0. 0. 0. 0. 0. 0. 0. 0.
      8.03219303e-02 0. 0. 0. 0. 8.03219303e-02 0. 0. 8.03219303e-02 0.
      0. 0. 0. 8.03219303e-02 0. 0. 0. 0. 0. 8.03219303e-02 0. 0. 0. 0.
      0. 0. 0. 8.03219303e-02 8.03219303e-02 0. 0. 8.03219303e-02 0. 0.
      0. 0. 0. 8.03219303e-02 0. 8.03219303e-02 0. 0. 0. 2.40965784e-01
      0. 0. 0. 0. 0. 8.03219303e-02 0. 0. 0. 0. 8.03219303e-02 0.
      8.03219303e-02 8.03219303e-02 1.60643861e-01 8.03219303e-02 0. 0.
      1.60643861e-01 1.60643861e-01 0. 0. 0. 2.40965784e-01 0.
      8.03219303e-02 0.</_>
    <_>
      4.06181186e-01 0. 0. 0. 0. 0. 5.80258854e-02 0. 3.48155320e-01 0.
      5.80258854e-02 5.80258854e-02 0. 0. 0. 3.48155320e-01 0. 0. 0. 0.
      0. 0. 0. 0. 5.80258854e-02 0. 0. 0. 0. 1.16051771e-01 0.
      5.80258854e-02 0. 0. 0. 0. 0. 0. 0. 0. 0. 0. 0. 0. 0. 0. 0. 0.
      5.80258854e-02 0. 0. 5.80258854e-02 0. 5.80258854e-02 0. 0. 0. 0.
      0. 0. 0. 0. 0. 0. 5.80258854e-02 0. 0. 0. 0. 0. 0. 0. 0. 0. 0. 0.
      0. 5.80258854e-02 0. 0. 0. 0. 0. 0. 0. 0. 0. 0. 0. 0. 0. 0. 0. 0.
      5.80258854e-02 0. 0. 0. 5.80258854e-02 5.80258854e-02 0. 0.
      5.80258854e-02 5.80258854e-02 0. 0. 0. 0. 0. 0. 5.80258854e-02 0.
      5.80258854e-02 0. 0. 5.80258854e-02 0. 5.80258854e-02 0. 0. 0.
      5.80258854e-02 0. 5.80258854e-02 0. 0. 0. 3.48155320e-01
      2.90129423e-01 0. 0. 0. 0. 0. 0. 1.16051771e-01 5.80258854e-02 0.
      0. 0. 0. 0. 0. 1.74077660e-01 0. 0. 0. 0. 0. 0. 0. 0.
      5.80258854e-02 0. 0. 0. 0. 5.80258854e-02 0. 0. 5.80258854e-02 0.
      0. 0. 0. 0. 0. 0. 5.80258854e-02 0. 0. 0. 5.80258854e-02 0.
      5.80258854e-02 0. 1.16051771e-01 0. 0. 0. 0. 5.80258854e-02 0. 0.
      0. 0. 0. 0. 0. 0. 0. 5.80258854e-02 0. 5.80258854e-02 0. 0. 0. 0.
      0. 1.74077660e-01 0. 0. 0. 5.80258854e-02 0. 0. 5.80258854e-02
      1.16051771e-01 0. 0. 0. 0. 0. 0. 5.80258854e-02 0. 0. 0. 0. 0. 0.
      0. 0. 0. 5.80258854e-02 1.16051771e-01 5.80258854e-02 0. 0.
      5.80258854e-02 0. 0. 0. 0. 0. 5.80258854e-02 0. 1.16051771e-01 0.
      0. 5.80258854e-02 2.90129423e-01 0. 0. 0. 0. 0. 1.16051771e-01
      1.16051771e-01 0. 0. 5.80258854e-02 0. 0. 0. 0. 6.23752773e-01 0.
      5.67047969e-02 5.67047969e-02 0. 0. 5.67047969e-02 5.67047969e-02
      5.67047969e-02 0. 5.67047969e-02 5.67047969e-02 5.67047969e-02 0.
      0. 1.13409594e-01 0. 0. 0. 0. 0. 0. 0. 0. 5.67047969e-02 0. 0. 0.
      0. 1.13409594e-01 0. 0. 0. 0. 0. 0. 0. 0. 0. 0. 0. 0. 0. 0. 0. 0.
      0. 0. 0. 0. 0. 0. 0. 5.67047969e-02 0. 0. 0. 0. 0. 0. 0. 0. 0.
      5.67047969e-02 0. 0. 0. 0. 0. 0. 0. 0. 0. 0. 0. 0. 0.
      5.67047969e-02 0. 0. 0. 0. 0. 0. 0. 0. 0. 0. 0. 0. 0. 0. 0. 0.
      5.67047969e-02 0. 5.67047969e-02 0. 5.67047969e-02 5.67047969e-02
      0. 0. 5.67047969e-02 0. 5.67047969e-02 0. 0. 0. 0. 0.
      5.67047969e-02 0. 5.67047969e-02 0. 0. 0. 5.67047969e-02
      5.67047969e-02 0. 0. 0. 5.67047969e-02 0. 5.67047969e-02 0. 0.
      1.13409594e-01 1.13409594e-01 5.67047969e-02 1.13409594e-01 0.
      5.67047969e-02 0. 5.67047969e-02 0. 5.10343194e-01 0. 0. 0. 0. 0.
      0. 0. 1.13409594e-01 0. 5.67047969e-02 0. 0. 0. 0. 0.
      5.67047969e-02 0. 0. 0. 0. 0. 0. 0. 0. 5.67047969e-02 0. 0. 0. 0.
      0. 0. 0. 5.67047969e-02 0. 0. 0. 5.67047969e-02 0. 5.67047969e-02
      0. 5.67047969e-02 5.67047969e-02 0. 0. 0. 5.67047969e-02 0. 0. 0.
      0. 0. 0. 0. 0. 0. 5.67047969e-02 1.70114398e-01 5.67047969e-02 0.
      5.67047969e-02 0. 0. 0. 1.13409594e-01 0. 5.67047969e-02 0.
      5.67047969e-02 0. 0. 0. 0. 0. 0. 0. 0. 0. 0. 5.67047969e-02 0. 0.
      0. 0. 0. 0. 0. 0. 0. 1.70114398e-01 0. 0. 5.67047969e-02 0.
      5.67047969e-02 0. 5.67047969e-02 0. 0. 0. 5.67047969e-02 0.
      1.13409594e-01 0. 5.67047969e-02 5.67047969e-02 5.67047969e-02 0.
      0. 0. 0. 0. 1.13409594e-01 5.67047969e-02 1.13409594e-01 0. 0. 0.
      5.67047969e-02 0. 0. 4.09644008e-01 0. 0. 0. 0. 0. 5.85205741e-02
      0. 5.85205741e-02 0. 5.85205741e-02 5.85205741e-02 0. 0. 0. 0. 0.
      0. 0. 0. 0. 0. 0. 0. 0. 0. 0. 0. 0. 1.17041148e-01 0. 0.
      1.75561726e-01 0. 0. 0. 0. 0. 0. 0. 0. 0. 0. 0. 0. 0. 0. 0.
      1.17041148e-01 0. 0. 0. 0. 5.85205741e-02 0. 0. 2.34082296e-01 0.
      0. 0. 1.17041148e-01 5.85205741e-02 5.85205741e-02 0. 0. 0. 0. 0.
      0. 0. 0. 0. 0. 0. 0. 0. 0. 5.85205741e-02 0. 0. 0. 0. 0. 0. 0. 0.
      0. 0. 0. 0. 0. 0. 0. 0. 5.85205741e-02 0. 1.17041148e-01 0.
      5.85205741e-02 5.85205741e-02 0. 0. 5.85205741e-02 0. 0. 0. 0. 0.
      0. 0. 5.85205741e-02 0. 1.75561726e-01 0. 0. 0. 0. 5.85205741e-02
      0. 0. 2.92602867e-01 5.85205741e-02 0. 0. 2.92602867e-01
      5.85205741e-02 5.85205741e-02 1.17041148e-01 0. 1.17041148e-01 0.
      5.85205741e-02 0. 0. 0. 1.17041148e-01 0. 0. 0. 0. 0. 0. 0. 0. 0.
      0. 0. 0. 0. 0. 0. 0. 0. 0. 0. 0. 0. 0. 0. 0. 5.85205741e-02 0. 0.
      0. 0. 0. 0. 0. 5.85205741e-02 0. 0. 0. 5.85205741e-02 0.
      5.85205741e-02 0. 5.85205741e-02 0. 0. 0. 0. 5.85205741e-02 0. 0.
      0. 0. 0. 0. 0. 5.85205741e-02 0. 5.85205741e-02 5.85205741e-02
      5.85205741e-02 0. 0. 0. 0. 0. 5.85205741e-02 0. 0. 0.
      5.85205741e-02 0. 0. 0. 0. 0. 0. 0. 0. 0. 0. 5.85205741e-02 0. 0.
      0. 5.85205741e-02 0. 0. 0. 0. 0. 1.75561726e-01 1.75561726e-01 0.
      0. 0. 5.85205741e-02 0. 0. 0. 0. 0. 5.85205741e-02 0.
      5.85205741e-02 0. 0. 4.09644008e-01 5.85205741e-02 0.
      5.85205741e-02 0. 0. 0. 0. 2.92602867e-01 0. 0. 0. 5.85205741e-02
      5.85205741e-02 0. 0. 5.35942197e-01 0. 1.78647399e-01 0. 0. 0.
      5.95491342e-02 0. 5.95491342e-02 0. 5.95491342e-02 5.95491342e-02
      0. 0. 0. 0. 0. 0. 0. 5.95491342e-02 0. 0. 0. 0. 0. 0. 0. 0. 0.
      1.19098268e-01 0. 0. 2.38196537e-01 0. 0. 0. 0. 0. 0. 0. 0. 0. 0.
      0. 0. 0. 0. 0. 5.95491342e-02 0. 0. 0. 0. 5.95491342e-02 0. 0. 0.
      0. 0. 0. 0. 0. 0. 5.95491342e-02 0. 0. 0. 0. 0. 0. 0. 0. 0. 0. 0.
      0. 0. 5.95491342e-02 0. 0. 0. 0. 0. 0. 0. 0. 0. 0. 0. 0. 0. 0. 0.
      0. 5.95491342e-02 0. 0. 0. 1.19098268e-01 5.95491342e-02 0. 0.
      5.95491342e-02 0. 0. 0. 0. 0. 0. 0. 5.95491342e-02 0.
      1.19098268e-01 0. 0. 0. 0. 5.95491342e-02 0. 0. 1.78647399e-01
      5.95491342e-02 0. 0. 5.95491342e-02 0. 0. 5.95491342e-02
      5.95491342e-02 0. 0. 5.95491342e-02 0. 0. 0. 0. 0. 0. 0. 0. 0. 0.
      0. 0. 0. 0. 0. 0. 0. 0. 0. 0. 0. 0. 0. 0. 0. 0. 0. 0.
      5.95491342e-02 0. 0. 0. 0. 0. 0. 0. 5.95491342e-02 0. 0. 0.
