<?xml version="1.0"?>
<opencv_storage>
<opencv_ml_svm>
  <format>3</format>
  <svmType>C_SVC</svmType>
  <kernel>
    <type>POLY</type>
    <degree>2.</degree>
    <gamma>1.</gamma>
    <coef0>0.</coef0></kernel>
  <C>1.</C>
  <term_criteria><iterations>1000</iterations></term_criteria>
  <var_count>2304</var_count>
  <class_count>2</class_count>
  <class_labels type_id="opencv-matrix">
    <rows>2</rows>
    <cols>1</cols>
    <dt>i</dt>
    <data>
      1 2</data></class_labels>
  <sv_total>68</sv_total>
  <support_vectors>
    <_>
      9.20358002e-01 0. 0. 0. 2.55654994e-02 0. 0. 0. 7.66965002e-02 0.
      2.55654994e-02 0. 2.55654994e-02 0. 1.53393000e-01 1.27827495e-01
      0. 0. 0. 0. 0. 0. 0. 0. 2.55654994e-02 0. 0. 0. 5.11309989e-02 0.
      1.53393000e-01 1.02261998e-01 0. 0. 0. 0. 0. 0. 0. 0. 0. 0. 0. 0.
      0. 0. 0. 0. 2.55654994e-02 0. 0. 0. 0. 0. 0. 2.55654994e-02
      7.66965002e-02 0. 0. 0. 2.55654994e-02 0. 0. 1.02261998e-01 0. 0.
      0. 0. 0. 0. 0. 0. 0. 0. 0. 0. 0. 0. 2.55654994e-02 0. 0. 0. 0. 0.
      0. 0. 0. 0. 0. 0. 0. 0. 0. 0. 0. 0. 0. 0. 0. 0. 0. 0. 0. 0. 0. 0.
      0. 0. 2.55654994e-02 0. 0. 0. 0. 0. 0. 0. 0. 0. 0. 0. 0. 0. 0. 0.
      0. 0. 1.78958490e-01 0. 0. 2.55654994e-02 0. 0. 0. 0. 0.
      2.55654994e-02 0. 0. 0. 0. 0. 0. 0. 1.02261998e-01 0. 0. 0. 0. 0.
      0. 0. 0. 0. 0. 0. 0. 0. 0. 0. 0. 0. 0. 0. 0. 0. 0. 0. 0. 0. 0. 0.
      0. 0. 0. 0. 0. 0. 0. 0. 0. 0. 0. 0. 0. 0. 0. 0. 0. 0. 0. 0. 0. 0.
      0. 0. 0. 0. 0. 0. 0. 0. 0. 0. 0. 0. 0. 0. 0. 0. 0. 0. 0. 0. 0. 0.
      0. 0. 0. 0. 0. 0. 0. 0. 0. 0. 0. 0. 0. 0. 0. 0. 0. 0. 0. 0. 0. 0.
      0. 0. 0. 5.11309989e-02 0. 0. 0. 0. 0. 0. 2.55654994e-02
      2.55654994e-02 0. 0. 0. 2.55654994e-02 0. 0. 0. 9.53883052e-01 0.
      0. 0. 0. 0. 2.51021851e-02 0. 2.51021851e-02 0. 0. 0. 0. 0.
      5.02043702e-02 1.25510931e-01 2.51021851e-02 0. 0. 0. 0. 0. 0. 0.
      2.51021851e-02 0. 0. 0. 2.51021851e-02 0. 0. 5.02043702e-02 0. 0.
      0. 0. 0. 0. 0. 0. 0. 0. 0. 0. 0. 0. 0. 0. 2.51021851e-02 0. 0. 0.
      0. 0. 0. 0. 5.02043702e-02 0. 0. 0. 0. 0. 0. 5.02043702e-02 0. 0.
      0. 0. 0. 0. 0. 0. 0. 0. 0. 0. 0. 0. 0. 0. 0. 0. 0. 0. 0. 0. 0. 0.
      0. 0. 0. 0. 0. 0. 0. 0. 0. 0. 0. 0. 0. 0. 0. 0. 0. 0. 0. 0. 0. 0.
      0. 0. 2.51021851e-02 0. 0. 0. 0. 0. 0. 0. 7.53065571e-02 0. 0. 0.
      2.51021851e-02 0. 0. 7.53065571e-02 0. 0. 0. 2.51021851e-02 0. 0.
      0. 5.02043702e-02 0. 0. 0. 0. 0. 0. 2.51021851e-02 1.00408740e-01
      0. 0. 0. 0. 0. 0. 0. 0. 2.51021851e-02 0. 0. 0. 0. 0. 0.
      5.02043702e-02 0. 0. 0. 0. 0. 0. 0. 0. 0. 0. 0. 0. 0. 0. 0. 0. 0.
      0. 0. 0. 0. 0. 0. 0. 7.53065571e-02 0. 0. 0. 0. 0. 0.
      2.51021851e-02 0. 0. 0. 0. 0. 0. 0. 0. 2.51021851e-02 0. 0. 0.
      2.51021851e-02 0. 0. 0. 0. 0. 0. 0. 0. 0. 0. 0. 0. 0. 0. 0. 0. 0.
      0. 0. 2.51021851e-02 0. 0. 0. 0. 0. 0. 0. 0. 0. 0. 0. 0. 0. 0.
      2.51021851e-02 7.53065571e-02 0. 0. 0. 0. 0. 0. 0. 1.00408740e-01
      0. 0. 2.51021851e-02 5.02043702e-02 2.51021851e-02 5.02043702e-02
      0. 9.52661037e-01 0. 0. 0. 0. 0. 2.64628064e-02 0. 1.05851226e-01
      0. 0. 0. 2.64628064e-02 0. 2.64628064e-02 0. 0. 0. 0. 0. 0. 0. 0.
      0. 0. 0. 0. 0. 0. 0. 2.64628064e-02 0. 0. 0. 0. 0. 0. 0. 0. 0.
      2.64628064e-02 0. 0. 0. 0. 0. 0. 0. 0. 0. 0. 0. 0. 0. 0. 0.
      5.29256128e-02 0. 0. 0. 5.29256128e-02 0. 2.64628064e-02
      2.64628064e-02 0. 0. 0. 0. 0. 0. 0. 0. 0. 0. 0. 0. 0. 0. 0. 0. 0.
      0. 0. 0. 0. 0. 0. 0. 0. 0. 0. 0. 0. 0. 0. 0. 0. 0. 0. 0. 0. 0. 0.
      0. 2.64628064e-02 0. 0. 0. 0. 0. 0. 0. 7.93884173e-02 0. 0. 0. 0.
      0. 0. 0. 1.05851226e-01 0. 0. 0. 5.29256128e-02 0. 0.
      7.93884173e-02 5.29256128e-02 2.64628064e-02 0. 0. 0. 0. 0. 0.
      1.05851226e-01 0. 0. 0. 2.64628064e-02 0. 0. 0. 0. 0. 0. 0. 0. 0.
      0. 0. 0. 0. 0. 0. 0. 0. 0. 2.64628064e-02 0. 0. 0. 0. 0. 0. 0. 0.
      0. 0. 0. 0. 0. 0. 0. 0. 0. 0. 0. 0. 0. 0. 0. 0. 0. 0. 0. 0. 0. 0.
      0. 5.29256128e-02 0. 0. 0. 0. 0. 0. 0. 7.93884173e-02
      2.64628064e-02 0. 0. 0. 0. 0. 0. 0. 0. 0. 0. 0. 0. 0. 0. 0. 0. 0.
      0. 0. 2.64628064e-02 0. 0. 0. 0. 0. 0. 2.64628064e-02 0. 0. 0.
      5.29256128e-02 0. 0. 0. 0. 0. 0. 0. 5.29256128e-02 2.64628064e-02
      0. 0. 0. 0. 0. 2.64628064e-02 0. 7.93884173e-02 2.64628064e-02 0.
      2.64628064e-02 2.64628064e-02 0. 2.64628064e-02 0. 9.48683262e-01
      0. 0. 0. 4.86504249e-02 0. 0. 2.43252125e-02 1.21626064e-01
      2.43252125e-02 0. 0. 0. 0. 0. 0. 0. 0. 0. 0. 0. 0. 0. 0. 0. 0. 0.
      0. 0. 0. 0. 7.29756355e-02 0. 0. 0. 0. 0. 0. 0. 0. 0. 0. 0. 0. 0.
      0. 0. 0. 0. 0. 0. 0. 0. 0. 0. 0. 0. 0. 0. 0. 0. 0. 0.
      4.86504249e-02 0. 0. 0. 0. 0. 0. 0. 0. 2.43252125e-02 0. 0. 0. 0.
      0. 0. 0. 0. 0. 0. 0. 0. 0. 0. 0. 0. 0. 0. 0. 0. 0. 0. 0. 0. 0. 0.
      0. 0. 0. 0. 0. 4.86504249e-02 0. 0. 0. 0. 0. 0. 0. 0. 0. 0. 0. 0.
      0. 2.43252125e-02 0. 7.29756355e-02 2.43252125e-02 0.
      2.43252125e-02 4.86504249e-02 0. 4.86504249e-02 1.70276493e-01
      4.86504249e-02 2.43252125e-02 0. 0. 2.43252125e-02 0.
      2.43252125e-02 1.21626064e-01 0. 0. 0. 0. 0. 0. 0. 0. 0. 0. 0. 0.
      0. 0. 0. 2.43252125e-02 0. 0. 0. 0. 0. 0. 0. 0. 0. 0. 0. 0. 0. 0.
      0. 0. 0. 0. 0. 0. 0. 0. 0. 0. 0. 2.43252125e-02 0. 0. 0. 0. 0.
      2.43252125e-02 0. 0. 0. 0. 0. 0. 0. 4.86504249e-02 0. 0. 0. 0. 0.
      0. 0. 2.43252125e-02 0. 0. 0. 0. 0. 0. 0. 0. 0. 0. 0. 0. 0. 0. 0.
      0. 0. 0. 0. 0. 0. 0. 0. 0. 4.86504249e-02 0. 2.43252125e-02 0. 0.
      0. 0. 0. 0. 0. 0. 0. 0. 0. 0. 0. 4.86504249e-02 0. 0.
      2.43252125e-02 0. 0. 0. 2.43252125e-02 0. 0. 0. 0. 0. 0. 0. 0.
      9.31271851e-01 0. 0. 0. 0. 0. 0. 2.45071538e-02 7.35214651e-02
      2.45071538e-02 0. 0. 0. 0. 0. 2.45071538e-02 0. 0. 0. 0. 0. 0. 0.
      0. 2.45071538e-02 0. 0. 0. 0. 0. 0. 4.90143076e-02 0. 0. 0. 0. 0.
      0. 0. 0. 0. 0. 0. 0. 0. 0. 0. 0. 0. 0. 0. 0. 0. 0. 0. 0.
      2.45071538e-02 0. 0. 0. 2.45071538e-02 0. 0. 2.45071538e-02 0. 0.
      0. 0. 2.45071538e-02 0. 0. 0. 2.45071538e-02 0. 0. 2.45071538e-02
      0. 0. 0. 0. 0. 0. 0. 0. 0. 0. 0. 0. 0. 0. 0. 0. 0. 0. 0. 0. 0. 0.
      0. 0. 0. 0. 0. 0. 0. 0. 0. 0. 0. 0. 0. 0. 2.45071538e-02 0. 0. 0.
      0. 0. 0. 0. 2.20564380e-01 2.45071538e-02 0. 2.45071538e-02
      2.45071538e-02 0. 9.80286151e-02 1.96057230e-01 0. 4.90143076e-02
      0. 0. 2.45071538e-02 0. 2.45071538e-02 7.35214651e-02 0. 0. 0.
      2.45071538e-02 0. 0. 0. 4.90143076e-02 0. 0. 0. 0. 0. 0. 0.
      2.45071538e-02 0. 0. 0. 0. 2.45071538e-02 0. 0. 4.90143076e-02 0.
      0. 0. 0. 0. 0. 0. 0. 0. 0. 0. 0. 0. 0. 0. 0. 0. 0. 0. 0. 0. 0. 0.
      0. 0. 0. 0. 0. 0. 0. 0. 2.45071538e-02 0. 0. 0. 0. 0. 0. 0. 0. 0.
      0. 0. 0. 0. 0. 0. 0. 0. 0. 0. 0. 0. 0. 0. 0. 0. 0. 0. 0. 0. 0. 0.
      0. 2.45071538e-02 0. 0. 0. 0. 0. 0. 0. 0. 0. 0. 0. 0. 0. 0. 0. 0.
      0. 0. 0. 0. 0. 0. 0. 4.90143076e-02 0. 0. 0. 2.45071538e-02 0. 0.
      0. 9.52482760e-01 0. 0. 0. 0. 0. 0. 0. 5.14855534e-02
      2.57427767e-02 0. 2.57427767e-02 7.72283301e-02 0. 0.
      5.14855534e-02 0. 0. 2.57427767e-02 0. 0. 0. 0. 0. 2.57427767e-02
      0. 0. 0. 0. 0. 0. 2.57427767e-02 0. 0. 0. 0. 0. 0. 0. 0. 0. 0. 0.
      0. 0. 0. 0. 0. 0. 0. 0. 0. 0. 0. 0. 0. 0. 0. 0. 2.57427767e-02
      5.14855534e-02 0. 5.14855534e-02 5.14855534e-02 0. 0. 0. 0. 0. 0.
      0. 0. 0. 0. 0. 0. 0. 0. 5.14855534e-02 0. 0. 0. 0. 0. 0. 0. 0. 0.
      0. 0. 0. 0. 0. 0. 0. 0. 2.57427767e-02 0. 0. 0. 2.57427767e-02 0.
      0. 0. 0. 0. 0. 0. 0. 0. 0. 2.57427767e-02 0. 0. 0. 0. 0. 0. 0. 0.
      1.80199444e-01 0. 0. 0. 2.57427767e-02 0. 2.57427767e-02
      1.02971107e-01 5.14855534e-02 0. 0. 0. 0. 0. 0. 0. 0. 0. 0. 0. 0.
      0. 2.57427767e-02 0. 0. 0. 0. 0. 0. 0. 0. 0. 0. 0. 0. 0. 0.
      2.57427767e-02 0. 5.14855534e-02 0. 0. 0. 0. 0. 0. 0. 0. 0. 0. 0.
      0. 0. 0. 0. 0. 0. 0. 0. 0. 0. 0. 0. 2.57427767e-02 0.
      5.14855534e-02 0. 2.57427767e-02 0. 0. 2.57427767e-02
      2.57427767e-02 0. 0. 0. 0. 0. 0. 0. 0. 0. 0. 0. 0. 0. 0. 0. 0. 0.
      0. 0. 0. 0. 0. 0. 0. 0. 0. 2.57427767e-02 0. 0. 0. 0. 0. 0. 0. 0.
      0. 0. 0. 0. 2.57427767e-02 0. 0. 0. 0. 0. 0. 0. 0. 5.14855534e-02
      0. 0. 0. 0. 0. 2.57427767e-02 0. 2.57427767e-02 0. 0.
      2.57427767e-02 5.14855534e-02 0. 0. 0. 9.56296444e-01
      2.51656957e-02 0. 0. 0. 0. 0. 0. 1.00662783e-01 0. 0. 0. 0. 0.
      2.51656957e-02 0. 2.51656957e-02 0. 0. 0. 0. 0. 0. 0. 0. 0. 0. 0.
      2.51656957e-02 0. 0. 0. 0. 0. 0. 0. 0. 0. 0. 0. 0. 0. 0. 0. 0. 0.
      2.51656957e-02 0. 0. 0. 0. 0. 0. 0. 0. 0. 7.54970908e-02 0. 0. 0.
      0. 0. 0. 5.03313914e-02 0. 0. 0. 0. 0. 0. 0. 0. 5.03313914e-02 0.
      0. 0. 0. 0. 0. 0. 0. 0. 0. 0. 0. 0. 0. 0. 0. 0. 0. 0. 0. 0. 0. 0.
      0. 0. 0. 0. 0. 0. 0. 0. 0. 0. 0. 0. 0. 0. 0. 0. 2.51656957e-02 0.
      0. 0. 0. 0. 2.51656957e-02 0. 7.54970908e-02 0. 0. 0.
      2.51656957e-02 0. 7.54970908e-02 2.51656957e-02 5.03313914e-02 0.
      0. 0. 0. 0. 0. 2.51656957e-02 0. 0. 0. 0. 2.51656957e-02 0.
      2.51656957e-02 0. 0. 2.51656957e-02 0. 0. 0. 0. 0. 0.
      2.51656957e-02 0. 0. 0. 0. 0. 0. 0. 0. 0. 0. 0. 0. 0. 0. 0. 0. 0.
      0. 0. 0. 0. 0. 0. 0. 2.51656957e-02 0. 0. 0. 0. 0. 0.
      2.51656957e-02 0. 0. 0. 0. 0. 0. 0. 0. 0. 0. 0. 0. 0. 0. 0. 0. 0.
      0. 0. 0. 0. 0. 2.51656957e-02 0. 0. 0. 0. 2.51656957e-02 0. 0. 0.
      0. 0. 0. 0. 0. 0. 0. 0. 0. 0. 0. 0. 0. 0. 0. 2.51656957e-02
      2.51656957e-02 0. 0. 2.51656957e-02 0. 0. 0. 2.51656957e-02
      1.50994182e-01 0. 0. 2.51656957e-02 0. 0. 0. 5.03313914e-02
      2.51656957e-02 0. 0. 0. 1.00662783e-01 0. 0. 0. 9.53582644e-01 0.
      0. 0. 0. 0. 0. 0. 5.01885600e-02 2.50942800e-02 0. 0. 0. 0. 0. 0.
      0. 0. 0. 0. 0. 0. 0. 0. 2.50942800e-02 2.50942800e-02 0. 0. 0. 0.
      0. 0. 0. 0. 0. 0. 0. 0. 0. 0. 0. 0. 0. 0. 0. 0. 0. 0. 0. 0. 0. 0.
      0. 0. 0. 0. 7.52828419e-02 0. 0. 0. 2.50942800e-02 0. 0. 0. 0. 0.
      0. 0. 0. 0. 0. 0. 0. 0. 0. 0. 0. 0. 0. 0. 0. 0. 0. 0. 0. 0. 0.
      2.50942800e-02 0. 0. 0. 0. 0. 0. 0. 0. 2.50942800e-02 0. 0. 0. 0.
      0. 0. 0. 0. 0. 0. 0. 0. 0. 0. 0. 0. 0. 0. 0. 0. 0. 0.
      2.50942800e-02 7.52828419e-02 0. 0. 0. 5.01885600e-02 0.
      2.50942800e-02 7.52828419e-02 7.52828419e-02 2.50942800e-02 0. 0.
      2.50942800e-02 0. 0. 1.00377120e-01 2.50942800e-02 0. 0.
      2.50942800e-02 0. 0. 2.50942800e-02 5.01885600e-02 0. 0. 0. 0. 0.
      0. 0. 0. 0. 0. 0. 0. 0. 0. 0. 0. 0. 0. 0. 0. 0. 0. 0. 0. 0. 0. 0.
      0. 0. 0. 0. 0. 0. 0. 0. 0. 0. 0. 0. 0. 2.50942800e-02 0. 0. 0. 0.
      0. 0. 0. 2.50942800e-02 0. 0. 0. 0. 0. 0. 2.50942800e-02 0. 0. 0.
      0. 0. 0. 0. 0. 0. 0. 0. 0. 0. 0. 0. 0. 0. 0. 0. 0. 0. 0. 0. 0. 0.
      0. 0. 0. 0. 0. 0. 5.01885600e-02 0. 0. 0. 0. 0. 0. 0. 0.
      1.00377120e-01 7.52828419e-02 0. 0. 0. 0. 0. 1.25471398e-01
      7.52828419e-02 0. 0. 2.50942800e-02 0. 0. 0. 0. 9.56902623e-01 0.
      0. 0. 0. 0. 0. 0. 5.03632948e-02 0. 0. 0. 0. 0. 2.51816474e-02
      2.51816474e-02 0. 0. 0. 0. 0. 0. 0. 0. 0. 0. 0. 0. 2.51816474e-02
      0. 0. 0. 0. 0. 0. 0. 0. 0. 0. 0. 0. 0. 0. 0. 0. 0. 0. 0. 0. 0. 0.
      0. 0. 0. 0. 0. 0. 0. 0. 0. 0. 0. 0. 2.51816474e-02 0. 0. 0. 0. 0.
      0. 0. 0. 2.51816474e-02 0. 0. 0. 0. 0. 0. 0. 0. 0. 0. 0. 0. 0. 0.
      0. 0. 0. 0. 0. 0. 0. 0. 0. 2.51816474e-02 0. 0. 0. 0. 0. 0.
      2.51816474e-02 0. 0. 0. 0. 0. 0. 0. 2.51816474e-02 0. 0. 0. 0. 0.
      0. 2.51816474e-02 0. 0. 2.51816474e-02 0. 0. 0. 0. 2.51816474e-02
      1.00726590e-01 1.25908241e-01 0. 0. 5.03632948e-02 0. 0. 0.
      2.51816474e-02 5.03632948e-02 0. 0. 0. 0. 0. 0. 0. 0. 0. 0. 0. 0.
      0. 0. 0. 2.51816474e-02 0. 0. 0. 0. 2.51816474e-02 0. 0. 0. 0. 0.
      0. 0. 0. 0. 0. 0. 0. 0. 0. 0. 0. 0. 0. 0. 0. 0. 0. 0. 0. 0. 0.
      2.51816474e-02 0. 0. 0. 0. 0. 0. 0. 2.51816474e-02 0. 0. 0. 0. 0.
      0. 0. 2.51816474e-02 0. 0. 0. 0. 0. 0. 5.03632948e-02 0. 0. 0.
      2.51816474e-02 0. 0. 0. 0. 0. 0. 0. 0. 0. 0. 0. 0. 2.51816474e-02
      0. 0. 0. 2.51816474e-02 0. 0. 0. 0. 0. 0. 0. 0. 0. 0.
      5.03632948e-02 7.55449384e-02 0. 0. 0. 0. 0. 0. 1.51089877e-01
      2.51816474e-02 2.51816474e-02 0. 5.03632948e-02 0. 2.51816474e-02
      0. 0.</_>
    <_>
      3.47524017e-01 0. 0. 0. 0. 0. 0. 6.95048049e-02 1.39009610e-01 0.
      0. 6.95048049e-02 0. 0. 0. 6.95048049e-02 0. 0. 0. 0. 0. 0. 0. 0.
      6.95048049e-02 0. 0. 0. 0. 0. 2.08514422e-01 0. 0. 0. 0. 0. 0. 0.
      0. 0. 0. 0. 0. 0. 0. 0. 0. 0. 6.95048049e-02 0. 0. 0. 0. 0. 0. 0.
      6.95048049e-02 0. 0. 0. 1.39009610e-01 0. 6.95048049e-02 0. 0. 0.
      0. 0. 0. 0. 0. 0. 0. 0. 0. 0. 0. 0. 0. 6.95048049e-02 0. 0. 0. 0.
      0. 0. 0. 0. 0. 0. 0. 0. 0. 0. 0. 0. 6.95048049e-02 0. 0. 0. 0. 0.
      0. 0. 0. 0. 0. 0. 0. 0. 6.95048049e-02 0. 0. 0. 0. 0. 0. 0. 0. 0.
      6.95048049e-02 0. 0. 0. 6.95048049e-02 0. 6.95048049e-02 0.
      6.95048049e-02 6.95048049e-02 0. 6.95048049e-02 0. 0.
      6.95048049e-02 2.78019220e-01 0. 0. 0. 6.95048049e-02 0. 0. 0. 0.
      0. 0. 6.95048049e-02 0. 0. 0. 0. 0. 0. 0. 0. 6.95048049e-02
      6.95048049e-02 0. 0. 6.95048049e-02 1.39009610e-01 6.95048049e-02
      0. 0. 0. 0. 0. 0. 0. 0. 0. 0. 0. 0. 0. 0. 0. 0. 0. 0.
      6.95048049e-02 6.95048049e-02 0. 6.95048049e-02 0. 0. 0. 0.
      6.95048049e-02 0. 0. 6.95048049e-02 6.95048049e-02 1.39009610e-01
      0. 6.95048049e-02 0. 0. 6.95048049e-02 6.95048049e-02 0. 0.
      6.95048049e-02 0. 0. 6.95048049e-02 1.39009610e-01 6.95048049e-02
      0. 0. 0. 0. 0. 0. 0. 0. 0. 0. 6.95048049e-02 0. 0. 0. 0.
      1.39009610e-01 3.47524017e-01 6.95048049e-02 0. 1.39009610e-01 0.
      0. 1.39009610e-01 0. 0. 0. 0. 6.95048049e-02 6.95048049e-02
      1.39009610e-01 6.95048049e-02 0. 1.39009610e-01 4.17028844e-01 0.
      2.08514422e-01 0. 0. 0. 0. 6.95048049e-02 6.95048049e-02 0. 0.
      1.39009610e-01 0. 6.95048049e-02 0. 3.28266084e-01 0. 0.
      6.56532198e-02 0. 0. 0. 6.56532198e-02 0. 0. 0. 0. 0. 0.
      1.96959659e-01 1.96959659e-01 0. 0. 0. 0. 0. 0. 0. 0.
      1.31306440e-01 0. 0. 0. 6.56532198e-02 0. 1.96959659e-01
      2.62612879e-01 1.31306440e-01 0. 0. 0. 0. 0. 0. 0. 0. 0. 0. 0. 0.
      0. 0. 0. 0. 0. 0. 0. 0. 0. 0. 0. 2.62612879e-01 0. 0. 0.
      6.56532198e-02 0. 1.31306440e-01 1.31306440e-01 0. 0. 0. 0. 0. 0.
      0. 0. 0. 0. 0. 0. 0. 0. 0. 0. 0. 0. 0. 0. 0. 0. 0. 0. 0. 0. 0. 0.
      0. 0. 0. 0. 6.56532198e-02 0. 0. 0. 0. 0. 0. 0. 0. 0. 0. 0. 0. 0.
      0. 0. 0. 0. 0. 0. 0. 0. 0. 0. 0. 0. 0. 0. 0. 0. 6.56532198e-02
      6.56532198e-02 0. 0. 0. 1.31306440e-01 0. 0. 6.56532198e-02 0. 0.
      0. 0. 6.56532198e-02 0. 0. 0. 1.31306440e-01 0. 0. 6.56532198e-02
      0. 0. 0. 0. 0. 0. 0. 0. 0. 6.56532198e-02 0. 0. 1.31306440e-01
      1.31306440e-01 6.56532198e-02 0. 0. 0. 0. 0. 0. 0. 0. 0. 0. 0. 0.
      0. 0. 0. 0. 0. 0. 6.56532198e-02 6.56532198e-02 0. 0. 0. 0. 0. 0.
      6.56532198e-02 0. 0. 0. 0. 6.56532198e-02 0. 1.96959659e-01 0. 0.
      0. 0. 0. 0. 6.56532198e-02 0. 0. 6.56532198e-02 1.31306440e-01
      1.96959659e-01 0. 0. 0. 0. 0. 0. 0. 0. 0. 0. 6.56532198e-02 0. 0.
      0. 6.56532198e-02 6.56532198e-02 6.56532198e-02 4.59572554e-01
      6.56532198e-02 6.56532198e-02 0. 0. 1.31306440e-01 0. 0. 0. 0. 0.
      6.56532198e-02 1.96959659e-01 6.56532198e-02 0. 0. 0. 0. 0. 0. 0.
      0. 0. 0. 6.56532198e-02 0. 6.56532198e-02 0. 1.31306440e-01 0. 0.
      2.28664786e-01 0. 0. 1.14332393e-01 0. 0. 0. 0. 0. 0.
      5.71661964e-02 0. 0. 0. 2.28664786e-01 2.85830975e-01 0. 0. 0.
      5.71661964e-02 0. 0. 0. 0. 0. 0. 0. 0. 0. 0. 5.14495790e-01
      4.00163382e-01 0. 0. 0. 0. 0. 0. 0. 0. 0. 0. 0. 0. 0. 0. 0. 0.
      5.71661964e-02 0. 0. 0. 0. 0. 0. 0. 0. 0. 0. 0. 0. 0. 0. 0. 0. 0.
      0. 0. 0. 0. 0. 0. 0. 0. 0. 0. 0. 0. 0. 0. 0. 0. 0. 0. 0. 0. 0. 0.
      0. 0. 0. 0. 5.71661964e-02 0. 0. 0. 0. 0. 0. 0. 0. 0. 0. 0. 0. 0.
      0. 0. 0. 0. 0. 0. 0. 0. 0. 0. 0. 0. 0. 0. 0. 0. 0. 0. 0. 0.
      5.71661964e-02 0. 0. 1.14332393e-01 0. 5.71661964e-02 0. 0.
      5.71661964e-02 0. 0. 0. 0. 5.71661964e-02 0. 0. 0. 5.71661964e-02
      0. 0. 5.71661964e-02 0. 0. 0. 0. 0. 0. 5.71661964e-02 0. 0.
      5.71661964e-02 0. 0. 5.71661964e-02 1.14332393e-01 5.71661964e-02
      0. 5.71661964e-02 0. 0. 0. 0. 0. 0. 0. 0. 0. 0. 0. 0. 0. 0. 0. 0.
      5.71661964e-02 5.71661964e-02 0. 0. 0. 0. 0. 0. 5.71661964e-02 0.
      0. 5.71661964e-02 0. 5.71661964e-02 0. 1.14332393e-01 0. 0. 0. 0.
      0. 0. 5.71661964e-02 0. 0. 5.71661964e-02 1.71498597e-01
      5.71661964e-02 0. 0. 0. 5.71661964e-02 0. 0. 0. 0. 0. 0.
      5.71661964e-02 0. 0. 0. 0. 5.71661964e-02 5.71661964e-02
      3.42997193e-01 0. 0. 5.71661964e-02 1.14332393e-01 1.14332393e-01
      5.71661964e-02 0. 0. 0. 0. 5.71661964e-02 1.14332393e-01
      5.71661964e-02 1.14332393e-01 0. 5.71661964e-02 0. 0. 0.
      5.71661964e-02 0. 0. 0. 0. 0. 0. 0. 1.71498597e-01 0. 0.
      2.13200718e-01 0. 0. 0. 0. 0. 0. 1.06600359e-01 5.33001795e-02 0.
      0. 0. 5.33001795e-02 0. 5.33001795e-02 3.19801092e-01 0. 0. 0. 0.
      0. 0. 0. 0. 0. 0. 0. 0. 0. 0. 0. 1.06600359e-01 5.33001795e-02 0.
      0. 0. 0. 0. 0. 0. 0. 0. 0. 0. 0. 0. 0. 0. 0. 0. 0. 0. 0. 0. 0. 0.
      0. 0. 0. 0. 0. 0. 0. 5.33001795e-02 0. 0. 0. 0. 0. 0. 0. 0. 0. 0.
      0. 0. 5.33001795e-02 0. 0. 0. 0. 0. 0. 0. 0. 0. 0. 0. 0. 0. 0. 0.
      0. 0. 0. 0. 0. 0. 0. 0. 0. 0. 0. 0. 1.06600359e-01 0. 0. 0. 0. 0.
      0. 0. 1.06600359e-01 0. 0. 0. 0. 0. 5.33001795e-02 0.
      6.39602184e-01 0. 0. 0. 0. 0. 5.33001795e-02 1.06600359e-01
      5.33001795e-02 0. 0. 1.06600359e-01 0. 0. 1.06600359e-01
      2.13200718e-01 0. 0. 0. 5.33001795e-02 0. 0. 0. 5.33001795e-02 0.
      0. 5.33001795e-02 0. 0. 0. 0. 5.33001795e-02 0. 0. 0. 0.
      5.33001795e-02 0. 0. 5.33001795e-02 1.06600359e-01 5.33001795e-02
      0. 0. 0. 0. 0. 0. 0. 0. 0. 0. 0. 0. 0. 0. 0. 0. 0. 0.
      5.33001795e-02 5.33001795e-02 0. 0. 0. 0. 0. 0. 5.33001795e-02 0.
      0. 5.33001795e-02 0. 5.33001795e-02 0. 0. 0. 0. 0. 0. 0. 0.
      5.33001795e-02 0. 0. 5.33001795e-02 1.06600359e-01 5.33001795e-02
      0. 0. 0. 0. 0. 0. 0. 0. 0. 0. 5.33001795e-02 0. 0. 0. 0. 0.
      5.33001795e-02 5.33001795e-02 0. 0. 0. 0. 1.06600359e-01 0. 0. 0.
      0. 0. 5.33001795e-02 1.06600359e-01 5.33001795e-02 0.
      2.13200718e-01 5.33001795e-02 0. 0. 0. 0. 0. 0. 3.73101264e-01 0.
      0. 0. 5.33001795e-02 0. 0. 0. 3.88107717e-01 0. 6.46846220e-02 0.
      0. 0. 6.46846220e-02 6.46846220e-02 0. 0. 0. 0. 6.46846220e-02 0.
      0. 0. 0. 0. 0. 0. 0. 0. 0. 0. 0. 0. 0. 0. 0. 0. 6.46846220e-02 0.
      0. 0. 0. 0. 0. 0. 0. 0. 6.46846220e-02 0. 0. 0. 0. 0. 0. 0. 0. 0.
      0. 0. 0. 0. 0. 0. 1.29369244e-01 0. 0. 0. 1.29369244e-01 0.
      1.94053859e-01 0. 0. 0. 0. 0. 0. 0. 0. 0. 0. 0. 0. 0. 0. 0. 0. 0.
      0. 0. 0. 0. 0. 0. 0. 0. 0. 0. 0. 0. 0. 0. 0. 0. 1.29369244e-01 0.
      0. 0. 0. 0. 0. 0. 0. 0. 0. 0. 0. 0. 0. 0. 2.58738488e-01 0. 0.
      6.46846220e-02 0. 0. 0. 0. 2.58738488e-01 0. 0. 0. 1.94053859e-01
      0. 0. 6.46846220e-02 0. 0. 6.46846220e-02 0. 0. 0. 6.46846220e-02
      0. 0. 0. 0. 6.46846220e-02 0. 0. 0. 0. 0. 0. 6.46846220e-02 0. 0.
      0. 0. 0. 0. 0. 0. 0. 6.46846220e-02 0. 0. 6.46846220e-02
      1.29369244e-01 6.46846220e-02 0. 0. 0. 0. 0. 0. 0. 0. 0. 0. 0. 0.
      0. 0. 0. 0. 0. 0. 6.46846220e-02 6.46846220e-02 0. 0. 0. 0. 0. 0.
      6.46846220e-02 0. 0. 0. 6.46846220e-02 1.29369244e-01 0.
      1.29369244e-01 0. 0. 0. 0. 0. 0. 6.46846220e-02 0. 0.
      6.46846220e-02 1.29369244e-01 1.29369244e-01 0. 0. 0. 0. 0. 0. 0.
      0. 0. 6.46846220e-02 6.46846220e-02 0. 0. 0. 0. 6.46846220e-02
      6.46846220e-02 4.52792346e-01 6.46846220e-02 1.94053859e-01 0. 0.
      1.29369244e-01 0. 0. 0. 0. 0. 6.46846220e-02 1.29369244e-01
      6.46846220e-02 0. 1.94053859e-01 6.46846220e-02 0. 0. 0. 0. 0. 0.
      6.46846220e-02 6.46846220e-02 0. 6.46846220e-02 1.94053859e-01
      1.29369244e-01 6.46846220e-02 0. 3.38642746e-01 6.77285492e-02
      2.03185648e-01 6.77285492e-02 0. 0. 0. 0. 6.77285492e-02 0. 0.
      6.77285492e-02 0. 0. 6.77285492e-02 0. 0. 0. 0. 0. 0. 0. 0. 0.
      6.77285492e-02 0. 0. 0. 0. 0. 1.35457098e-01 1.35457098e-01 0. 0.
      0. 0. 0. 0. 0. 0. 0. 0. 0. 0. 0. 0. 0. 0. 0. 1.35457098e-01 0. 0.
      0. 0. 0. 0. 6.77285492e-02 0. 0. 0. 0. 0. 6.77285492e-02 0. 0. 0.
      0. 0. 0. 0. 0. 0. 0. 0. 0. 0. 0. 0. 0. 0. 0. 0. 0. 0. 0. 0. 0. 0.
      0. 0. 0. 0. 0. 0. 6.77285492e-02 0. 0. 0. 0. 0. 0. 0. 0. 0. 0. 0.
      0. 0. 0. 0. 0. 0. 6.77285492e-02 0. 0. 0. 0. 0. 0. 0.
      6.77285492e-02 0. 0. 0. 6.77285492e-02 0. 0. 0. 0. 2.03185648e-01
      0. 0. 0. 0. 6.77285492e-02 0. 0. 0. 0. 6.77285492e-02 0. 0. 0.
      6.77285492e-02 0. 0. 6.77285492e-02 0. 0. 0. 0. 0. 0. 0. 0. 0.
      6.77285492e-02 0. 0. 1.35457098e-01 1.35457098e-01 2.03185648e-01
      0. 0. 0. 0. 0. 0. 0. 0. 0. 0. 0. 0. 0. 0. 0. 0. 0. 0.
      6.77285492e-02 6.77285492e-02 0. 0. 0. 0. 0. 0. 6.77285492e-02 0.
      0. 0. 0. 0. 0. 1.35457098e-01 0. 0. 0. 1.35457098e-01 0. 0.
      6.77285492e-02 0. 0. 6.77285492e-02 1.35457098e-01 1.35457098e-01
      0. 0. 0. 0. 0. 0. 0. 0. 0. 0. 6.77285492e-02 0. 0. 0. 0.
      2.03185648e-01 2.03185648e-01 3.38642746e-01 0. 4.06371295e-01 0.
      6.77285492e-02 2.03185648e-01 6.77285492e-02 0. 0. 0. 0.
      6.77285492e-02 1.35457098e-01 1.35457098e-01 6.77285492e-02 0.
      6.77285492e-02 0. 6.77285492e-02 0. 0. 0. 0. 0. 0. 0. 0. 0.
      1.35457098e-01 6.77285492e-02 0. 2.90190488e-01 0. 0.
      7.25476220e-02 0. 0. 0. 0. 0. 0. 0. 0. 0. 0. 0. 7.25476220e-02 0.
      0. 0. 0. 0. 0. 0. 0. 7.25476220e-02 0. 0. 0. 0. 0. 0. 0. 0. 0. 0.
      0. 0. 0. 0. 0. 0. 0. 0. 0. 0. 0. 0. 0. 0. 0. 0. 0. 0. 0. 0. 0. 0.
      0. 0. 0. 0. 0. 0. 0. 0. 0. 0. 0. 0. 0. 0. 0. 7.25476220e-02 0. 0.
      0. 0. 0. 0. 0. 0. 0. 0. 0. 0. 0. 0. 0. 0. 0. 0. 0. 0. 0. 0. 0.
      7.25476220e-02 0. 0. 0. 0. 0. 0. 0. 0. 0. 0. 0. 0. 0. 0. 0. 0. 0.
      0. 7.25476220e-02 0. 0. 0. 0. 1.45095244e-01 0. 0. 0. 0. 0.
      7.25476220e-02 7.25476220e-02 7.25476220e-02 0. 0. 7.25476220e-02
      0. 0. 7.25476220e-02 0. 0. 0. 0. 7.25476220e-02 0. 0. 0.
      1.45095244e-01 0. 0. 7.25476220e-02 0. 0. 0. 0. 0. 7.25476220e-02
      0. 0. 0. 7.25476220e-02 0. 0. 7.25476220e-02 2.17642874e-01
      7.25476220e-02 0. 0. 0. 0. 0. 0. 0. 0. 0. 0. 0. 0. 0. 0. 0. 0. 0.
      0. 7.25476220e-02 7.25476220e-02 0. 0. 0. 0. 0. 0. 7.25476220e-02
      0. 0. 0. 1.45095244e-01 1.45095244e-01 0. 2.17642874e-01 0.
      7.25476220e-02 0. 2.17642874e-01 7.25476220e-02 0. 7.25476220e-02
      0. 0. 7.25476220e-02 1.45095244e-01 2.90190488e-01 0. 0. 0. 0. 0.
      0. 0. 0. 0. 0. 7.25476220e-02 0. 0. 0. 0. 0. 1.45095244e-01
      2.90190488e-01 0. 2.90190488e-01 0. 0. 1.45095244e-01
      7.25476220e-02 7.25476220e-02 0. 0. 0. 7.25476220e-02
      1.45095244e-01 7.25476220e-02 0. 7.25476220e-02 2.17642874e-01 0.
      2.17642874e-01 7.25476220e-02 0. 0. 7.25476220e-02 1.45095244e-01
      2.17642874e-01 0. 0. 1.45095244e-01 0. 0. 0. 4.75190967e-01 0. 0.
      0. 0. 0. 6.78844228e-02 6.78844228e-02 0. 0. 0. 0. 0. 0.
      1.35768846e-01 6.78844228e-02 0. 0. 0. 0. 0. 0. 0. 0.
      6.78844228e-02 0. 0. 0. 6.78844228e-02 0. 6.78844228e-02 0. 0. 0.
      0. 0. 0. 0. 0. 6.78844228e-02 0. 0. 0. 0. 0. 0. 0. 0. 0. 0. 0. 0.
      0. 0. 0. 0. 1.35768846e-01 0. 0. 0. 0. 0. 6.78844228e-02 0. 0. 0.
      0. 0. 0. 0. 0. 0. 0. 0. 0. 0. 0. 0. 0. 0. 0. 0. 0. 0. 0. 0. 0. 0.
      0. 0. 0. 0. 0. 0. 0. 0. 6.78844228e-02 0. 0. 0. 0. 0. 0. 0. 0. 0.
      0. 0. 0. 0. 6.78844228e-02 0. 1.35768846e-01 0. 6.78844228e-02 0.
      0. 0. 0. 0. 0. 0. 0. 0. 0. 0. 6.78844228e-02 0. 6.78844228e-02
      6.78844228e-02 0. 2.03653276e-01 0. 0. 6.78844228e-02 0. 0. 0. 0.
      6.78844228e-02 0. 0. 0. 6.78844228e-02 0. 0. 6.78844228e-02 0. 0.
      0. 0. 0. 0. 0. 0. 0. 1.35768846e-01 6.78844228e-02 0.
      2.03653276e-01 1.35768846e-01 6.78844228e-02 0. 0. 0. 0. 0. 0. 0.
      0. 0. 0. 0. 0. 0. 0. 0. 0. 0. 0. 6.78844228e-02 6.78844228e-02 0.
      0. 0. 0. 0. 0. 6.78844228e-02 0. 0. 0. 6.78844228e-02
      6.78844228e-02 0. 2.03653276e-01 0. 0. 0. 1.35768846e-01 0.
      6.78844228e-02 6.78844228e-02 0. 0. 6.78844228e-02 1.35768846e-01
      1.35768846e-01 0. 0. 0. 0. 0. 0. 0. 0. 0. 0. 6.78844228e-02 0. 0.
      0. 0. 0. 1.35768846e-01 4.07306552e-01 0. 2.03653276e-01 0. 0.
      1.35768846e-01 6.78844228e-02 0. 0. 0. 0. 6.78844228e-02
      1.35768846e-01 1.35768846e-01 0. 0. 6.78844228e-02 0.
      6.78844228e-02 0. 0. 0. 6.78844228e-02 0. 2.03653276e-01 0.
      6.78844228e-02 1.35768846e-01 0. 0. 0. 3.43558997e-01 0. 0.
      1.71779498e-01 0. 0. 0. 0. 0. 0. 0. 0. 5.72598316e-02 0. 0. 0. 0.
      5.72598316e-02 0. 0. 0. 0. 0. 0. 5.72598316e-02 0. 0.
      5.72598316e-02 0. 0. 5.72598316e-02 0. 0. 0. 0. 0. 0. 0. 0. 0. 0.
      0. 0. 0. 0. 0. 0. 0. 5.72598316e-02 0. 0. 0. 0. 0. 0. 0.
      5.72598316e-02 0. 0. 0. 0. 0. 5.72598316e-02 0. 0. 0. 0. 0. 0. 0.
      0. 0. 0. 0. 0. 0. 0. 0. 0. 0. 0. 0. 0. 0. 0. 0. 0. 0. 0. 0. 0. 0.
      0. 0. 0. 0. 1.14519663e-01 0. 0. 0. 0. 0. 0. 0. 0. 0. 0. 0. 0. 0.
      5.72598316e-02 0. 0. 0. 0. 0. 0. 0. 0. 0. 5.72598316e-02 0. 0. 0.
      5.72598316e-02 0. 0. 0. 5.72598316e-02 0. 0. 0. 0. 0.
      5.72598316e-02 0. 0. 0. 0. 5.72598316e-02 0. 0. 0. 0. 0. 0.
      5.72598316e-02 0. 0. 0. 0. 0. 0. 0. 0. 0. 5.72598316e-02 0. 0.
      1.14519663e-01 1.14519663e-01 1.14519663e-01 0. 5.72598316e-02 0.
      0. 0. 0. 0. 0. 0. 0. 0. 0. 0. 0. 0. 5.72598316e-02 0. 0.
      5.72598316e-02 5.72598316e-02 0. 0. 0. 0. 0. 0. 5.72598316e-02 0.
      0. 0. 0. 0. 0. 0. 0. 0. 5.72598316e-02 5.72598316e-02 0. 0.
      5.72598316e-02 0. 0. 5.72598316e-02 1.71779498e-01 5.72598316e-02
      0. 0. 0. 0. 0. 0. 0. 0. 0. 0. 5.72598316e-02 0. 0. 0. 0.
      1.14519663e-01 1.71779498e-01 6.29858136e-01 0. 5.72598316e-02 0.
      5.72598316e-02 2.29039326e-01 5.72598316e-02 0. 0. 0. 0.
      5.72598316e-02 1.71779498e-01 5.72598316e-02 0. 0. 1.71779498e-01
      0. 1.14519663e-01 0. 0. 0. 0. 0. 1.71779498e-01 0. 5.72598316e-02
      1.14519663e-01 2.29039326e-01 5.72598316e-02 0.</_>
    <_>
      1.70388550e-01 0. 5.67961819e-02 0. 0. 0. 0. 1.70388550e-01
      2.83980906e-01 0. 0. 0. 1.13592364e-01 0. 0. 3.97573262e-01 0. 0.
      0. 0. 0. 0. 0. 0. 1.13592364e-01 0. 0. 0. 0. 0. 0. 5.67961819e-02
      1.13592364e-01 0. 0. 0. 0. 0. 5.67961819e-02 5.67961819e-02 0. 0.
      0. 0. 0. 0. 0. 0. 0. 0. 0. 0. 0. 0. 5.67961819e-02 0. 0. 0. 0. 0.
      1.70388550e-01 5.67961819e-02 0. 1.13592364e-01 0. 5.67961819e-02
      0. 0. 5.67961819e-02 0. 0. 0. 0. 5.67961819e-02 0. 0. 0. 0. 0.
      1.70388550e-01 0. 0. 0. 0. 5.67961819e-02 0. 0. 0. 5.67961819e-02
      0. 0. 0. 0. 0. 5.67961819e-02 0. 0. 0. 0. 0. 0. 0. 0. 0. 0. 0. 0.
      0. 1.70388550e-01 0. 0. 0. 0. 0. 0. 0. 0. 0. 0. 0. 1.13592364e-01
      0. 0. 0. 1.70388550e-01 0. 5.67961819e-02 5.11165619e-01
      1.70388550e-01 0. 0. 0. 0. 5.67961819e-02 0. 0. 0. 0. 0.
      5.67961819e-02 0. 0. 0. 1.70388550e-01 0. 0. 0. 0. 0. 0. 0.
      5.67961819e-02 0. 0. 0. 0. 0. 0. 0. 1.13592364e-01 0. 0. 0. 0. 0.
      5.67961819e-02 0. 0. 0. 0. 0. 0. 0. 0. 0. 0. 0. 0. 5.67961819e-02
      0. 0. 0. 0. 0. 0. 0. 5.67961819e-02 0. 0. 0. 0. 1.13592364e-01 0.
      0. 0. 0. 0. 0. 1.13592364e-01 0. 0. 5.67961819e-02 0. 0. 0.
      5.67961819e-02 0. 1.13592364e-01 0. 0. 0. 0. 0. 0. 0. 0. 0. 0.
      5.67961819e-02 0. 0. 5.67961819e-02 0. 5.67961819e-02 0. 0. 0.
      5.67961819e-02 0. 0. 0. 0. 0. 0. 0. 0. 0. 0. 0. 0. 1.70388550e-01
      0. 0. 0. 5.67961819e-02 0. 5.67961819e-02 0. 1.70388550e-01 0. 0.
      5.67961819e-02 0. 0. 5.67961819e-02 0. 1.92055330e-01 0. 0.
      6.40184432e-02 0. 0. 0. 6.40184432e-02 1.92055330e-01 0. 0. 0.
      6.40184432e-02 0. 6.40184432e-02 3.84110659e-01 0. 0. 0. 0. 0. 0.
      0. 0. 0. 0. 0. 6.40184432e-02 6.40184432e-02 0. 3.84110659e-01
      2.56073773e-01 1.28036886e-01 0. 0. 0. 0. 0. 0. 6.40184432e-02 0.
      0. 0. 0. 0. 0. 0. 0. 0. 0. 0. 0. 0. 0. 6.40184432e-02 0.
      6.40184432e-02 0. 0. 0. 0. 6.40184432e-02 3.20092201e-01
      1.28036886e-01 0. 6.40184432e-02 0. 0. 6.40184432e-02 0. 0. 0. 0.
      6.40184432e-02 0. 0. 0. 0. 0. 6.40184432e-02 0. 0. 0. 0.
      6.40184432e-02 0. 0. 0. 6.40184432e-02 0. 0. 0. 0. 0.
      6.40184432e-02 0. 0. 0. 0. 0. 0. 0. 0. 0. 0. 0. 0. 0.
      1.28036886e-01 0. 0. 0. 6.40184432e-02 0. 0. 0. 0. 0. 0.
      6.40184432e-02 1.28036886e-01 0. 0. 0. 0. 0. 0. 0. 2.56073773e-01
      6.40184432e-02 0. 6.40184432e-02 0. 6.40184432e-02 0.
      6.40184432e-02 0. 0. 0. 6.40184432e-02 0. 0. 0. 0. 0. 0. 0. 0. 0.
      0. 0. 0. 0. 0. 0. 6.40184432e-02 0. 0. 0. 1.28036886e-01 0. 0. 0.
      0. 0. 6.40184432e-02 0. 0. 0. 0. 0. 0. 0. 0. 0. 0. 0. 0.
      6.40184432e-02 0. 0. 0. 0. 0. 0. 6.40184432e-02 6.40184432e-02 0.
      0. 0. 0. 0. 0. 0. 0. 0. 0. 0. 6.40184432e-02 0. 0. 6.40184432e-02
      0. 0. 0. 6.40184432e-02 0. 1.28036886e-01 0. 6.40184432e-02 0. 0.
      0. 0. 0. 0. 0. 0. 6.40184432e-02 0. 0. 6.40184432e-02 0.
      6.40184432e-02 1.92055330e-01 6.40184432e-02 0. 1.28036886e-01 0.
      0. 0. 6.40184432e-02 0. 0. 0. 0. 0. 0. 0. 1.28036886e-01
      6.40184432e-02 6.40184432e-02 0. 6.40184432e-02 6.40184432e-02 0.
      0. 1.28036886e-01 1.92055330e-01 0. 0. 6.40184432e-02 0. 0. 0. 0.
      1.44170806e-01 0. 4.80569340e-02 0. 0. 0. 0. 0. 1.44170806e-01 0.
      0. 0. 0. 0. 4.80569340e-02 1.44170806e-01 0. 0. 0. 0. 0. 0. 0. 0.
      4.80569340e-02 0. 0. 0. 0. 0. 0. 0. 1.44170806e-01 0. 0. 0. 0. 0.
      0. 4.80569340e-02 0. 0. 0. 0. 0. 0. 0. 0. 0. 0. 0. 0. 0. 0.
      4.80569340e-02 0. 4.80569340e-02 0. 0. 0. 0. 4.80569340e-02 0. 0.
      0. 4.80569340e-02 0. 0. 4.80569340e-02 0. 0. 0. 4.80569340e-02
      4.80569340e-02 0. 0. 0. 0. 0. 4.80569340e-02 0. 0. 0. 0.
      4.80569340e-02 0. 0. 0. 4.80569340e-02 0. 0. 0. 0. 0.
      4.80569340e-02 0. 0. 0. 0. 0. 0. 0. 0. 0. 0. 0. 0. 0.
      9.61138681e-02 0. 0. 0. 0. 0. 0. 0. 0. 0. 0. 4.80569340e-02
      1.92227736e-01 0. 0. 0. 4.80569340e-02 0. 0. 0. 4.80569340e-02 0.
      0. 4.80569340e-02 0. 4.80569340e-02 0. 0. 0. 0. 0. 4.80569340e-02
      0. 0. 0. 0. 0. 0. 0. 0. 0. 0. 0. 0. 0. 0. 0. 0. 0. 0. 0.
      4.80569340e-02 0. 0. 0. 0. 0. 4.80569340e-02 0. 0. 0. 0. 0. 0. 0.
      0. 0. 0. 0. 0. 4.80569340e-02 0. 0. 0. 0. 0. 0. 0. 4.80569340e-02
      0. 0. 0. 0. 0. 4.80569340e-02 1.44170806e-01 0. 0. 0. 0.
      4.80569340e-02 0. 0. 4.80569340e-02 0. 0. 0. 4.80569340e-02 0.
      4.80569340e-02 0. 0. 0. 0. 0. 0. 0. 0. 0. 4.80569340e-02
      4.80569340e-02 0. 0. 4.80569340e-02 0. 0. 1.44170806e-01
      7.68910944e-01 0. 2.40284666e-01 0. 0. 0. 0. 0. 0. 0. 0. 0. 0.
      4.80569340e-02 0. 9.61138681e-02 2.40284666e-01 0. 9.61138681e-02
      0. 0. 0. 4.80569340e-02 9.61138681e-02 9.61138681e-02 0.
      4.80569340e-02 4.80569340e-02 0. 0. 0. 1.28388152e-01 0. 0. 0. 0.
      0. 8.55920985e-02 4.27960493e-02 8.55920985e-02 0. 0. 0.
      4.27960493e-02 0. 0. 2.99572349e-01 0. 0. 4.27960493e-02 0. 0. 0.
      0. 0. 0. 0. 0. 0. 0. 0. 4.27960493e-02 0. 8.55920985e-02 0. 0. 0.
      0. 0. 0. 4.27960493e-02 0. 0. 0. 0. 4.27960493e-02 0. 0. 0. 0. 0.
      0. 0. 0. 0. 4.27960493e-02 0. 1.28388152e-01 0. 0. 0. 0.
      4.27960493e-02 0. 4.27960493e-02 0. 4.27960493e-02 0. 0.
      4.27960493e-02 0. 0. 0. 0. 4.27960493e-02 0. 0. 0. 0. 0.
      4.27960493e-02 0. 0. 0. 0. 4.27960493e-02 0. 0. 0. 4.27960493e-02
      0. 0. 0. 0. 0. 4.27960493e-02 0. 0. 0. 0. 0. 0. 0. 0. 0.
      4.27960493e-02 0. 0. 0. 8.55920985e-02 0. 0. 0. 0. 0. 0. 0. 0. 0.
      0. 0. 7.70328879e-01 4.27960493e-02 0. 0. 0. 0. 8.55920985e-02
      2.99572349e-01 1.28388152e-01 0. 0. 0. 4.27960493e-02
      4.27960493e-02 0. 2.13980243e-01 0. 0. 0. 4.27960493e-02 0. 0. 0.
      0. 0. 0. 0. 0. 0. 0. 0. 4.27960493e-02 4.27960493e-02 0. 0. 0. 0.
      0. 0. 8.55920985e-02 0. 0. 0. 0. 0. 4.27960493e-02 0. 0. 0. 0. 0.
      0. 0. 0. 0. 0. 0. 0. 4.27960493e-02 0. 0. 0. 0. 0. 0.
      4.27960493e-02 4.27960493e-02 0. 0. 0. 0. 4.27960493e-02 0. 0. 0.
      0. 0. 0. 4.27960493e-02 0. 0. 4.27960493e-02 0. 0. 0.
      4.27960493e-02 0. 4.27960493e-02 0. 0. 0. 0. 0. 0. 0. 0. 0. 0.
      4.27960493e-02 0. 0. 4.27960493e-02 0. 0. 0. 0. 0. 4.27960493e-02
      0. 0. 0. 0. 0. 0. 0. 0. 0. 0. 0. 0. 4.27960493e-02 0. 0. 0.
      4.27960493e-02 0. 0. 0. 1.28388152e-01 0. 0. 4.27960493e-02 0. 0.
      4.27960493e-02 0. 1.08465232e-01 0. 0. 0. 0. 0. 0. 5.42326160e-02
      1.62697852e-01 0. 0. 0. 5.42326160e-02 0. 5.42326160e-02
      5.42326160e-02 0. 0. 0. 0. 0. 0. 0. 0. 0. 0. 0. 0. 0. 0. 0. 0.
      1.08465232e-01 0. 0. 0. 0. 0. 0. 5.42326160e-02 0. 0. 0. 0. 0. 0.
      0. 0. 0. 0. 0. 0. 0. 0. 5.42326160e-02 0. 1.08465232e-01 0. 0. 0.
      0. 5.42326160e-02 0. 5.42326160e-02 5.42326160e-02 5.42326160e-02
      0. 0. 5.42326160e-02 0. 0. 0. 5.42326160e-02 5.42326160e-02 0. 0.
      0. 0. 0. 5.42326160e-02 0. 0. 0. 0. 5.42326160e-02 0. 0. 0.
      5.42326160e-02 0. 0. 0. 0. 0. 5.42326160e-02 0. 0. 0. 0. 0. 0. 0.
      0. 0. 5.42326160e-02 0. 0. 0. 1.08465232e-01 0. 0. 0. 0. 0. 0. 0.
      0. 0. 5.42326160e-02 0. 5.96558750e-01 1.08465232e-01 0. 0.
      1.62697852e-01 0. 0. 2.16930464e-01 3.25395703e-01 0. 0.
      5.42326160e-02 0. 5.42326160e-02 0. 2.71163076e-01 0. 0. 0.
      5.42326160e-02 0. 0. 0. 0. 0. 0. 0. 0. 0. 0. 0. 5.42326160e-02 0.
      0. 0. 0. 0. 0. 0. 1.08465232e-01 0. 0. 0. 0. 0. 5.42326160e-02 0.
      0. 0. 0. 0. 0. 0. 0. 0. 0. 0. 0. 5.42326160e-02 0. 0. 0. 0.
      5.42326160e-02 0. 0. 5.42326160e-02 0. 0. 0. 0. 5.42326160e-02
      5.42326160e-02 0. 0. 0. 0. 0. 5.42326160e-02 0. 0. 5.42326160e-02
      0. 0. 0. 5.42326160e-02 0. 5.42326160e-02 0. 0. 0. 0. 0. 0. 0. 0.
      0. 0. 5.42326160e-02 0. 0. 5.42326160e-02 0. 0. 1.62697852e-01 0.
      0. 5.42326160e-02 0. 0. 0. 0. 5.42326160e-02 0. 0. 0. 0. 0. 0. 0.
      5.42326160e-02 0. 0. 0. 0. 0. 0. 2.16930464e-01 3.25395703e-01 0.
      0. 5.42326160e-02 0. 0. 0. 0. 2.41121411e-01 0. 0. 0. 0. 0. 0.
      4.82242815e-02 9.64485630e-02 0. 0. 0. 0. 0. 4.82242815e-02
      4.82242815e-02 0. 0. 0. 0. 0. 0. 0. 0. 0. 0. 0. 0. 9.64485630e-02
      0. 0. 0. 9.64485630e-02 0. 0. 0. 0. 0. 0. 4.82242815e-02 0. 0. 0.
      0. 0. 0. 0. 0. 4.82242815e-02 0. 0. 0. 0. 0. 9.64485630e-02 0. 0.
      4.82242815e-02 0. 0. 0. 4.82242815e-02 0. 0. 0. 4.82242815e-02 0.
      0. 4.82242815e-02 0. 0. 0. 0. 4.82242815e-02 0. 0. 0. 0. 0.
      9.64485630e-02 0. 0. 0. 0. 4.82242815e-02 0. 0. 0. 4.82242815e-02
      0. 0. 0. 0. 0. 4.82242815e-02 0. 4.82242815e-02 0. 0. 0. 0. 0. 0.
      0. 0. 0. 0. 0. 9.64485630e-02 0. 0. 0. 0. 0. 0. 0. 0. 0. 0. 0.
      1.44672841e-01 0. 0. 0. 9.64485630e-02 0. 4.82242815e-02
      4.82242815e-02 1.92897126e-01 0. 0. 4.82242815e-02 0.
      4.82242815e-02 0. 0. 0. 0. 0. 4.82242815e-02 0. 0. 0.
      4.82242815e-02 0. 0. 0. 0. 0. 0. 0. 0. 0. 0. 0. 4.82242815e-02 0.
      0. 0. 4.82242815e-02 0. 0. 0. 0. 0. 4.82242815e-02 0. 0. 0. 0. 0.
      0. 0. 0. 0. 0. 0. 0. 4.82242815e-02 0. 0. 0. 0. 0. 0. 0.
      4.82242815e-02 0. 0. 0. 0. 0. 9.64485630e-02 4.82242815e-02 0. 0.
      0. 0. 4.82242815e-02 0. 0. 4.82242815e-02 0. 0. 0. 4.82242815e-02
      0. 9.64485630e-02 0. 0. 0. 0. 0. 0. 0. 0. 0. 0. 4.82242815e-02 0.
      0. 4.82242815e-02 0. 0. 9.64485630e-02 7.71588504e-01 0.
      1.92897126e-01 0. 0. 0. 4.82242815e-02 0. 0. 0. 0. 0. 0. 0.
      4.82242815e-02 9.64485630e-02 1.92897126e-01 0. 4.82242815e-02 0.
      0. 0. 1.44672841e-01 4.82242815e-02 0. 0. 9.64485630e-02 0. 0. 0.
      0. 1.33929908e-01 0. 6.69649541e-02 0. 0. 0. 0. 0. 6.69649541e-02
      0. 0. 0. 6.69649541e-02 0. 6.69649541e-02 6.69649541e-02 0. 0. 0.
      0. 0. 0. 0. 0. 0. 0. 0. 0. 6.69649541e-02 0. 1.33929908e-01
      6.69649541e-02 2.00894862e-01 0. 0. 0. 0. 0. 0. 6.69649541e-02 0.
      0. 0. 0. 0. 0. 0. 0. 0. 0. 0. 0. 0. 0. 6.69649541e-02 0.
      2.00894862e-01 0. 0. 0. 6.69649541e-02 6.69649541e-02
      2.00894862e-01 6.69649541e-02 0. 6.69649541e-02 0. 0.
      6.69649541e-02 0. 0. 0. 0. 6.69649541e-02 0. 0. 0. 0. 0.
      6.69649541e-02 0. 0. 0. 0. 6.69649541e-02 0. 0. 0. 6.69649541e-02
      0. 0. 0. 0. 0. 6.69649541e-02 0. 0. 0. 0. 0. 0. 0. 0. 0. 0. 0. 0.
      0. 1.33929908e-01 0. 1.33929908e-01 0. 0. 0. 0. 0. 0. 0. 0. 0.
      4.68754679e-01 0. 0. 0. 2.00894862e-01 0. 2.67859817e-01 0.
      6.69649541e-02 0. 0. 0. 0. 6.69649541e-02 0. 0. 0. 0. 0.
      6.69649541e-02 0. 0. 6.69649541e-02 2.00894862e-01 0. 0. 0. 0. 0.
      0. 0. 0. 0. 0. 0. 0. 0. 0. 0. 6.69649541e-02 0. 0. 0. 0. 0.
      6.69649541e-02 0. 0. 0. 0. 0. 0. 0. 0. 0. 0. 0. 0. 6.69649541e-02
      0. 0. 0. 0. 0. 0. 0. 6.69649541e-02 0. 0. 0. 0. 6.69649541e-02 0.
      0. 0. 0. 0. 0. 6.69649541e-02 6.69649541e-02 0. 6.69649541e-02 0.
      0. 0. 6.69649541e-02 0. 6.69649541e-02 0. 0. 0. 0. 0. 0. 0. 0. 0.
      0. 6.69649541e-02 0. 0. 6.69649541e-02 0. 6.69649541e-02 0. 0. 0.
      6.69649541e-02 0. 0. 6.69649541e-02 6.69649541e-02 0. 0. 0. 0. 0.
      0. 0. 0. 2.67859817e-01 6.69649541e-02 0. 6.69649541e-02 0. 0.
      6.69649541e-02 0. 3.34824771e-01 6.69649541e-02 0. 2.00894862e-01
      1.33929908e-01 0. 0. 0. 1.87134862e-01 0. 0. 0. 0. 0. 0. 0.
      6.23782873e-02 0. 0. 0. 0. 0. 0. 6.23782873e-02 0. 0. 0. 0. 0. 0.
      0. 0. 0. 0. 0. 0. 0. 0. 0. 0. 1.24756575e-01 0. 0. 0. 0. 0. 0.
      6.23782873e-02 0. 0. 0. 0. 0. 0. 0. 0. 0. 0. 0. 0. 0. 0.
      6.23782873e-02 0. 0. 0. 0. 0. 0. 6.23782873e-02 0. 0. 0.
      6.23782873e-02 0. 0. 6.23782873e-02 0. 0. 0. 0. 6.23782873e-02 0.
      0. 0. 0. 0. 6.23782873e-02 0. 0. 0. 0. 6.23782873e-02 0. 0. 0.
      6.23782873e-02 0. 0. 0. 0. 0. 6.23782873e-02 0. 0. 0. 0. 0. 0. 0.
      0. 0. 0. 0. 0. 0. 1.24756575e-01 0. 0. 0. 0. 0. 0. 0. 0. 0. 0. 0.
      1.87134862e-01 0. 0. 0. 0. 0. 0. 6.23782873e-02 6.23782873e-02
      6.23782873e-02 0. 0. 0. 6.23782873e-02 0. 0. 0. 0. 0.
      1.24756575e-01 0. 0. 0. 1.87134862e-01 0. 0. 0. 0. 0. 0. 0. 0. 0.
      0. 0. 0. 0. 0. 0. 6.23782873e-02 0. 0. 0. 0. 0. 6.23782873e-02 0.
      0. 0. 0. 0. 0. 0. 0. 0. 0. 0. 0. 6.23782873e-02 0. 0. 0. 0. 0. 0.
      0. 6.23782873e-02 0. 0. 0. 0. 0. 0. 0. 0. 0. 0. 0. 6.23782873e-02
      0. 0. 6.23782873e-02 0. 0. 0. 6.23782873e-02 0. 1.24756575e-01 0.
      0. 0. 0. 0. 0. 0. 0. 0. 0. 6.23782873e-02 0. 0. 6.23782873e-02 0.
      0. 1.24756575e-01 0. 0. 1.87134862e-01 0. 0. 0. 6.23782873e-02 0.
      0. 0. 0. 0. 0. 0. 1.24756575e-01 4.36648011e-01 1.87134862e-01 0.
      1.24756575e-01 0. 0. 0. 6.23782873e-02 5.61404586e-01
      1.87134862e-01 0. 2.49513149e-01 0. 6.23782873e-02 6.23782873e-02
      0. 2.82842726e-01 7.07106814e-02 7.07106814e-02 0. 0. 0. 0. 0.
      1.41421363e-01 0. 0. 0. 7.07106814e-02 0. 2.12132037e-01
      1.41421363e-01 7.07106814e-02 0. 0. 0. 0. 0. 0. 0. 0. 0. 0. 0.
      1.41421363e-01 0. 1.41421363e-01 1.41421363e-01 1.41421363e-01 0.
      0. 0. 0. 0. 0. 7.07106814e-02 0. 0. 0. 0. 0. 0. 0. 0. 0. 0. 0. 0.
      0. 0. 7.07106814e-02 0. 2.12132037e-01 7.07106814e-02 0. 0.
      7.07106814e-02 7.07106814e-02 1.41421363e-01 2.12132037e-01 0.
      7.07106814e-02 0. 0. 7.07106814e-02 0. 0. 0. 0. 7.07106814e-02 0.
      0. 0. 0. 7.07106814e-02 7.07106814e-02 0. 0. 0. 0. 7.07106814e-02
      0. 0. 0. 7.07106814e-02 0. 0. 0. 0. 0. 7.07106814e-02 0.
      1.41421363e-01 0. 0. 0. 0. 0. 0. 0. 0. 0. 0. 0. 1.41421363e-01 0.
      0. 0. 0. 0. 0. 0. 0. 0. 0. 0. 2.12132037e-01 0. 0. 0. 0. 0.
      7.07106814e-02 0. 1.41421363e-01 0. 0. 1.41421363e-01 0.
      7.07106814e-02 0. 2.12132037e-01 0. 0. 0. 7.07106814e-02 0. 0. 0.
      7.07106814e-02 0. 0. 0. 0. 0. 0. 0. 0. 0. 0. 0. 0. 0. 0. 0.
      7.07106814e-02 7.07106814e-02 0. 0. 0. 0. 7.07106814e-02 0. 0. 0.
      0. 0. 0. 0. 0. 0. 0. 0. 1.41421363e-01 7.07106814e-02 0. 0. 0. 0.
      0. 0. 0. 7.07106814e-02 0. 0. 0. 0. 7.07106814e-02 0. 0. 0. 0. 0.
      0. 1.41421363e-01 1.41421363e-01 0. 7.07106814e-02 0. 0. 0.
      7.07106814e-02 7.07106814e-02 2.12132037e-01 0. 0. 0. 0. 0. 0. 0.
      0. 0. 0. 7.07106814e-02 0. 0. 7.07106814e-02 0. 7.07106814e-02 0.
      3.53553414e-01 0. 1.41421363e-01 0. 0. 0. 1.41421363e-01 0. 0. 0.
      0. 0. 0. 0. 7.07106814e-02 0. 7.07106814e-02 0. 0. 0. 0. 0. 0.
      7.07106814e-02 0. 0. 7.07106814e-02 0. 1.41421363e-01 0. 0.</_>
    <_>
      8.69196832e-01 0. 0. 0. 0. 0. 0. 0. 0. 0. 0. 0. 0. 0.
      5.60772158e-02 5.60772158e-02 0. 0. 0. 0. 0. 2.80386079e-02 0.
      2.80386079e-02 0. 0. 0. 0. 0. 2.80386079e-02 0. 2.80386079e-02 0.
      0. 0. 0. 0. 2.80386079e-02 0. 0. 2.80386079e-02 0. 0. 0. 0. 0. 0.
      0. 0. 0. 0. 0. 0. 0. 0. 0. 0. 0. 0. 0. 5.60772158e-02 0. 0. 0. 0.
      0. 0. 0. 0. 0. 0. 0. 0. 0. 0. 0. 0. 0. 0. 0. 0. 0. 0. 0. 0. 0. 0.
      0. 0. 0. 0. 0. 0. 0. 0. 0. 0. 0. 0. 0. 0. 0. 0. 0. 0. 0. 0. 0. 0.
      0. 0. 0. 0. 0. 0. 0. 0. 0. 0. 0. 0. 0. 0. 0. 0. 0. 0.
      5.60772158e-02 0. 0. 0. 2.80386079e-02 0. 0. 0. 1.12154432e-01 0.
      0. 0. 0. 0. 0. 0. 3.08424681e-01 0. 0. 0. 0. 0. 0. 0. 0. 0. 0. 0.
      0. 0. 0. 0. 0. 0. 0. 0. 0. 0. 0. 0. 0. 0. 0. 0. 0. 0. 0. 0. 0. 0.
      0. 0. 0. 0. 0. 0. 0. 0. 0. 0. 0. 0. 0. 0. 2.80386079e-02
      5.60772158e-02 0. 0. 2.80386079e-02 0. 0. 0. 3.08424681e-01 0. 0.
      0. 0. 0. 0. 0. 5.60772158e-02 0. 0. 0. 0. 0. 0. 0. 0. 0. 0. 0. 0.
      0. 0. 2.80386079e-02 0. 2.80386079e-02 0. 0. 5.60772158e-02 0. 0.
      0. 8.41158256e-02 0. 2.80386079e-02 0. 0. 2.80386079e-02 0. 0. 0.
      0. 0. 0. 0. 0. 0. 0. 2.80386079e-02 2.80386079e-02 2.80386079e-02
      0. 0. 0. 0. 0. 0. 8.52601290e-01 0. 2.75032669e-02 0. 0. 0. 0. 0.
      0. 0. 0. 0. 0. 0. 0. 5.50065339e-02 0. 0. 0. 0. 0. 2.75032669e-02
      0. 2.75032669e-02 0. 0. 0. 0. 0. 2.75032669e-02 0. 0. 0. 0. 0. 0.
      0. 2.75032669e-02 0. 0. 2.75032669e-02 0. 0. 0. 0. 0. 0. 0. 0. 0.
      0. 0. 0. 0. 0. 0. 0. 0. 0. 0. 0. 0. 0. 0. 0. 0. 0. 0. 0. 0. 0. 0.
      0. 0. 0. 0. 0. 0. 0. 0. 0. 0. 0. 0. 0. 0. 0. 0. 0. 0. 0. 0. 0. 0.
      0. 0. 0. 0. 0. 0. 0. 0. 0. 0. 0. 0. 0. 0. 0. 0. 0. 0. 0. 0. 0. 0.
      0. 0. 0. 0. 0. 0. 0. 0. 0. 0. 0. 0. 0. 2.75032669e-02 0.
      1.37516335e-01 0. 0. 0. 2.75032669e-01 0. 0. 0. 2.75032669e-02 0.
      0. 0. 3.30039203e-01 0. 0. 0. 0. 0. 0. 0. 0. 0. 2.75032669e-02 0.
      0. 0. 0. 0. 2.75032669e-02 0. 0. 0. 0. 0. 0. 0. 0. 0. 0. 0. 0. 0.
      0. 0. 0. 0. 0. 0. 0. 0. 0. 0. 0. 0. 0. 0. 0. 0. 0. 0. 0. 0. 0. 0.
      1.37516335e-01 0. 0. 0. 8.25098008e-02 0. 0. 0. 2.75032669e-02 0.
      0. 0. 2.75032669e-02 0. 0. 0. 0. 0. 0. 0. 0. 0. 0. 0. 0. 0. 0. 0.
      0. 0. 1.37516335e-01 0. 5.50065339e-02 0. 0. 0. 5.50065339e-02 0.
      0. 0. 0. 0. 0. 0. 0. 0. 8.25098008e-02 0. 0. 0. 0. 0. 0. 0. 0. 0.
      0. 0. 0. 0. 0. 8.89943838e-01 0. 0. 0. 0. 0. 0. 0. 0. 0. 0. 0.
      5.39359897e-02 0. 5.39359897e-02 1.07871979e-01 0. 0. 0. 0. 0.
      2.69679949e-02 0. 2.69679949e-02 0. 0. 0. 0. 2.69679949e-02
      2.69679949e-02 0. 0. 0. 0. 0. 0. 0. 2.69679949e-02 0. 0.
      2.69679949e-02 0. 0. 0. 0. 0. 0. 0. 0. 0. 0. 0. 0. 0. 0. 0.
      2.69679949e-02 0. 0. 0. 5.39359897e-02 0. 0. 0. 0. 0. 0. 0. 0. 0.
      0. 0. 0. 0. 0. 0. 0. 0. 0. 0. 0. 0. 0. 0. 0. 0. 0. 0. 0. 0. 0. 0.
      0. 0. 0. 0. 0. 0. 0. 0. 0. 0. 0. 0. 0. 0. 0. 0. 0. 0.
      2.69679949e-02 0. 0. 0. 0. 0. 0. 0. 0. 0. 2.96647936e-01 0. 0. 0.
      1.34839982e-01 0. 0. 0. 0. 0. 0. 5.39359897e-02 0. 0. 0.
      2.15743959e-01 0. 0. 0. 0. 0. 0. 0. 8.09039846e-02 0. 0. 0. 0. 0.
      0. 0. 0. 0. 0. 0. 0. 0. 0. 0. 0. 0. 0. 0. 0. 0. 0. 0. 0. 0. 0. 0.
      0. 0. 0. 0. 0. 0. 0. 0. 0. 0. 0. 0. 0. 0. 0. 0. 0. 0. 0. 0. 0.
      2.69679949e-02 0. 0. 0. 0. 0. 0. 8.09039846e-02 0. 0. 0. 0. 0. 0.
      0. 0. 0. 0. 0. 0. 0. 0. 0. 0. 0. 0. 0. 0. 0. 0. 0. 0. 0. 0. 0. 0.
      0. 0. 0. 5.39359897e-02 2.69679949e-02 0. 0. 0. 0. 0. 0.
      2.69679949e-02 2.69679949e-02 2.69679949e-02 0. 2.69679949e-02 0.
      0. 0. 5.39359897e-02 5.39359897e-02 0. 0. 0. 0. 0. 0. 0.
      8.66138101e-01 0. 0. 0. 0. 0. 0. 0. 1.11759752e-01 0. 0. 0. 0. 0.
      5.58798760e-02 2.79399380e-02 0. 0. 0. 0. 0. 2.79399380e-02 0.
      2.79399380e-02 2.79399380e-02 0. 0. 0. 0. 2.79399380e-02 0.
      2.79399380e-02 0. 0. 0. 0. 0. 2.79399380e-02 0. 0. 2.79399380e-02
      0. 0. 0. 0. 0. 0. 0. 0. 0. 0. 0. 0. 0. 0. 0. 0. 0. 0. 0. 0. 0. 0.
      0. 0. 0. 0. 0. 0. 0. 0. 0. 0. 0. 0. 0. 0. 0. 0. 0. 0. 0. 0. 0. 0.
      0. 0. 0. 0. 0. 0. 0. 0. 0. 0. 0. 0. 0. 0. 0. 0. 0. 0. 0. 0. 0. 0.
      0. 0. 0. 0. 0. 0. 0. 0. 0. 0. 0. 0. 0. 1.11759752e-01 0. 0. 0. 0.
      0. 0. 8.38198140e-02 2.79399380e-02 0. 0. 5.58798760e-02 0. 0. 0.
      5.58798760e-02 0. 0. 0. 0. 0. 0. 0. 2.79399380e-02 0. 0. 0. 0. 0.
      0. 0. 0. 0. 0. 0. 0. 0. 0. 0. 0. 0. 0. 0. 0. 0. 0. 0. 0. 0. 0. 0.
      0. 0. 0. 0. 0. 0. 0. 0. 0. 0. 0. 0. 0. 0. 0. 0. 0. 0. 0. 0. 0. 0.
      0. 0. 0. 0. 0. 0. 0. 0. 0. 0. 0. 0. 0. 0. 8.38198140e-02 0. 0. 0.
      0. 0. 0. 0. 0. 0. 0. 0. 0. 0. 0. 0. 5.58798760e-02 2.79399380e-02
      0. 0. 0. 0. 0. 0. 0. 0. 0. 0. 0. 0. 0. 0. 2.79399380e-02
      8.38198140e-02 2.79399380e-02 0. 0. 0. 0. 0. 2.79399380e-02
      4.19099063e-01 5.58798760e-02 0. 2.79399380e-02 0. 2.79399380e-02
      0. 0. 8.58465612e-01 0. 0. 0. 0. 0. 0. 0. 8.30773190e-02 0. 0. 0.
      0. 0. 0. 0. 0. 0. 0. 0. 0. 2.76924390e-02 0. 2.76924390e-02 0. 0.
      0. 0. 0. 2.76924390e-02 0. 0. 0. 0. 0. 0. 0. 2.76924390e-02 0. 0.
      2.76924390e-02 0. 0. 0. 0. 0. 0. 0. 0. 0. 0. 0. 0. 0. 0. 0. 0. 0.
      0. 0. 0. 0. 0. 0. 0. 0. 0. 0. 0. 0. 0. 0. 0. 0. 0. 0. 0. 0. 0. 0.
      0. 0. 0. 0. 0. 0. 0. 0. 0. 0. 0. 0. 0. 0. 0. 0. 0. 0. 0. 0. 0. 0.
      0. 0. 0. 0. 0. 0. 0. 0. 0. 0. 2.76924390e-02 0. 0. 0. 0. 0. 0.
      2.76924390e-02 1.38462201e-01 0. 0. 0. 0. 0. 0. 0. 5.53848781e-02
      0. 0. 0. 0. 0. 0. 2.76924390e-02 5.53848781e-02 0. 0. 0. 0. 0. 0.
      0. 2.76924390e-02 0. 0. 0. 0. 0. 0. 0. 0. 0. 0. 0. 0. 0. 0. 0. 0.
      0. 0. 0. 0. 0. 0. 0. 0. 0. 0. 0. 0. 0. 0. 0. 0. 0. 0. 0. 0. 0. 0.
      0. 0. 0. 0. 0. 0. 0. 0. 0. 2.76924390e-02 0. 0. 2.76924390e-02 0.
      0. 0. 2.76924390e-02 2.76924390e-02 0. 0. 0. 0. 0. 0. 0. 0. 0. 0.
      0. 0. 0. 0. 0. 0. 0. 0. 0. 0. 0. 0. 0. 5.53848781e-02
      5.53848781e-02 0. 1.10769756e-01 0. 0. 0. 1.10769756e-01 0. 0. 0.
      0. 0. 0. 0. 0. 1.10769756e-01 1.38462201e-01 0. 1.66154638e-01 0.
      0. 0. 0. 3.60001713e-01 2.76924390e-02 0. 2.76924390e-02 0. 0. 0.
      0. 7.89440691e-01 0. 0. 0. 0. 0. 0. 2.54658293e-02 0. 0. 0. 0. 0.
      0. 0. 2.54658293e-02 0. 0. 0. 0. 0. 2.54658293e-02 0.
      2.54658293e-02 5.09316586e-02 0. 0. 0. 0. 2.54658293e-02 0. 0. 0.
      0. 0. 0. 0. 2.54658293e-02 0. 0. 2.54658293e-02 0. 0. 0. 0. 0. 0.
      0. 0. 0. 0. 0. 0. 0. 0. 0. 2.54658293e-02 0. 0. 0. 0. 0. 0. 0. 0.
      0. 0. 0. 0. 0. 0. 0. 0. 0. 0. 0. 0. 0. 0. 0. 0. 0. 0. 0. 0. 0. 0.
      0. 0. 0. 0. 0. 0. 0. 0. 0. 0. 0. 0. 0. 0. 0. 0. 0. 0. 0. 0. 0. 0.
      0. 0. 0. 0. 0. 0. 0. 0. 0. 0. 0. 7.63974860e-02 0. 0. 0. 0. 0. 0.
      0. 0. 0. 0. 0. 0. 0. 0. 1.52794972e-01 0. 0. 0. 0. 0. 0. 0.
      2.54658293e-02 0. 0. 0. 0. 0. 0. 0. 0. 0. 0. 0. 0. 0. 0. 0. 0. 0.
      0. 0. 0. 0. 0. 0. 0. 0. 0. 0. 0. 0. 0. 0. 0. 0. 0. 0. 0. 0. 0. 0.
      0. 0. 0. 0. 0. 0. 0. 0. 0. 0. 0. 0. 0. 0. 0. 0. 1.27329141e-01
      2.54658293e-02 0. 0. 0. 0. 0. 0. 2.54658293e-02 0. 0. 0. 0. 0. 0.
      0. 0. 0. 0. 0. 0. 0. 0. 0. 0. 5.09316586e-02 0. 0. 0. 0. 0. 0.
      7.63974860e-02 2.54658293e-02 0. 0. 0. 0. 0. 0. 0. 4.58384931e-01
      0. 0. 1.52794972e-01 0. 0. 0. 2.54658293e-02 2.80124128e-01 0. 0.
      0. 0. 0. 0. 0. 7.96181500e-01 0. 0. 0. 0. 0. 0. 0. 2.56832745e-02
      0. 0. 0. 0. 0. 2.56832745e-02 0. 0. 0. 0. 0. 0. 2.56832745e-02 0.
      2.56832745e-02 2.56832745e-02 0. 0. 0. 7.70498216e-02
      2.56832745e-02 1.28416374e-01 0. 0. 0. 0. 0. 0. 2.56832745e-02 0.
      0. 2.56832745e-02 0. 0. 0. 0. 0. 0. 0. 0. 0. 0. 0. 0. 0. 0. 0.
      5.13665490e-02 0. 0. 0. 1.79782927e-01 0. 5.13665497e-01
      7.70498216e-02 0. 0. 0. 0. 0. 0. 0. 0. 0. 0. 0. 0. 0. 0. 0. 0. 0.
      0. 0. 0. 0. 0. 0. 0. 0. 0. 0. 0. 0. 0. 0. 0. 0. 0. 0. 0. 0. 0. 0.
      0. 0. 0. 0. 0. 0. 0. 0. 0. 2.56832745e-02 0. 0. 0. 0. 0. 0. 0.
      1.54099643e-01 0. 0. 0. 2.56832745e-02 0. 2.56832745e-02 0. 0. 0.
      0. 0. 0. 0. 0. 0. 0. 0. 0. 0. 0. 0. 0. 2.56832745e-02 0. 0. 0. 0.
      0. 0. 0. 0. 0. 0. 0. 0. 0. 0. 0. 0. 0. 0. 0. 0. 0. 0. 0. 0. 0. 0.
      0. 0. 0. 0. 0. 0. 0. 0. 0. 0. 0. 0. 0. 0. 0. 0. 0. 0. 0. 0. 0.
      2.56832745e-02 0. 0. 0. 0. 0. 0. 0. 0. 0. 0. 0. 0. 0. 0. 0. 0. 0.
      0. 0. 0. 0. 0. 0. 0. 0. 0. 0. 0. 0. 0. 0. 0. 0. 0. 0. 0. 0. 0. 0.
      0. 0. 0. 0. 0. 0. 0. 0. 0. 0. 0. 0. 0. 0. 0. 0. 0. 7.70498216e-02
      2.56832745e-02 0. 0. 0. 0. 0. 0. 8.88203800e-01 0. 0. 0. 0. 0. 0.
      0. 2.77563687e-02 0. 0. 0. 0. 0. 0. 2.77563687e-02 0. 0. 0.
      2.77563687e-02 0. 2.77563687e-02 0. 2.77563687e-02 2.77563687e-02
      0. 0. 0. 0. 2.77563687e-02 5.55127375e-02 2.77563687e-02 0. 0. 0.
      0. 0. 2.77563687e-02 0. 0. 2.77563687e-02 0. 0. 0. 0. 0. 0. 0. 0.
      2.77563687e-02 0. 0. 0. 0. 0. 0. 0. 0. 2.77563687e-02 0.
      2.77563687e-02 0. 0. 0. 0. 0. 0. 0. 0. 0. 0. 0. 0. 0. 0. 0. 0. 0.
      0. 0. 0. 0. 0. 0. 0. 0. 0. 0. 0. 0. 0. 0. 0. 0. 0. 0. 0. 0. 0. 0.
      0. 0. 0. 0. 0. 0. 0. 0. 0. 0. 0. 0. 0. 0. 0. 0. 0. 0. 0. 0.
      5.55127375e-02 0. 0. 0. 1.38781846e-01 0. 5.55127375e-02
      5.55127375e-02 0. 0. 0. 0. 0. 0. 0. 0. 0. 0. 0. 0. 0. 0. 0. 0. 0.
      0. 0. 0. 0. 0. 0. 0. 2.77563687e-02 0. 0. 0. 0. 0. 0.
      2.77563687e-02 2.77563687e-02 0. 0. 0. 0. 0. 0. 0. 0. 0. 0. 0. 0.
      0. 0. 0. 0. 0. 0. 0. 0. 0. 0. 0. 0. 0. 0. 0. 0. 0. 0.
      5.55127375e-02 0. 0. 0. 0. 0. 0. 0. 0. 0. 0. 0. 0. 0. 0. 0. 0. 0.
      0. 0. 0. 0. 0. 0. 0. 0. 0. 0. 0. 0. 0. 0. 0. 2.77563687e-02 0. 0.
      0. 0. 0. 0. 0. 0. 0. 0. 0. 0. 0. 2.77563687e-02 0. 2.77563691e-01
      1.11025475e-01 0. 2.77563687e-02 0. 0. 0. 2.77563687e-02
      2.49807313e-01 5.55127375e-02 0. 0. 5.55127375e-02 0.
      5.55127375e-02 0. 8.42465937e-01 0. 0. 0. 0. 0. 0. 0.
      5.43526411e-02 0. 0. 0. 0. 0. 0. 0. 0. 0. 0. 0. 0. 2.71763206e-02
      0. 2.71763206e-02 0. 0. 0. 0. 0. 2.71763206e-02 2.71763206e-02
      8.15289617e-02 0. 0. 0. 0. 0. 2.71763206e-02 0. 0. 2.71763206e-02
      0. 0. 0. 0. 0. 0. 0. 0. 0. 0. 0. 0. 0. 0. 0. 0. 0. 0.
      2.71763206e-02 0. 0. 1.08705282e-01 0. 0. 0. 0. 0. 0. 0. 0. 0. 0.
      0. 0. 0. 0. 0. 0. 0. 0. 0. 0. 0. 0. 0. 0. 0. 0. 0. 0. 0. 0. 0. 0.
      0. 0. 0. 0. 0. 0. 0. 0. 0. 0. 0. 0. 0. 0. 0. 0. 2.71763206e-02
      2.71763206e-02 0. 0. 0. 0. 0. 0. 0. 1.08705282e-01 0. 0. 0.
      5.43526411e-02 0. 2.71763206e-02 2.71763206e-02 0. 0. 0. 0. 0. 0.
      0. 0. 0. 0. 0. 0. 0. 0. 0. 5.43526411e-02 0. 0. 0. 0. 0. 0. 0. 0.
      0. 0. 0. 0. 0. 0. 0. 0. 0. 0. 0. 0. 0. 0. 0. 0. 0. 0. 0. 0. 0. 0.
      0. 0. 0. 0. 0. 2.71763206e-02 0. 0. 0. 0. 0. 0. 0. 0. 0. 0. 0. 0.
      0. 0. 0. 0. 0. 0. 0. 2.71763206e-02 0. 0. 0. 0. 0. 0. 0.
      2.71763206e-02 0. 0. 0. 0. 0. 0. 0. 0. 0. 0. 0. 0. 0. 0. 0. 0. 0.
      0. 0. 0. 0. 0. 0. 0. 0. 0. 0. 0. 0. 0. 0. 0. 3.80468488e-01
      1.08705282e-01 0. 2.71763206e-02 0. 0. 2.71763206e-02
      5.43526411e-02 2.71763206e-01 5.43526411e-02 0. 0. 5.43526411e-02
      0. 0. 0.</_>
    <_>
      8.35072815e-01 0. 0. 2.87956148e-02 0. 0. 2.87956148e-02
      5.75912297e-02 5.75912297e-02 0. 0. 0. 0. 0. 8.63868445e-02
      4.31934237e-01 0. 0. 0. 0. 0. 0. 0. 0. 0. 0. 0. 0. 5.75912297e-02
      0. 5.75912297e-02 8.63868445e-02 0. 0. 0. 0. 0. 0. 0. 0. 0. 0. 0.
      0. 0. 0. 0. 0. 0. 0. 0. 0. 0. 0. 0. 0. 2.87956148e-02 0. 0.
      2.87956148e-02 5.75912297e-02 0. 8.63868445e-02 5.75912297e-02 0.
      0. 0. 0. 0. 0. 0. 0. 0. 0. 0. 0. 0. 0. 0. 0. 0. 0. 0. 0. 0.
      2.87956148e-02 0. 0. 0. 0. 0. 0. 0. 0. 0. 0. 0. 0. 0. 0. 0. 0. 0.
      0. 0. 0. 0. 0. 0. 0. 0. 0. 0. 2.87956148e-02 0. 0. 0. 0.
      2.87956148e-02 0. 0. 0. 0. 0. 0. 0. 0. 0. 8.63868445e-02
      5.75912297e-02 0. 2.87956148e-02 0. 0. 0. 0. 0. 0. 0. 0. 0. 0. 0.
      2.87956148e-02 0. 2.87956148e-02 0. 0. 0. 0. 0. 0. 0. 0. 0. 0. 0.
      0. 2.87956148e-02 0. 2.87956148e-02 0. 0. 0. 0. 0. 0. 0. 0. 0. 0.
      0. 0. 0. 5.75912297e-02 0. 0. 0. 0. 0. 0. 0. 0. 0. 0. 0. 0. 0. 0.
      0. 0. 2.87956148e-02 2.87956148e-02 0. 0. 0. 0. 0. 0. 0. 0. 0. 0.
      0. 0. 0. 0. 0. 0. 0. 0. 0. 0. 0. 0. 0. 0. 0. 0. 0. 0. 0. 0. 0.
      2.87956148e-02 2.87956148e-02 0. 5.75912297e-02 0. 0. 0. 0. 0. 0.
      0. 0. 0. 0. 0. 0. 2.01569304e-01 2.87956148e-02 0. 2.87956148e-02
      0. 0. 0. 0. 0. 0. 0. 0. 2.87956148e-02 0. 0. 0. 9.03712809e-01 0.
      3.01237609e-02 3.01237609e-02 0. 0. 6.02475218e-02 3.01237609e-02
      3.01237609e-02 0. 0. 0. 3.01237609e-02 0. 9.03712809e-02 0. 0. 0.
      0. 0. 0. 0. 0. 0. 0. 0. 0. 3.01237609e-02 0. 0. 6.02475218e-02
      2.40990087e-01 3.01237609e-02 0. 0. 0. 0. 0. 0. 0. 0. 0. 0. 0. 0.
      0. 0. 0. 0. 0. 0. 0. 0. 0. 0. 0. 0. 0. 0. 0. 9.03712809e-02 0.
      1.20495044e-01 3.01237609e-02 0. 0. 0. 0. 0. 0. 0. 0. 0. 0. 0. 0.
      0. 0. 0. 0. 0. 0. 0. 0. 0. 3.01237609e-02 0. 0. 0. 0. 0. 0. 0. 0.
      0. 0. 0. 0. 0. 0. 0. 0. 0. 3.01237609e-02 0. 0. 0. 0. 0. 0. 0. 0.
      3.01237609e-02 0. 0. 0. 0. 0. 0. 0. 0. 0. 0. 0. 3.01237609e-02 0.
      3.01237609e-02 0. 0. 0. 0. 0. 0. 0. 0. 0. 0. 0. 0. 0. 0. 0. 0. 0.
      0. 0. 0. 0. 0. 0. 0. 0. 0. 0. 0. 0. 0. 0. 0. 3.01237609e-02 0. 0.
      0. 0. 0. 0. 0. 0. 0. 0. 0. 0. 0. 0. 6.02475218e-02 0.
      3.01237609e-02 0. 0. 0. 0. 0. 0. 0. 0. 0. 0. 0. 0. 0. 0. 0.
      3.01237609e-02 6.02475218e-02 0. 6.02475218e-02 0. 0. 0.
      6.02475218e-02 0. 0. 0. 0. 3.01237609e-02 0. 0. 3.01237609e-02 0.
      0. 0. 0. 0. 0. 0. 0. 0. 0. 0. 0. 0. 0. 0. 3.01237609e-02
      6.02475218e-02 1.50618806e-01 0. 1.20495044e-01 0. 0. 0.
      6.02475218e-02 3.01237609e-02 0. 0. 0. 0. 0. 0. 0. 0.
      9.03712809e-02 0. 3.01237609e-02 0. 0. 0. 0. 0. 0. 0. 0.
      3.01237609e-02 0. 0. 0. 7.88810670e-01 0. 0. 0. 0. 0.
      2.81718094e-02 2.81718094e-02 2.81718094e-02 0. 0. 0. 0. 0. 0. 0.
      0. 0. 0. 0. 0. 0. 0. 0. 0. 0. 0. 0. 0. 0. 0. 0. 0. 0. 0. 0. 0. 0.
      0. 0. 0. 0. 0. 0. 0. 0. 0. 0. 0. 0. 0. 0. 0. 0. 0. 0. 0. 0. 0. 0.
      5.63436188e-02 0. 0. 0. 2.81718094e-02 0. 0. 0. 0. 0. 0. 0. 0. 0.
      0. 0. 0. 0. 0. 0. 0. 0. 0. 0. 0. 2.81718094e-02 0. 0. 0. 0. 0. 0.
      0. 0. 0. 0. 2.81718094e-02 0. 0. 0. 0. 0. 0. 0. 0. 0. 0. 0. 0. 0.
      0. 0. 0. 0. 0. 0. 0. 0. 0. 0. 0. 0. 2.81718094e-02 0. 0. 0. 0. 0.
      0. 2.81718094e-02 0. 0. 0. 0. 0. 0. 0. 0. 0. 0. 0. 0. 0. 0. 0. 0.
      0. 0. 0. 0. 0. 0. 0. 0. 0. 0. 0. 0. 0. 0. 0. 0. 0. 0. 0. 0. 0. 0.
      0. 0. 0. 0. 0. 0. 5.63436188e-02 0. 0. 0. 0. 0. 0. 0. 0. 0. 0. 0.
      0. 0. 0. 0. 0. 0. 2.81718094e-02 1.40859053e-01 0. 1.40859053e-01
      0. 0. 0. 0. 0. 0. 0. 0. 0. 0. 0. 0. 0. 0. 0. 0. 0. 0. 0. 0. 0. 0.
      0. 0. 0. 0. 0. 0. 2.25374475e-01 3.09889913e-01 0. 2.53546298e-01
      0. 0. 0. 0. 0. 0. 0. 0. 0. 0. 0. 0. 1.12687238e-01 2.81718105e-01
      0. 1.40859053e-01 0. 0. 0. 0. 0. 2.81718094e-02 0. 2.81718094e-02
      0. 0. 0. 0. 7.74794340e-01 0. 0. 0. 0. 0. 2.76712272e-02
      2.76712272e-02 2.76712272e-02 0. 0. 0. 2.76712272e-02 0. 0.
      1.93698585e-01 0. 0. 0. 0. 0. 0. 0. 0. 0. 0. 0. 0. 0. 0.
      5.53424545e-02 2.76712272e-02 0. 0. 0. 0. 0. 0. 0. 0. 0. 0. 0. 0.
      0. 0. 0. 0. 0. 0. 0. 0. 0. 0. 0. 0. 0. 0. 0. 0. 5.53424545e-02 0.
      0. 0. 0. 0. 0. 0. 0. 0. 0. 0. 0. 0. 0. 0. 0. 0. 0. 0. 0. 0. 0. 0.
      0. 2.76712272e-02 0. 0. 0. 0. 0. 0. 0. 0. 0. 0. 0. 0. 0. 0. 0. 0.
      0. 0. 0. 0. 0. 0. 2.76712272e-02 0. 0. 0. 0. 0. 0. 0. 0. 0. 0. 0.
      4.70410854e-01 0. 0. 0. 2.76712272e-02 0. 2.76712272e-02
      1.93698585e-01 1.38356134e-01 0. 0. 0. 0. 0. 0. 0. 0. 0. 0. 0. 0.
      0. 0. 0. 0. 0. 0. 0. 0. 0. 0. 0. 0. 0. 0. 0. 0. 0. 0. 0. 0. 0. 0.
      0. 0. 0. 0. 0. 0. 0. 0. 0. 0. 0. 5.53424545e-02 0. 0. 0. 0. 0. 0.
      0. 0. 0. 0. 0. 0. 0. 0. 0. 0. 0. 5.53424545e-02 0. 0. 0. 0. 0. 0.
      0. 0. 2.76712272e-02 0. 0. 0. 0. 0. 0. 0. 0. 0. 0. 0. 0. 0. 0. 0.
      0. 0. 0. 0. 0. 0. 0. 0. 0. 0. 0. 0. 0. 0. 2.76712272e-02 0. 0. 0.
      2.76712272e-02 0. 0. 0. 0. 2.21369818e-01 0. 0. 0. 2.76712272e-02
      0. 0. 1.10684909e-01 2.76712272e-02 0. 0. 0. 0. 0. 0. 0.
      9.07846510e-01 2.92853713e-02 0. 0. 0. 0. 2.92853713e-02
      2.92853713e-02 5.85707426e-02 0. 0. 0. 0. 0. 2.92853713e-02 0. 0.
      0. 0. 0. 0. 0. 0. 0. 2.92853713e-02 0. 0. 2.92853713e-02 0. 0. 0.
      2.92853713e-02 2.92853713e-02 0. 0. 0. 0. 0. 0. 0. 0. 0. 0. 0. 0.
      0. 0. 0. 0. 0. 0. 0. 0. 0. 0. 0. 0. 0. 0. 0. 5.85707426e-02 0.
      2.92853713e-02 0. 0. 0. 0. 0. 0. 0. 0. 0. 0. 2.92853713e-02 0. 0.
      0. 0. 0. 0. 0. 0. 0. 0. 0. 2.92853713e-02 0. 0. 0. 0. 0. 0. 0. 0.
      0. 0. 0. 0. 0. 0. 0. 0. 0. 0. 0. 0. 0. 0. 0. 0. 0. 2.92853713e-02
      2.92853713e-02 0. 0. 0. 0. 0. 0. 5.85707426e-02 5.85707426e-02 0.
      0. 0. 2.92853713e-02 0. 5.85707426e-02 1.46426857e-01
      2.04997599e-01 0. 0. 0. 0. 0. 0. 5.85707426e-02 5.85707426e-02
      2.92853713e-02 0. 2.92853713e-02 0. 0. 0. 2.92853713e-02
      2.92853713e-02 0. 0. 0. 0. 0. 0. 0. 0. 0. 0. 0. 0. 0. 0. 0. 0. 0.
      0. 0. 0. 0. 0. 0. 0. 0. 0. 0. 0. 0. 5.85707426e-02 0. 0. 0. 0. 0.
      0. 0. 0. 0. 0. 0. 0. 0. 0. 0. 0. 0. 0. 0. 0. 0. 0. 0. 0.
      5.85707426e-02 0. 0. 0. 0. 0. 0. 0. 2.92853713e-02 0. 0. 0. 0. 0.
      0. 0. 0. 0. 0. 0. 0. 0. 0. 0. 0. 0. 0. 0. 2.92853713e-02 0. 0. 0.
      2.92853713e-02 0. 0. 0. 0. 0. 0. 0. 0. 2.04997599e-01
      2.92853713e-02 0. 1.17141485e-01 0. 0. 0. 5.85707426e-02
      5.85707426e-02 0. 0. 0. 0. 0. 0. 0. 8.76713991e-01 3.13112140e-02
      0. 0. 0. 0. 3.13112140e-02 3.13112140e-02 3.13112140e-02 0. 0. 0.
      0. 0. 3.13112140e-02 0. 0. 0. 3.13112140e-02 0. 0. 0. 0. 0. 0. 0.
      0. 3.13112140e-02 0. 0. 0. 3.13112140e-02 3.13112140e-02 0. 0. 0.
      0. 0. 0. 0. 0. 0. 0. 0. 0. 0. 0. 0. 0. 0. 0. 0. 0. 0. 0. 0. 0. 0.
      0. 0. 6.26224279e-02 0. 0. 0. 0. 0. 0. 0. 0. 0. 0. 0. 0. 0. 0. 0.
      0. 0. 0. 3.13112140e-02 0. 0. 0. 0. 0. 3.13112140e-02 0. 0. 0. 0.
      0. 0. 0. 0. 0. 0. 0. 0. 0. 0. 0. 0. 0. 0. 0. 0. 0. 0. 0. 0. 0. 0.
      0. 0. 0. 0. 0. 0. 0. 0. 0. 0. 0. 0. 0. 0. 0. 0. 0. 9.39336419e-02
      0. 9.39336419e-02 0. 0. 0. 6.26224279e-02 0. 0. 0. 0. 0. 0. 0. 0.
      0. 0. 0. 0. 0. 0. 0. 0. 0. 0. 0. 0. 0. 0. 0. 0. 0. 0. 0. 0. 0. 0.
      0. 0. 0. 0. 0. 0. 0. 0. 6.26224279e-02 0. 0. 3.13112140e-02 0. 0.
      0. 0. 0. 0. 0. 0. 0. 0. 0. 0. 0. 0. 3.13112140e-02 3.13112140e-02
      0. 0. 0. 0. 0. 3.13112140e-02 0. 0. 0. 3.13112140e-02 0. 0. 0.
      3.13112140e-02 0. 0. 0. 0. 0. 0. 0. 0. 0. 0. 0. 0. 0. 0. 0.
      6.26224279e-02 1.56556070e-01 2.19178498e-01 0. 9.39336419e-02 0.
      0. 0. 6.26224279e-02 0. 0. 0. 0. 0. 0. 0. 6.26224279e-02
      1.25244856e-01 2.50489712e-01 0. 9.39336419e-02 0. 0. 0.
      6.26224279e-02 0. 3.13112140e-02 0. 0. 0. 0. 0. 0. 7.92276561e-01
      0. 0. 2.82955915e-02 0. 0. 2.82955915e-02 8.48867744e-02
      5.65911829e-02 0. 0. 0. 2.82955915e-02 0. 0. 4.52729464e-01 0. 0.
      0. 0. 0. 0. 0. 0. 0. 0. 0. 0. 2.82955915e-02 0. 8.48867744e-02
      1.41477957e-01 0. 0. 0. 0. 0. 0. 0. 0. 0. 0. 0. 0. 0. 0. 0. 0. 0.
      0. 0. 0. 0. 0. 0. 0. 0. 0. 0. 0. 5.65911829e-02 0. 0.
      2.82955915e-02 0. 0. 0. 0. 0. 0. 0. 0. 0. 0. 0. 0. 0. 0. 0. 0. 0.
      0. 0. 0. 0. 2.82955915e-02 0. 0. 0. 0. 0. 0. 0. 0. 0. 0. 0. 0. 0.
      0. 0. 0. 0. 0. 0. 0. 0. 0. 0. 0. 0. 0. 0. 0. 0. 0. 0. 0. 0. 0. 0.
      0. 0. 2.82955915e-02 0. 0. 0. 2.82955915e-02 0. 0. 0.
      1.69773549e-01 0. 0. 0. 5.65911829e-02 0. 0. 0. 0. 0. 0. 0.
      2.54660308e-01 0. 0. 0. 0. 0. 0. 0. 0. 0. 0. 0. 0. 0. 0. 0. 0. 0.
      0. 0. 0. 0. 0. 0. 2.82955915e-02 0. 0. 0. 0. 0. 0. 5.65911829e-02
      0. 0. 0. 0. 2.82955915e-02 0. 0. 0. 0. 0. 0. 0. 0. 0. 0. 0.
      5.65911829e-02 0. 0. 0. 5.65911829e-02 0. 0. 0. 8.48867744e-02 0.
      0. 0. 0. 0. 0. 0. 0. 0. 0. 0. 0. 0. 0. 0. 0. 0. 0. 0. 0. 0. 0. 0.
      0. 0. 0. 0. 5.65911829e-02 0. 0. 0. 2.82955915e-02 0. 0. 0. 0. 0.
      0. 0. 0. 0. 0. 0. 0. 0. 0. 0. 0. 0. 0. 0. 0. 0. 2.82955915e-02 0.
      0. 9.09926832e-01 0. 0. 0. 0. 0. 3.03308945e-02 3.03308945e-02
      9.09926817e-02 3.03308945e-02 0. 0. 0. 0. 9.09926817e-02
      2.42647156e-01 0. 0. 0. 0. 0. 0. 0. 0. 3.03308945e-02 0. 0.
      3.03308945e-02 0. 0. 6.06617890e-02 1.21323578e-01 0. 0. 0. 0. 0.
      0. 0. 0. 0. 0. 0. 0. 0. 0. 0. 0. 3.03308945e-02 0. 0. 0. 0. 0. 0.
      0. 0. 0. 0. 0. 6.06617890e-02 0. 0. 0. 0. 0. 0. 0. 0. 0. 0. 0. 0.
      0. 0. 0. 0. 0. 0. 6.06617890e-02 0. 0. 0. 0. 0. 3.03308945e-02 0.
      0. 0. 0. 0. 0. 0. 0. 0. 3.03308945e-02 0. 0. 0. 0. 0. 0. 0. 0. 0.
      0. 0. 0. 0. 0. 0. 0. 0. 0. 0. 0. 0. 0. 0. 0. 0. 0. 0. 0.
      3.03308945e-02 0. 3.03308945e-02 0. 9.09926817e-02 3.03308945e-02
      0. 3.03308945e-02 0. 0. 0. 3.03308945e-02 0. 0. 0. 0. 0. 0. 0.
      3.03308945e-02 0. 0. 0. 3.03308945e-02 0. 0. 0. 0. 0. 0. 0. 0. 0.
      0. 0. 0. 0. 0. 0. 0. 0. 0. 0. 0. 0. 0. 0. 0. 0. 0. 6.06617890e-02
      0. 3.03308945e-02 0. 0. 0. 0. 0. 0. 0. 3.03308945e-02
      3.03308945e-02 0. 0. 0. 0. 0. 3.03308945e-02 0. 0. 0. 0. 0. 0. 0.
      3.03308945e-02 0. 0. 0. 0. 0. 0. 0. 3.03308945e-02 0. 0. 0. 0. 0.
      0. 0. 0. 0. 0. 0. 0. 0. 0. 0. 0. 3.03308945e-02 0. 0. 0. 0. 0. 0.
      0. 0. 0. 0. 0. 0. 0. 0. 3.03308945e-02 1.51654467e-01 0. 0. 0.
      6.06617890e-02 0. 0. 9.09926817e-02 3.03308945e-02 0. 0. 0. 0.
      3.03308945e-02 3.03308945e-02 0. 9.17336404e-01 0. 0. 0. 0. 0.
      2.95914970e-02 5.91829941e-02 2.95914970e-02 0. 0. 0. 0. 0. 0. 0.
      0. 0. 0. 0. 0. 0. 0. 0. 0. 0. 0. 0. 2.95914970e-02 0. 0. 0.
      2.95914970e-02 0. 0. 0. 0. 0. 0. 0. 0. 0. 0. 0. 0. 0. 0. 0. 0. 0.
      0. 0. 0. 0. 0. 0. 0. 0. 0. 2.95914970e-02 5.91829941e-02 0. 0.
      2.95914970e-02 2.95914970e-02 0. 0. 0. 0. 0. 0. 0. 0. 0. 0. 0. 0.
      0. 0. 0. 0. 0. 0. 0. 0. 2.95914970e-02 0. 0. 0. 0. 0. 0. 0. 0. 0.
      0. 2.95914970e-02 0. 0. 0. 0. 0. 0. 0. 0. 0. 0. 0. 0. 0. 0. 0. 0.
      0. 0. 0. 0. 0. 0. 0. 0. 0. 0. 0. 2.95914970e-02 0. 0.
      2.95914970e-02 2.95914970e-02 8.87744874e-02 2.95914970e-02
      2.95914970e-02 0. 0. 0. 2.95914970e-02 0. 0. 0. 0. 0. 0. 0.
      2.95914970e-02 0. 0. 0. 0. 0. 0. 0. 0. 0. 0. 0. 0. 0. 0. 0. 0. 0.
      0. 0. 0. 0. 0. 0. 0. 0. 0. 0. 0. 0. 0. 5.91829941e-02 0. 0.
      2.95914970e-02 0. 0. 0. 0. 0. 0. 0. 0. 0. 0. 0. 0. 0. 0. 0.
      8.87744874e-02 0. 1.18365988e-01 0. 2.95914970e-02 0.
      2.95914970e-02 0. 0. 0. 2.95914970e-02 0. 0. 0. 0. 0. 0. 0. 0. 0.
      0. 0. 0. 0. 0. 0. 0. 0. 0. 0. 0. 1.18365988e-01 1.47957489e-01 0.
      1.77548975e-01 0. 0. 0. 1.18365988e-01 0. 0. 0. 2.95914970e-02 0.
      0. 0. 0. 8.87744874e-02 8.87744874e-02 0. 2.95914970e-02 0. 0. 0.
      0. 2.95914970e-02 0. 0. 0. 0. 0. 2.95914970e-02 0.</_>
    <_>
      9.58508253e-01 0. 0. 0. 0. 0. 0. 0. 0. 0. 0. 0. 0. 0. 0.
      6.18392415e-02 0. 3.09196208e-02 3.09196208e-02 0. 0. 0. 0.
      3.09196208e-02 3.09196208e-02 0. 0. 0. 0. 3.09196208e-02 0. 0.
      3.09196208e-02 0. 0. 0. 0. 0. 0. 0. 0. 0. 0. 0. 0. 0. 0.
      3.09196208e-02 0. 0. 0. 0. 0. 0. 0. 0. 0. 0. 0. 0. 0. 0. 0.
      3.09196208e-02 0. 0. 0. 0. 0. 0. 0. 0. 0. 0. 0. 0. 0. 0. 0. 0. 0.
      0. 0. 0. 0. 0. 0. 0. 0. 0. 0. 0. 0. 0. 0. 0. 0. 0. 0. 0. 0. 0. 0.
      0. 0. 0. 0. 0. 0. 0. 0. 0. 0. 0. 0. 0. 0. 0. 3.09196208e-02 0. 0.
      0. 0. 0. 0. 0. 0. 0. 0. 0. 0. 6.18392415e-02 0. 0. 0. 0. 0. 0. 0.
      0. 0. 0. 0. 6.18392415e-02 0. 0. 0. 0. 0. 0. 0. 0. 0. 0. 0. 0. 0.
      0. 0. 9.27588642e-02 0. 0. 0. 0. 0. 0. 0. 0. 0. 0. 0. 0. 0. 0. 0.
      0. 0. 0. 0. 0. 0. 0. 0. 0. 3.09196208e-02 0. 0. 3.09196208e-02 0.
      0. 0. 3.09196208e-02 0. 0. 0. 0. 0. 0. 0. 3.09196208e-02 0. 0. 0.
      0. 0. 0. 0. 6.18392415e-02 0. 0. 0. 0. 0. 0. 0. 0. 0. 0. 0. 0. 0.
      0. 0. 6.18392415e-02 0. 3.09196208e-02 0. 0. 0. 0. 0.
      3.09196208e-02 0. 0. 0. 0. 0. 3.09196208e-02 0. 9.27588642e-02
      6.18392415e-02 6.18392415e-02 0. 0. 0. 0. 0. 6.18392415e-02
      9.27588642e-02 6.18392415e-02 3.09196208e-02 6.18392415e-02
      3.09196208e-02 0. 0. 0. 9.14936066e-01 0. 0. 0. 2.95140669e-02 0.
      2.95140669e-02 2.95140669e-02 2.95140669e-02 0. 0. 0.
      1.18056267e-01 0. 1.77084401e-01 2.95140669e-02 2.95140669e-02
      2.95140669e-02 2.95140669e-02 0. 0. 0. 0. 2.95140669e-02
      5.90281337e-02 0. 2.95140669e-02 0. 0. 2.95140669e-02
      1.18056267e-01 5.90281337e-02 2.95140669e-02 0. 0. 0. 0. 0. 0. 0.
      0. 0. 0. 0. 0. 0. 0. 0. 2.95140669e-02 0. 0. 0. 0. 0. 0. 0.
      1.18056267e-01 0. 0. 0. 8.85422006e-02 0. 2.95140669e-02 0. 0. 0.
      0. 0. 0. 0. 0. 0. 0. 0. 0. 0. 0. 0. 0. 0. 0. 0. 0. 0. 0. 0. 0. 0.
      0. 0. 0. 0. 0. 0. 0. 0. 0. 0. 0. 0. 0. 0. 0. 0. 0. 0. 0. 0. 0. 0.
      0. 0. 2.95140669e-02 0. 0. 0. 0. 0. 0. 0. 8.85422006e-02
      2.95140669e-02 0. 0. 2.95140669e-02 0. 2.95140669e-02
      2.95140669e-02 0. 0. 0. 0. 0. 0. 0. 8.85422006e-02 0. 0. 0. 0. 0.
      0. 2.95140669e-02 1.47570342e-01 0. 0. 0. 0. 0. 0. 0. 0. 0. 0. 0.
      0. 0. 0. 0. 2.95140669e-02 0. 0. 0. 0. 0. 0. 0. 0. 0. 0. 0. 0. 0.
      0. 0. 0. 0. 0. 0. 0. 0. 0. 0. 0. 0. 0. 0. 0. 0. 0. 0.
      2.95140669e-02 0. 0. 0. 0. 0. 0. 0. 2.95140669e-02 0. 0. 0. 0. 0.
      0. 0. 2.95140669e-02 0. 0. 0. 0. 0. 0. 0. 0. 0. 0. 0. 0. 0. 0. 0.
      0. 0. 0. 0. 0. 0. 0. 0. 0. 0. 0. 0. 0. 0. 0. 0. 0. 1.18056267e-01
      0. 0. 0. 0. 0. 0. 2.95140669e-02 0. 2.95140669e-02 0. 0.
      2.95140669e-02 0. 0. 0. 8.87861848e-01 0. 0. 0. 0. 0. 0. 0. 0.
      2.77456827e-02 0. 2.77456827e-02 0. 0. 0. 1.10982731e-01 0.
      2.77456827e-02 2.77456827e-02 0. 0. 0. 0. 2.77456827e-02 0. 0. 0.
      0. 0. 2.77456827e-02 0. 0. 2.77456827e-02 0. 0. 0. 0. 0. 0. 0. 0.
      0. 0. 0. 0. 0. 0. 0. 0. 0. 0. 0. 0. 0. 0. 0. 2.77456827e-02 0. 0.
      0. 0. 0. 2.77456827e-02 0. 0. 0. 0. 0. 0. 0. 0. 0. 0. 0. 0. 0. 0.
      0. 0. 0. 0. 0. 0. 0. 0. 0. 0. 0. 0. 0. 0. 0. 2.77456827e-02 0. 0.
      0. 0. 0. 0. 0. 0. 0. 0. 0. 2.77456827e-02 0. 0. 0. 0. 0. 0. 0. 0.
      0. 0. 0. 0. 0. 0. 0. 2.77456820e-01 0. 0. 0. 0. 0. 2.77456827e-02
      0. 5.54913655e-02 5.54913655e-02 0. 5.54913655e-02 0. 0. 0.
      1.94219783e-01 0. 0. 0. 0. 0. 0. 0. 8.32370520e-02 0. 0. 0. 0. 0.
      0. 0. 0. 0. 0. 0. 0. 0. 0. 0. 0. 0. 0. 0. 0. 0. 0. 0. 0. 0. 0. 0.
      0. 0. 0. 0. 0. 0. 0. 0. 0. 0. 0. 0. 0. 0. 0. 0. 0. 0. 0. 0. 0.
      2.77456827e-02 0. 0. 2.77456827e-02 2.77456827e-02 0. 0.
      2.77456827e-02 0. 0. 0. 0. 0. 0. 0. 0. 0. 0. 0. 0. 0. 0. 0. 0. 0.
      0. 0. 0. 0. 0. 0. 0. 8.32370520e-02 0. 0. 0. 0. 0. 0.
      1.38728410e-01 2.77456827e-02 0. 0. 0. 0. 0. 0. 0. 1.10982731e-01
      0. 0. 5.54913655e-02 0. 0. 0. 0. 1.10982731e-01 2.77456827e-02 0.
      2.77456827e-02 0. 0. 0. 0. 8.38757336e-01 0. 0. 0. 0. 0.
      2.70566884e-02 0. 0. 0. 0. 0. 0. 0. 1.08226754e-01 2.43510202e-01
      0. 2.70566884e-02 2.70566884e-02 0. 0. 0. 0. 2.70566884e-02
      8.11700672e-02 0. 0. 0. 2.70566884e-02 2.70566884e-02
      2.16453508e-01 3.51736963e-01 2.70566884e-02 0. 0. 0. 0. 0. 0. 0.
      0. 0. 0. 0. 0. 0. 0. 2.70566884e-02 0. 0. 0. 0. 0. 0. 0. 0.
      2.70566884e-02 0. 0. 0. 8.11700672e-02 0. 8.11700672e-02
      1.08226754e-01 0. 0. 0. 0. 0. 0. 0. 0. 0. 0. 0. 0. 0. 0. 0. 0. 0.
      0. 0. 0. 0. 0. 0. 0. 0. 0. 0. 0. 0. 0. 0. 0. 0. 0. 0. 0. 0. 0. 0.
      0. 0. 0. 0. 0. 0. 0. 0. 0. 0. 0. 0. 0. 0. 0. 0. 0. 0. 0. 0. 0. 0.
      0. 8.11700672e-02 5.41133769e-02 0. 0. 0. 0. 0. 0. 0. 0. 0. 0. 0.
      0. 0. 0. 0. 0. 0. 0. 0. 0. 0. 0. 0. 0. 0. 0. 0. 0. 0. 0. 0.
      5.41133769e-02 0. 0. 0. 0. 0. 0. 0. 0. 0. 0. 0. 0. 0. 0. 0. 0. 0.
      0. 0. 0. 0. 0. 0. 0. 2.70566884e-02 0. 0. 0. 2.70566884e-02 0. 0.
      0. 0. 0. 0. 0. 0. 0. 0. 0. 0. 0. 0. 0. 0. 0. 0. 0. 0. 0. 0. 0. 0.
      0. 0. 0. 0. 0. 0. 0. 0. 0. 0. 0. 0. 0. 0. 0. 0. 0. 0. 0. 0. 0. 0.
      0. 0. 0. 0. 2.70566884e-02 0. 0. 0. 0. 0. 0. 0. 2.70566884e-02
      2.70566884e-02 0. 0. 0. 0. 0. 2.70566884e-02 0. 9.14936066e-01 0.
      0. 0. 0. 0. 0. 0. 5.90281337e-02 0. 0. 0. 0. 0. 2.95140669e-02
      1.77084401e-01 0. 2.95140669e-02 2.95140669e-02 0. 0. 0. 0.
      2.95140669e-02 2.95140669e-02 0. 0. 0. 5.90281337e-02
      2.95140669e-02 0. 2.95140669e-02 2.95140669e-02 0. 0. 0. 0. 0. 0.
      0. 0. 0. 0. 0. 0. 0. 0. 0. 0. 0. 0. 0. 0. 0. 0. 0. 5.90281337e-02
      0. 0. 0. 0. 0. 8.85422006e-02 1.77084401e-01 0. 0. 0. 0. 0. 0. 0.
      0. 0. 0. 0. 0. 0. 0. 0. 0. 0. 0. 0. 0. 0. 0. 0. 0. 0. 0. 0. 0. 0.
      0. 0. 0. 0. 0. 0. 0. 0. 0. 0. 0. 2.95140669e-02 0. 0. 0. 0. 0. 0.
      0. 0. 0. 0. 0. 0. 0. 0. 0. 0. 0. 0. 0. 5.90281337e-02 0. 0.
      2.95140669e-02 0. 0. 0. 2.95140669e-02 0. 0. 2.95140669e-02
      8.85422006e-02 0. 0. 0. 0. 0. 0. 0. 1.18056267e-01 0. 0. 0. 0. 0.
      0. 0. 0. 0. 0. 0. 2.95140669e-02 0. 0. 0. 5.90281337e-02 0. 0. 0.
      0. 0. 0. 0. 0. 0. 0. 0. 0. 0. 0. 0. 0. 0. 0. 0. 0. 0. 0. 0. 0. 0.
      2.95140669e-02 0. 0. 0. 0. 0. 8.85422006e-02 5.90281337e-02 0. 0.
      0. 0. 0. 0. 5.90281337e-02 0. 0. 0. 0. 0. 0. 0. 8.85422006e-02 0.
      0. 0. 0. 0. 0. 0. 0. 0. 0. 0. 0. 0. 0. 0. 0. 0. 0. 0. 0. 0. 0. 0.
      0. 0. 0. 0. 0. 0. 0. 0. 0. 8.85422006e-02 8.85422006e-02 0. 0. 0.
      0. 0. 0. 2.95140669e-02 0. 0. 0. 2.95140669e-02 0. 2.95140669e-02
      0. 9.03652012e-01 0. 0. 0. 0. 0. 0. 0. 1.41195625e-01 0. 0. 0. 0.
      0. 0. 5.64782508e-02 0. 2.82391254e-02 2.82391254e-02 0. 0. 0. 0.
      2.82391254e-02 0. 0. 0. 0. 2.82391254e-02 2.82391254e-02
      2.82391254e-02 2.82391254e-02 2.82391254e-02 0. 0. 0. 0. 0. 0. 0.
      0. 0. 0. 0. 0. 0. 0. 0. 0. 0. 0. 0. 0. 0. 0. 0. 0. 2.82391254e-02
      0. 0. 0. 0. 0. 8.47173780e-02 0. 0. 0. 0. 0. 0. 0. 0. 0. 0. 0. 0.
      0. 0. 0. 0. 0. 0. 0. 0. 0. 0. 0. 0. 0. 0. 0. 0. 0. 0. 0. 0. 0. 0.
      0. 0. 0. 0. 0. 0. 0. 0. 0. 0. 0. 0. 0. 0. 8.47173780e-02 0. 0.
      2.82391254e-02 0. 0. 0. 0. 8.47173780e-02 0. 0. 0. 0. 0.
      5.64782508e-02 1.12956502e-01 5.64782508e-02 0. 0. 2.82391254e-02
      0. 0. 0. 0. 0. 0. 0. 0. 0. 0. 0. 2.82391254e-02 2.82391254e-02 0.
      0. 0. 0. 0. 0. 0. 0. 2.82391254e-02 0. 0. 0. 0. 0. 0. 0. 0. 0. 0.
      0. 0. 0. 0. 0. 0. 0. 0. 0. 0. 0. 0. 0. 0. 0. 0. 0. 0. 0. 0.
      2.82391254e-02 0. 0. 0. 0. 0. 0. 0. 0. 0. 0. 0. 0. 0. 0. 0. 0. 0.
      0. 0. 0. 0. 0. 0. 0. 0. 0. 0. 0. 0. 0. 0. 0. 0. 0. 0. 0. 0. 0. 0.
      2.82391254e-02 0. 0. 0. 0. 0. 0. 0. 0. 0. 0. 0. 0. 0. 0. 0.
      2.25913003e-01 1.41195625e-01 0. 2.82391254e-02 0. 0. 0. 0.
      1.69434756e-01 0. 0. 0. 5.64782508e-02 0. 5.64782508e-02 0.
      7.94089079e-01 0. 0. 0. 0. 0. 0. 2.56157760e-02 0. 0. 0. 0. 0. 0.
      1.02463104e-01 2.56157760e-02 0. 2.56157760e-02 2.56157760e-02 0.
      0. 0. 0. 2.56157760e-02 0. 0. 0. 0. 5.12315519e-02 2.56157760e-02
      3.58620852e-01 2.04926208e-01 2.56157760e-02 0. 0. 0. 0. 0. 0. 0.
      0. 0. 0. 0. 0. 0. 0. 0. 0. 0. 0. 0. 0. 0. 0. 0. 0. 0. 0. 0. 0. 0.
      3.33005100e-01 2.04926208e-01 0. 0. 0. 0. 0. 0. 0. 0. 0. 0. 0. 0.
      0. 0. 0. 0. 0. 0. 0. 0. 0. 0. 0. 0. 0. 0. 0. 0. 0. 0. 0. 0. 0. 0.
      0. 0. 0. 0. 0. 0. 0. 0. 0. 0. 0. 0. 0. 0. 0. 0. 0. 0. 0. 0. 0. 0.
      0. 0. 0. 0. 0. 0. 0. 0. 0. 0. 0. 0. 0. 0. 0. 0. 0. 0. 0. 0. 0. 0.
      0. 2.56157760e-02 0. 0. 0. 0. 0. 0. 0. 0. 0. 0. 0. 0. 0. 0. 0.
      1.02463104e-01 0. 0. 0. 0. 0. 0. 0. 0. 0. 0. 0. 0. 0. 0. 0. 0. 0.
      0. 0. 0. 0. 0. 0. 0. 0. 0. 0. 0. 0. 0. 2.56157760e-02
      1.28078878e-01 0. 0. 0. 0. 0. 0. 0. 0. 0. 0. 0. 0. 0. 0. 0. 0. 0.
      0. 0. 0. 0. 0. 0. 0. 0. 0. 0. 0. 0. 0. 0. 0. 0. 0. 0. 0. 0. 0. 0.
      0. 0. 0. 0. 0. 0. 0. 0. 0. 0. 0. 0. 0. 0. 0. 0. 0. 0. 0. 0. 0. 0.
      0. 0. 0. 8.66131127e-01 0. 0. 0. 0. 0. 2.70665977e-02 0. 0. 0. 0.
      0. 0. 0. 0. 0. 0. 2.70665977e-02 2.70665977e-02 0. 0. 0. 0.
      2.70665977e-02 0. 0. 0. 0. 2.70665977e-02 2.70665977e-02
      1.08266391e-01 0. 2.70665977e-02 0. 0. 0. 0. 0. 0. 0.
      2.70665977e-02 0. 0. 0. 0. 0. 0. 0. 0. 0. 0. 0. 0. 0. 0. 0.
      2.70665977e-02 0. 0. 0. 1.35332987e-01 0. 4.05998975e-01
      5.41331954e-02 0. 0. 0. 0. 0. 0. 0. 0. 0. 0. 0. 0. 0. 0. 0. 0. 0.
      0. 0. 0. 0. 0. 0. 0. 0. 0. 0. 0. 0. 0. 0. 0. 0. 0. 0. 0. 0. 0. 0.
      0. 0. 0. 0. 0. 0. 0. 0. 0. 0. 0. 0. 0. 0. 0. 0. 0. 5.41331954e-02
      0. 0. 0. 8.11997950e-02 0. 1.62399590e-01 2.70665977e-02 0. 0. 0.
      0. 0. 0. 0. 0. 0. 0. 0. 0. 0. 0. 0. 0. 0. 0. 0. 0. 0. 0. 0. 0. 0.
      0. 0. 0. 0. 0. 0. 2.70665977e-02 0. 0. 0. 0. 0. 0. 0. 0. 0. 0. 0.
      0. 0. 0. 0. 0. 0. 0. 0. 0. 0. 0. 0. 0. 0. 0. 0. 0. 0. 0.
      5.41331954e-02 2.70665977e-02 0. 0. 0. 0. 0. 0. 0. 0. 0. 0. 0. 0.
      0. 0. 0. 2.70665977e-02 0. 0. 0. 0. 0. 0. 0. 0. 0. 0. 0. 0.
      2.70665977e-02 0. 0. 0. 0. 0. 0. 0. 0. 0. 0. 0. 0. 0. 0. 0. 0. 0.
      0. 0. 0. 0. 0. 0. 0. 0. 0. 0. 0. 0. 0. 0. 0. 0. 5.41331954e-02 0.
      8.37531984e-01 0. 0. 0. 2.70171613e-02 0. 0. 0. 5.40343225e-02 0.
      0. 0. 0. 0. 2.70171613e-02 0. 0. 2.70171613e-02 2.70171613e-02 0.
      0. 0. 0. 2.70171613e-02 0. 0. 0. 0. 8.10514838e-02 2.70171613e-02
      2.43154451e-01 5.40343225e-02 2.70171613e-02 0. 0. 0. 0. 0. 0. 0.
      0. 0. 0. 0. 0. 0. 0. 0. 0. 0. 0. 0. 0. 0. 0. 0. 0. 0. 0. 0.
      1.35085806e-01 0. 3.78240258e-01 1.35085806e-01 0. 0. 0. 0. 0. 0.
      0. 0. 0. 0. 0. 0. 0. 0. 0. 0. 0. 0. 0. 0. 0. 0. 0. 0. 0. 0. 0. 0.
      0. 0. 0. 2.70171613e-02 0. 0. 0. 0. 0. 0. 0. 0. 0. 0. 0. 0. 0. 0.
      0. 0. 0. 0. 0. 0. 0. 0. 0. 0. 0. 0. 0. 0. 5.40343225e-02 0.
      1.08068645e-01 0. 0. 0. 0. 0. 0. 0. 0. 0. 0. 0. 0. 0. 0. 0. 0. 0.
      0. 0. 0. 0. 0. 0. 0. 0. 0. 0. 0. 0. 0. 0. 0. 2.70171613e-02 0. 0.
      0. 0. 0. 0. 0. 0. 0. 0. 0. 0. 0. 0. 0. 0. 0. 0. 0. 0. 0. 0. 0. 0.
      0. 0. 0. 0. 0. 0. 5.40343225e-02 1.35085806e-01 0. 0. 0. 0. 0. 0.
      0. 0. 0. 0. 0. 0. 0. 0. 0. 0. 0. 0. 0. 0. 0. 0. 0. 0. 0. 0. 0. 0.
      0. 0. 0. 0. 0. 0. 0. 0. 0. 0. 0. 2.70171613e-02 0. 0. 0. 0. 0. 0.
      0. 2.70171613e-02 0. 0. 0. 2.70171613e-02 0. 0. 0. 0. 0. 0. 0. 0.
      0. 0. 5.40343225e-02 0.</_>
    <_>
      9.69287634e-01 0. 0. 2.42321901e-02 0. 0. 0. 0. 7.26965666e-02 0.
      0. 0. 0. 0. 7.26965666e-02 2.42321901e-02 0. 0. 0. 0. 0. 0. 0. 0.
      0. 0. 0. 0. 0. 0. 2.42321901e-02 0. 0. 0. 0. 0. 0. 0. 0. 0. 0. 0.
      0. 0. 0. 0. 0. 0. 0. 0. 0. 0. 0. 0. 0. 0. 7.26965666e-02 0. 0. 0.
      4.84643802e-02 0. 0. 0. 2.42321901e-02 0. 0. 0. 0. 0. 0. 0. 0. 0.
      0. 0. 0. 0. 0. 0. 0. 0. 0. 0. 0. 0. 0. 0. 0. 0. 0. 0. 0. 0. 0. 0.
      0. 0. 0. 0. 0. 0. 0. 0. 2.42321901e-02 0. 0. 0. 2.42321901e-02 0.
      0. 0. 2.42321901e-02 0. 0. 0. 2.42321901e-02 0. 0. 0.
      2.42321901e-02 2.42321901e-02 0. 2.42321901e-02 0. 0.
      2.42321901e-02 7.26965666e-02 0. 0. 0. 4.84643802e-02 0. 0. 0.
      4.84643802e-02 0. 0. 0. 0. 0. 0. 0. 2.42321901e-02 0. 0. 0. 0. 0.
      0. 0. 0. 0. 0. 0. 0. 0. 0. 0. 2.42321901e-02 0. 0. 0. 0. 0. 0. 0.
      0. 0. 0. 0. 0. 0. 0. 0. 0. 0. 0. 0. 0. 0. 0. 0. 0. 2.42321901e-02
      0. 0. 0. 0. 0. 0. 0. 0. 4.84643802e-02 0. 2.42321901e-02
      2.42321901e-02 0. 0. 4.84643802e-02 0. 0. 0. 0. 0. 0. 0. 0. 0. 0.
      0. 2.42321901e-02 0. 0. 0. 0. 0. 2.42321901e-02 0. 0. 0. 0. 0.
      2.42321901e-02 7.26965666e-02 0. 0. 0. 0. 0. 2.42321901e-02
      4.84643802e-02 0. 0. 0. 0. 0. 0. 0. 0. 7.26965666e-02 0. 0. 0. 0.
      0. 0. 0. 0. 0. 0. 0. 4.84643802e-02 0. 0. 0. 9.55418646e-01 0. 0.
      0. 0. 0. 0. 0. 0. 0. 0. 0. 0. 0. 2.89520808e-02 0. 0. 0. 0. 0. 0.
      0. 0. 0. 0. 0. 0. 0. 2.89520808e-02 0. 0. 2.89520808e-02 0. 0. 0.
      0. 0. 0. 0. 0. 2.89520808e-02 0. 0. 0. 0. 0. 0. 0. 0. 0. 0. 0. 0.
      0. 0. 0. 2.89520808e-02 2.89520808e-02 0. 0. 0. 0. 0.
      2.89520808e-02 2.89520808e-02 0. 0. 0. 0. 0. 0. 0. 0. 0. 0. 0. 0.
      0. 0. 2.89520808e-02 0. 0. 0. 0. 0. 0. 0. 0. 0. 0. 0. 0. 0. 0. 0.
      0. 5.79041615e-02 0. 0. 0. 0. 0. 0. 2.89520808e-02 2.89520808e-02
      0. 0. 0. 2.89520808e-02 0. 2.89520808e-02 0. 2.89520808e-02 0. 0.
      0. 0. 0. 0. 0. 0. 2.89520808e-02 0. 0. 1.15808323e-01 0.
      2.89520808e-02 2.89520808e-02 2.89520808e-02 2.89520808e-02 0.
      2.89520808e-02 0. 0. 0. 0. 0. 0. 0. 0. 0. 0. 0. 0. 0. 0. 0. 0. 0.
      0. 0. 0. 0. 0. 0. 0. 0. 0. 0. 0. 0. 0. 0. 0. 0. 0. 0. 0.
      2.89520808e-02 0. 0. 0. 0. 0. 2.89520808e-02 0. 2.89520808e-02 0.
      2.89520808e-02 2.89520808e-02 0. 0. 0. 0. 2.89520808e-02 0. 0. 0.
      0. 0. 0. 0. 0. 2.89520808e-02 0. 5.79041615e-02 0. 0. 0.
      2.89520808e-02 0. 0. 0. 0. 0. 0. 0. 2.89520808e-02 0. 0. 0. 0. 0.
      0. 0. 0. 0. 0. 0. 0. 5.79041615e-02 2.89520808e-02 0.
      2.89520808e-02 8.68562460e-02 8.68562460e-02 0. 5.79041615e-02 0.
      0. 2.89520808e-02 0. 0. 0. 0. 0. 0. 0. 0. 0. 5.79041615e-02 0. 0.
      2.89520808e-02 0. 0. 0. 2.89520808e-02 5.79041615e-02
      8.68562460e-02 0. 2.89520808e-02 2.89520808e-02 2.89520808e-02 0.
      0. 9.65512514e-01 0. 2.54082233e-02 0. 0. 0. 2.54082233e-02
      2.54082233e-02 0. 0. 0. 0. 0. 0. 0. 2.54082233e-02 0. 0. 0. 0. 0.
      0. 0. 0. 2.54082233e-02 0. 0. 0. 0. 0. 2.54082233e-02
      2.54082233e-02 2.54082233e-02 0. 0. 0. 2.54082233e-02 0. 0. 0. 0.
      0. 0. 0. 0. 0. 2.54082233e-02 0. 0. 0. 0. 0. 0. 0. 0. 0. 0. 0. 0.
      2.54082233e-02 0. 0. 0. 5.08164465e-02 0. 0. 0. 0. 0. 0. 0. 0. 0.
      0. 0. 0. 0. 0. 0. 0. 0. 0. 0. 0. 0. 0. 0. 0. 0. 0. 0. 0. 0. 0. 0.
      0. 0. 0. 0. 0. 0. 0. 0. 0. 0. 0. 0. 0. 2.54082233e-02 0. 0. 0.
      2.54082233e-02 0. 0. 0. 0. 0. 0. 0. 0. 0. 0. 0. 0. 0. 0.
      5.08164465e-02 0. 2.54082233e-02 0. 7.62246698e-02 0. 0. 0.
      1.01632893e-01 0. 0. 0. 0. 0. 0. 0. 5.08164465e-02 0. 0. 0. 0. 0.
      0. 0. 0. 0. 0. 0. 0. 0. 0. 0. 7.62246698e-02 0. 0. 0. 0. 0. 0. 0.
      0. 0. 0. 0. 0. 0. 0. 0. 0. 0. 0. 0. 2.54082233e-02 0. 0. 0. 0. 0.
      0. 0. 0. 0. 0. 0. 2.54082233e-02 0. 0. 0. 2.54082233e-02 0. 0. 0.
      7.62246698e-02 0. 0. 0. 0. 0. 0. 2.54082233e-02 0. 0. 0. 0. 0. 0.
      0. 0. 2.54082233e-02 0. 0. 0. 0. 0. 2.54082233e-02 0.
      7.62246698e-02 0. 5.08164465e-02 0. 2.54082233e-02 0. 0. 0.
      7.62246698e-02 0. 0. 0. 0. 0. 2.54082233e-02 0. 2.54082233e-02 0.
      0. 0. 2.54082233e-02 0. 0. 0. 0. 2.54082233e-02 2.54082233e-02 0.
      2.54082233e-02 0. 0. 2.54082233e-02 0. 8.71794879e-01 0. 0. 0. 0.
      0. 2.56410260e-02 0. 5.12820520e-02 0. 0. 0. 2.56410260e-02
      2.56410260e-02 0. 0. 0. 0. 0. 0. 0. 0. 0. 0. 2.56410260e-02 0. 0.
      0. 0. 0. 0. 2.56410260e-02 0. 0. 0. 0. 0. 0. 0. 0. 2.56410260e-02
      0. 0. 0. 0. 0. 0. 0. 0. 0. 0. 0. 0. 0. 0. 0. 2.56410260e-02 0. 0.
      0. 0. 0. 0. 2.56410260e-02 0. 0. 0. 0. 0. 0. 0. 0. 2.56410260e-02
      0. 0. 0. 0. 0. 0. 2.56410260e-02 0. 0. 0. 0. 0. 0. 0. 0. 0. 0. 0.
      0. 0. 0. 0. 0. 0. 0. 0. 0. 0. 0. 0. 0. 2.56410260e-02 0. 0. 0. 0.
      0. 0. 0. 0. 0. 0. 0. 0. 0. 2.56410260e-02 2.56410260e-02
      4.10256416e-01 2.56410260e-02 0. 2.56410260e-02 5.12820520e-02
      2.56410260e-02 5.12820520e-02 1.02564104e-01 0. 0. 0. 0.
      2.56410260e-02 0. 2.56410260e-02 1.79487184e-01 0. 0.
      2.56410260e-02 0. 0. 0. 0. 0. 0. 0. 0. 0. 0. 0. 0. 5.12820520e-02
      0. 0. 0. 0. 0. 0. 0. 2.56410260e-02 0. 0. 0. 0. 0. 0. 0. 0.
      2.56410260e-02 0. 0. 0. 0. 0. 2.56410260e-02 0. 0. 0. 0. 0. 0. 0.
      0. 0. 2.56410260e-02 0. 0. 0. 0. 0. 0. 2.56410260e-02 0. 0. 0. 0.
      0. 0. 0. 0. 0. 0. 0. 0. 0. 0. 0. 0. 0. 0. 0. 0. 0. 0. 0. 0. 0. 0.
      0. 0. 0. 0. 0. 0. 0. 0. 0. 0. 0. 0. 0. 0. 0. 0. 0. 0. 0. 0. 0. 0.
      2.56410260e-02 0. 0. 0. 0. 0. 0. 2.56410260e-02 2.56410260e-02 0.
      0. 2.56410260e-02 0. 0. 0. 0. 9.28765059e-01 0. 0. 0. 0. 0. 0. 0.
      2.44411863e-02 0. 0. 0. 0. 0. 0. 0. 0. 0. 0. 0. 0. 0. 0. 0. 0. 0.
      0. 0. 0. 0. 0. 0. 0. 0. 0. 0. 0. 0. 0. 0. 0. 0. 0. 0. 0. 0. 0. 0.
      0. 0. 0. 0. 0. 0. 0. 0. 0. 0. 0. 0. 0. 0. 0. 2.44411863e-02 0. 0.
      0. 0. 0. 0. 0. 0. 2.44411863e-02 0. 0. 0. 0. 0. 0. 0. 0. 0. 0. 0.
      0. 0. 0. 0. 0. 0. 0. 0. 0. 0. 0. 0. 0. 0. 0. 0. 0. 0. 0. 0. 0. 0.
      0. 0. 0. 0. 0. 0. 7.33235627e-02 4.88823727e-02 0. 0. 0. 0. 0. 0.
      2.19970673e-01 0. 0. 0. 4.88823727e-02 4.88823727e-02 0.
      4.88823727e-02 1.71088308e-01 0. 0. 0. 0. 0. 0. 1.22205928e-01 0.
      0. 0. 0. 0. 0. 2.44411863e-02 0. 0. 0. 0. 0. 0. 0. 0. 0. 0. 0. 0.
      0. 0. 0. 0. 0. 0. 0. 0. 0. 0. 0. 0. 2.44411863e-02 0. 0. 0. 0. 0.
      0. 0. 0. 0. 0. 0. 0. 0. 0. 0. 0. 0. 0. 0. 0. 0. 0. 0.
      2.44411863e-02 0. 2.44411863e-02 0. 0. 0. 0. 0. 0. 0. 0. 0. 0. 0.
      0. 0. 0. 0. 0. 0. 0. 0. 0. 0. 0. 0. 0. 0. 0. 0. 0. 0. 0.
      7.33235627e-02 4.88823727e-02 2.44411863e-02 0. 0. 0. 0. 0.
      2.44411863e-02 0. 0. 2.44411863e-02 0. 0. 0. 0. 9.77647454e-02
      2.44411863e-02 0. 2.44411863e-02 0. 0. 0. 4.88823727e-02
      4.88823727e-02 0. 0. 2.44411863e-02 0. 0. 0. 0. 9.51521635e-01 0.
      0. 2.97350511e-02 0. 0. 2.97350511e-02 0. 0. 2.97350511e-02 0. 0.
      0. 0. 5.94701022e-02 5.94701022e-02 0. 0. 0. 0. 0. 0. 0. 0.
      2.97350511e-02 0. 0. 0. 0. 0. 0. 0. 0. 0. 0. 0. 0. 0. 0. 0. 0. 0.
      0. 0. 0. 0. 0. 0. 0. 0. 0. 0. 0. 0. 0. 0. 0. 0. 0. 0. 0. 0.
      2.97350511e-02 5.94701022e-02 0. 0. 0. 0. 2.97350511e-02 0. 0. 0.
      0. 0. 0. 0. 0. 0. 0. 2.97350511e-02 0. 0. 0. 0. 0. 0. 0. 0. 0. 0.
      0. 0. 0. 0. 0. 0. 2.97350511e-02 0. 0. 0. 0. 0. 0. 0. 0. 0. 0. 0.
      0. 0. 2.97350511e-02 0. 5.94701022e-02 0. 0. 0. 0. 0. 0. 0. 0. 0.
      0. 0. 8.92051533e-02 0. 2.97350511e-02 5.94701022e-02 0. 0. 0.
      8.92051533e-02 0. 0. 0. 2.97350511e-02 2.97350511e-02 0. 0. 0. 0.
      0. 0. 0. 0. 0. 2.97350511e-02 0. 0. 0. 0. 0. 0. 0. 0. 0. 0. 0. 0.
      2.97350511e-02 2.97350511e-02 0. 0. 0. 0. 0. 0. 0. 2.97350511e-02
      0. 0. 0. 0. 0. 2.97350511e-02 0. 0. 0. 0. 0. 0. 0. 0. 0.
      2.97350511e-02 0. 0. 0. 0. 0. 0. 2.97350511e-02 0. 0. 0.
      5.94701022e-02 0. 0. 0. 8.92051533e-02 0. 0. 0. 0. 0. 0. 0. 0. 0.
      0. 0. 0. 0. 0. 0. 0. 0. 0. 0. 0. 0. 0. 2.97350511e-02
      2.97350511e-02 5.94701022e-02 2.97350511e-02 0. 0. 0.
      2.97350511e-02 0. 2.97350511e-02 0. 0. 0. 0. 2.97350511e-02 0. 0.
      8.92051533e-02 2.97350511e-02 2.97350511e-02 0. 0. 0.
      2.97350511e-02 0. 2.97350511e-02 0. 2.97350511e-02 2.97350511e-02
      5.94701022e-02 5.94701022e-02 5.94701022e-02 0. 0. 9.57794487e-01
      0. 0. 0. 0. 0. 0. 2.45588329e-02 0. 0. 0. 0. 0. 0. 7.36764967e-02
      0. 0. 0. 0. 0. 0. 0. 0. 0. 0. 0. 0. 2.45588329e-02 0. 0. 0.
      2.45588329e-02 0. 0. 0. 0. 0. 0. 0. 0. 0. 0. 0. 0. 0. 0. 0. 0. 0.
      0. 0. 0. 0. 0. 0. 0. 0. 0. 2.45588329e-02 0. 0. 0. 2.45588329e-02
      4.91176657e-02 0. 0. 0. 0. 0. 0. 0. 0. 0. 0. 0. 0. 0. 0. 0. 0. 0.
      0. 0. 0. 0. 0. 0. 0. 0. 0. 0. 0. 0. 0. 0. 0. 0. 0. 0. 0. 0. 0. 0.
      2.45588329e-02 0. 0. 0. 0. 2.45588329e-02 0. 0. 0. 0. 0. 0. 0. 0.
      0. 0. 0. 2.45588329e-02 0. 0. 0. 4.91176657e-02 0. 2.45588329e-02
      2.45588329e-02 0. 2.45588329e-02 0. 1.47352993e-01 0. 0.
      2.45588329e-02 2.45588329e-02 0. 0. 0. 0. 0. 0. 0. 0. 0. 0. 0. 0.
      0. 0. 0. 0. 0. 0. 0. 2.45588329e-02 0. 0. 0. 0. 0. 4.91176657e-02
      0. 0. 0. 0. 0. 0. 0. 0. 0. 0. 0. 0. 0. 0. 0. 0. 0. 0. 0. 0. 0. 0.
      0. 0. 0. 0. 0. 0. 0. 0. 0. 0. 0. 2.45588329e-02 0. 0. 0.
      7.36764967e-02 0. 0. 0. 0. 0. 0. 2.45588329e-02 4.91176657e-02 0.
      0. 0. 0. 0. 0. 0. 0. 0. 0. 0. 0. 0. 0. 0. 2.45588329e-02
      4.91176657e-02 7.36764967e-02 2.45588329e-02 2.45588329e-02 0. 0.
      0. 1.22794166e-01 0. 0. 0. 0. 0. 0. 0. 4.91176657e-02 0.
      4.91176657e-02 0. 0. 0. 0. 0. 2.45588329e-02 0. 0. 0. 0. 0. 0.
      2.45588329e-02 0. 9.35128987e-01 0. 0. 2.92227808e-02 0. 0. 0.
      5.84455617e-02 2.92227808e-02 0. 0. 0. 0. 0. 0. 0. 0. 0. 0. 0. 0.
      0. 0. 0. 0. 0. 0. 0. 2.92227808e-02 0. 0. 2.92227808e-02 0. 0. 0.
      0. 0. 0. 0. 0. 0. 0. 0. 0. 0. 0. 0. 0. 0. 0. 0. 0. 0. 0. 0. 0.
      2.92227808e-02 0. 0. 0. 0. 0. 0. 2.92227808e-02 0. 0. 0. 0. 0. 0.
      0. 0. 0. 0. 0. 0. 0. 0. 0. 2.92227808e-02 0. 0. 0. 0. 0. 0. 0. 0.
      0. 0. 0. 0. 0. 0. 0. 0. 0. 0. 0. 0. 0. 0. 0. 0. 2.92227808e-02 0.
      0. 0. 0. 0. 0. 0. 2.92227808e-02 0. 0. 0. 0. 0. 0. 0.
      5.84455617e-02 0. 0. 0. 2.92227808e-02 0. 2.92227808e-02
      5.84455617e-02 2.92227808e-02 0. 0. 1.16891123e-01 0. 0. 0. 0. 0.
      0. 0. 0. 0. 0. 0. 5.84455617e-02 0. 0. 0. 0. 0. 0. 0. 0. 0. 0. 0.
      2.92227808e-02 0. 0. 0. 2.92227808e-02 0. 0. 0. 0. 0. 0. 0. 0.
      2.92227808e-02 0. 0. 0. 0. 0. 2.92227808e-02 0. 0. 0. 0. 0. 0. 0.
      0. 0. 2.92227808e-02 0. 0. 0. 0. 0. 0. 2.92227808e-02
      2.92227808e-02 8.76683444e-02 0. 1.46113902e-01 2.92227808e-02 0.
      0. 8.76683444e-02 0. 0. 0. 0. 0. 0. 0. 5.84455617e-02 0. 0. 0.
      2.92227808e-02 0. 0. 0. 0. 0. 0. 0. 0. 0. 0. 0. 0. 2.92227808e-02
      8.76683444e-02 0. 1.16891123e-01 0. 0. 0. 8.76683444e-02 0. 0. 0.
      0. 0. 0. 0. 0. 2.92227808e-02 2.92227808e-02 0. 2.92227808e-02 0.
      0. 0. 0. 0. 8.76683444e-02 0. 0. 0. 0. 0. 0. 8.36079597e-01 0. 0.
      0. 0. 0. 0. 0. 0. 0. 0. 0. 0. 0. 0. 0. 0. 0. 0. 0. 0. 0. 0. 0. 0.
      0. 0. 0. 0. 0. 0. 0. 0. 0. 0. 0. 0. 0. 0. 0. 0. 0. 0. 0. 0. 0. 0.
      0. 0. 0. 0. 0. 0. 0. 0. 0. 0. 0. 0. 0. 0. 0. 0. 0. 0. 0. 0. 0. 0.
      0. 0. 0. 0. 0. 0. 0. 0. 0. 0. 0. 0. 0. 0. 0. 0. 0. 0. 0. 0. 0. 0.
      0. 0. 0. 0. 0. 0. 0. 0. 0. 0. 0. 0. 0. 0. 0. 0. 0. 0. 0. 0. 0. 0.
      0. 0. 0. 0. 0. 0. 0. 0. 0. 0. 0. 0. 0. 0. 0. 0. 0. 0.
      2.32244339e-02 0. 0. 0. 0. 0. 0. 0. 0. 0. 0. 0. 0. 0. 0. 0. 0. 0.
      0. 0. 0. 0. 0. 0. 0. 0. 0. 0. 0. 0. 0. 0. 0. 0. 0. 0. 0. 0. 0. 0.
      0. 0. 0. 0. 0. 0. 0. 0. 0. 0. 0. 0. 0. 0. 0. 0. 0. 0. 0. 0. 0.
      2.32244339e-02 9.28977355e-02 0. 3.48366499e-01 0. 0. 0.
      9.28977355e-02 0. 0. 0. 0. 0. 0. 0. 2.32244339e-02 0. 0. 0. 0. 0.
      0. 0. 0. 0. 0. 0. 0. 0. 0. 0. 0. 2.32244339e-02 1.16122171e-01 0.
      3.48366499e-01 0. 0. 0. 9.28977355e-02 0. 2.32244339e-02 0. 0. 0.
      0. 0. 4.64488678e-02 2.32244339e-02 4.64488678e-02 0.
      9.28977355e-02 0. 0. 0. 4.64488678e-02 0. 0. 0. 2.32244339e-02 0.
      0. 0. 0.</_>
    <_>
      9.11755323e-01 0. 0. 0. 0. 0. 0. 0. 5.52578978e-02 0. 0. 0. 0. 0.
      2.76289489e-02 0. 0. 0. 0. 2.76289489e-02 0. 2.76289489e-02 0. 0.
      0. 2.76289489e-02 2.76289489e-02 0. 0. 0. 0. 5.52578978e-02 0.
      2.76289489e-02 0. 0. 2.76289489e-02 0. 0. 0. 0. 0. 0. 0. 0. 0. 0.
      0. 0. 0. 0. 0. 0. 0. 0. 0. 5.52578978e-02 0. 0. 0. 0. 0. 0.
      2.76289489e-02 2.76289489e-02 0. 0. 0. 0. 0. 0. 0. 0. 0. 0. 0. 0.
      0. 0. 0. 0. 0. 0. 0. 0. 0. 0. 0. 0. 0. 0. 0. 0. 0. 0. 0.
      8.28868449e-02 0. 0. 0. 0. 0. 2.76289489e-02 0. 0. 0. 0. 0.
      2.76289489e-02 0. 0. 0. 0. 0. 0. 0. 0. 0. 0. 0. 3.03918451e-01 0.
      0. 0. 5.52578978e-02 2.76289489e-02 5.52578978e-02 2.76289489e-02
      8.28868449e-02 0. 2.76289489e-02 0. 2.76289489e-02 0. 0.
      5.52578978e-02 0. 0. 0. 0. 0. 0. 0. 2.76289489e-02 0. 0. 0. 0. 0.
      0. 0. 0. 0. 0. 0. 0. 0. 0. 0. 0. 0. 0. 0. 0. 0. 0. 0. 0. 0. 0. 0.
      0. 0. 0. 0. 0. 0. 0. 0. 0. 0. 0. 0. 0. 0. 0. 0. 0. 0. 0. 0. 0. 0.
      2.76289489e-02 0. 2.76289489e-02 0. 0. 0. 5.52578978e-02 0. 0. 0.
      0. 0. 0. 0. 0. 0. 0. 0. 8.28868449e-02 0. 0. 0. 0. 0. 0. 0. 0. 0.
      0. 0. 0. 2.76289489e-02 0. 0. 8.28868449e-02 0. 0. 0. 0. 0. 0. 0.
      0. 0. 0. 0. 0. 0. 5.52578978e-02 0. 2.76289489e-02 0. 0. 0.
      2.76289489e-02 2.76289489e-02 2.76289489e-02 0. 8.28868449e-02 0.
      0. 0. 0. 9.21379387e-01 0. 0. 0. 0. 0. 0. 0. 0. 0. 0. 0. 0. 0. 0.
      0. 2.97219157e-02 0. 0. 2.97219157e-02 0. 2.97219157e-02 0. 0. 0.
      0. 2.97219157e-02 0. 0. 0. 0. 0. 5.94438314e-02 2.97219157e-02 0.
      0. 2.97219157e-02 0. 0. 0. 0. 0. 0. 0. 0. 0. 0. 0. 0. 0. 0. 0. 0.
      0. 0. 0. 5.94438314e-02 0. 0. 0. 5.94438314e-02 2.97219157e-02 0.
      0. 5.94438314e-02 0. 0. 0. 0. 0. 0. 0. 0. 0. 0. 0. 0. 0. 0. 0. 0.
      0. 0. 0. 0. 0. 0. 0. 0. 0. 0. 0. 0. 0. 0. 0. 2.97219157e-02 0. 0.
      0. 0. 0. 0. 0. 0. 0. 0. 0. 0. 0. 0. 0. 8.91657472e-02 0. 0. 0. 0.
      0. 0. 0. 1.48609579e-01 0. 2.97219157e-02 0. 1.18887663e-01
      2.97219157e-02 2.97219157e-02 2.97219157e-02 2.97219157e-02 0. 0.
      2.97219157e-02 0. 0. 0. 0. 0. 0. 0. 0. 0. 0. 0. 0. 0. 0. 0.
      2.97219157e-02 0. 0. 0. 0. 0. 0. 0. 0. 0. 0. 0. 0. 0. 0. 0. 0. 0.
      0. 0. 0. 0. 0. 0. 0. 0. 0. 0. 0. 0. 0. 0. 0. 0. 0. 0. 0. 0.
      2.97219157e-02 0. 0. 0. 2.97219157e-02 0. 0. 8.91657472e-02 0. 0.
      1.48609579e-01 0. 0. 2.97219157e-02 2.97219157e-02 0. 0. 0. 0. 0.
      0. 0. 0. 0. 0. 0. 5.94438314e-02 0. 0. 0. 0. 0. 0. 0. 0. 0. 0. 0.
      2.97219157e-02 1.48609579e-01 0. 0. 0. 0. 0. 2.97219157e-02 0. 0.
      0. 0. 0. 0. 0. 0. 0. 5.94438314e-02 5.94438314e-02 0.
      5.94438314e-02 0. 0. 0. 0. 0. 2.97219157e-02 0. 5.94438314e-02
      5.94438314e-02 0. 0. 0. 9.46513593e-01 0. 0. 0. 0. 0.
      5.91570996e-02 0. 0. 0. 0. 0. 0. 0. 2.95785498e-02 0. 0. 0. 0.
      2.95785498e-02 0. 2.95785498e-02 0. 0. 2.95785498e-02 0.
      2.95785498e-02 0. 2.95785498e-02 0. 5.91570996e-02 2.95785498e-02
      0. 2.95785498e-02 0. 0. 2.95785498e-02 0. 0. 0. 0. 0. 0. 0. 0. 0.
      0. 0. 2.95785498e-02 0. 0. 0. 0. 0. 0. 0. 8.87356475e-02 0. 0. 0.
      5.91570996e-02 0. 5.91570996e-02 0. 0. 0. 0. 0. 0. 0. 0. 0. 0. 0.
      0. 0. 0. 0. 0. 0. 0. 0. 0. 0. 0. 0. 0. 0. 0. 0. 0. 0. 0. 0. 0. 0.
      0. 0. 0. 0. 0. 0. 0. 0. 0. 0. 0. 0. 0. 0. 0. 0. 2.95785498e-02 0.
      2.95785498e-02 0. 2.95785498e-02 0. 0. 0. 0. 0. 0. 0.
      5.91570996e-02 0. 5.91570996e-02 2.95785498e-02 0. 0. 0.
      5.91570996e-02 0. 0. 0. 0. 0. 0. 0. 0. 0. 0. 0. 0. 0. 0. 0. 0. 0.
      0. 0. 0. 2.95785498e-02 0. 0. 0. 0. 0. 0. 0. 0. 0. 0. 0. 0. 0. 0.
      0. 0. 0. 0. 0. 0. 0. 0. 0. 0. 0. 0. 0. 0. 0. 0. 0. 0. 0. 0. 0. 0.
      0. 0. 0. 2.95785498e-02 0. 0. 8.87356475e-02 0. 0. 0. 0.
      2.95785498e-02 0. 0. 0. 0. 0. 0. 0. 0. 0. 0. 0. 0. 0. 0. 0. 0. 0.
      0. 0. 0. 0. 0. 2.95785498e-02 2.95785498e-02 8.87356475e-02 0.
      2.95785498e-02 0. 0. 0. 2.95785498e-02 0. 0. 0. 0. 0. 0. 0. 0.
      2.95785498e-02 2.95785498e-02 0. 8.87356475e-02 0. 0. 0.
      2.95785498e-02 1.18314199e-01 2.95785498e-02 0. 2.95785498e-02
      8.87356475e-02 5.91570996e-02 0. 0. 8.90591741e-01 0. 0. 0. 0. 0.
      0. 5.39752580e-02 2.69876290e-02 0. 0. 0. 2.69876290e-02 0.
      1.07950516e-01 1.88913405e-01 0. 0. 0. 2.69876290e-02 0.
      2.69876290e-02 0. 0. 5.39752580e-02 0. 2.69876290e-02
      2.69876290e-02 2.69876290e-02 0. 2.96863914e-01 1.34938151e-01 0.
      2.69876290e-02 0. 0. 2.69876290e-02 0. 0. 0. 0. 0. 0. 0. 0. 0. 0.
      0. 5.39752580e-02 0. 0. 0. 0. 0. 0. 0. 0. 0. 0. 0. 2.69876290e-02
      0. 5.39752580e-02 5.39752580e-02 0. 0. 0. 0. 0. 0. 0. 0.
      2.69876290e-02 0. 0. 0. 0. 0. 0. 0. 0. 0. 0. 0. 0. 0. 0. 0. 0. 0.
      0. 0. 0. 0. 0. 0. 0. 0. 0. 0. 0. 0. 0. 0. 0. 0. 0. 0.
      2.69876290e-02 0. 0. 0. 0. 0. 0. 0. 0. 0. 0. 0. 2.69876290e-02 0.
      0. 0. 0. 0. 1.34938151e-01 0. 0. 0. 0. 0. 0. 0. 2.69876290e-02
      5.39752580e-02 0. 0. 0. 0. 0. 0. 0. 0. 0. 0. 0. 0. 0. 0. 0. 0.
      2.69876290e-02 0. 0. 0. 0. 0. 0. 0. 0. 0. 0. 0. 0. 0. 0. 0. 0. 0.
      0. 0. 0. 0. 0. 0. 0. 0. 0. 0. 0. 0. 0. 0. 2.69876290e-02
      2.69876290e-02 0. 0. 0. 0. 0. 0. 0. 0. 0. 0. 0. 0. 2.69876290e-02
      0. 0. 0. 0. 0. 0. 0. 0. 0. 0. 0. 0. 0. 0. 0. 0. 0. 0. 0. 0. 0. 0.
      0. 0. 2.69876290e-02 0. 0. 0. 0. 0. 0. 0. 0. 0. 0. 0. 0. 0. 0. 0.
      0. 2.69876290e-02 0. 0. 0. 0. 0. 0. 0. 0. 0. 0. 0. 5.39752580e-02
      0. 0. 0. 8.95477176e-01 0. 0. 0. 2.79836617e-02 0. 2.79836617e-02
      0. 2.79836617e-02 0. 0. 0. 2.79836617e-02 0. 2.79836617e-02
      2.79836617e-02 0. 0. 0. 2.79836617e-02 0. 2.79836617e-02 0. 0. 0.
      0. 2.79836617e-02 0. 0. 0. 0. 0. 0. 2.79836617e-02 0. 0.
      2.79836617e-02 0. 0. 0. 0. 0. 0. 0. 0. 0. 0. 0. 0. 0. 0. 0. 0. 0.
      0. 0. 2.79836617e-02 0. 0. 0. 8.39509815e-02 0. 0. 8.39509815e-02
      5.59673235e-02 0. 0. 0. 0. 0. 0. 0. 0. 0. 0. 0. 2.79836617e-02 0.
      0. 0. 0. 0. 0. 0. 0. 0. 0. 0. 0. 0. 0. 0. 0. 0. 0. 0.
      2.79836617e-02 0. 0. 0. 0. 0. 0. 0. 0. 0. 0. 0. 0. 0. 0. 0. 0. 0.
      0. 0. 0. 0. 0. 0. 1.67901963e-01 5.59673235e-02 0. 0.
      1.11934647e-01 0. 0. 5.59673235e-02 0. 0. 2.79836617e-02
      8.39509815e-02 0. 0. 0. 3.07820290e-01 0. 0. 0. 0. 0. 0. 0.
      2.79836617e-02 0. 0. 0. 0. 0. 0. 0. 5.59673235e-02 0. 0. 0. 0. 0.
      0. 0. 0. 0. 0. 0. 0. 0. 0. 0. 0. 0. 0. 0. 0. 0. 0. 0. 0. 0. 0. 0.
      0. 0. 0. 0. 0. 0. 0. 0. 2.79836617e-02 0. 0. 0. 5.59673235e-02
      5.59673235e-02 0. 0. 0. 0. 0. 2.79836617e-02 8.39509815e-02 0. 0.
      0. 0. 0. 0. 0. 0. 0. 0. 0. 0. 0. 0. 0. 0. 0. 0. 0. 0. 0. 0. 0. 0.
      0. 0. 0. 0. 0. 0. 2.79836617e-02 0. 0. 0. 0. 0. 0. 0. 0. 0. 0. 0.
      0. 0. 0. 0. 0. 2.79836617e-02 0. 0. 0. 0. 0. 0. 0. 0.
      8.86498034e-01 0. 0. 0. 0. 0. 0. 0. 5.54061271e-02 0. 0. 0. 0. 0.
      0. 0. 0. 0. 0. 2.77030636e-02 0. 2.77030636e-02 0. 0. 0. 0.
      2.77030636e-02 0. 0. 0. 0. 0. 0. 2.77030636e-02 0. 0.
      2.77030636e-02 0. 0. 0. 0. 0. 0. 0. 0. 0. 0. 0. 0. 0. 0. 0. 0. 0.
      0. 0. 2.77030636e-02 0. 0. 0. 0. 0. 0. 0. 0. 0. 0. 0. 0. 0. 0. 0.
      0. 0. 0. 0. 0. 0. 0. 0. 0. 0. 0. 0. 0. 0. 0. 0. 0. 0. 0. 0. 0. 0.
      0. 0. 2.77030636e-02 0. 0. 0. 0. 0. 0. 0. 2.77030636e-02 0. 0. 0.
      0. 0. 0. 0. 5.54061271e-02 0. 0. 0. 0. 0. 0. 0. 8.31091926e-02 0.
      0. 0. 5.54061271e-02 0. 0. 0. 2.77030636e-02 8.31091926e-02 0.
      1.10812254e-01 0. 0. 2.77030636e-02 3.04733694e-01 0. 0. 0. 0. 0.
      0. 0. 0. 0. 0. 0. 0. 0. 0. 0. 0. 0. 0. 0. 0. 0. 0. 0. 0. 0. 0. 0.
      0. 0. 0. 0. 0. 0. 0. 0. 0. 0. 0. 0. 0. 0. 0. 0. 0. 0. 0. 0. 0. 0.
      2.77030636e-02 0. 0. 0. 0. 0. 0. 5.54061271e-02 2.77030636e-02 0.
      0. 0. 0. 2.77030636e-02 8.31091926e-02 0. 0. 0. 0. 0. 0. 0. 0. 0.
      0. 0. 0. 0. 0. 0. 0. 0. 0. 0. 2.77030636e-02 0. 0. 0. 0.
      8.31091926e-02 5.54061271e-02 0. 0. 2.77030636e-02 0. 0.
      2.77030636e-02 0. 0. 0. 0. 0. 0. 0. 0. 0. 5.54061271e-02 0. 0. 0.
      0. 0. 2.21624509e-01 2.77030636e-02 2.77030636e-02 0. 0. 0. 0. 0.
      0. 8.66119087e-01 0. 2.54740901e-02 0. 0. 0. 0. 0. 5.09481803e-02
      0. 0. 0. 5.09481803e-02 0. 1.01896361e-01 0. 0. 0. 0.
      2.54740901e-02 0. 2.54740901e-02 0. 0. 0. 0. 2.54740901e-02 0. 0.
      0. 0. 0. 0. 2.54740901e-02 0. 0. 2.54740901e-02 0. 0. 0. 0. 0. 0.
      0. 0. 0. 0. 0. 0. 0. 0. 0. 0. 0. 0. 0. 1.01896361e-01 0. 0. 0. 0.
      0. 0. 0. 2.54740901e-02 0. 0. 0. 0. 0. 0. 0. 0. 0. 0. 0. 0. 0. 0.
      0. 0. 0. 0. 0. 0. 0. 0. 0. 0. 0. 0. 0. 0. 0. 0. 0. 0. 0. 0. 0. 0.
      0. 0. 0. 0. 0. 0. 0. 0. 0. 0. 0. 5.09481803e-02 0. 0. 0. 0. 0. 0.
      2.54740901e-02 4.07585442e-01 5.09481803e-02 0. 0. 5.09481803e-02
      0. 2.54740901e-02 5.09481803e-02 0. 0. 0. 7.64222741e-02 0. 0.
      2.54740901e-02 5.09481803e-02 0. 0. 2.54740901e-02 0. 0.
      5.09481803e-02 0. 0. 0. 0. 0. 0. 0. 0. 0. 0. 0. 0. 0. 0. 0. 0. 0.
      0. 0. 0. 0. 0. 0. 0. 0. 0. 0. 0. 0. 0. 0. 0. 0. 0. 0. 0. 0. 0. 0.
      0. 0. 2.54740901e-02 0. 0. 0. 0. 0. 0. 0. 0. 5.09481803e-02 0. 0.
      0. 0. 0. 0. 0. 0. 0. 0. 0. 0. 0. 0. 0. 0. 0. 0. 0. 0. 0. 0. 0. 0.
      0. 0. 0. 0. 0. 0. 0. 0. 0. 0. 0. 0. 0. 0. 0. 0. 0. 0. 0. 0. 0. 0.
      0. 0. 0. 0. 0. 0. 0. 0. 5.09481803e-02 1.52844548e-01 0. 0. 0. 0.
      0. 0. 0. 9.16909218e-01 0. 0. 0. 0. 0. 2.86534131e-02 0.
      2.86534131e-02 0. 0. 0. 0. 0. 0. 0. 0. 0. 0. 2.86534131e-02 0.
      2.86534131e-02 0. 0. 0. 2.86534131e-02 2.86534131e-02 0. 0. 0. 0.
      0. 0. 2.86534131e-02 0. 0. 2.86534131e-02 0. 0. 0. 2.86534131e-02
      0. 0. 0. 0. 0. 0. 0. 0. 0. 0. 0. 0. 0. 0. 0. 0. 0. 0. 0. 0. 0. 0.
      0. 0. 0. 0. 0. 0. 0. 0. 0. 0. 0. 0. 0. 0. 0. 2.86534131e-02 0. 0.
      0. 0. 0. 0. 0. 0. 0. 0. 0. 0. 0. 0. 0. 0. 0. 8.59602392e-02 0. 0.
      0. 0. 0. 0. 0. 0. 0. 0. 0. 0. 0. 0. 0. 0. 0. 0. 0. 0. 0. 0. 0. 0.
      5.73068261e-02 0. 0. 0. 0. 0. 0. 5.73068261e-02 0. 0.
      2.86534131e-02 0. 0. 0. 2.00573891e-01 2.86534131e-02 0. 0. 0. 0.
      0. 0. 2.86534131e-02 0. 0. 0. 0. 0. 0. 0. 0. 0. 0. 0. 0. 0. 0. 0.
      0. 0. 0. 0. 0. 0. 0. 0. 0. 0. 0. 0. 0. 0. 0. 0. 0. 0. 0. 0. 0. 0.
      0. 0. 0. 0. 0. 0. 0. 0. 0. 0. 0. 8.59602392e-02 2.86534131e-02
      2.86534131e-02 8.59602392e-02 0. 0. 5.73068261e-02 8.59602392e-02
      0. 0. 0. 0. 0. 0. 0. 0. 0. 0. 0. 0. 0. 0. 0. 0. 0. 0. 0.
      2.86534131e-02 0. 0. 0. 0. 8.59602392e-02 5.73068261e-02 0.
      2.86534131e-02 2.86534131e-02 0. 0. 2.86534131e-02 0. 0. 0. 0. 0.
      0. 0. 0. 5.73068261e-02 1.71920478e-01 0. 5.73068261e-02 0. 0. 0.
      1.14613652e-01 5.73068261e-02 0. 0. 2.86534131e-02 0. 0. 0. 0.
      8.55844378e-01 0. 0. 0. 0. 0. 0. 2.76078824e-02 0. 0. 0. 0. 0. 0.
      0. 0. 0. 0. 0. 2.76078824e-02 0. 2.76078824e-02 0. 0. 0. 0.
      2.76078824e-02 0. 0. 0. 0. 5.52157648e-02 0. 2.76078824e-02 0. 0.
      2.76078824e-02 0. 0. 0. 0. 0. 0. 0. 0. 0. 0. 0. 0. 0. 0. 0. 0. 0.
      0. 0. 0. 0. 0. 0. 0. 0. 0. 0. 0. 0. 0. 0. 0. 0. 0. 0. 0. 0. 0. 0.
      0. 0. 0. 0. 0. 0. 0. 0. 0. 0. 0. 0. 0. 0. 0. 0. 0. 0. 0. 0. 0. 0.
      0. 0. 0. 0. 0. 0. 0. 0. 0. 0. 0. 0. 0. 0. 2.76078824e-02 0. 0. 0.
      0. 0. 0. 0. 2.76078824e-02 0. 0. 0. 2.76078824e-02 0.
      2.76078824e-02 2.76078824e-02 2.76078824e-02 0. 0. 1.93255171e-01
      0. 0. 0. 3.58902484e-01 0. 0. 0. 0. 0. 0. 0. 1.38039410e-01 0. 0.
      0. 0. 0. 0. 0. 0. 0. 0. 0. 0. 0. 0. 0. 0. 0. 0. 0. 0. 0. 0. 0. 0.
      0. 0. 0. 0. 0. 0. 0. 0. 0. 0. 0. 0. 0. 0. 0. 0. 0. 0. 0. 0. 0. 0.
      0. 0. 1.38039410e-01 0. 0. 0. 0. 0. 0. 8.28236490e-02 0. 0. 0. 0.
      0. 0. 0. 0. 0. 0. 0. 0. 0. 0. 0. 0. 0. 0. 0. 0. 0. 0. 0. 0.
      8.28236490e-02 8.28236490e-02 0. 5.52157648e-02 0. 0. 0.
      2.76078824e-02 0. 0. 0. 0. 0. 0. 0. 0. 8.28236490e-02
      8.28236490e-02 0. 0. 0. 0. 0. 2.76078824e-02 1.10431530e-01 0. 0.
      0. 0. 0. 0. 0.</_>
    <_>
      8.13539028e-01 0. 2.62431949e-02 2.62431949e-02 0. 0. 0. 0. 0. 0.
      0. 0. 0. 0. 2.62431949e-02 0. 2.62431949e-02 2.62431949e-02 0. 0.
      0. 0. 2.62431949e-02 0. 0. 0. 0. 0. 5.24863899e-02 0.
      1.31215975e-01 0. 2.62431949e-02 0. 0. 0. 0. 0. 0. 0. 0. 0. 0. 0.
      0. 0. 0. 0. 2.62431949e-02 0. 0. 0. 0. 0. 0. 0. 1.04972780e-01 0.
      0. 0. 3.93647909e-01 0. 3.41161549e-01 0. 0. 0. 0. 0. 0. 0. 0. 0.
      0. 0. 0. 0. 0. 0. 0. 0. 0. 0. 0. 0. 0. 0. 0. 0. 0. 0. 0. 0. 0. 0.
      0. 0. 2.62431949e-02 0. 0. 0. 0. 0. 0. 0. 0. 0. 0. 0. 0. 0. 0. 0.
      0. 0. 0. 0. 0. 0. 0. 0. 1.04972780e-01 0. 0. 0. 5.24863899e-02 0.
      7.87295848e-02 0. 0. 0. 0. 0. 0. 0. 0. 0. 0. 0. 0. 0. 0. 0. 0. 0.
      0. 0. 0. 0. 0. 0. 0. 0. 0. 0. 0. 0. 0. 0. 0. 2.62431949e-02 0. 0.
      0. 0. 0. 0. 0. 0. 0. 0. 0. 0. 0. 0. 0. 0. 0. 0. 0. 0. 0. 0. 0. 0.
      0. 0. 0. 0. 0. 0. 0. 0. 0. 0. 0. 0. 0. 0. 0. 0. 0. 0. 0. 0. 0. 0.
      2.62431949e-02 2.62431949e-02 0. 0. 0. 0. 0. 0. 0. 0. 0. 0. 0. 0.
      0. 0. 0. 0. 2.62431949e-02 0. 0. 0. 0. 0. 0. 0. 0. 0. 0. 0. 0. 0.
      0. 0. 0. 0. 0. 2.62431949e-02 0. 0. 0. 0. 0. 0. 0. 0.
      7.87295848e-02 0. 0. 0. 8.12015355e-01 0. 0. 0. 0. 0. 0.
      2.53754798e-02 2.53754798e-02 0. 0. 0. 2.53754798e-02 0.
      2.53754798e-02 3.80632192e-01 2.53754798e-02 2.53754798e-02 0. 0.
      0. 0. 2.53754798e-02 0. 0. 0. 0. 0. 1.26877397e-01 0.
      2.53754798e-02 0. 0. 0. 0. 0. 0. 0. 0. 0. 0. 0. 0. 0. 0. 0. 0. 0.
      0. 0. 0. 0. 0. 0. 0. 0. 2.53754798e-02 0. 0. 0. 3.80632192e-01 0.
      0. 0. 0. 0. 0. 0. 0. 0. 0. 0. 0. 0. 0. 0. 0. 0. 0. 0. 0. 0. 0. 0.
      0. 0. 0. 0. 0. 0. 0. 0. 0. 0. 0. 0. 0. 0. 0. 0. 0. 0. 0. 0. 0. 0.
      0. 0. 0. 0. 0. 0. 2.53754798e-02 0. 0. 0. 0. 0. 0. 0.
      2.53754798e-02 0. 0. 0. 5.07509597e-02 0. 7.61264414e-02 0. 0. 0.
      0. 0. 0. 0. 0. 2.53754798e-02 0. 0. 0. 0. 0. 0. 0. 1.01501919e-01
      0. 0. 0. 0. 0. 0. 0. 0. 0. 0. 0. 0. 2.53754798e-02 0. 0. 0. 0. 0.
      0. 0. 0. 0. 0. 0. 0. 0. 0. 0. 0. 0. 0. 0. 0. 0. 0. 0. 0. 0. 0. 0.
      0. 0. 0. 0. 0. 0. 0. 0. 0. 0. 0. 0. 0. 0. 0. 0. 0. 0. 0. 0. 0. 0.
      0. 0. 0. 0. 0. 0. 0. 0. 0. 0. 0. 0. 0. 0. 0. 0. 0. 0. 0. 0. 0.
      2.53754798e-02 0. 0. 0. 2.53754798e-02 0. 0. 0. 0. 0. 0. 0.
      2.53754798e-02 0. 0. 0. 2.53754798e-02 0. 0. 0. 0. 2.53754798e-02
      0. 2.53754798e-02 2.53754798e-02 2.53754798e-02 5.07509597e-02 0.
      0. 8.92294168e-01 2.87836827e-02 0. 2.87836827e-02 0. 0. 0. 0. 0.
      0. 0. 0. 2.87836827e-02 0. 0. 0. 2.87836827e-02 2.87836827e-02 0.
      0. 0. 0. 2.87836827e-02 0. 5.75673655e-02 0. 0. 0. 2.87836827e-02
      0. 2.87836827e-02 0. 0. 0. 0. 0. 0. 0. 0. 0. 0. 0. 0. 0. 0. 0. 0.
      0. 0. 0. 0. 0. 0. 0. 0. 0. 5.75673655e-02 0. 0. 0. 0. 0. 0. 0. 0.
      0. 0. 0. 0. 0. 0. 0. 0. 0. 0. 0. 2.87836827e-02 0. 0. 0. 0. 0. 0.
      0. 0. 0. 0. 0. 0. 0. 0. 0. 0. 0. 0. 0. 0. 0. 0. 0. 0. 0. 0. 0. 0.
      0. 0. 0. 0. 0. 0. 0. 0. 0. 0. 0. 0. 0. 0. 0. 0. 0. 0. 0. 0. 0.
      2.87836827e-02 5.75673655e-02 0. 0. 0. 8.63510519e-02 0. 0. 0.
      5.75673655e-02 0. 0. 0. 0. 0. 0. 0. 5.75673655e-02 0. 0. 0. 0. 0.
      0. 0. 0. 0. 0. 0. 0. 0. 0. 0. 0. 0. 0. 0. 0. 0. 0. 0. 0. 0. 0. 0.
      0. 0. 0. 0. 0. 0. 0. 0. 0. 0. 0. 0. 0. 0. 0. 0. 0. 0. 0. 0. 0. 0.
      5.75673655e-02 0. 1.72702104e-01 0. 0. 0. 2.01485783e-01 0. 0. 0.
      0. 0. 0. 0. 8.63510519e-02 0. 0. 0. 0. 0. 0. 0. 0. 0. 0. 0. 0. 0.
      0. 0. 0. 0. 5.75673655e-02 0. 1.72702104e-01 0. 0. 0.
      5.75673655e-02 0. 0. 0. 0. 0. 0. 0. 0. 1.43918410e-01
