<?xml version="1.0"?>
<opencv_storage>
<opencv_ml_svm>
  <format>3</format>
  <svmType>C_SVC</svmType>
  <kernel>
    <type>RBF</type>
    <gamma>8.0000000000000002e-02</gamma></kernel>
  <C>3.</C>
  <term_criteria><iterations>1000</iterations></term_criteria>
  <var_count>4096</var_count>
  <class_count>2</class_count>
  <class_labels type_id="opencv-matrix">
    <rows>2</rows>
    <cols>1</cols>
    <dt>i</dt>
    <data>
      1 2</data></class_labels>
  <sv_total>83</sv_total>
  <support_vectors>
    <_>
      6.45746350e-01 0. 0. 3.58747989e-02 0. 0. 0. 0. 3.58747989e-02 0.
      0. 0. 0. 0. 2.86998391e-01 1.07624397e-01 0. 0. 0. 0. 0. 0. 0. 0.
      3.58747989e-02 0. 0. 0. 7.17495978e-02 0. 2.51123607e-01
      2.51123607e-01 0. 0. 0. 0. 0. 0. 0. 0. 0. 0. 0. 0. 0. 0. 0. 0. 0.
      0. 0. 0. 3.58747989e-02 0. 0. 0. 0. 0. 0. 0. 3.58747989e-02 0.
      2.51123607e-01 1.79373994e-01 0. 0. 0. 0. 3.58747989e-02 0. 0. 0.
      0. 0. 0. 0. 0. 0. 0. 0. 0. 0. 3.58747989e-02 0. 0. 7.17495978e-02
      0. 0. 0. 0. 0. 7.17495978e-02 0. 0. 0. 3.58747989e-02 0. 0. 0.
      3.58747989e-02 0. 0. 0. 0. 0. 0. 0. 0. 0. 0. 3.58747989e-02 0. 0.
      3.58747989e-02 0. 0. 0. 0. 3.58747989e-02 0. 0. 0. 0. 0. 0. 0.
      7.17495978e-02 3.58747989e-02 3.58747989e-02 0. 0. 0. 0. 0. 0. 0.
      0. 0. 0. 0. 0. 0. 0. 3.58747989e-02 0. 0. 0. 0. 0. 0. 0. 0.
      3.58747989e-02 0. 0. 0. 0. 0. 0. 4.66372371e-01 0. 0. 0. 0. 0. 0.
      0. 0. 0. 0. 0. 0. 0. 0. 7.17495978e-02 0. 0. 0. 0. 0. 0. 0. 0. 0.
      0. 0. 0. 0. 0. 0. 0. 3.58747989e-02 0. 0. 0. 0. 0. 0. 0. 0. 0. 0.
      0. 0. 0. 0. 0. 0. 0. 0. 0. 0. 0. 0. 0. 0. 0. 0. 0. 0. 0. 0. 0. 0.
      0. 0. 0. 0. 0. 0. 0. 0. 0. 0. 0. 0. 0. 0. 0. 0. 0. 0. 0. 0. 0. 0.
      0. 0. 0. 0. 0. 0. 3.58747989e-02 0. 3.58747989e-02 0.
      7.82608688e-01 0. 0. 4.34782617e-02 0. 0. 0. 0. 0. 0. 0. 0. 0. 0.
      0. 4.34782617e-02 0. 0. 0. 0. 0. 0. 0. 0. 8.69565234e-02 0. 0.
      4.34782617e-02 4.34782617e-02 0. 0. 0. 0. 0. 0. 0. 0. 0. 0. 0. 0.
      0. 0. 0. 0. 0. 0. 0. 0. 0. 0. 0. 4.34782617e-02 0. 0. 0.
      1.73913047e-01 0. 0. 0. 4.34782617e-02 0. 1.73913047e-01
      8.69565234e-02 0. 0. 0. 0. 4.34782617e-02 0. 0. 0. 0. 0. 0. 0. 0.
      0. 0. 0. 0. 0. 4.34782617e-02 0. 0. 8.69565234e-02 0. 0. 0. 0. 0.
      8.69565234e-02 0. 0. 0. 4.34782617e-02 0. 0. 0. 4.34782617e-02 0.
      0. 0. 0. 0. 0. 0. 0. 0. 0. 4.34782617e-02 0. 0. 4.34782617e-02 0.
      0. 0. 0. 4.34782617e-02 0. 8.69565234e-02 0. 0. 0. 2.17391312e-01
      0. 1.73913047e-01 1.30434781e-01 4.34782617e-02 0. 0.
      4.34782617e-02 0. 0. 0. 0. 0. 0. 0. 0. 0. 0. 0. 8.69565234e-02 0.
      0. 0. 0. 0. 0. 0. 0. 0. 0. 0. 0. 0. 0. 0. 4.34782617e-02 0. 0. 0.
      0. 0. 0. 0. 0. 0. 0. 0. 0. 0. 0. 8.69565234e-02 0. 0. 0. 0.
      4.34782617e-02 0. 0. 0. 0. 4.34782617e-02 0. 0. 0. 0. 0. 0. 0. 0.
      0. 0. 0. 0. 0. 0. 4.34782617e-02 0. 0. 0. 0. 0. 0. 0. 0. 0. 0. 0.
      0. 0. 0. 0. 0. 0. 0. 0. 0. 0. 0. 0. 0. 4.34782617e-02 0. 0.
      4.34782617e-02 0. 0. 4.34782617e-02 0. 0. 0. 0. 0. 0. 0. 0.
      4.34782617e-02 0. 0. 0. 0. 0. 0. 0. 4.34782617e-02 3.04347843e-01
      4.34782617e-02 0. 4.34782617e-02 1.73913047e-01 0. 8.69565234e-02
      0. 8.42664838e-01 0. 0. 0. 0. 0. 0. 0. 9.72305536e-02 0. 0. 0. 0.
      0. 6.48203716e-02 0. 0. 0. 0. 0. 0. 0. 0. 0. 0. 0. 0. 0. 0. 0.
      6.48203716e-02 0. 0. 0. 0. 0. 0. 0. 0. 0. 0. 0. 0. 0. 0. 0. 0. 0.
      0. 0. 0. 0. 0. 0. 0. 0. 2.26871297e-01 0. 0. 0. 1.29640743e-01 0.
      1.62050933e-01 0. 0. 0. 0. 0. 0. 0. 0. 0. 0. 0. 0. 0. 0. 0. 0.
      3.24101858e-02 0. 0. 3.24101858e-02 0. 0. 0. 0. 0. 0. 0. 0. 0. 0.
      0. 0. 0. 0. 0. 0. 0. 0. 0. 0. 0. 0. 0. 0. 0. 0. 0. 0. 0.
      3.24101858e-02 0. 0. 0. 0. 0. 0. 0. 2.59281486e-01 0. 0. 0.
      1.62050933e-01 0. 1.29640743e-01 9.72305536e-02 0. 0. 0. 0. 0. 0.
      0. 0. 0. 0. 0. 0. 0. 0. 0. 0. 0. 0. 0. 0. 0. 0. 0. 0. 0. 0. 0. 0.
      3.24101858e-02 0. 0. 0. 3.24101858e-02 0. 0. 0. 0. 0. 0. 0.
      3.24101858e-02 0. 0. 0. 0. 0. 6.48203716e-02 0. 0. 0. 0. 0. 0. 0.
      0. 0. 0. 0. 0. 0. 3.24101858e-02 0. 0. 0. 0. 0. 0. 0. 0. 0. 0. 0.
      0. 0. 0. 0. 0. 0. 0. 0. 0. 0. 0. 0. 0. 0. 0. 0. 0. 0. 0. 0. 0. 0.
      0. 0. 0. 0. 0. 0. 0. 0. 0. 0. 0. 0. 0. 0. 0. 0. 0. 0. 0. 0. 0. 0.
      0. 0. 3.24101858e-02 0. 1.29640743e-01 3.24101858e-02
      3.24101858e-02 0. 1.29640743e-01 0. 9.72305536e-02 0.
      7.97081172e-01 0. 0. 0. 0. 0. 0. 0. 3.06569673e-02 0. 0. 0. 0. 0.
      0. 9.19709057e-02 0. 0. 0. 0. 0. 0. 0. 0. 6.13139346e-02 0. 0. 0.
      0. 0. 0. 0. 0. 0. 0. 0. 0. 0. 0. 0. 0. 0. 0. 0. 0. 0. 0. 0.
      3.06569673e-02 0. 0. 0. 0. 0. 0. 0. 1.53284833e-01 0. 0. 0.
      3.06569673e-02 0. 0. 0. 0. 0. 0. 0. 0. 0. 0. 0. 0. 0. 0. 0. 0. 0.
      0. 3.06569673e-02 0. 0. 3.06569673e-02 0. 0. 0. 0. 0. 0. 0. 0. 0.
      0. 0. 0. 0. 0. 0. 0. 0. 0. 0. 0. 0. 0. 0. 0. 0. 0. 0. 0. 0. 0. 0.
      0. 0. 0. 0. 0. 0. 2.14598775e-01 0. 0. 0. 1.53284833e-01 0.
      3.06569673e-02 9.19709057e-02 0. 0. 0. 0. 0. 0. 0. 0.
      9.19709057e-02 0. 0. 0. 0. 0. 0. 1.53284833e-01 0. 0. 0. 0. 0. 0.
      0. 0. 3.06569673e-02 0. 0. 0. 0. 0. 0. 0. 3.06569673e-02 0. 0. 0.
      0. 0. 0. 0. 3.06569673e-02 0. 0. 0. 0. 0. 6.13139346e-02 0. 0. 0.
      0. 0. 0. 0. 0. 0. 3.06569673e-02 0. 0. 0. 3.06569673e-02 0. 0. 0.
      0. 0. 0. 0. 0. 0. 0. 0. 0. 0. 0. 0. 0. 0. 0. 0. 0. 0. 0. 0. 0. 0.
      0. 0. 0. 0. 0. 0. 0. 0. 0. 0. 0. 0. 0. 0. 0. 0. 0. 0. 0. 0. 0. 0.
      0. 0. 0. 0. 1.22627869e-01 0. 0. 0. 0. 0. 0. 3.06569673e-02
      4.29197550e-01 0. 0. 0. 6.13139346e-02 0. 3.06569673e-02 0.
      7.87878811e-01 0. 0. 0. 0. 0. 0. 0. 3.03030312e-02 0. 0. 0. 0. 0.
      3.93939406e-01 1.21212125e-01 0. 0. 0. 0. 0. 0. 0. 0. 0. 0. 0. 0.
      3.03030312e-02 0. 1.51515156e-01 3.33333343e-01 0. 0. 0. 0. 0. 0.
      0. 0. 0. 0. 0. 0. 0. 0. 0. 0. 0. 0. 0. 0. 0. 0. 0. 0. 0. 0. 0. 0.
      6.06060624e-02 0. 9.09090936e-02 6.06060624e-02 0. 0. 0. 0. 0. 0.
      0. 0. 0. 0. 0. 0. 0. 0. 0. 3.03030312e-02 0. 0. 3.03030312e-02 0.
      0. 0. 0. 0. 0. 0. 0. 0. 0. 0. 0. 0. 0. 0. 0. 0. 0. 0. 0. 0. 0. 0.
      0. 0. 0. 0. 0. 0. 0. 0. 0. 0. 0. 0. 0. 0. 6.06060624e-02 0. 0. 0.
      0. 0. 6.06060624e-02 6.06060624e-02 0. 0. 0. 0. 0. 0. 0. 0. 0. 0.
      0. 0. 0. 0. 0. 3.03030312e-02 0. 0. 0. 0. 0. 0. 0. 0. 0. 0. 0. 0.
      6.06060624e-02 0. 0. 1.21212125e-01 3.03030312e-02 0. 0. 0. 0. 0.
      0. 0. 3.03030312e-02 0. 0. 0. 0. 0. 6.06060624e-02 0. 0. 0. 0. 0.
      0. 0. 0. 0. 0. 0. 0. 0. 3.03030312e-02 0. 0. 0. 0. 0. 0. 0. 0. 0.
      0. 0. 0. 0. 0. 0. 0. 0. 0. 0. 0. 0. 0. 0. 0. 0. 0. 0. 0. 0. 0. 0.
      0. 0. 0. 0. 0. 0. 0. 0. 0. 0. 0. 0. 0. 0. 0. 0. 0. 0. 0. 0. 0. 0.
      0. 0. 0. 0. 0. 0. 3.03030312e-02 0. 0. 0. 1.21212125e-01 0.
      6.06060624e-02 0. 7.67365754e-01 0. 0. 0. 0. 0. 0. 0.
      2.95140669e-02 0. 0. 0. 2.95140669e-02 0. 8.85422006e-02
      2.36112535e-01 0. 0. 0. 0. 0. 0. 0. 0. 0. 0. 0. 0. 8.85422006e-02
      0. 2.65626609e-01 4.42710996e-01 0. 0. 0. 0. 0. 0. 0. 0. 0. 0. 0.
      0. 0. 0. 0. 0. 0. 0. 0. 0. 0. 0. 0. 0. 0. 0. 0. 0. 0.
      2.95140669e-02 5.90281337e-02 1.47570342e-01 0. 0. 0. 0. 0. 0. 0.
      0. 0. 0. 0. 0. 0. 0. 0. 2.95140669e-02 0. 0. 2.95140669e-02 0. 0.
      0. 0. 0. 0. 0. 0. 0. 0. 0. 0. 0. 0. 0. 0. 0. 0. 0. 0. 0. 0. 0. 0.
      0. 0. 0. 0. 0. 0. 0. 0. 0. 0. 0. 0. 0. 2.95140669e-02 0. 0. 0. 0.
      0. 1.18056267e-01 2.95140669e-02 2.95140669e-02 0. 0. 0. 0. 0. 0.
      2.95140669e-02 0. 0. 0. 0. 2.95140669e-02 2.95140669e-02 0.
      5.90281337e-02 0. 0. 0. 0. 0. 0. 0. 0. 0. 0. 0. 0. 0. 0. 0.
      1.18056267e-01 2.95140669e-02 0. 0. 0. 0. 0. 0. 0. 2.95140669e-02
      0. 0. 0. 0. 0. 5.90281337e-02 0. 0. 0. 0. 0. 0. 0. 0. 0. 0. 0. 0.
      0. 2.95140669e-02 0. 0. 2.95140669e-02 0. 0. 0. 0. 0. 0. 0. 0. 0.
      0. 0. 0. 0. 0. 0. 0. 0. 0. 0. 0. 0. 0. 0. 0. 0. 0. 0. 0. 0. 0. 0.
      0. 0. 0. 0. 0. 0. 0. 0. 0. 0. 0. 0. 0. 0. 0. 0. 0. 0. 0. 0. 0. 0.
      0. 0. 0. 0. 0. 0. 0. 0. 0. 0. 0. 8.11502695e-01 0. 0. 0. 0. 0. 0.
      0. 3.00556552e-02 0. 0. 0. 0. 0. 9.01669636e-02 1.20222621e-01 0.
      0. 0. 0. 0. 0. 0. 0. 0. 0. 0. 0. 6.01113103e-02 0. 2.70500898e-01
      2.40445241e-01 0. 0. 0. 0. 0. 0. 0. 0. 0. 0. 0. 0. 0. 0. 0. 0. 0.
      0. 0. 0. 0. 0. 0. 0. 3.00556552e-02 0. 0. 0. 0. 0. 2.70500898e-01
      2.40445241e-01 0. 0. 0. 0. 0. 0. 0. 0. 0. 0. 0. 0. 0. 0. 0.
      3.00556552e-02 0. 0. 3.00556552e-02 0. 0. 0. 0. 0. 0. 0. 0. 0. 0.
      0. 0. 0. 0. 0. 0. 0. 0. 0. 0. 0. 0. 0. 0. 0. 0. 0. 0. 0. 0. 0. 0.
      0. 0. 0. 0. 0. 3.00556552e-02 0. 0. 0. 0. 0. 0. 9.01669636e-02 0.
      0. 0. 0. 0. 0. 0. 0. 0. 0. 0. 0. 0. 0. 0. 3.00556552e-02 0. 0. 0.
      0. 0. 0. 0. 0. 0. 0. 0. 0. 3.00556552e-02 0. 3.00556552e-02
      9.01669636e-02 3.00556552e-02 0. 0. 0. 0. 0. 0. 0. 3.00556552e-02
      0. 0. 0. 0. 0. 6.01113103e-02 0. 0. 0. 0. 0. 0. 0. 0. 0. 0. 0. 0.
      0. 3.00556552e-02 0. 3.00556552e-02 1.50278270e-01 0. 0. 0. 0. 0.
      0. 0. 0. 0. 0. 0. 0. 0. 0. 0. 0. 0. 0. 0. 0. 0. 0. 0. 0. 0. 0. 0.
      0. 0. 0. 0. 0. 0. 0. 0. 0. 0. 0. 0. 0. 0. 0. 0. 0. 0. 0. 0. 0. 0.
      0. 0. 0. 0. 0. 0. 0. 0. 0. 0. 0. 0. 0. 0. 0. 7.62073517e-01 0. 0.
      0. 0. 0. 0. 2.93105189e-02 0. 0. 0. 0. 2.93105189e-02 0.
      2.34484151e-01 3.81036758e-01 0. 0. 0. 0. 0. 0. 0. 0. 0. 0. 0. 0.
      0. 0. 1.75863117e-01 1.17242076e-01 0. 0. 0. 0. 0. 0. 0. 0. 0. 0.
      0. 0. 0. 0. 0. 0. 0. 0. 0. 0. 0. 0. 0. 0. 0. 0. 0. 0.
      2.93105189e-02 0. 1.17242076e-01 0. 0. 0. 0. 0. 0. 0. 0. 0. 0. 0.
      0. 0. 0. 0. 0. 2.93105189e-02 0. 0. 2.93105189e-02 0. 0. 0. 0. 0.
      0. 0. 0. 0. 0. 0. 0. 0. 0. 0. 0. 0. 0. 0. 0. 0. 0. 0. 0. 0. 0. 0.
      0. 0. 0. 0. 0. 0. 0. 0. 0. 0. 2.93105189e-02 0. 0. 0. 0. 0.
      2.93105189e-02 2.93105189e-02 0. 0. 0. 0. 0. 0. 0. 1.17242076e-01
      0. 0. 0. 0. 0. 0. 0. 3.51726234e-01 0. 0. 0. 0. 0. 0. 0. 0. 0. 0.
      0. 0. 0. 0. 2.93105189e-02 0. 2.93105189e-02 0. 0. 0. 0. 0. 0. 0.
      2.93105189e-02 0. 0. 0. 0. 0. 5.86210378e-02 2.93105189e-02 0. 0.
      0. 0. 0. 0. 0. 0. 0. 0. 0. 0. 2.93105189e-02 0. 0. 5.86210378e-02
      0. 0. 0. 0. 0. 0. 0. 0. 0. 0. 0. 0. 0. 0. 0. 5.86210378e-02 0. 0.
      0. 0. 0. 0. 0. 0. 0. 0. 0. 0. 0. 0. 0. 0. 0. 0. 0. 0. 0. 0. 0. 0.
      0. 0. 0. 0. 0. 0. 0. 2.93105189e-02 0. 0. 0. 0. 0. 0. 0. 0. 0. 0.
      0. 2.93105189e-02 0. 0. 0. 0. 8.28428924e-01 0. 0. 0. 0. 0. 0. 0.
      3.18626501e-02 0. 0. 0. 0. 0. 0. 0. 0. 0. 0. 0. 0. 0. 0. 0.
      3.18626501e-02 0. 0. 0. 0. 0. 3.18626501e-02 0. 0. 0. 0. 0. 0. 0.
      0. 0. 0. 0. 0. 0. 0. 0. 0. 0. 9.55879539e-02 0. 0. 0. 0. 0. 0. 0.
      2.86763847e-01 0. 0. 0. 6.37253001e-02 0. 1.27450600e-01 0. 0. 0.
      0. 0. 0. 0. 0. 0. 0. 0. 0. 0. 0. 0. 0. 3.18626501e-02 0. 0.
      3.18626501e-02 0. 0. 0. 0. 0. 0. 0. 0. 0. 0. 0. 0. 0. 0. 0. 0. 0.
      0. 0. 0. 0. 0. 0. 0. 0. 0. 0. 0. 0. 3.18626501e-02 0. 0. 0. 0. 0.
      0. 0. 6.37253001e-02 0. 0. 0. 0. 0. 0. 9.55879539e-02
      3.18626501e-02 0. 0. 0. 0. 0. 0. 0. 0. 0. 0. 0. 0. 0. 0. 0. 0. 0.
      0. 3.18626501e-02 0. 0. 0. 0. 0. 0. 0. 0. 6.37253001e-02 0. 0.
      9.55879539e-02 3.18626501e-02 0. 0. 0. 0. 0. 0. 0. 3.18626501e-02
      0. 0. 0. 0. 0. 6.37253001e-02 0. 0. 0. 0. 3.18626501e-02 0. 0. 0.
      0. 0. 0. 0. 0. 3.18626501e-02 0. 0. 0. 0. 0. 0. 0. 0. 0. 0. 0. 0.
      0. 0. 0. 0. 0. 0. 0. 0. 0. 0. 0. 0. 0. 0. 0. 0. 0. 0. 0. 0. 0. 0.
      0. 6.37253001e-02 3.18626501e-02 0. 0. 0. 0. 0. 0. 0. 0. 0. 0. 0.
      0. 3.18626501e-02 0. 3.50489140e-01 6.37253001e-02 0. 0.
      3.18626501e-02 0. 0. 0. 6.37253001e-02 6.37253001e-02 0.
      3.18626501e-02 1.27450600e-01 0. 0. 0. 6.69978499e-01 0. 0. 0. 0.
      0. 0. 0. 0. 0. 0. 0. 0. 0. 5.15368059e-02 5.92673242e-01 0. 0. 0.
      0. 0. 0. 0. 0. 0. 0. 0. 0. 0. 0. 2.57684030e-02 3.86526048e-01 0.
      0. 0. 0. 0. 0. 0. 0. 0. 0. 0. 0. 0. 0. 0. 0. 0. 0. 0. 0. 0. 0. 0.
      0. 0. 0. 0. 0. 0. 0. 0. 5.15368059e-02 0. 0. 0. 0. 0. 0. 0. 0. 0.
      0. 0. 0. 0. 0. 0. 2.57684030e-02 0. 0. 2.57684030e-02 0. 0. 0. 0.
      0. 0. 0. 0. 0. 0. 0. 2.57684030e-02 0. 0. 0. 0. 0. 0. 0. 0. 0. 0.
      0. 0. 0. 0. 0. 0. 0. 0. 0. 0. 0. 0. 0. 0. 0. 2.57684030e-02 0. 0.
      0. 2.57684030e-02 0. 1.28842011e-01 2.57684030e-02 0. 0. 0. 0. 0.
      0. 0. 0. 0. 0. 0. 0. 0. 0. 0. 0. 0. 0. 0. 0. 0. 0. 0. 0. 0. 0. 0.
      0. 0. 0. 0. 0. 2.57684030e-02 0. 0. 0. 0. 0. 0. 0. 2.57684030e-02
      0. 0. 0. 0. 0. 5.15368059e-02 0. 0. 0. 0. 0. 0. 0. 0. 0. 0. 0. 0.
      0. 2.57684030e-02 0. 0. 0. 0. 0. 0. 0. 0. 0. 0. 2.57684030e-02 0.
      0. 0. 0. 0. 0. 0. 2.57684030e-02 0. 0. 0. 0. 0. 0. 0. 0. 0. 0. 0.
      0. 0. 0. 0. 0. 5.15368059e-02 0. 0. 2.57684030e-02 0. 0. 0. 0. 0.
      0. 0. 0. 0. 0. 0. 0. 1.03073612e-01 2.57684030e-02 0. 0. 0. 0. 0.
      0. 0. 0. 0. 0. 0. 5.15368059e-02 2.57684030e-02 0. 7.52617836e-01
      0. 0. 0. 0. 0. 0. 0. 2.78747343e-02 0. 0. 0. 1.11498937e-01 0.
      2.78747343e-02 5.57494700e-01 0. 0. 0. 0. 0. 0. 0. 0. 0. 0. 0. 0.
      0. 0. 5.57494685e-02 1.39373675e-01 0. 0. 0. 0. 0. 0. 0.
      2.78747343e-02 0. 0. 0. 0. 0. 0. 0. 0. 0. 0. 0. 0. 0. 0. 0. 0. 0.
      0. 0. 0. 1.11498937e-01 0. 2.78747343e-02 1.67248398e-01 0. 0. 0.
      0. 0. 0. 0. 0. 0. 0. 0. 0. 0. 0. 0. 2.78747343e-02 0. 0.
      2.78747343e-02 0. 0. 0. 0. 0. 0. 0. 0. 0. 0. 0. 0. 0. 0. 0. 0. 0.
      0. 0. 0. 0. 0. 0. 0. 0. 0. 0. 2.78747343e-02 0. 0. 0.
      2.78747343e-02 0. 0. 0. 0. 0. 2.78747343e-02 0. 0. 0.
      5.57494685e-02 0. 8.36241990e-02 1.11498937e-01 2.78747343e-02 0.
      0. 0. 0. 0. 0. 0. 0. 0. 0. 0. 0. 0. 0. 5.57494685e-02 0. 0. 0. 0.
      0. 0. 0. 0. 0. 0. 0. 0. 0. 0. 0. 0. 2.78747343e-02 0. 0. 0. 0. 0.
      0. 0. 2.78747343e-02 0. 0. 0. 0. 0. 5.57494685e-02 0. 0. 0. 0. 0.
      0. 0. 0. 0. 0. 0. 0. 0. 2.78747343e-02 0. 0. 2.78747343e-02 0. 0.
      0. 0. 0. 0. 0. 0. 0. 0. 0. 0. 0. 0. 0. 8.36241990e-02 0. 0. 0. 0.
      0. 0. 0. 0. 0. 0. 0. 0. 0. 0. 0. 0. 0. 0. 0. 0. 0. 0. 0.
      2.78747343e-02 0. 0. 0. 0. 0. 0. 0. 0. 0. 0. 0. 0. 0. 0. 0. 0. 0.
      0. 0. 0. 0. 0. 0. 0. 7.80390263e-01 3.00150104e-02 0. 0. 0. 0. 0.
      0. 0. 0. 0. 0. 0. 0. 0. 6.00300208e-02 0. 0. 0. 3.00150104e-02 0.
      0. 0. 0. 0. 0. 0. 0. 0. 0. 0. 6.00300208e-02 0. 0. 0. 0. 0. 0. 0.
      0. 0. 0. 0. 0. 0. 0. 0. 0. 0. 0. 0. 0. 0. 0. 0. 0. 0. 0. 0. 0. 0.
      0. 0. 3.00150104e-02 0. 0. 0. 0. 0. 0. 0. 0. 0. 0. 0. 0. 0. 0. 0.
      3.00150104e-02 0. 0. 3.00150104e-02 0. 0. 0. 0. 0. 0. 0. 0. 0. 0.
      0. 0. 0. 0. 0. 0. 0. 0. 0. 0. 0. 0. 0. 0. 0. 0. 0. 0. 0. 0. 0. 0.
      0. 0. 0. 0. 0. 6.00300208e-02 0. 0. 0. 3.00150104e-02 0. 0.
      9.00450349e-02 3.00150104e-02 0. 0. 6.00300208e-02 0. 0. 0.
      3.30165118e-01 0. 3.00150104e-02 0. 3.00150104e-02 0. 0. 0.
      4.50225145e-01 0. 0. 0. 0. 0. 0. 0. 0. 0. 0. 0. 0. 0. 0. 0.
      1.20060042e-01 3.00150104e-02 0. 0. 0. 0. 0. 0. 3.00150104e-02
      3.00150104e-02 0. 0. 0. 0. 0. 6.00300208e-02 0. 0. 0. 0. 0. 0. 0.
      0. 0. 0. 0. 0. 0. 3.00150104e-02 0. 0. 3.00150104e-02 0. 0. 0. 0.
      0. 0. 0. 9.00450349e-02 0. 0. 0. 0. 0. 0. 0. 9.00450349e-02 0. 0.
      0. 0. 0. 0. 0. 0. 0. 0. 0. 0. 0. 0. 0. 0. 0. 0. 0. 3.00150104e-02
      0. 0. 0. 9.00450349e-02 0. 0. 0. 0. 0. 0. 0. 3.00150104e-02 0. 0.
      0. 0. 0. 0. 0. 0. 0. 0. 0. 0. 0. 0. 0. 0. 7.85698950e-01 0. 0. 0.
      0. 0. 0. 0. 2.80606765e-02 0. 0. 0. 2.80606765e-02 0.
      3.08667451e-01 0. 0. 0. 0. 0. 0. 0. 0. 0. 0. 0. 0. 2.80606765e-02
      5.61213531e-02 0. 1.96424738e-01 4.48970824e-01 0. 0. 0. 0. 0. 0.
      0. 0. 0. 0. 0. 0. 0. 0. 0. 0. 0. 0. 0. 0. 0. 0. 0. 0.
      5.61213531e-02 2.80606765e-02 0. 0. 2.80606765e-02 0.
      5.61213531e-02 2.80606765e-02 0. 0. 0. 0. 0. 0. 0. 0. 0. 0. 0. 0.
      0. 0. 0. 2.80606765e-02 0. 0. 2.80606765e-02 0. 0. 0. 0. 0. 0. 0.
      0. 0. 0. 0. 0. 0. 0. 0. 0. 0. 0. 0. 0. 0. 0. 0. 0. 0. 0. 0. 0. 0.
      0. 0. 0. 0. 0. 0. 0. 0. 2.80606765e-02 0. 0. 0. 5.61213531e-02 0.
      0. 8.41820315e-02 2.80606765e-02 0. 0. 0. 2.80606765e-02 0. 0. 0.
      0. 0. 0. 0. 2.80606765e-02 0. 0. 5.61213531e-02 0. 0. 0. 0. 0. 0.
      0. 0. 0. 0. 0. 0. 0. 0. 0. 8.41820315e-02 2.80606765e-02 0. 0. 0.
      0. 0. 0. 0. 2.80606765e-02 0. 0. 0. 0. 0. 5.61213531e-02 0. 0. 0.
      0. 0. 0. 0. 0. 0. 0. 0. 0. 0. 2.80606765e-02 0. 0. 2.80606765e-02
      0. 0. 0. 0. 0. 0. 0. 0. 0. 0. 0. 0. 0. 0. 2.80606765e-02 0. 0. 0.
      0. 0. 0. 0. 0. 0. 0. 0. 0. 0. 0. 0. 0. 0. 0. 0. 0. 0. 0. 0. 0. 0.
      0. 0. 0. 0. 2.80606765e-02 0. 0. 0. 0. 0. 0. 0. 0. 0. 0. 0. 0. 0.
      0. 0. 0. 0. 0. 0. 8.27475786e-01 0. 0. 0. 0. 0. 0. 0. 0. 0. 0. 0.
      0. 0. 2.95527056e-02 0. 0. 0. 0. 0. 0. 0. 0. 0. 0. 0. 0. 0. 0. 0.
      0. 0. 0. 0. 0. 0. 0. 0. 0. 0. 0. 0. 0. 0. 0. 0. 0. 0. 0. 0. 0. 0.
      0. 0. 0. 0. 2.95527056e-02 2.95527056e-02 0. 0. 0. 0.
      2.95527056e-02 2.95527056e-02 0. 0. 0. 0. 0. 0. 0. 0. 0. 0. 0. 0.
      2.95527056e-02 0. 0. 2.95527056e-02 0. 0. 2.95527056e-02 0. 0. 0.
      0. 0. 0. 0. 0. 0. 0. 0. 0. 0. 0. 2.95527056e-02 0. 0. 0. 0. 0. 0.
      0. 0. 0. 0. 0. 0. 0. 0. 0. 0. 0. 0. 0. 0. 0. 0. 5.91054112e-02
      2.95527056e-02 0. 0. 2.95527056e-02 0. 5.91054112e-02
      2.95527056e-02 2.95527056e-02 2.95527056e-02 0. 2.95527056e-02 0.
      0. 0. 0. 0. 0. 0. 0. 0. 0. 0. 2.95527056e-02 0. 0. 0.
      2.95527056e-02 0. 0. 0. 0. 0. 0. 0. 2.95527056e-02 0. 0. 0. 0.
      2.95527056e-02 2.95527056e-02 0. 0. 0. 0. 0. 0. 2.95527056e-02 0.
      0. 0. 0. 0. 5.91054112e-02 0. 0. 2.95527056e-02 0. 0. 0. 0. 0. 0.
      0. 0. 0. 0. 2.95527056e-02 0. 0. 2.95527056e-02 2.95527056e-02 0.
      2.95527056e-02 2.95527056e-02 0. 0. 0. 0. 0. 0. 0. 0. 0. 0. 0. 0.
      0. 0. 0. 0. 0. 0. 0. 2.95527056e-02 0. 0. 0. 0. 0. 0. 0. 0.
      1.77316234e-01 4.43290591e-01 0. 2.95527056e-02 2.95527056e-02 0.
      0. 0. 0. 0. 0. 0. 0. 0. 0. 0. 5.91054112e-02 1.77316234e-01 0. 0.
      2.95527056e-02 0. 0. 0. 2.95527056e-02 0. 0. 0. 0. 1.18210822e-01
      0. 0. 7.80398965e-01 0. 0. 0. 0. 0. 0. 0. 0. 0. 0. 0. 0. 0.
      2.89036650e-02 0. 0. 0. 0. 0. 0. 0. 0. 2.89036650e-02
      2.89036650e-02 0. 0. 0. 8.67109969e-02 0. 3.75747651e-01
      5.78073300e-02 0. 0. 0. 0. 0. 0. 0. 0. 0. 0. 0. 0. 0. 0. 0. 0. 0.
      0. 0. 0. 0. 0. 0. 0. 2.31229320e-01 0. 0. 0. 1.15614660e-01 0. 0.
      2.89036650e-02 0. 0. 0. 0. 0. 0. 0. 0. 0. 0. 0. 0. 0. 0. 0.
      2.89036650e-02 0. 0. 2.89036650e-02 0. 0. 0. 0. 0. 0. 0. 0. 0. 0.
      0. 0. 0. 5.78073300e-02 0. 0. 0. 0. 0. 0. 0. 0. 0. 0. 0. 0. 0. 0.
      0. 2.89036650e-02 0. 0. 0. 0. 0. 0. 0. 3.46843988e-01 0. 0. 0.
      1.44518331e-01 0. 0. 2.89036650e-02 0. 0. 0. 0. 0. 0. 0. 0. 0. 0.
      0. 0. 0. 0. 0. 0. 0. 0. 0. 0. 0. 0. 0. 0. 0. 0. 0. 0. 0. 0. 0. 0.
      2.89036650e-02 0. 0. 0. 0. 0. 0. 0. 2.89036650e-02 0. 0. 0. 0. 0.
      5.78073300e-02 0. 0. 0. 0. 0. 0. 0. 0. 0. 0. 0. 0. 0.
      2.89036650e-02 0. 0. 2.89036650e-02 0. 0. 0. 0. 0. 0. 0. 0. 0. 0.
      0. 0. 0. 0. 0. 0. 0. 0. 0. 0. 0. 0. 0. 0. 0. 0. 0. 0. 0. 0. 0. 0.
      0. 2.89036650e-02 0. 0. 0. 0. 0. 0. 0. 0. 0. 0. 0. 0. 0. 0.
      2.89036650e-02 5.78073300e-02 2.89036650e-02 0. 0. 0. 0. 0.
      2.89036650e-02 8.67109969e-02 0. 0. 0. 0. 0. 0. 8.73242378e-01 0.
      0. 0. 0. 0. 0. 0. 1.29369244e-01 0. 0. 0. 0. 0. 0. 0. 0. 0. 0. 0.
      0. 0. 0. 0. 0. 0. 0. 0. 0. 0. 0. 0. 0. 0. 0. 0. 0. 0. 0. 0. 0. 0.
      0. 0. 0. 0. 0. 0. 0. 0. 0. 0. 0. 0. 0. 0. 0. 0. 0. 0. 0. 0. 0. 0.
      0. 0. 0. 0. 0. 0. 0. 0. 3.23423110e-02 0. 0. 0. 0. 0. 0.
      3.23423110e-02 0. 0. 3.23423110e-02 0. 0. 0. 0. 0. 0. 0. 0. 0. 0.
      0. 0. 0. 3.23423110e-02 0. 0. 0. 0. 0. 0. 0. 0. 0. 0. 0. 0. 0. 0.
      0. 0. 0. 0. 0. 0. 0. 0. 0. 1.29369244e-01 0. 0. 0. 0. 0. 0.
      3.23423110e-02 9.70269293e-02 0. 0. 0. 0. 0. 0. 1.94053859e-01 0.
      0. 0. 0. 0. 0. 0. 6.46846220e-02 0. 0. 0. 0. 0. 0. 0. 0. 0. 0. 0.
      0. 0. 0. 0. 0. 3.23423110e-02 0. 0. 0. 0. 0. 0. 0. 3.23423110e-02
      0. 0. 0. 0. 0. 6.46846220e-02 0. 0. 0. 0. 0. 0. 0. 0. 0. 0. 0. 0.
      0. 3.23423110e-02 0. 0. 0. 6.46846220e-02 3.23423110e-02 0.
      3.23423110e-02 3.23423110e-02 0. 0. 1.61711559e-01 0. 0. 0. 0. 0.
      0. 0. 6.46846220e-02 0. 0. 0. 0. 0. 0. 0. 0. 0. 0. 0. 0. 0. 0. 0.
      0. 6.46846220e-02 0. 0. 9.70269293e-02 3.23423110e-02 0. 0. 0.
      3.23423110e-02 0. 0. 0. 0. 0. 0. 0. 9.70269293e-02 1.29369244e-01
      0. 6.46846220e-02 0. 0. 3.23423110e-02 1.61711559e-01
      1.61711559e-01 3.23423110e-02 0. 0. 3.23423110e-02 0.
      3.23423110e-02 0.</_>
    <_>
      8.10514808e-01 0. 0. 0. 0. 0. 0. 0. 5.40343225e-02 0. 0. 0.
      2.70171613e-02 0. 5.40343225e-02 0. 0. 0. 0. 0. 0. 0. 0. 0. 0. 0.
      0. 0. 2.70171613e-02 0. 0. 0. 0. 0. 0. 0. 0. 0. 0. 0. 0. 0. 0. 0.
      0. 0. 0. 0. 0. 0. 0. 0. 0. 0. 0. 0. 8.10514838e-02 0. 0. 0.
      2.70171613e-02 0. 5.40343225e-01 1.35085806e-01 0. 0. 0. 0. 0. 0.
      0. 0. 0. 0. 0. 0. 0. 0. 0. 0. 2.70171613e-02 0. 0. 0. 0. 0. 0. 0.
      0. 0. 0. 0. 0. 0. 0. 0. 0. 0. 0. 0. 0. 0. 0. 0. 0. 0. 0. 0. 0. 0.
      0. 0. 0. 0. 0. 0. 0. 0. 0. 0. 5.40343225e-02 0. 0. 0.
      2.70171613e-02 0. 2.70171613e-02 5.40343225e-02 0. 0. 0. 0. 0. 0.
      0. 0. 0. 0. 0. 0. 0. 0. 2.70171613e-02 2.70171613e-02 0. 0. 0. 0.
      0. 0. 0. 0. 0. 0. 0. 0. 2.70171613e-02 0. 0. 0. 0. 0. 0. 0. 0. 0.
      0. 0. 2.70171613e-02 0. 0. 0. 0. 0. 2.70171613e-02 0. 0. 0. 0. 0.
      0. 0. 0. 0. 0. 0. 0. 0. 0. 0. 2.70171613e-02 2.70171613e-02 0. 0.
      2.70171613e-02 0. 0. 0. 0. 0. 0. 0. 0. 0. 0. 0. 0. 0. 0. 0. 0. 0.
      0. 0. 0. 0. 0. 0. 0. 0. 0. 0. 0. 0. 0. 0. 0. 0. 0. 0. 0. 0. 0. 0.
      0. 0. 0. 0. 0. 0. 0. 0. 0. 0. 0. 0. 0. 2.70171613e-02
      2.70171613e-02 0. 0. 0. 5.40343225e-02 0. 0. 0. 8.66814971e-01 0.
      0. 0. 0. 0. 0. 0. 5.59235476e-02 0. 0. 0. 0. 0. 2.79617738e-02 0.
      0. 0. 0. 0. 0. 0. 0. 0. 0. 0. 0. 0. 2.79617738e-02 0. 0. 0. 0. 0.
      0. 0. 0. 0. 0. 0. 0. 0. 0. 0. 0. 0. 0. 0. 0. 0. 0. 0. 0. 0. 0. 0.
      1.39808863e-01 0. 0. 0. 2.23694190e-01 0. 1.67770639e-01
      2.79617738e-02 0. 0. 0. 0. 0. 0. 0. 0. 0. 0. 0. 0. 0. 0. 0. 0.
      2.79617738e-02 0. 0. 0. 0. 0. 0. 0. 0. 0. 0. 0. 0. 0. 0. 0. 0. 0.
      0. 0. 0. 0. 0. 0. 0. 0. 0. 0. 0. 0. 0. 0. 0. 0. 0. 0. 0. 0. 0. 0.
      1.39808863e-01 0. 0. 0. 1.67770639e-01 0. 8.38853195e-02
      5.59235476e-02 2.79617738e-02 0. 0. 0. 0. 0. 0. 0. 2.79617738e-02
      0. 0. 0. 2.79617738e-02 0. 0. 0. 0. 0. 0. 0. 0. 0. 0. 0. 0. 0. 0.
      0. 0. 0. 0. 0. 0. 0. 0. 0. 0. 0. 0. 0. 2.79617738e-02 0. 0. 0. 0.
      0. 2.79617738e-02 0. 0. 0. 0. 0. 0. 0. 0. 0. 0. 0. 0. 0. 0. 0. 0.
      0. 0. 0. 2.79617738e-02 0. 0. 0. 0. 0. 0. 0. 0. 0. 0. 0. 0. 0. 0.
      0. 0. 0. 0. 0. 0. 0. 0. 0. 0. 0. 0. 0. 0. 0. 0. 0. 0. 0. 0. 0. 0.
      0. 0. 0. 0. 0. 0. 0. 0. 0. 1.11847095e-01 0. 0. 0. 0. 0. 0.
      2.79617738e-02 2.51655966e-01 0. 0. 2.79617738e-02 5.59235476e-02
      2.79617738e-02 2.79617738e-02 0. 8.07572842e-01 0. 0. 0. 0. 0. 0.
      0. 2.69190948e-02 0. 0. 0. 2.69190948e-02 0. 5.38381897e-02 0. 0.
      0. 0. 0. 0. 0. 0. 0. 0. 0. 0. 0. 0. 0. 1.07676379e-01 0. 0. 0. 0.
      0. 0. 0. 0. 0. 0. 0. 0. 0. 0. 0. 0. 0. 0. 0. 0. 0. 0. 0. 0. 0.
      2.69190937e-01 0. 0. 0. 1.07676379e-01 0. 2.69190948e-02
      2.69190948e-02 0. 0. 0. 0. 0. 0. 0. 0. 0. 0. 0. 0. 0. 0. 0. 0.
      2.69190948e-02 0. 0. 0. 0. 0. 0. 0. 0. 0. 0. 0. 0. 0. 0. 0. 0. 0.
      0. 0. 0. 0. 0. 0. 0. 0. 0. 0. 0. 0. 0. 0. 0. 0. 0. 0. 0. 0. 0. 0.
      3.76867324e-01 0. 0. 0. 1.07676379e-01 0. 2.69190948e-02
      8.07572827e-02 0. 0. 0. 0. 0. 0. 0. 0. 0. 0. 0. 0. 0. 0. 0.
      8.07572827e-02 0. 0. 0. 0. 0. 0. 0. 0. 0. 0. 0. 0. 2.69190948e-02
      0. 0. 0. 0. 0. 0. 0. 0. 0. 0. 0. 2.69190948e-02 0. 0. 0. 0. 0.
      2.69190948e-02 0. 0. 0. 0. 0. 0. 0. 0. 0. 0. 0. 0. 0. 0. 0. 0. 0.
      0. 0. 2.69190948e-02 0. 0. 0. 0. 2.69190948e-02 0. 0. 0. 0. 0. 0.
      0. 0. 0. 0. 0. 0. 0. 0. 0. 0. 0. 0. 0. 0. 0. 0. 0. 0. 0. 0. 0. 0.
      0. 0. 0. 2.69190948e-02 0. 0. 0. 0. 2.69190948e-02 0. 0. 0. 0. 0.
      0. 0. 0. 0. 0. 0. 2.69190937e-01 0. 0. 0. 2.69190948e-02 0. 0. 0.
      9.01299894e-01 0. 0. 0. 2.90741902e-02 0. 0. 2.90741902e-02
      8.72225687e-02 0. 0. 0. 0. 0. 0. 2.90741902e-02 0. 0. 0. 0. 0. 0.
      0. 0. 0. 0. 0. 0. 0. 0. 0. 0. 0. 0. 0. 0. 0. 0. 0. 0. 0. 0. 0. 0.
      0. 0. 0. 0. 0. 0. 0. 0. 0. 0. 0. 0. 2.90741902e-02 0. 0. 0. 0. 0.
      0. 2.90741902e-02 0. 0. 0. 0. 0. 0. 0. 0. 2.90741902e-02 0. 0. 0.
      0. 0. 0. 0. 2.90741902e-02 0. 0. 0. 0. 0. 0. 0. 0. 0. 0. 0. 0. 0.
      0. 0. 0. 0. 0. 0. 0. 0. 0. 0. 0. 0. 0. 0. 0. 0. 0. 0. 0. 0. 0. 0.
      2.90741902e-02 0. 0. 0. 2.32593521e-01 0. 0. 0. 2.90741902e-02 0.
      5.81483804e-02 2.90741902e-02 1.16296761e-01 8.72225687e-02 0. 0.
      0. 0. 0. 2.03519329e-01 0. 0. 0. 2.90741902e-02 0. 0. 0.
      8.72225687e-02 0. 0. 0. 0. 0. 0. 0. 0. 2.90741902e-02 0. 0. 0. 0.
      0. 0. 0. 0. 0. 0. 0. 0. 0. 0. 0. 2.90741902e-02 0. 0. 0. 0. 0.
      2.90741902e-02 0. 0. 0. 0. 0. 0. 0. 0. 0. 0. 0. 0. 0. 0.
      2.90741902e-02 0. 0. 0. 0. 2.90741902e-02 2.90741902e-02 0. 0. 0.
      0. 0. 0. 0. 0. 0. 0. 0. 0. 0. 0. 0. 0. 0. 0. 0. 0. 0. 0. 0. 0. 0.
      0. 0. 2.90741902e-02 0. 0. 0. 0. 0. 0. 0. 5.81483804e-02
      2.90741902e-02 0. 0. 0. 0. 0. 0. 0. 5.81483804e-02 0. 0. 0. 0. 0.
      0. 8.72225687e-02 1.45370945e-01 0. 0. 0. 0. 0. 2.90741902e-02 0.
      8.61372232e-01 0. 0. 0. 0. 0. 0. 0. 0. 0. 0. 0. 0. 0.
      8.61372203e-02 0. 0. 0. 0. 0. 0. 0. 0. 0. 0. 0. 0. 0. 0. 0.
      2.00986847e-01 1.43562034e-01 0. 0. 0. 0. 0. 0. 0. 0. 0. 0. 0. 0.
      0. 0. 0. 0. 0. 0. 0. 0. 0. 0. 0. 0. 1.72274441e-01 0. 0. 0.
      2.00986847e-01 0. 2.29699254e-01 5.74248135e-02 0. 0. 0. 0. 0. 0.
      0. 0. 0. 0. 0. 0. 0. 0. 0. 0. 2.87124068e-02 0. 0. 0. 0. 0. 0. 0.
      0. 0. 0. 0. 0. 0. 0. 0. 2.87124068e-02 0. 0. 0. 0. 0. 0. 0. 0. 0.
      0. 0. 0. 0. 0. 0. 0. 0. 0. 0. 0. 0. 0. 0. 5.74248135e-02 0. 0. 0.
      8.61372203e-02 0. 1.14849627e-01 5.74248135e-02 0. 0. 0. 0. 0. 0.
      0. 2.87124068e-02 0. 0. 0. 0. 0. 0. 0. 0. 0. 0. 0. 0. 0. 0. 0. 0.
      0. 0. 0. 0. 0. 0. 0. 1.43562034e-01 0. 0. 0. 0. 0. 0. 0. 0.
      2.87124068e-02 0. 0. 0. 0. 0. 2.87124068e-02 0. 0. 0. 0. 0. 0. 0.
      0. 0. 0. 0. 0. 0. 0. 0. 0. 8.61372203e-02 0. 0. 2.87124068e-02 0.
      0. 0. 0. 0. 0. 0. 0. 0. 0. 0. 0. 2.87124068e-02 0. 0. 0. 0. 0. 0.
      0. 0. 0. 0. 0. 0. 0. 0. 0. 0. 0. 0. 0. 0. 0. 0. 0. 0. 0. 0. 0. 0.
      0. 0. 0. 2.87124068e-02 0. 0. 0. 0. 0. 0. 0. 0. 0. 0. 0. 0.
      2.87124068e-02 0. 2.87124068e-02 0. 8.88255835e-01 0. 0. 0. 0. 0.
      0. 5.73068261e-02 0. 0. 0. 0. 0. 0. 2.86534131e-02 8.59602392e-02
      0. 0. 0. 0. 0. 0. 0. 0. 1.14613652e-01 0. 0. 2.86534131e-02
      2.86534131e-02 0. 2.29227304e-01 2.57880718e-01 0. 0. 0. 0. 0. 0.
      0. 0. 0. 0. 0. 0. 0. 0. 0. 0. 0. 0. 0. 0. 0. 0. 0. 0.
      5.73068261e-02 0. 0. 0. 0. 0. 1.14613652e-01 8.59602392e-02 0. 0.
      0. 0. 0. 0. 0. 0. 0. 0. 0. 0. 0. 0. 2.86534131e-02 0.
      2.86534131e-02 0. 0. 0. 0. 0. 0. 0. 0. 0. 0. 0. 0. 0. 0. 0. 0. 0.
      0. 0. 0. 0. 0. 0. 0. 0. 0. 0. 0. 0. 0. 0. 0. 0. 0. 0. 0. 0. 0. 0.
      2.86534131e-02 0. 0. 0. 5.73068261e-02 0. 8.59602392e-02
      8.59602392e-02 0. 0. 0. 2.86534131e-02 0. 0. 0. 0. 0. 0. 0. 0. 0.
      0. 0. 2.86534131e-02 0. 0. 0. 0. 0. 0. 0. 0. 0. 0. 0. 0. 0. 0. 0.
      2.86534131e-02 0. 0. 0. 0. 0. 0. 0. 0. 2.86534131e-02 0. 0. 0. 0.
      0. 2.86534131e-02 0. 0. 0. 0. 0. 0. 0. 0. 2.86534131e-02 0.
      2.86534131e-02 0. 0. 0. 0. 2.86534131e-02 0. 0. 0. 2.86534131e-02
      0. 2.86534131e-02 0. 0. 5.73068261e-02 0. 0. 0. 0. 0. 0. 0. 0. 0.
      0. 0. 0. 0. 0. 0. 0. 0. 0. 0. 0. 0. 0. 2.86534131e-02
      8.59602392e-02 0. 0. 0. 0. 0. 0. 0. 0. 0. 0. 0. 0. 0. 0.
      2.86534131e-02 0. 0. 0. 0. 0. 0. 0. 0. 2.86534131e-02 0. 0. 0. 0.
      0. 0. 0. 0. 8.82352948e-01 0. 0. 0. 0. 0. 0. 0. 2.94117648e-02 0.
      0. 0. 0. 0. 0. 1.76470593e-01 0. 0. 0. 0. 0. 0. 0. 0. 0. 0. 0. 0.
      0. 0. 0. 0. 0. 0. 0. 0. 0. 0. 0. 0. 0. 0. 0. 0. 0. 0. 0. 0. 0. 0.
      0. 0. 0. 0. 0. 0. 2.94117648e-02 0. 0. 0. 0. 0. 0. 2.94117648e-02
      0. 0. 0. 0. 0. 0. 0. 0. 0. 0. 0. 0. 0. 0. 0. 0. 2.94117648e-02 0.
      0. 0. 0. 0. 0. 0. 0. 0. 0. 0. 0. 0. 0. 0. 0. 0. 0. 0. 0. 0. 0. 0.
      0. 0. 0. 0. 0. 0. 0. 0. 0. 0. 0. 0. 0. 0. 0. 0. 2.94117648e-02 0.
      0. 0. 0. 0. 5.88235296e-02 5.88235296e-02 2.94117648e-02 0. 0.
      8.82352963e-02 0. 0. 0. 8.82352963e-02 2.94117648e-02 0. 0. 0.
      2.94117648e-02 0. 0. 1.76470593e-01 0. 0. 0. 0. 0. 0. 0. 0. 0. 0.
      0. 0. 0. 0. 0. 0. 0. 0. 0. 0. 0. 0. 0. 0. 2.94117648e-02 0. 0. 0.
      0. 0. 2.94117648e-02 0. 0. 0. 0. 0. 0. 0. 0. 0. 0. 0. 0. 0. 0. 0.
      0. 0. 0. 0. 2.94117648e-02 0. 0. 0. 0. 0. 0. 0. 0. 0. 0. 0. 0. 0.
      0. 0. 0. 0. 0. 0. 0. 0. 0. 0. 0. 0. 0. 0. 0. 0. 1.17647059e-01
      2.94117648e-02 0. 2.94117648e-02 0. 0. 0. 1.17647059e-01
      2.94117648e-02 0. 0. 0. 0. 0. 0. 2.94117648e-02 1.76470593e-01
      2.94117648e-02 0. 0. 0. 0. 0. 1.47058830e-01 2.05882356e-01 0. 0.
      0. 0. 0. 0. 0. 8.81210268e-01 0. 0. 0. 0. 0. 0. 0. 0. 0. 0. 0. 0.
      0. 5.87473512e-02 2.93736756e-02 0. 0. 0. 0. 0. 0. 0. 0. 0. 0. 0.
      0. 0. 0. 5.87473512e-02 8.81210268e-02 0. 0. 0. 0. 0. 0. 0. 0. 0.
      0. 0. 0. 0. 0. 0. 0. 0. 0. 0. 0. 0. 0. 0. 0. 5.87473512e-02 0. 0.
      0. 5.87473512e-02 0. 3.23110431e-01 1.76242054e-01 0. 0. 0. 0. 0.
      0. 0. 0. 0. 0. 0. 0. 0. 0. 0. 0. 2.93736756e-02 0. 0. 0. 0. 0. 0.
      0. 0. 0. 0. 0. 0. 0. 0. 0. 0. 0. 0. 0. 0. 0. 0. 0. 0. 0. 0. 0. 0.
      0. 0. 0. 0. 0. 0. 0. 0. 0. 0. 0. 0. 0. 0. 0. 0. 0. 2.93736756e-02
      5.87473512e-02 0. 0. 0. 2.93736756e-02 0. 0. 0. 1.76242054e-01 0.
      0. 0. 0. 0. 0. 0. 5.87473512e-02 0. 0. 0. 0. 0. 0. 0. 0. 0. 0. 0.
      0. 0. 0. 0. 8.81210268e-02 0. 0. 0. 0. 0. 0. 0. 0. 2.93736756e-02
      0. 0. 0. 0. 0. 2.93736756e-02 0. 0. 0. 0. 0. 0. 0. 0. 0. 0. 0. 0.
      0. 0. 0. 0. 5.87473512e-02 0. 0. 2.93736756e-02 0. 0. 0. 0.
      2.93736756e-02 0. 0. 0. 0. 0. 0. 0. 2.93736756e-02 0. 0. 0. 0. 0.
      0. 0. 0. 0. 0. 0. 0. 0. 0. 0. 5.87473512e-02 0. 0. 0.
      5.87473512e-02 0. 0. 0. 2.93736756e-02 0. 0. 0. 0. 0. 0. 0. 0. 0.
      0. 0. 0. 0. 0. 0. 0. 0. 2.93736756e-02 0. 0. 2.93736756e-02 0. 0.
      0. 8.43815923e-01 0. 0. 0. 0. 0. 0. 0. 0. 0. 0. 0. 0. 0. 0. 0. 0.
      0. 0. 0. 0. 0. 0. 0. 2.81271972e-02 0. 0. 0. 5.62543944e-02 0.
      1.12508789e-01 2.81271972e-02 0. 0. 0. 0. 0. 0. 0. 0. 0. 0. 0. 0.
      0. 0. 0. 0. 0. 0. 0. 0. 0. 0. 0. 0. 2.25017577e-01 0. 0. 0.
      1.12508789e-01 0. 3.09399158e-01 5.62543944e-02 0. 0. 0. 0. 0. 0.
      0. 0. 0. 0. 0. 0. 0. 0. 0. 0. 2.81271972e-02 0. 0. 0. 0. 0. 0. 0.
      0. 0. 0. 0. 0. 0. 0. 0. 0. 0. 0. 0. 0. 0. 0. 0. 0. 0. 0. 0. 0. 0.
      0. 0. 0. 0. 0. 0. 0. 0. 0. 0. 0. 0. 2.81271972e-02 0. 0. 0.
      1.68763191e-01 2.81271972e-02 0. 0. 0. 0. 0. 0. 0. 0. 0. 0. 0. 0.
      0. 0. 0. 0. 0. 0. 0. 0. 0. 0. 0. 0. 0. 0. 0. 0. 0. 0. 0. 0. 0. 0.
      0. 0. 0. 0. 0. 0. 2.81271972e-02 0. 0. 0. 0. 0. 2.81271972e-02 0.
      0. 0. 0. 0. 0. 0. 0. 0. 0. 0. 0. 0. 0. 0. 0. 0. 0. 0.
      2.81271972e-02 0. 0. 0. 0. 0. 0. 0. 0. 0. 0. 0. 0. 0. 0. 0. 0. 0.
      0. 0. 0. 0. 0. 0. 0. 0. 0. 0. 0. 0. 0. 0. 0. 0. 0. 0. 0. 0. 0. 0.
      0. 0. 0. 0. 0. 0. 1.12508789e-01 5.62543944e-02 0. 0. 0. 0. 0. 0.
      2.25017577e-01 8.43815953e-02 0. 0. 2.81271972e-02 0.
      2.81271972e-02 0. 9.00538981e-01 0. 0. 0. 0. 0. 0. 0.
      8.71489346e-02 0. 0. 0. 5.80992885e-02 0. 0. 5.80992885e-02 0. 0.
      0. 0. 0. 0. 0. 0. 5.80992885e-02 0. 0. 0. 5.80992885e-02 0.
      5.80992885e-02 8.71489346e-02 0. 0. 0. 0. 0. 0. 0. 0. 0. 0. 0. 0.
      0. 0. 0. 0. 0. 0. 0. 0. 0. 0. 0. 0. 2.90496442e-02 0. 0. 0.
      1.74297869e-01 0. 2.32397154e-01 2.90496442e-02 0. 0. 0. 0. 0. 0.
      0. 0. 0. 0. 0. 0. 0. 0. 0. 0. 2.90496442e-02 0. 0. 0. 0. 0. 0. 0.
      0. 0. 0. 0. 0. 0. 0. 0. 0. 0. 0. 0. 0. 0. 0. 0. 0. 0. 0. 0. 0. 0.
      0. 0. 0. 0. 2.90496442e-02 0. 0. 0. 0. 0. 8.71489346e-02 0. 0. 0.
      5.80992885e-02 0. 1.74297869e-01 8.71489346e-02 2.90496442e-02 0.
      0. 0. 0. 0. 0. 0. 2.90496442e-02 0. 0. 0. 0. 0. 0. 0. 0. 0. 0. 0.
      0. 0. 0. 0. 2.90496442e-02 2.90496442e-02 0. 0. 0. 0. 0. 0. 0. 0.
      0. 0. 0. 0. 0. 0. 2.90496442e-02 0. 0. 0. 0. 0. 2.90496442e-02 0.
      0. 0. 0. 0. 0. 0. 0. 0. 0. 0. 0. 0. 2.90496442e-02 0. 0. 0. 0. 0.
      2.90496442e-02 0. 0. 0. 0. 0. 0. 0. 0. 0. 0. 0. 0. 0. 0. 0. 0. 0.
      0. 0. 0. 0. 0. 0. 0. 0. 0. 0. 0. 0. 0. 0. 0. 0. 0. 0. 0.
      5.80992885e-02 0. 0. 0. 0. 0. 0. 0. 0. 2.90496442e-02 0. 0. 0. 0.
      0. 0. 0. 8.71489346e-02 0. 0. 0. 2.90496442e-02 0. 2.90496442e-02
      0. 8.95622194e-01 0. 0. 0. 0. 0. 0. 2.98540723e-02 0. 0. 0. 0. 0.
      0. 0. 0. 0. 0. 0. 0. 0. 0. 0. 0. 0. 0. 0. 0. 0. 0. 0. 0. 0. 0. 0.
      0. 0. 0. 0. 0. 0. 0. 0. 0. 0. 0. 0. 0. 2.98540723e-02 0. 0. 0. 0.
      0. 0. 0. 8.95622149e-02 0. 0. 0. 2.98540723e-02 0. 0. 0. 0. 0. 0.
      0. 0. 0. 0. 0. 0. 0. 0. 0. 0. 0. 0. 0. 2.98540723e-02 0. 0. 0. 0.
      0. 0. 0. 0. 0. 0. 0. 0. 0. 0. 0. 0. 0. 0. 0. 0. 0. 0. 0. 0. 0. 0.
      0. 0. 0. 2.98540723e-02 0. 8.95622149e-02 0. 0. 2.98540723e-02 0.
      0. 0. 0. 1.19416289e-01 0. 0. 0. 5.97081445e-02 0. 5.97081445e-02
      8.95622149e-02 2.98540723e-02 0. 0. 8.95622149e-02 0. 0. 0. 0.
      2.98540723e-02 0. 0. 0. 0. 0. 0. 0. 0. 0. 0. 0. 0. 0. 0. 0. 0. 0.
      0. 0. 0. 0. 0. 2.98540723e-02 0. 0. 0. 0. 0. 0. 0. 0.
      2.98540723e-02 0. 0. 0. 0. 0. 2.98540723e-02 0. 0. 0. 0. 0. 0. 0.
      0. 0. 0. 0. 0. 0. 0. 0. 0. 0. 2.98540723e-02 0. 2.98540723e-02
      5.97081445e-02 0. 0. 0. 2.98540723e-02 0. 0. 0. 0. 0. 0. 0. 0. 0.
      0. 0. 0. 0. 0. 0. 0. 0. 0. 0. 0. 0. 0. 0. 0. 8.95622149e-02
      1.19416289e-01 0. 5.97081445e-02 0. 0. 0. 5.97081445e-02 0. 0. 0.
      0. 0. 0. 0. 0. 1.19416289e-01 2.38832578e-01 0. 2.98540723e-02 0.
      0. 0. 0. 1.49270356e-01 0. 0. 0. 2.98540723e-02 5.97081445e-02 0.
      0. 8.80830348e-01 0. 0. 0. 0. 0. 0. 0. 0. 0. 0. 0. 0. 0. 0. 0. 0.
      0. 0. 0. 0. 0. 0. 0. 0. 0. 0. 0. 0. 0. 0. 0. 2.93610115e-02 0. 0.
      0. 0. 0. 0. 0. 0. 0. 0. 0. 0. 0. 0. 0. 0. 0. 0. 0. 0. 0. 0. 0.
      2.93610115e-02 0. 0. 0. 0. 0. 2.93610115e-02 0. 2.93610115e-02 0.
      0. 0. 0. 0. 0. 0. 2.93610115e-02 0. 0. 0. 0. 0. 0. 0.
      2.93610115e-02 0. 0. 0. 0. 0. 0. 0. 0. 0. 0. 0. 0. 0. 0. 0. 0. 0.
      0. 0. 0. 0. 0. 0. 0. 0. 0. 0. 0. 0. 0. 0. 2.93610115e-02 0. 0. 0.
      0. 0. 0. 0. 8.80830362e-02 0. 0. 0. 2.93610115e-02 0.
      1.17444046e-01 2.93610115e-02 2.93610115e-02 0. 0. 2.93610115e-02
      2.93610115e-02 0. 0. 2.93610126e-01 0. 0. 0. 0. 0. 0. 0.
      2.93610115e-02 0. 0. 0. 0. 0. 0. 0. 0. 0. 0. 0. 0. 0. 0. 0. 0. 0.
      0. 0. 0. 0. 0. 0. 0. 2.93610115e-02 0. 0. 0. 0. 0. 2.93610115e-02
      0. 0. 0. 0. 0. 0. 0. 0. 0. 0. 0. 0. 0. 0. 0. 0. 0. 2.93610115e-02
      0. 2.93610115e-02 2.93610115e-02 0. 0. 2.93610115e-02
      1.46805063e-01 2.93610115e-02 0. 0. 0. 0. 0. 0. 0. 2.93610115e-02
      0. 0. 0. 0. 0. 0. 0. 0. 0. 0. 0. 0. 0. 0. 0. 0. 5.87220229e-02 0.
      1.17444046e-01 0. 0. 0. 2.93610115e-02 2.93610115e-02 0. 0. 0. 0.
      0. 0. 2.93610115e-02 2.05527082e-01 5.87220229e-02 0.
      5.87220229e-02 0. 0. 0. 5.87220229e-02 2.93610115e-02
      5.87220229e-02 0. 0. 0. 0. 0. 0. 8.59249711e-01 0. 0. 0. 0. 0. 0.
      0. 0. 0. 0. 0. 0. 0. 2.29133263e-01 2.86416579e-02 0. 0. 0. 0. 0.
      0. 0. 0. 0. 0. 0. 0. 1.14566632e-01 0. 2.86416579e-02
      1.71849951e-01 0. 0. 0. 0. 0. 0. 0. 0. 0. 0. 0. 0. 0. 0. 0. 0. 0.
      0. 0. 0. 0. 0. 0. 0. 1.14566632e-01 0. 0. 0. 2.86416579e-02 0.
      3.15058231e-01 8.59249756e-02 0. 0. 0. 0. 0. 0. 0. 0. 0. 0. 0. 0.
      0. 0. 0. 0. 2.86416579e-02 0. 0. 0. 0. 0. 0. 0. 0. 0. 0. 0. 0. 0.
      0. 0. 0. 0. 0. 0. 0. 0. 0. 0. 0. 0. 0. 0. 0. 0. 0. 2.86416579e-02
      2.86416579e-02 0. 0. 0. 0. 0. 0. 2.86416579e-02 2.86416579e-02 0.
      0. 0. 0. 0. 8.59249756e-02 8.59249756e-02 0. 0. 0. 0. 0. 0. 0.
      8.59249756e-02 0. 0. 0. 0. 0. 0. 0. 5.72833158e-02 0. 0. 0. 0. 0.
      0. 0. 0. 0. 0. 0. 0. 0. 0. 0. 8.59249756e-02 0. 0. 0. 0. 0. 0. 0.
      0. 2.86416579e-02 0. 0. 0. 0. 0. 2.86416579e-02 0. 0. 0. 0. 0. 0.
      0. 0. 0. 0. 0. 0. 0. 0. 0. 0. 0. 0. 0. 2.86416579e-02 0. 0. 0. 0.
      0. 0. 0. 0. 0. 0. 0. 0. 0. 0. 0. 0. 0. 0. 0. 0. 0. 0. 0. 0. 0. 0.
      0. 0. 2.86416579e-02 0. 0. 0. 0. 0. 0. 0. 0. 0. 0. 0. 0. 0. 0.
      2.86416579e-02 0. 2.86416579e-02 0. 0. 0. 0. 0. 0. 0.
      2.86416579e-02 0. 0. 0. 2.86416579e-02 2.86416579e-02 0. 0.
      8.86581182e-01 0. 0. 0. 0. 0. 2.95527056e-02 0. 5.91054112e-02 0.
      0. 0. 0. 0. 2.06868947e-01 5.91054112e-02 0. 0. 0. 0. 0. 0. 0. 0.
      5.91054112e-02 0. 0. 0. 2.95527056e-02 0. 8.86581168e-02
      1.18210822e-01 0. 0. 0. 0. 0. 0. 0. 0. 0. 0. 0. 0. 0. 0. 0.
      2.95527056e-02 0. 0. 0. 0. 0. 0. 0. 0. 2.95527056e-02 0. 0. 0. 0.
      0. 2.36421645e-01 1.77316234e-01 0. 0. 0. 0. 0. 0. 0. 0. 0. 0. 0.
      0. 0. 0. 0. 0. 2.95527056e-02 0. 0. 0. 0. 0. 0. 0. 0. 0. 0. 0. 0.
      0. 0. 0. 0. 0. 0. 0. 0. 0. 0. 0. 0. 0. 0. 0. 0. 0. 0. 0. 0.
      2.95527056e-02 0. 0. 0. 0. 0. 0. 2.95527056e-02 0. 0. 0.
      2.95527056e-02 0. 8.86581168e-02 2.95527056e-02 0. 0. 0. 0. 0. 0.
      0. 0. 0. 0. 0. 0. 0. 0. 0. 2.95527056e-02 0. 0. 0. 0. 0. 0. 0. 0.
      2.95527056e-02 0. 0. 0. 2.95527056e-02 0. 0. 1.47763520e-01 0. 0.
      0. 0. 0. 0. 0. 0. 2.95527056e-02 0. 0. 0. 0. 0. 2.95527056e-02 0.
      0. 0. 0. 0. 0. 0. 0. 0. 0. 0. 0. 0. 0. 0. 0. 0. 0. 0.
      2.95527056e-02 0. 0. 0. 0. 0. 0. 0. 0. 0. 0. 0. 0. 0. 0. 0. 0. 0.
      0. 0. 0. 0. 0. 0. 0. 0. 0. 0. 0. 0. 0. 0. 0. 5.91054112e-02 0. 0.
      0. 0. 0. 0. 0. 0. 0. 0. 0. 0. 0. 0. 0. 5.91054112e-02 0. 0. 0. 0.
      2.95527056e-02 2.95527056e-02 0. 0. 0. 0. 0. 0. 8.62109482e-01 0.
      0. 0. 0. 0. 0. 0. 0. 0. 0. 0. 0. 0. 2.22479865e-01 2.78099835e-01
      0. 0. 0. 0. 0. 0. 0. 0. 0. 0. 0. 0. 0. 0. 1.66859895e-01
      1.66859895e-01 0. 0. 0. 0. 0. 0. 0. 0. 0. 0. 0. 0. 0. 0. 0. 0. 0.
      0. 0. 0. 0. 0. 0. 0. 5.56199662e-02 2.78099831e-02 0. 0. 0. 0.
      2.78099831e-02 1.11239932e-01 0. 0. 0. 0. 0. 0. 0. 0. 0. 0. 0. 0.
      0. 0. 0. 0. 2.78099831e-02 0. 0. 0. 0. 0. 0. 0. 0. 0. 0. 0. 0. 0.
      0. 0. 0. 0. 0. 0. 0. 0. 0. 0. 0. 0. 0. 0. 0. 0. 0. 0. 0. 0. 0. 0.
      0. 0. 0. 0. 0. 0. 0. 0. 0. 0. 0. 2.78099831e-02 0. 0. 0.
      1.11239932e-01 0. 0. 0. 1.39049917e-01 0. 0. 0. 0. 0. 0. 0.
      8.34299475e-02 0. 0. 0. 0. 0. 0. 0. 0. 0. 0. 0. 0. 0. 0. 0.
      2.78099831e-02 0. 0. 0. 0. 0. 0. 0. 0. 2.78099831e-02 0. 0. 0. 0.
      0. 2.78099831e-02 0. 0. 0. 0. 0. 0. 0. 0. 0. 0. 0. 0. 0. 0. 0. 0.
      2.78099831e-02 2.78099831e-02 2.78099831e-02 2.78099831e-02
      5.56199662e-02 0. 0. 0. 0. 0. 0. 0. 0. 0. 0. 0. 0. 0. 0. 0. 0. 0.
      0. 0. 0. 0. 0. 0. 0. 0. 0. 0. 0. 0. 0. 0. 0. 0. 0. 0. 0. 0. 0. 0.
      0. 0. 0. 0. 0. 2.78099831e-02 5.56199662e-02 0. 5.56199662e-02 0.
      2.78099831e-02 0. 2.78099831e-02 0. 0. 0. 0. 0. 0. 0. 0.
      9.09799278e-01 2.93483641e-02 0. 0. 0. 0. 0. 0. 2.93483641e-02 0.
      0. 0. 0. 0. 0. 2.93483641e-02 0. 0. 0. 0. 0. 0. 0. 0. 0. 0. 0. 0.
      0. 0. 0. 0. 0. 0. 0. 0. 0. 0. 0. 0. 0. 0. 0. 0. 0. 0. 0. 0. 0. 0.
      0. 0. 0. 0. 0. 0. 2.93483641e-02 0. 0. 0. 0. 0. 0. 2.93483641e-02
      0. 0. 0. 2.93483641e-02 0. 0. 0. 0. 0. 0. 0. 0. 0. 0. 0. 0.
      2.93483641e-02 0. 0. 0. 0. 0. 0. 0. 0. 0. 0. 0. 0. 0. 0. 0. 0. 0.
      0. 0. 0. 0. 0. 0. 0. 0. 0. 0. 0. 0. 0. 0. 0. 0. 0. 2.93483641e-02
      0. 0. 0. 0. 0. 0. 0. 0. 0. 0. 0. 2.93483641e-02 2.93483641e-02 0.
      0. 1.17393456e-01 0. 0. 0. 2.34786913e-01 0. 2.93483641e-02 0. 0.
      2.93483641e-02 0. 0. 5.86967282e-02 0. 0. 0. 0. 0. 0. 0. 0. 0. 0.
      0. 0. 0. 0. 0. 0. 0. 0. 0. 0. 0. 0. 0. 0. 2.93483641e-02 0. 0. 0.
      0. 0. 2.93483641e-02 0. 0. 0. 0. 0. 0. 0. 0. 0. 0. 0. 0. 0. 0. 0.
      0. 0. 0. 2.93483641e-02 2.93483641e-02 1.17393456e-01 0. 0. 0.
      1.76090181e-01 0. 0. 0. 0. 0. 0. 2.93483641e-02 5.86967282e-02 0.
      0. 0. 0. 0. 0. 0. 0. 0. 0. 0. 0. 0. 0. 0. 0. 5.86967282e-02 0. 0.
      1.17393456e-01 2.93483641e-02 0. 0. 5.86967282e-02 0. 0. 0. 0. 0.
      0. 0. 2.93483641e-02 0. 5.86967282e-02 0. 8.80450904e-02 0. 0. 0.
      2.93483641e-02 2.93483641e-02 2.93483641e-02 0. 2.93483641e-02 0.
      0. 0. 0.</_>
    <_>
      7.93828666e-01 0. 0. 0. 0. 0. 2.56073754e-02 5.12147509e-02 0. 0.
      0. 0. 0. 0. 0. 0. 0. 0. 0. 0. 0. 0. 0. 0. 2.56073754e-02 0.
      2.56073754e-02 0. 0. 0. 0. 5.12147509e-02 0. 2.56073754e-02 0. 0.
      0. 0. 0. 0. 0. 0. 2.56073754e-02 0. 0. 2.56073754e-02 0. 0. 0. 0.
      0. 0. 0. 0. 0. 0. 0. 0. 0. 0. 0. 0. 0. 0. 0. 0. 0. 0. 0. 0. 0. 0.
      0. 0. 0. 0. 0. 0. 0. 0. 0. 0. 0. 0. 0. 0. 0. 0. 0. 0. 0. 0. 0. 0.
      0. 0. 0. 0. 0. 2.56073754e-02 0. 0. 0. 0. 0. 0. 0. 0. 0. 0. 0. 0.
      0. 0. 0. 0. 0. 0. 0. 0. 0. 0. 0. 0. 0. 0. 0. 0. 2.56073754e-02 0.
      2.56073754e-02 1.28036872e-01 0. 0. 0. 4.35325384e-01 0.
      2.56073754e-02 0. 0. 0. 0. 0. 7.68221244e-02 0. 0. 0. 0. 0. 0. 0.
      0. 0. 0. 0. 0. 0. 0. 0. 2.56073754e-02 0. 0. 0. 0. 0. 0. 0.
      2.56073754e-02 0. 0. 0. 0. 0. 0. 0. 0. 0. 0. 0. 0. 0. 0. 0. 0. 0.
      0. 0. 0. 0. 0. 0. 0. 0. 0. 0. 7.68221244e-02 0. 0. 0.
      3.32895875e-01 0. 0. 0. 0. 0. 0. 0. 1.53644249e-01 0. 0. 0. 0. 0.
      0. 0. 0. 0. 0. 0. 0. 0. 0. 0. 0. 0. 0. 0. 2.56073754e-02 0. 0. 0.
      5.12147509e-02 0. 0. 0. 0. 0. 0. 0. 2.56073754e-02 0. 0. 0. 0. 0.
      0. 0. 2.56073754e-02 0. 0. 0. 0. 0. 0. 0. 0. 9.01681066e-01 0. 0.
      0. 0. 0. 0. 0. 0. 2.90864855e-02 0. 0. 0. 0. 2.90864855e-02
      8.72594565e-02 0. 0. 0. 0. 0. 0. 0. 0. 2.90864855e-02 0.
      2.90864855e-02 0. 0. 0. 0. 0. 0. 2.90864855e-02 0. 0. 0. 0. 0. 0.
      0. 0. 2.90864855e-02 0. 0. 2.90864855e-02 0. 0. 0. 0. 0. 0. 0. 0.
      0. 0. 5.81729710e-02 0. 0. 0. 0. 0. 0. 0. 0. 0. 0. 0. 0. 0. 0. 0.
      0. 0. 0. 0. 0. 0. 0. 0. 0. 0. 0. 0. 0. 0. 0. 0. 0. 0. 0. 0. 0. 0.
      0. 0. 0. 0. 0. 0. 0. 0. 0. 0. 0. 0. 0. 0. 0. 0. 0. 0. 0. 0. 0. 0.
      0. 0. 0. 0. 2.90864855e-02 0. 0. 0. 0. 0. 0. 0. 2.90864855e-02
      5.81729710e-02 0. 2.32691884e-01 0. 0. 0. 8.72594565e-02 0. 0. 0.
      0. 0. 0. 0. 5.81729710e-02 0. 2.90864855e-02 0. 0. 0. 0. 0. 0. 0.
      0. 0. 0. 0. 0. 0. 2.90864855e-02 0. 0. 0. 0. 0. 0. 0. 0. 0. 0. 0.
      0. 0. 0. 0. 0. 0. 0. 0. 0. 0. 0. 0. 0. 0. 0. 0. 0. 0. 0. 0.
      2.90864855e-02 0. 0. 0. 1.74518913e-01 0. 0. 0. 1.16345942e-01 0.
      0. 0. 2.90864855e-02 0. 0. 0. 1.16345942e-01 0. 0. 0. 0. 0. 0. 0.
      0. 0. 0. 0. 0. 0. 0. 0. 0. 0. 5.81729710e-02 0. 1.74518913e-01 0.
      0. 0. 5.81729710e-02 0. 0. 0. 0. 0. 0. 0. 2.90864855e-02 0. 0. 0.
      2.90864855e-02 0. 0. 0. 0. 0. 0. 0. 0. 0. 0. 0. 0. 8.86498034e-01
      0. 0. 0. 0. 0. 0. 0. 0. 0. 0. 0. 0. 0. 0. 0. 0. 0. 0. 0. 0. 0. 0.
      0. 2.77030636e-02 0. 2.77030636e-02 0. 0. 0. 0. 0. 0.
      2.77030636e-02 0. 0. 0. 0. 0. 0. 0. 0. 2.77030636e-02 0. 0.
      2.77030636e-02 0. 0. 0. 0. 0. 0. 0. 0. 0. 0. 0. 0. 0. 0. 0. 0. 0.
      0. 2.77030636e-02 0. 0. 0. 0. 0. 0. 0. 0. 0. 0. 0. 0. 0. 0. 0. 0.
      0. 0. 0. 0. 0. 0. 0. 0. 0. 0. 0. 0. 0. 0. 0. 0. 0. 0. 0. 0. 0. 0.
      0. 0. 0. 0. 0. 0. 0. 0. 0. 2.77030636e-02 0. 0. 0. 0. 0. 0. 0. 0.
      0. 0. 0. 0. 0. 0. 0. 0. 0. 0. 1.38515323e-01 0. 0. 0. 0. 0. 0. 0.
      0. 0. 0. 0. 0. 0. 0. 0. 0. 0. 0. 0. 0. 0. 0. 0. 0. 0. 0. 0. 0. 0.
      0. 0. 0. 0. 0. 0. 0. 0. 0. 0. 0. 0. 0. 0. 0. 0. 0. 0. 0. 0. 0. 0.
      0. 0. 0. 0. 0. 0. 0. 0. 0. 2.77030636e-02 8.31091926e-02 0.
      5.54061271e-02 0. 0. 0. 5.54061271e-02 0. 2.77030636e-02 0. 0. 0.
      0. 0. 2.77030636e-02 0. 0. 0. 0. 0. 0. 0. 0. 0. 0. 0. 0. 0. 0. 0.
      0. 2.77030647e-01 1.38515323e-01 0. 1.66218385e-01 0. 0. 0.
      8.31091926e-02 0. 0. 0. 0. 0. 0. 0. 2.77030636e-02 5.54061271e-02
      2.77030636e-02 0. 1.38515323e-01 0. 0. 0. 5.54061271e-02
      2.77030636e-02 1.10812254e-01 0. 5.54061271e-02 2.77030636e-02 0.
      0. 0. 9.42857146e-01 0. 0. 0. 0. 0. 0. 0. 0. 0. 0. 0. 0. 0.
      2.85714287e-02 0. 0. 0. 0. 0. 0. 0. 0. 0. 5.71428575e-02 0.
      2.85714287e-02 0. 5.71428575e-02 0. 2.85714287e-02 2.85714287e-02
      0. 2.85714287e-02 0. 0. 0. 0. 0. 0. 0. 0. 2.85714287e-02 0. 0.
      2.85714287e-02 0. 0. 0. 0. 0. 0. 0. 0. 0. 0. 2.85714287e-02 0. 0.
      0. 5.71428575e-02 0. 1.14285715e-01 0. 0. 0. 0. 0. 0. 0. 0. 0. 0.
      0. 0. 0. 0. 0. 0. 2.85714287e-02 0. 0. 0. 0. 0. 0. 0. 0. 0. 0. 0.
      0. 0. 0. 0. 0. 0. 0. 0. 0. 0. 0. 0. 0. 0. 0. 0. 0. 0. 0. 0. 0. 0.
      0. 0. 0. 0. 0. 0. 0. 5.71428575e-02 2.85714287e-02 0. 0.
      5.71428575e-02 0. 2.85714287e-02 2.85714287e-02 0. 2.85714287e-02
      0. 0. 0. 0. 0. 2.85714287e-02 0. 0. 0. 0. 0. 0. 0. 0. 0. 0. 0. 0.
      0. 0. 0. 0. 0. 2.85714287e-02 0. 0. 0. 0. 0. 2.85714287e-02 0. 0.
      0. 0. 0. 0. 0. 0. 0. 0. 0. 0. 0. 0. 0. 0. 0. 0. 0. 0. 0. 0. 0. 0.
      0. 0. 0. 2.85714287e-02 2.85714287e-02 0. 0. 0. 0. 5.71428575e-02
      0. 0. 0. 0. 0. 2.85714287e-02 0. 0. 0. 0. 0. 0. 0. 5.71428575e-02
      0. 0. 0. 0. 0. 0. 0. 2.85714287e-02 0. 0. 0. 0. 0. 0. 0. 0.
      1.14285715e-01 0. 0. 0. 0. 0. 0. 5.71428575e-02 0. 0. 0. 0. 0. 0.
      0. 2.85714287e-02 1.14285715e-01 1.14285715e-01 0. 5.71428575e-02
      2.85714287e-02 0. 0. 0. 5.71428575e-02 5.71428575e-02 0.
      2.85714287e-02 5.71428575e-02 0. 2.85714287e-02 0. 8.94180894e-01
      0. 0. 0. 0. 0. 2.70963907e-02 8.12891722e-02 2.70963907e-02
      5.41927814e-02 0. 0. 0. 0. 0. 1.89674735e-01 0. 0. 0. 0. 0. 0.
      2.70963907e-02 0. 2.70963907e-02 0. 2.70963907e-02 0. 0. 0. 0. 0.
      0. 2.70963907e-02 0. 0. 0. 0. 0. 0. 0. 0. 2.70963907e-02 0. 0.
      2.70963907e-02 0. 0. 0. 0. 0. 0. 0. 0. 0. 0. 0. 0. 0. 0. 0. 0. 0.
      0. 0. 0. 0. 0. 0. 0. 0. 0. 0. 0. 0. 0. 0. 0. 0. 2.70963907e-02 0.
      0. 0. 0. 0. 0. 0. 0. 0. 0. 0. 0. 0. 0. 0. 0. 0. 0. 0. 0. 0. 0. 0.
      0. 0. 0. 0. 0. 0. 0. 0. 0. 0. 0. 0. 0. 0. 0. 0. 0. 0. 0. 0. 0. 0.
      0. 0. 2.70963907e-02 5.41927814e-02 2.70963907e-02 0.
      1.08385563e-01 0. 0. 0. 1.35481954e-01 0. 0. 0. 2.70963907e-02 0.
      2.70963907e-02 2.70963907e-02 2.98060298e-01 0. 0. 0. 0. 0. 0. 0.
      0. 0. 0. 0. 0. 0. 0. 0. 8.12891722e-02 0. 0. 0. 0. 0. 0. 0. 0. 0.
      0. 0. 0. 0. 0. 0. 0. 0. 0. 0. 0. 0. 0. 0. 8.12891722e-02 0. 0. 0.
      0. 0. 0. 0. 2.70963907e-02 0. 0. 0. 0. 0. 0. 0. 5.41927814e-02 0.
      0. 0. 2.70963907e-02 0. 0. 0. 2.70963907e-02 0. 0. 0. 0. 0. 0. 0.
      0. 0. 0. 0. 0. 0. 0. 0. 0. 0. 0. 0. 0. 0. 0. 0. 0. 0. 0. 0. 0. 0.
      0. 0. 5.41927814e-02 0. 0. 0. 2.70963907e-02 0. 0. 0.
      2.70963907e-02 0. 0. 0. 0. 0. 0. 0. 0. 9.36730266e-01 0. 0. 0. 0.
      0. 0. 2.92728208e-02 5.85456416e-02 0. 0. 0. 2.92728208e-02 0.
      8.78184587e-02 5.85456416e-02 0. 0. 0. 0. 0. 0. 0. 0.
      2.92728208e-02 0. 2.92728208e-02 0. 2.92728208e-02 0. 0. 0. 0.
      2.92728208e-02 0. 0. 0. 0. 2.92728208e-02 0. 0. 0. 2.92728208e-02
      0. 0. 2.92728208e-02 0. 0. 0. 0. 0. 0. 0. 0. 0. 0. 5.85456416e-02
      2.92728208e-02 0. 0. 0. 0. 5.85456416e-02 2.92728208e-02 0. 0. 0.
      0. 0. 0. 0. 0. 0. 0. 0. 0. 0. 0. 0. 0. 0. 0. 0. 0. 0. 0. 0. 0. 0.
      0. 0. 0. 0. 0. 0. 0. 0. 0. 0. 0. 0. 0. 0. 0. 0. 0. 0. 0. 0. 0. 0.
      0. 0. 0. 0. 0. 0. 0. 0. 0. 5.85456416e-02 0. 0. 0. 0. 0.
      2.92728208e-02 2.92728208e-02 2.92728208e-02 0. 0. 5.85456416e-02
      0. 0. 0. 1.46364108e-01 0. 0. 0. 0. 0. 0. 2.92728208e-02
      1.75636917e-01 0. 0. 0. 0. 0. 0. 0. 0. 0. 0. 0. 0. 0. 0. 0.
      1.17091283e-01 0. 0. 0. 0. 0. 0. 0. 0. 0. 0. 0. 0. 0. 0. 0. 0. 0.
      0. 0. 0. 0. 0. 0. 0. 0. 2.92728208e-02 0. 0. 0. 0. 0. 0. 0.
      2.92728208e-02 0. 0. 0. 0. 0. 0. 0. 0. 0. 0. 0. 0. 0.
      2.92728208e-02 0. 0. 0. 0. 0. 0. 0. 0. 0. 0. 0. 0. 2.92728208e-02
      0. 0. 5.85456416e-02 0. 0. 0. 0. 0. 0. 0. 0. 2.92728208e-02 0. 0.
      2.92728208e-02 0. 0. 0. 0. 0. 0. 0. 2.92728208e-02 0. 0. 0.
      5.85456416e-02 0. 2.92728208e-02 0. 2.92728208e-02 2.92728208e-02
      0. 0. 0. 9.57427084e-01 0. 0. 0. 0. 0. 0. 0. 0. 0. 0. 0. 0. 0. 0.
      0. 0. 0. 0. 0. 0. 0. 0. 0. 8.70388299e-02 2.90129427e-02
      2.90129427e-02 0. 0. 0. 0. 0. 2.90129427e-02 2.90129427e-02 0. 0.
      0. 0. 0. 0. 0. 0. 2.90129427e-02 0. 0. 2.90129427e-02 0. 0. 0. 0.
      0. 0. 0. 0. 0. 0. 0. 0. 0. 0. 0. 0. 0. 0. 0. 0. 0. 0. 0. 0. 0. 0.
      0. 0. 0. 2.90129427e-02 0. 0. 0. 0. 0. 0. 0. 0. 0. 0. 0. 0. 0. 0.
      2.90129427e-02 0. 0. 0. 0. 0. 0. 0. 0. 0. 0. 0. 0. 2.90129427e-02
      0. 0. 0. 0. 0. 0. 0. 0. 0. 0. 0. 0. 0. 0. 0. 0. 2.90129427e-02 0.
      0. 0. 0. 0. 0. 5.80258854e-02 2.90129427e-02 5.80258854e-02 0.
      1.45064712e-01 0. 0. 0. 5.80258854e-02 0. 2.90129427e-02 0. 0.
      2.90129427e-02 0. 0. 5.80258854e-02 0. 0. 0. 0. 0. 0. 0. 0. 0. 0.
      0. 0. 2.90129427e-02 0. 0. 0. 0. 0. 0. 0. 0. 0. 0. 0. 0. 0. 0. 0.
      0. 0. 0. 0. 2.90129427e-02 0. 0. 0. 0. 0. 0. 0. 0. 2.90129427e-02
      0. 0. 0. 0. 0. 0. 2.90129427e-02 2.90129427e-02 0. 2.90129427e-02
      0. 0. 0. 2.90129427e-02 0. 2.90129427e-02 0. 2.90129427e-02 0. 0.
      0. 2.90129427e-02 0. 0. 0. 0. 0. 0. 0. 0. 0. 0. 0. 0. 0. 0. 0. 0.
      2.90129427e-02 0. 0. 5.80258854e-02 0. 0. 0. 5.80258854e-02 0. 0.
      0. 0. 2.90129427e-02 0. 0. 2.90129427e-02 2.90129427e-02
      5.80258854e-02 0. 2.90129427e-02 0. 0. 0. 2.90129427e-02
      5.80258854e-02 0. 0. 0. 5.80258854e-02 0. 0. 0. 9.38272715e-01 0.
      2.84325071e-02 0. 0. 0. 0. 0. 0. 0. 0. 0. 0. 0. 0. 0. 0. 0. 0. 0.
      0. 0. 0. 0. 5.68650141e-02 0. 2.84325071e-02 0. 2.84325071e-02 0.
      0. 2.84325071e-02 5.68650141e-02 2.84325071e-02 0. 0. 0. 0. 0. 0.
      0. 0. 2.84325071e-02 0. 0. 2.84325071e-02 0. 0. 0. 0. 0. 0. 0. 0.
      0. 0. 0. 0. 0. 0. 5.68650141e-02 0. 2.84325071e-02 0. 0. 0.
      2.84325071e-02 0. 0. 0. 0. 0. 0. 0. 0. 0. 0. 0. 0. 0. 0. 0. 0. 0.
      0. 0. 0. 0. 0. 0. 0. 0. 0. 0. 0. 0. 0. 0. 2.84325071e-02 0. 0. 0.
      0. 0. 2.84325071e-02 0. 0. 0. 0. 0. 0. 0. 2.84325071e-02 0. 0. 0.
      0. 0. 0. 0. 0. 0. 0. 0. 1.13730028e-01 0. 2.84325071e-02
      2.84325071e-02 0. 0. 0. 0. 0. 0. 0. 0. 0. 2.84325071e-02 0. 0. 0.
      0. 0. 0. 0. 0. 0. 0. 0. 0. 0. 0. 0. 0. 0. 0. 2.84325071e-02 0. 0.
      2.84325071e-02 0. 0. 0. 0. 0. 0. 0. 0. 0. 0. 0. 0. 0. 0. 0. 0. 0.
      0. 0. 0. 0. 0. 0. 0. 0. 0. 0. 0. 0. 0. 0. 0. 2.84325071e-02 0. 0.
      5.68650141e-02 0. 0. 2.84325071e-02 2.84325071e-02 0. 0. 0.
      2.84325071e-02 0. 0. 0. 0. 0. 0. 0. 0. 0. 0. 0. 0. 0. 0. 0. 0. 0.
      0. 0. 0. 5.68650141e-02 2.84325071e-02 0. 5.68650141e-02
      2.84325071e-02 0. 0. 2.84325071e-02 0. 0. 0. 0. 5.68650141e-02 0.
      0. 0. 1.13730028e-01 1.13730028e-01 0. 0. 0. 0. 0. 2.84325071e-02
      1.42162532e-01 8.52975249e-02 0. 8.52975249e-02 5.68650141e-02 0.
      0. 0. 9.36759353e-01 0. 0. 0. 0. 0. 0. 0. 2.83866469e-02 0. 0. 0.
      2.83866469e-02 0. 0. 5.67732938e-02 0. 0. 0. 0. 0. 0. 0. 0.
      2.83866469e-02 0. 2.83866469e-02 0. 0. 0. 0. 1.13546588e-01 0.
      2.83866469e-02 0. 0. 0. 0. 0. 0. 0. 0. 2.83866469e-02 0. 0.
      2.83866469e-02 0. 0. 2.83866469e-02 0. 0. 2.83866469e-02 0. 0. 0.
      0. 8.51599425e-02 0. 0. 0. 8.51599425e-02 0. 2.83866469e-02
      8.51599425e-02 0. 0. 0. 0. 0. 0. 0. 0. 0. 0. 0. 0. 0. 0.
      2.83866469e-02 0. 0. 0. 0. 0. 0. 0. 0. 0. 0. 0. 0. 0. 0. 0. 0. 0.
      2.83866469e-02 0. 0. 0. 0. 0. 0. 0. 0. 0. 0. 0. 0. 0. 0. 0.
      5.67732938e-02 0. 0. 0. 0. 0. 0. 0. 1.41933233e-01 0. 0. 0.
      1.13546588e-01 2.83866469e-02 2.83866469e-02 5.67732938e-02
      2.83866469e-02 5.67732938e-02 0. 0. 0. 0. 0. 0. 0. 0. 0. 0.
      2.83866469e-02 0. 0. 2.83866469e-02 0. 0. 0. 0. 0. 0. 0. 0. 0.
      2.83866469e-02 0. 0. 0. 0. 0. 0. 0. 0. 0. 0. 0. 0. 0. 0. 0. 0. 0.
      0. 0. 0. 0. 0. 0. 0. 0. 0. 0. 0. 0. 0. 0. 0. 0. 0. 0. 0. 0.
      2.83866469e-02 0. 0. 0. 0. 0. 0. 0. 0. 0. 0. 0. 0. 0. 0.
      2.83866469e-02 0. 0. 0. 0. 0. 0. 0. 0. 0. 0. 0. 0. 0. 0. 0. 0. 0.
      2.83866469e-02 0. 0. 2.83866469e-02 0. 0. 0. 0. 0. 0. 0. 0. 0. 0.
      0. 0. 8.51599425e-02 2.83866469e-02 0. 0. 0. 0. 2.83866469e-02
      2.83866469e-02 2.83866469e-02 0. 0. 0. 2.83866469e-02
      1.13546588e-01 0. 0. 9.09407675e-01 0. 0. 0. 0. 0. 2.93357316e-02
      2.93357316e-02 0. 0. 0. 0. 0. 0. 0. 0. 0. 0. 0. 0. 0. 0. 0. 0.
      5.86714633e-02 0. 2.93357316e-02 0. 0. 0. 0. 2.93357316e-02 0.
      2.93357316e-02 0. 0. 0. 0. 0. 0. 0. 0. 2.93357316e-02 0. 0.
      2.93357316e-02 0. 0. 0. 0. 0. 0. 0. 0. 0. 0. 0. 0. 0. 0.
      2.93357316e-02 0. 5.86714633e-02 2.93357316e-02 0. 0. 0. 0. 0. 0.
      0. 0. 2.93357316e-02 0. 0. 0. 0. 0. 0. 0. 0. 0. 0. 0. 0. 0. 0. 0.
      0. 0. 0. 0. 0. 0. 0. 0. 2.93357316e-02 0. 0. 0. 0. 0. 0. 0. 0. 0.
      0. 0. 0. 0. 0. 0. 2.93357316e-02 0. 0. 2.93357316e-02 0. 0. 0. 0.
      5.86714633e-02 0. 0. 0. 5.86714633e-02 0. 0. 0. 2.93357316e-02 0.
      0. 0. 0. 0. 0. 0. 2.93357316e-02 0. 0. 0. 0. 0. 0. 5.86714633e-02
      0. 0. 0. 0. 0. 0. 0. 0. 0. 0. 0. 0. 0. 0. 0. 0. 2.93357316e-02 0.
      0. 0. 0. 0. 0. 0. 0. 0. 0. 0. 0. 0. 0. 0. 0. 0. 0. 0. 0. 0. 0. 0.
      0. 0. 0. 0. 0. 0. 0. 2.93357316e-02 0. 0. 0. 0. 0. 0. 0. 0. 0. 0.
      0. 0. 0. 0. 0. 2.93357316e-02 0. 0. 0. 2.93357316e-02 0. 0. 0. 0.
      0. 0. 0. 0. 0. 0. 0. 0. 1.76014394e-01 5.86714633e-02 0. 0.
      2.93357316e-02 0. 0. 0. 2.93357316e-02 0. 0. 0. 0. 0.
      2.93357316e-02 2.93357316e-02 2.34685853e-01 8.80071968e-02
      2.93357316e-02 5.86714633e-02 0. 0. 0. 2.93357316e-02
      1.46678656e-01 8.80071968e-02 0. 0. 2.93357316e-02 5.86714633e-02
      0. 0. 9.48291540e-01 0. 2.87361071e-02 0. 0. 0. 0. 0. 0. 0. 0. 0.
      2.87361071e-02 0. 0. 0. 0. 0. 0. 0. 0. 0. 0. 0. 2.87361071e-02 0.
      2.87361071e-02 0. 2.87361071e-02 0. 2.87361071e-02 2.87361071e-02
      2.87361071e-02 2.87361071e-02 2.87361071e-02 0. 0. 0.
      2.87361071e-02 0. 0. 0. 2.87361071e-02 0. 0. 2.87361071e-02
      2.87361071e-02 0. 0. 0. 0. 0. 0. 0. 0. 0. 8.62083212e-02 0. 0. 0.
      1.43680543e-01 0. 5.74722141e-02 2.87361071e-02 0. 0. 0. 0. 0. 0.
      0. 0. 0. 0. 0. 0. 0. 0. 0. 0. 2.87361071e-02 0. 0. 0. 0. 0. 0. 0.
      0. 0. 0. 0. 0. 0. 0. 0. 2.87361071e-02 0. 0. 0. 0. 0. 0. 0. 0. 0.
      0. 0. 2.87361071e-02 0. 0. 0. 5.74722141e-02 0. 0. 0. 0. 0. 0. 0.
      5.74722141e-02 0. 0. 0. 1.43680543e-01 0. 0. 2.87361071e-02
      2.87361071e-02 0. 2.87361071e-02 0. 0. 0. 0. 5.74722141e-02 0. 0.
      0. 0. 0. 0. 0. 0. 0. 0. 0. 2.87361071e-02 0. 0. 0. 0. 0. 0. 0. 0.
      0. 0. 0. 0. 0. 0. 0. 0. 0. 0. 0. 0. 0. 0. 0. 0. 0. 0. 0. 0. 0. 0.
      0. 0. 0. 0. 0. 0. 0. 2.87361071e-02 0. 0. 0. 0. 0. 2.87361071e-02
      0. 0. 0. 2.87361071e-02 0. 0. 0. 2.87361071e-02 0. 0. 0. 0. 0. 0.
      0. 0. 0. 0. 0. 0. 0. 0. 0. 0. 0. 0. 0. 0. 0. 0. 0. 5.74722141e-02
      5.74722141e-02 0. 0. 0. 0. 0. 0. 0. 0. 0. 0. 0. 2.87361071e-02 0.
      2.87361071e-02 0. 0. 0. 0. 2.87361071e-02 0. 0. 0. 0.
      5.74722141e-02 2.87361071e-02 0. 0. 5.74722141e-02 2.87361071e-02
      0. 0. 9.13540244e-01 0. 2.85481326e-02 0. 0. 0. 0. 0. 0. 0. 0. 0.
      0. 0. 0. 0. 0. 0. 0. 0. 0. 0. 0. 0. 2.85481326e-02 0.
      2.85481326e-02 0. 0. 0. 2.85481326e-02 2.85481326e-02 0.
      2.85481326e-02 0. 0. 0. 0. 0. 2.85481326e-02 0. 0. 2.85481326e-02
      0. 0. 2.85481326e-02 0. 0. 0. 0. 0. 0. 0. 0. 0. 0. 0. 0. 0. 0. 0.
      0. 0. 0. 0. 0. 0. 0. 0. 0. 0. 0. 0. 0. 0. 0. 0. 0. 0. 0. 0. 0. 0.
      0. 0. 0. 0. 0. 0. 0. 0. 0. 0. 0. 0. 0. 0. 0. 0. 0. 0. 0. 0. 0. 0.
      0. 0. 0. 2.85481326e-02 0. 0. 0. 0. 0. 0. 0. 0. 0. 0. 0. 0.
      2.85481326e-02 0. 0. 0. 0. 0. 0. 5.70962653e-02 5.70962653e-02 0.
      1.71288788e-01 0. 0. 0. 8.56443942e-02 0. 0. 0. 0. 0. 0. 0.
      2.85481326e-02 0. 2.85481326e-02 0. 0. 0. 0. 0. 0. 0. 0. 0. 0. 0.
      0. 0. 0. 0. 0. 0. 0. 0. 0. 0. 0. 0. 0. 0. 0. 0. 0. 0. 0. 0. 0. 0.
      0. 0. 0. 0. 0. 0. 0. 0. 0. 0. 0. 0. 0. 2.85481326e-02
      2.85481326e-02 0. 1.14192531e-01 0. 0. 0. 2.28385061e-01 0. 0. 0.
      2.85481326e-02 0. 0. 2.85481326e-02 1.14192531e-01 0. 0. 0. 0. 0.
      0. 0. 0. 0. 0. 0. 2.85481326e-02 0. 0. 0. 0. 5.70962653e-02
      5.70962653e-02 0. 2.85481326e-02 0. 0. 0. 1.14192531e-01 0. 0. 0.
      0. 0. 0. 0. 2.85481326e-02 0. 2.85481326e-02 0. 5.70962653e-02 0.
      0. 0. 5.70962653e-02 0. 2.85481326e-02 0. 0. 0. 0. 0. 0.
      9.29588616e-01 0. 0. 0. 0. 0. 0. 0. 2.90496442e-02 0. 0. 0. 0. 0.
      0. 0. 0. 0. 0. 0. 0. 0. 0. 0. 2.90496442e-02 0. 2.90496442e-02 0.
      0. 0. 0. 2.90496442e-02 0. 2.90496442e-02 0. 0. 0. 0. 0. 0. 0. 0.
      2.90496442e-02 0. 0. 2.90496442e-02 0. 0. 0. 0. 0. 0. 0. 0. 0. 0.
      2.90496442e-02 2.90496442e-02 0. 0. 1.16198577e-01 0.
      5.80992885e-02 0. 0. 0. 0. 0. 0. 0. 0. 0. 0. 0. 0. 0. 0. 0. 0. 0.
      0. 0. 0. 0. 0. 0. 0. 0. 0. 0. 0. 0. 0. 0. 0. 0. 0. 0. 0. 0. 0. 0.
      0. 0. 0. 0. 0. 0. 0. 0. 0. 0. 2.90496442e-02 0. 0. 0. 0. 0. 0. 0.
      5.80992885e-02 0. 0. 0. 8.71489346e-02 0. 2.90496442e-02
      2.90496442e-02 2.90496442e-02 2.90496442e-02 0. 0. 0. 0. 0. 0. 0.
      0. 0. 0. 0. 0. 0. 0. 0. 0. 0. 0. 0. 0. 0. 0. 0. 2.90496442e-02 0.
      0. 0. 0. 0. 0. 0. 0. 0. 0. 0. 0. 0. 0. 0. 0. 0. 0. 0. 0. 0. 0. 0.
      2.90496442e-02 0. 0. 0. 0. 0. 0. 0. 0. 0. 0. 0. 0. 0. 0.
      5.80992885e-02 5.80992885e-02 0. 0. 0. 0. 0. 2.90496442e-02 0. 0.
      0. 0. 0. 0. 0. 0. 0. 0. 0. 0. 0. 0. 0. 0. 0. 0. 0. 0. 0. 0. 0. 0.
      1.16198577e-01 2.90496442e-02 0. 1.45248219e-01 0. 0. 0.
      2.90496442e-02 0. 0. 0. 0. 0. 0. 0. 0. 1.45248219e-01
      5.80992885e-02 0. 5.80992885e-02 0. 0. 0. 0. 2.90496442e-02
      5.80992885e-02 0. 2.90496442e-02 1.16198577e-01 5.80992885e-02
      2.90496442e-02 0. 9.37936604e-01 0. 0. 0. 0. 0. 0. 0.
      2.93105189e-02 0. 0. 0. 0. 0. 0. 0. 0. 0. 0. 0. 0. 0. 0. 0.
      2.93105189e-02 0. 2.93105189e-02 0. 0. 0. 0. 0. 0. 2.93105189e-02
      0. 0. 0. 0. 0. 0. 0. 0. 2.93105189e-02 0. 0. 2.93105189e-02 0. 0.
      0. 0. 0. 0. 0. 0. 0. 0. 1.46552593e-01 0. 0. 0. 1.17242076e-01
      2.93105189e-02 0. 0. 0. 0. 0. 0. 0. 0. 0. 0. 0. 0. 0. 0. 0. 0. 0.
      0. 0. 0. 0. 0. 0. 0. 0. 2.93105189e-02 0. 0. 0. 0. 0. 0. 0. 0. 0.
      0. 0. 0. 0. 0. 0. 0. 0. 0. 0. 0. 0. 0. 0. 0. 0. 0. 0. 0. 0. 0. 0.
      0. 2.93105189e-02 0. 0. 0. 0. 0. 0. 0. 1.17242076e-01
      5.86210378e-02 0. 5.86210378e-02 0. 0. 0. 0. 5.86210378e-02 0. 0.
      0. 0. 0. 0. 0. 0. 0. 0. 0. 0. 0. 0. 0. 0. 0. 0. 0. 0. 0. 0. 0. 0.
      0. 0. 0. 0. 0. 0. 0. 0. 0. 0. 0. 0. 0. 0. 0. 0. 0. 0. 0. 0. 0. 0.
      0. 0. 0. 0. 0. 0. 0. 0. 0. 0. 0. 0. 8.79315585e-02 0. 0. 0.
      2.93105189e-02 0. 0. 0. 2.93105189e-02 0. 0. 0. 5.86210378e-02 0.
      0. 0. 0. 0. 0. 0. 0. 0. 0. 0. 0. 0. 5.86210378e-02 0. 0.
      2.93105189e-02 0. 0. 5.86210378e-02 0. 0. 0. 2.93105189e-02 0. 0.
      0. 0. 0. 0. 0. 2.93105189e-02 1.17242076e-01 5.86210378e-02 0. 0.
      0. 2.93105189e-02 0. 2.93105189e-02 5.86210378e-02 5.86210378e-02
      0. 2.93105189e-02 2.93105189e-02 5.86210378e-02 0. 0.
      9.01497900e-01 0. 0. 2.81718094e-02 0. 0. 0. 2.81718094e-02
      2.81718094e-02 2.81718094e-02 0. 0. 0. 0. 2.81718094e-02
      2.81718094e-02 0. 0. 0. 0. 0. 0. 0. 0. 5.63436188e-02 0.
      2.81718094e-02 0. 0. 0. 0. 0. 0. 2.81718094e-02 0. 0. 0. 0. 0. 0.
      0. 0. 2.81718094e-02 0. 0. 2.81718094e-02 0. 0. 0. 0. 0. 0. 0. 0.
      0. 0. 5.63436188e-02 0. 0. 0. 0. 0. 0. 0. 0. 0. 0. 0. 0. 0. 0. 0.
      0. 0. 0. 0. 0. 0. 0. 0. 0. 0. 0. 0. 0. 0. 0. 0. 0. 0. 0. 0. 0. 0.
      0. 0. 2.81718094e-02 0. 0. 0. 2.81718094e-02 0. 0. 0. 0. 0. 0. 0.
      0. 0. 0. 0. 0. 0. 0. 0. 0. 0. 0. 0. 2.81718094e-02 0. 0. 0. 0. 0.
      5.63436188e-02 0. 2.81718094e-02 0. 2.81718094e-02 2.53546298e-01
      0. 0. 0. 8.45154300e-02 0. 0. 0. 0. 0. 0. 0. 2.81718094e-02 0. 0.
      0. 0. 0. 0. 0. 0. 0. 0. 0. 0. 0. 0. 0. 0. 0. 2.81718094e-02 0. 0.
      0. 0. 0. 0. 0. 0. 0. 0. 0. 0. 0. 0. 0. 0. 0. 0. 0. 0. 0. 0. 0. 0.
      0. 0. 0. 0. 0. 0. 5.63436188e-02 1.12687238e-01 0. 1.12687238e-01
      0. 0. 0. 1.69030860e-01 0. 0. 0. 2.81718094e-02 0. 0.
      2.81718094e-02 1.12687238e-01 0. 0. 0. 0. 0. 0. 0. 0. 0. 0. 0. 0.
      0. 0. 0. 0. 5.63436188e-02 0. 0. 5.63436188e-02 0. 0. 0.
      8.45154300e-02 0. 0. 0. 0. 0. 0. 0. 2.81718094e-02 0. 0. 0. 0. 0.
      0. 0. 8.45154300e-02 0. 0. 0. 0. 0. 0. 0. 0. 7.67364323e-01 0. 0.
      2.47536879e-02 0. 0. 0. 4.95073758e-02 0. 0. 0. 0. 0. 0. 0. 0. 0.
      0. 0. 0. 0. 0. 0. 0. 2.47536879e-02 0. 2.47536879e-02 0. 0. 0. 0.
      0. 0. 2.47536879e-02 0. 0. 0. 0. 0. 0. 0. 0. 2.47536879e-02 0. 0.
      2.47536879e-02 0. 0. 0. 0. 0. 0. 0. 0. 0. 0. 0. 0. 0. 0. 0. 0. 0.
      0. 0. 0. 0. 0. 0. 0. 0. 0. 0. 0. 0. 0. 0. 0. 0. 0. 0. 0. 0. 0. 0.
      0. 0. 0. 0. 0. 0. 0. 0. 0. 0. 0. 0. 0. 0. 0. 0. 0. 0. 0. 0. 0. 0.
      0. 0. 0. 0. 0. 0. 0. 0. 0. 0. 0. 0. 0. 0. 0. 0. 0. 0. 0. 0. 0. 0.
      0. 0. 3.46551627e-01 0. 0. 0. 2.97044247e-01 0. 0. 0. 0. 0. 0. 0.
      9.90147516e-02 0. 0. 0. 0. 0. 0. 0. 0. 0. 0. 0. 0. 0. 0. 0. 0. 0.
      0. 0. 0. 0. 0. 0. 0. 0. 0. 0. 0. 0. 0. 0. 0. 0. 0. 0. 0. 0. 0. 0.
      0. 0. 0. 0. 0. 0. 0. 0. 0. 2.47536879e-02 2.47536879e-02 0.
      2.72290558e-01 0. 0. 0. 3.21797937e-01 0. 0. 0. 0. 0. 0. 0.
      4.95073758e-02 0. 0. 0. 0. 0. 0. 0. 0. 0. 0. 0. 0. 0. 0. 0. 0. 0.
      0. 0. 0. 0. 0. 0. 7.42610618e-02 0. 0. 0. 0. 0. 0. 0. 0. 0. 0. 0.
      0. 0. 0. 0. 0. 0. 0. 0. 0. 0. 0. 0. 0.</_>
    <_>
      9.05105591e-01 0. 0. 0. 0. 0. 0. 0. 2.51418222e-02 0. 0. 0. 0. 0.
      1.25709116e-01 0. 0. 0. 0. 0. 0. 0. 0. 0. 5.02836443e-02 0. 0. 0.
      2.51418222e-02 0. 2.51418222e-02 0. 0. 0. 0. 0. 0. 0. 0. 0. 0. 0.
      0. 0. 0. 0. 0. 0. 0. 0. 0. 0. 0. 0. 0. 0. 1.00567289e-01 0. 0. 0.
      1.25709116e-01 0. 0. 2.51418222e-02 0. 0. 0. 0. 0. 0. 0. 0. 0. 0.
      0. 0. 0. 0. 0. 0. 0. 0. 0. 0. 0. 0. 0. 0. 0. 0. 0. 0. 0. 0. 0. 0.
      0. 0. 0. 0. 0. 0. 0. 0. 0. 0. 0. 0. 0. 0. 0. 0. 0. 0. 0. 0. 0. 0.
      0. 0. 2.26276398e-01 0. 0. 0. 5.02836443e-02 0. 7.54254684e-02
      7.54254684e-02 0. 0. 0. 0. 0. 0. 0. 0. 2.51418222e-02 0. 0. 0. 0.
      0. 0. 2.51418222e-02 0. 0. 0. 0. 0. 0. 0. 0. 2.51418222e-02 0. 0.
      0. 0. 0. 0. 2.51418222e-02 0. 0. 0. 0. 0. 0. 0. 0. 0. 0. 0. 0. 0.
      0. 0. 0. 0. 0. 0. 0. 0. 0. 0. 0. 0. 0. 0. 0. 0. 0. 0. 0. 0. 0. 0.
      0. 0. 0. 0. 0. 0. 0. 0. 0. 0. 0. 0. 0. 0. 0. 0. 0. 0. 0. 0. 0. 0.
      0. 0. 0. 0. 0. 0. 0. 0. 0. 0. 0. 0. 0. 0. 0. 0. 0. 0. 0. 0. 0. 0.
      0. 0. 0. 0. 0. 0. 0. 0. 0. 2.51418233e-01 0. 0. 0. 5.02836443e-02
      0. 2.51418222e-02 0. 8.80145609e-01 0. 0. 0. 0. 0. 0. 0. 0. 0. 0.
      0. 0. 0. 0. 0. 0. 0. 0. 0. 0. 0. 0. 0. 0. 0. 0. 0. 0. 0. 0. 0. 0.
      0. 0. 0. 0. 0. 0. 0. 0. 0. 0. 0. 0. 0. 0. 0. 0. 0. 0. 0. 0. 0. 0.
      0. 4.88969795e-02 0. 0. 0. 0. 0. 0. 0. 0. 0. 0. 0. 0. 0. 0. 0. 0.
      0. 0. 0. 0. 0. 0. 0. 0. 0. 0. 0. 0. 0. 0. 0. 0. 0. 0. 0. 0. 0. 0.
      0. 0. 0. 0. 0. 0. 0. 0. 0. 0. 0. 0. 0. 0. 0. 0. 0. 0. 0. 0. 0. 0.
      0. 0. 0. 4.88969795e-02 0. 0. 0. 7.33454674e-02 0. 7.33454674e-02
      0. 0. 0. 0. 1.22242451e-01 0. 0. 0. 0. 0. 0. 0. 0. 0. 0. 0.
      4.88969795e-02 0. 0. 0. 2.44484898e-02 0. 0. 0. 0. 0. 0. 0. 0. 0.
      0. 0. 0. 0. 0. 0. 0. 0. 0. 0. 0. 0. 0. 0. 0. 0. 0. 0. 0. 0. 0. 0.
      0. 0. 0. 0. 0. 0. 0. 0. 0. 0. 0. 0. 0. 0. 0. 0. 0. 0. 0. 0. 0. 0.
      0. 0. 0. 0. 0. 0. 0. 0. 0. 0. 0. 0. 0. 0. 0. 0. 0. 0. 0. 0. 0. 0.
      0. 1.46690935e-01 4.88969795e-02 0. 1.22242451e-01 0. 0. 0. 0. 0.
      0. 0. 0. 0. 0. 0. 0. 4.88969795e-02 0. 0. 0. 0. 0. 0. 0.
      3.66727352e-01 2.44484898e-02 0. 0. 1.22242451e-01 0.
      2.44484898e-02 0. 9.48354065e-01 0. 0. 2.63431687e-02 0. 0. 0.
      2.63431687e-02 0. 0. 0. 0. 0. 0. 5.26863374e-02 0. 0. 0. 0. 0. 0.
      0. 0. 0. 0. 0. 0. 0. 0. 0. 0. 2.63431687e-02 0. 0. 0. 0. 0. 0. 0.
      0. 0. 0. 0. 0. 0. 0. 0. 0. 0. 0. 0. 0. 0. 0. 0. 0. 2.63431687e-02
      0. 0. 0. 0. 0. 0. 2.63431687e-02 0. 0. 0. 0. 0. 0. 0. 0. 0. 0. 0.
      0. 0. 0. 0. 0. 0. 0. 0. 0. 0. 0. 0. 0. 0. 0. 0. 0. 0. 0. 0. 0. 0.
      0. 0. 0. 0. 0. 0. 0. 0. 0. 0. 0. 0. 0. 0. 0. 0. 0. 0. 0. 0. 0. 0.
      0. 0. 0. 0. 0. 0. 0. 0. 0. 0. 0. 0. 2.63431687e-02 0. 0. 0.
      2.63431687e-02 0. 0. 0. 0. 0. 0. 0. 1.84402183e-01 0. 0. 0. 0. 0.
      0. 0. 0. 0. 0. 0. 0. 0. 0. 0. 5.26863374e-02 0. 0. 0.
      2.63431687e-02 0. 0. 0. 0. 0. 0. 0. 0. 0. 0. 0. 0. 0. 0. 0. 0. 0.
      0. 0. 0. 0. 0. 0. 0. 0. 0. 0. 0. 0. 5.26863374e-02 0. 0. 0. 0. 0.
      2.63431687e-02 0. 0. 0. 0. 0. 0. 0. 5.26863374e-02 0. 0. 0. 0. 0.
      0. 0. 0. 0. 0. 0. 0. 0. 0. 0. 0. 5.26863374e-02 7.90295079e-02 0.
      2.63431687e-02 0. 0. 0. 2.63431687e-02 0. 0. 0. 0. 0. 0. 0.
      2.63431687e-02 5.26863374e-02 2.63431687e-02 0. 2.63431687e-02 0.
      0. 0. 0. 1.58059016e-01 7.90295079e-02 0. 0. 0. 5.26863374e-02 0.
      0. 9.18259799e-01 0. 0. 0. 0. 0. 0. 0. 0. 0. 0. 0. 0. 0. 0. 0. 0.
      0. 0. 0. 0. 0. 0. 0. 0. 0. 0. 0. 2.55072173e-02 0. 0. 0. 0. 0. 0.
      0. 0. 0. 0. 0. 0. 0. 0. 0. 0. 0. 0. 0. 0. 0. 0. 0. 0. 0. 0. 0.
      1.02028869e-01 0. 0. 0. 2.55072173e-02 2.55072173e-02
      5.10144345e-02 0. 0. 0. 0. 0. 0. 0. 0. 0. 0. 0. 0. 0. 0. 0. 0. 0.
      0. 0. 0. 0. 0. 0. 0. 0. 0. 0. 0. 0. 0. 0. 0. 0. 0. 0. 0. 0. 0. 0.
      0. 0. 0. 0. 0. 0. 0. 0. 0. 0. 0. 0. 0. 0. 0. 0. 0. 0.
      5.10144345e-02 0. 0. 0. 0. 0. 7.65216500e-02 0. 0. 0. 0.
      7.65216500e-02 0. 0. 0. 2.55072173e-02 0. 0. 0. 0. 0. 0. 0.
      1.02028869e-01 0. 0. 0. 2.55072173e-02 0. 0. 0. 0. 0. 0. 0. 0. 0.
      0. 0. 0. 0. 0. 0. 0. 0. 0. 0. 0. 0. 0. 0. 0. 0. 0. 0. 0. 0. 0. 0.
      0. 0. 0. 0. 0. 0. 0. 0. 0. 0. 0. 0. 0. 0. 0. 0. 5.10144345e-02 0.
      0. 0. 0. 0. 0. 0. 0. 0. 0. 0. 0. 0. 0. 0. 2.55072173e-02 0. 0. 0.
      0. 0. 0. 0. 0. 0. 0. 0. 5.10144345e-02 5.10144345e-02
      7.65216500e-02 0. 0. 0. 0. 0. 5.10144345e-02 0. 0. 0. 0. 0. 0. 0.
      0. 2.55072173e-02 2.55072173e-02 0. 5.10144345e-02 0. 0. 0.
      2.55072173e-02 3.06086600e-01 2.55072173e-02 0. 0. 0. 0. 0. 0.
      7.98620820e-01 0. 0. 0. 0. 0. 0. 0. 0. 0. 0. 0. 0. 0.
      2.66206950e-01 4.43678230e-01 0. 0. 0. 0. 0. 0. 0. 0. 0. 0. 0. 0.
      0. 0. 2.21839119e-02 2.21839115e-01 0. 0. 0. 0. 0. 0. 0. 0. 0. 0.
      0. 0. 0. 0. 0. 0. 0. 0. 0. 0. 0. 0. 0. 0. 0. 0. 0. 0. 0. 0.
      4.43678237e-02 1.33103475e-01 0. 0. 0. 0. 0. 0. 0. 0. 0. 0. 0. 0.
      0. 0. 0. 2.21839119e-02 0. 0. 0. 0. 0. 0. 0. 0. 0. 0. 0. 0. 0. 0.
      0. 0. 0. 0. 0. 0. 0. 0. 0. 0. 0. 0. 0. 0. 0. 0. 0. 0. 0. 0. 0. 0.
      0. 0. 0. 0. 0. 0. 0. 0. 0. 0. 0. 2.21839119e-02 0. 0. 0. 0. 0. 0.
      0. 0. 0. 0. 0. 0. 0. 0. 0. 1.55287385e-01 0. 0. 0. 0. 0. 0. 0. 0.
      0. 0. 0. 0. 0. 0. 0. 0. 0. 0. 0. 0. 0. 0. 0. 0. 0. 0. 0. 0. 0. 0.
      0. 0. 0. 0. 0. 0. 0. 0. 0. 0. 0. 0. 0. 0. 0. 0. 0. 0. 0. 0. 0. 0.
      0. 0. 0. 0. 0. 0. 0. 0. 0. 0. 0. 0. 0. 0. 0. 0. 0. 0. 0. 0. 0. 0.
      0. 0. 0. 0. 0. 0. 0. 0. 0. 0. 0. 0. 0. 0. 0. 0. 0. 0. 0. 0. 0. 0.
      0. 0. 0. 0. 0. 0. 0. 0. 0. 0. 0. 0. 0. 0. 0. 0. 8.57142866e-01 0.
      2.38095243e-02 0. 0. 0. 0. 2.38095243e-02 0. 0. 0. 0. 0. 0.
      9.52380970e-02 2.85714298e-01 0. 0. 0. 0. 0. 0. 0. 0. 0. 0. 0. 0.
      0. 0. 0. 7.14285746e-02 0. 0. 0. 0. 0. 0. 0. 2.38095243e-02 0. 0.
      0. 0. 0. 0. 0. 0. 0. 0. 0. 0. 0. 0. 0. 0. 0. 0. 0. 0. 0. 0.
      2.38095243e-02 7.14285746e-02 0. 0. 0. 0. 0. 0. 0. 0. 0. 0. 0. 0.
      0. 0. 0. 0. 0. 0. 0. 0. 0. 0. 0. 0. 0. 0. 0. 0. 0. 0. 0. 0. 0. 0.
      0. 0. 0. 0. 0. 0. 0. 0. 0. 0. 0. 0. 0. 0. 0. 0. 0. 0. 0. 0. 0. 0.
      0. 0. 0. 0. 0. 0. 0. 0. 0. 0. 0. 9.52380970e-02 0. 0. 0.
      1.19047619e-01 0. 0. 0. 0. 0. 0. 0. 3.57142866e-01 0. 0. 0. 0. 0.
      0. 0. 0. 0. 0. 0. 0. 0. 0. 0. 2.38095243e-02 0. 0. 0. 0. 0. 0. 0.
      0. 0. 0. 0. 0. 0. 0. 0. 0. 0. 0. 0. 0. 0. 0. 0. 0. 0. 0. 0. 0. 0.
      0. 0. 0. 0. 0. 0. 0. 0. 0. 0. 2.38095243e-02 0. 0. 0. 0. 0. 0. 0.
      0. 0. 0. 0. 0. 0. 0. 0. 0. 0. 0. 0. 0. 0. 0. 0. 2.38095243e-02 0.
      0. 0. 0. 0. 0. 0. 9.52380970e-02 0. 0. 0. 0. 0. 0. 0.
      2.38095243e-02 0. 0. 0. 0. 0. 0. 0. 0. 0. 0. 0. 0. 0. 0. 0. 0.
      9.39497948e-01 0. 2.53918357e-02 0. 0. 0. 0. 5.07836714e-02 0. 0.
      0. 0. 0. 0. 7.61755109e-02 1.01567343e-01 0. 0. 0. 0. 0. 0. 0. 0.
      0. 0. 0. 0. 0. 0. 0. 5.07836714e-02 0. 0. 0. 0. 0. 0.
      2.53918357e-02 0. 0. 0. 0. 0. 0. 0. 0. 0. 0. 0. 0. 0. 0. 0. 0. 0.
      0. 0. 0. 0. 0. 0. 2.53918357e-02 1.26959175e-01 0. 0. 0. 0. 0. 0.
      0. 0. 0. 0. 0. 0. 0. 0. 0. 0. 0. 0. 0. 0. 0. 0. 0. 0. 0. 0. 0. 0.
      0. 0. 0. 0. 0. 0. 0. 0. 0. 0. 0. 0. 0. 0. 0. 0. 0. 0.
      2.53918357e-02 0. 0. 0. 0. 0. 0. 0. 0. 0. 0. 0. 0. 0. 0. 0.
      5.07836714e-02 0. 0. 0. 0. 1.26959175e-01 0. 0. 0. 7.61755109e-02
      0. 0. 0. 0. 0. 0. 0. 1.52351022e-01 0. 0. 0. 0. 0. 0. 0. 0. 0. 0.
      0. 0. 0. 0. 0. 0. 0. 0. 0. 0. 0. 0. 0. 0. 0. 0. 0. 0. 0. 0. 0. 0.
      0. 0. 0. 0. 0. 0. 0. 0. 0. 0. 0. 0. 0. 2.53918357e-02 0.
      2.53918357e-02 0. 0. 0. 5.07836714e-02 0. 0. 2.53918357e-02
      2.53918357e-02 0. 0. 0. 0. 0. 0. 0. 5.07836714e-02 0. 0. 0. 0. 0.
      0. 0. 0. 0. 0. 0. 0. 0. 0. 0. 0. 2.53918357e-02 0. 0.
      7.61755109e-02 0. 0. 2.53918357e-02 5.07836714e-02 0. 0. 0. 0. 0.
      0. 0. 2.53918357e-02 0. 0. 0. 0. 0. 0. 0. 0. 1.01567343e-01 0. 0.
      0. 2.53918357e-02 0. 2.53918357e-02 0. 8.69808853e-01 0. 0. 0. 0.
      0. 0. 0. 0. 0. 0. 0. 0. 0. 7.24840760e-02 2.41613574e-02 0. 0. 0.
      0. 0. 0. 0. 0. 0. 0. 0. 0. 2.41613574e-02 0. 2.17452213e-01
      1.44968152e-01 0. 0. 0. 0. 0. 0. 0. 0. 0. 0. 0. 0. 0. 0. 0. 0. 0.
      0. 0. 0. 0. 0. 0. 0. 2.41613574e-02 0. 0. 0. 0. 0. 2.65774935e-01
      1.69129506e-01 0. 0. 0. 0. 0. 0. 0. 0. 0. 0. 0. 0. 0. 0. 0. 0. 0.
      0. 0. 0. 0. 0. 0. 0. 0. 0. 0. 0. 0. 0. 0. 0. 0. 0. 0. 0. 0. 0. 0.
      0. 0. 0. 0. 0. 0. 0. 0. 0. 0. 0. 0. 0. 0. 0. 0. 0. 0. 0. 0. 0. 0.
      0. 2.41613574e-02 0. 0. 0. 0. 0. 0. 0. 0. 0. 0. 0. 0. 0. 0. 0. 0.
      2.41613567e-01 0. 0. 0. 0. 0. 0. 0. 0. 0. 0. 0. 0. 0. 0. 0.
      9.66454297e-02 0. 0. 0. 0. 0. 0. 0. 0. 0. 0. 0. 0. 0. 0. 0. 0. 0.
      0. 0. 0. 0. 0. 0. 0. 0. 0. 0. 0. 0. 0. 0. 0. 0. 0. 0. 0. 0. 0. 0.
      0. 0. 0. 0. 0. 0. 0. 0. 0. 0. 0. 0. 0. 0. 0. 0. 0. 0. 0. 0. 0. 0.
      0. 0. 0. 0. 0. 0. 0. 0. 0. 0. 0. 0. 0. 0. 0. 0. 0. 0. 0. 0. 0. 0.
      0. 0. 0. 0. 0. 2.41613574e-02 0. 0. 0. 0. 0. 0. 0. 9.35286283e-01
      0. 0. 0. 0. 0. 0. 0. 2.52780076e-02 0. 0. 2.52780076e-02 0. 0.
      5.05560152e-02 0. 0. 0. 0. 0. 0. 0. 0. 0. 0. 0. 0. 0. 0. 0. 0.
      2.52780076e-02 2.52780076e-02 0. 0. 2.52780076e-02 0. 0. 0. 0. 0.
      0. 0. 0. 0. 0. 0. 0. 0. 0. 0. 0. 0. 0. 0. 0. 2.52780076e-02 0. 0.
      2.52780076e-02 0. 0. 0. 2.52780076e-02 0. 0. 0. 0. 0. 0. 0. 0. 0.
      0. 0. 0. 0. 0. 2.52780076e-02 0. 0. 0. 0. 0. 0. 0. 0. 0. 0. 0. 0.
      0. 0. 0. 0. 0. 0. 0. 0. 0. 0. 0. 0. 0. 0. 0. 0. 0. 2.52780076e-02
      0. 0. 2.52780076e-02 0. 0. 0. 0. 0. 0. 0. 0. 0. 0. 0. 0.
      5.05560152e-02 0. 0. 2.52780076e-02 2.52780076e-02 0. 0.
      7.58340210e-02 0. 0. 0. 7.58340210e-02 0. 0. 0. 0. 0. 0. 0.
      7.58340210e-02 0. 0. 0. 2.52780076e-02 0. 0. 0. 2.52780076e-02 0.
      0. 0. 0. 0. 0. 0. 0. 0. 0. 0. 0. 0. 0. 0. 0. 0. 0. 0. 0. 0. 0. 0.
      0. 0. 0. 0. 0. 0. 0. 0. 0. 0. 0. 0. 0. 0. 0. 0. 0. 2.52780076e-02
      5.05560152e-02 0. 0. 0. 0. 0. 0. 2.52780076e-02 0. 0. 0. 0. 0. 0.
      0. 0. 0. 0. 0. 0. 0. 0. 0. 0. 0. 0. 0. 0. 0. 0. 0. 1.51668042e-01
      1.26390040e-01 0. 0. 0. 0. 0. 0. 0. 0. 0. 0. 0. 0. 0. 0.
      1.76946059e-01 1.01112030e-01 0. 0. 0. 0. 0. 2.52780076e-02
      7.58340210e-02 5.05560152e-02 0. 0. 0. 0. 0. 0. 9.03963506e-01 0.
      0. 0. 0. 0. 0. 0. 0. 0. 0. 0. 0. 0. 1.50660589e-01 2.51100987e-01
      0. 0. 0. 0. 0. 0. 0. 0. 0. 0. 0. 0. 0. 0. 7.53302947e-02
      1.00440390e-01 0. 0. 0. 0. 0. 0. 0. 0. 0. 0. 0. 0. 0. 0. 0. 0. 0.
      0. 0. 0. 0. 0. 0. 0. 2.51100976e-02 0. 0. 0. 2.51100976e-02 0.
      7.53302947e-02 0. 0. 0. 0. 0. 0. 0. 0. 0. 0. 0. 0. 0. 0. 0. 0. 0.
      0. 0. 0. 0. 0. 0. 0. 0. 0. 0. 0. 0. 0. 0. 0. 0. 0. 0. 0. 0. 0. 0.
      0. 0. 0. 0. 0. 0. 0. 0. 0. 0. 0. 0. 0. 0. 0. 0. 0. 0.
      1.00440390e-01 0. 0. 0. 1.00440390e-01 0. 2.51100976e-02 0. 0. 0.
      0. 0. 0. 0. 0. 0. 0. 0. 0. 0. 0. 0. 0. 1.50660589e-01 0. 0. 0. 0.
      0. 0. 0. 0. 0. 0. 0. 0. 0. 0. 0. 7.53302947e-02 0. 0. 0. 0. 0. 0.
      0. 0. 0. 0. 0. 0. 0. 0. 0. 0. 0. 0. 0. 0. 0. 0. 0. 0. 0. 0. 0. 0.
      0. 0. 0. 0. 0. 0. 0. 0. 0. 0. 0. 0. 0. 0. 0. 0. 0. 0. 0. 0. 0. 0.
      0. 0. 0. 0. 0. 0. 0. 0. 0. 0. 0. 0. 0. 0. 1.00440390e-01
      5.02201952e-02 0. 0. 0. 0. 0. 0. 0. 0. 0. 0. 0. 0. 0. 0.
      5.02201952e-02 0. 0. 0. 0. 0. 0. 5.02201952e-02 5.02201952e-02
      5.02201952e-02 0. 0. 5.02201952e-02 0. 0. 0. 8.83711994e-01 0. 0.
      0. 0. 0. 0. 0. 7.16523230e-02 0. 0. 0. 0. 0. 2.38841083e-02
      1.67188764e-01 0. 0. 0. 0. 0. 0. 0. 0. 0. 0. 0. 0. 0. 0.
      3.10493410e-01 2.14956969e-01 0. 0. 0. 0. 2.38841083e-02 0. 0. 0.
      0. 0. 0. 0. 0. 0. 0. 0. 0. 0. 0. 0. 0. 0. 0. 0. 4.77682166e-02 0.
      0. 0. 0. 0. 7.16523230e-02 0. 0. 0. 0. 0. 0. 0. 0. 0. 0. 0. 0. 0.
      0. 0. 0. 0. 0. 0. 0. 0. 0. 0. 0. 0. 0. 0. 0. 0. 0. 0. 0. 0. 0. 0.
      0. 0. 0. 0. 0. 0. 0. 0. 0. 0. 0. 0. 0. 0. 0. 0. 0. 0. 0. 0. 0. 0.
      7.16523230e-02 0. 0. 0. 0. 0. 9.55364332e-02 7.16523230e-02 0. 0.
      0. 0. 2.38841083e-02 0. 0. 0. 2.38841083e-02 0. 0. 0. 0. 0. 0.
      4.77682166e-02 0. 0. 0. 0. 0. 0. 0. 0. 0. 0. 0. 0. 2.38841083e-02
      0. 0. 9.55364332e-02 0. 0. 0. 0. 0. 0. 0. 0. 0. 0. 0. 0. 0. 0. 0.
      0. 0. 0. 0. 0. 0. 0. 0. 0. 0. 0. 0. 0. 0. 0. 2.38841083e-02 0. 0.
      0. 0. 0. 0. 0. 0. 0. 0. 0. 0. 0. 0. 0. 0. 2.38841083e-02 0. 0. 0.
      0. 0. 0. 0. 0. 0. 0. 0. 0. 0. 0. 0. 0. 0. 0. 0. 0. 0. 0. 0. 0. 0.
      0. 0. 0. 0. 0. 0. 0. 2.38841083e-02 0. 0. 0. 0. 0. 0. 0.
      2.38841083e-02 0. 0. 0. 0. 0. 0. 0. 8.58604312e-01 0. 0. 0. 0. 0.
      0. 0. 0. 0. 0. 0. 0. 0. 2.38501206e-02 0. 0. 0. 0. 0. 0. 0. 0. 0.
      0. 0. 0. 0. 0. 0. 2.14651078e-01 0. 0. 0. 0. 0. 0. 0. 0. 0. 0. 0.
      0. 0. 0. 0. 0. 0. 0. 0. 0. 0. 0. 0. 0. 0. 1.66950852e-01 0. 0. 0.
      2.38501206e-01 0. 2.38501206e-01 0. 0. 0. 0. 0. 0. 0. 0. 0. 0. 0.
      0. 0. 0. 0. 0. 0. 0. 0. 0. 0. 0. 0. 0. 0. 0. 0. 0. 0. 0. 0. 0. 0.
      0. 0. 0. 0. 0. 0. 0. 0. 0. 0. 0. 0. 0. 0. 0. 0. 0. 0. 0. 0. 0. 0.
      0. 0. 0. 0. 0. 0. 0. 0. 4.77002412e-02 2.38501206e-02 0. 0. 0. 0.
      0. 0. 0. 0. 0. 0. 0. 0. 0. 0. 0. 1.19250603e-01 0. 0. 0. 0. 0. 0.
      0. 0. 0. 0. 0. 0. 0. 0. 0. 9.54004824e-02 0. 0. 0. 0. 0. 0. 0. 0.
      0. 0. 0. 0. 0. 0. 0. 0. 0. 0. 0. 0. 0. 0. 0. 0. 0. 0. 0. 0. 0. 0.
      0. 0. 0. 0. 0. 0. 0. 0. 0. 0. 0. 0. 0. 0. 0. 0. 0. 0. 0. 0. 0. 0.
      0. 0. 0. 0. 0. 0. 0. 0. 0. 0. 0. 0. 0. 0. 0. 0. 0. 0. 0. 0. 0. 0.
      0. 0. 0. 0. 0. 0. 0. 0. 0. 0. 0. 0. 0. 0. 2.14651078e-01 0. 0. 0.
      4.77002412e-02 0. 0. 0. 9.31380630e-01 0. 0. 0. 0. 0. 0. 0. 0. 0.
      0. 0. 0. 0. 0. 5.17433695e-02 0. 0. 0. 0. 0. 0. 0. 0. 0. 0. 0. 0.
      0. 0. 0. 2.58716848e-02 0. 0. 0. 0. 0. 0. 0. 0. 0. 0. 0. 0. 0. 0.
      0. 0. 0. 0. 0. 0. 0. 0. 0. 0. 0. 0. 0. 0. 0. 0. 0. 0. 0. 0. 0. 0.
      0. 0. 0. 0. 2.58716848e-02 0. 0. 0. 0. 0. 0. 0. 0. 0. 0. 0. 0. 0.
      0. 0. 0. 0. 0. 0. 0. 0. 0. 0. 0. 0. 0. 0. 0. 0. 0. 0. 0. 0. 0. 0.
      0. 0. 0. 0. 0. 0. 0. 0. 0. 0. 0. 0. 7.76150525e-02 0. 0. 0. 0. 0.
      0. 5.17433695e-02 7.76150525e-02 0. 0. 1.55230105e-01 0. 0. 0.
      7.76150525e-02 2.58716848e-02 0. 0. 0. 0. 0. 0. 5.17433695e-02 0.
      0. 0. 2.58716848e-02 0. 0. 0. 0. 0. 0. 0. 0. 0. 0. 0. 0. 0. 0. 0.
      0. 0. 0. 0. 0. 0. 0. 0. 0. 0. 0. 0. 0. 0. 0. 0. 0. 0. 0. 0. 0. 0.
      0. 0. 0. 0. 0. 0. 0. 7.76150525e-02 5.17433695e-02 0.
      1.55230105e-01 0. 0. 0. 7.76150525e-02 0. 2.58716848e-02 0. 0. 0.
      0. 2.58716848e-02 7.76150525e-02 0. 0. 0. 0. 0. 0. 0. 0. 0. 0. 0.
      0. 0. 0. 0. 2.58716848e-02 5.17433695e-02 2.58716848e-02 0.
      1.29358426e-01 2.58716848e-02 0. 0. 5.17433695e-02 0. 0. 0. 0. 0.
      0. 0. 0. 0. 7.76150525e-02 0. 5.17433695e-02 0. 0. 0. 0. 0.
      2.58716848e-02 0. 0. 0. 0. 0. 0. 9.28780854e-01 0. 0. 0. 0. 0. 0.
      0. 2.51021851e-02 0. 0. 0. 5.02043702e-02 0. 7.53065571e-02
      5.02043702e-02 0. 0. 0. 0. 0. 0. 0. 0. 5.02043702e-02 0. 0. 0. 0.
      0. 0. 0. 0. 0. 0. 0. 0. 0. 0. 0. 0. 0. 0. 0. 0. 0. 0. 0. 0. 0. 0.
      0. 0. 0. 0. 0. 1.25510931e-01 0. 0. 0. 5.02043702e-02 0.
      5.02043702e-02 0. 0. 0. 0. 0. 0. 0. 0. 0. 0. 0. 0. 0. 0. 0. 0. 0.
      0. 0. 0. 0. 0. 0. 0. 0. 0. 0. 0. 0. 0. 0. 0. 0. 0. 0. 0. 0. 0. 0.
      0. 0. 0. 0. 0. 0. 2.51021851e-02 0. 0. 0. 0. 0. 0. 0. 0. 0. 0. 0.
      2.00817481e-01 0. 0. 0. 7.53065571e-02 0. 2.51021851e-02 0. 0. 0.
      0. 0. 0. 0. 0. 2.51021851e-02 5.02043702e-02 2.51021851e-02 0. 0.
      2.51021851e-02 0. 0. 1.25510931e-01 0. 0. 0. 0. 0. 0. 0. 0.
      2.51021851e-02 0. 0. 0. 0. 0. 0. 0. 0. 0. 0. 0. 0. 0. 0. 0. 0. 0.
      0. 0. 0. 0. 0. 0. 0. 0. 0. 0. 0. 0. 0. 0. 0. 0. 0. 0. 0. 0. 0. 0.
      0. 0. 0. 0. 0. 0. 0. 0. 0. 0. 0. 0. 0. 0. 0. 0. 0. 0. 0. 0. 0. 0.
      0. 0. 0. 0. 0. 0. 0. 0. 0. 0. 0. 0. 0. 0. 0. 0. 0. 0. 0. 0. 0. 0.
      0. 0. 0. 0. 7.53065571e-02 0. 0. 0. 2.51021851e-02 0. 0.
      5.02043702e-02 1.50613114e-01 2.51021851e-02 0. 0. 5.02043702e-02
      0. 0. 0. 9.53430891e-01 0. 0. 0. 0. 0. 0. 2.57684030e-02
      1.03073612e-01 2.57684030e-02 0. 0. 0. 0. 0. 1.28842011e-01 0. 0.
      0. 0. 0. 0. 0. 0. 0. 0. 0. 0. 0. 0. 7.73052126e-02 5.15368059e-02
      0. 0. 0. 0. 0. 0. 0. 0. 0. 0. 0. 0. 0. 0. 0. 0. 0. 0. 0. 0. 0. 0.
      0. 0. 0. 2.57684030e-02 0. 0. 2.57684030e-02 0. 2.57684030e-02 0.
      0. 0. 0. 0. 0. 0. 0. 0. 0. 0. 0. 0. 0. 0. 2.57684030e-02 0. 0. 0.
      0. 0. 0. 0. 0. 0. 0. 0. 0. 0. 0. 0. 0. 0. 2.57684030e-02 0. 0. 0.
      0. 0. 0. 0. 0. 0. 0. 0. 0. 0. 0. 0. 0. 0. 0. 0. 0. 0. 0. 0.
      5.15368059e-02 0. 0. 0. 2.57684030e-02 0. 5.15368059e-02
      7.73052126e-02 2.57684030e-02 0. 0. 0. 0. 0. 0. 2.57684030e-02
      5.15368059e-02 0. 0. 0. 0. 0. 0. 5.15368059e-02 0. 0. 0.
      5.15368059e-02 0. 0. 0. 0. 0. 0. 0. 0. 0. 0. 0. 0. 0. 0. 0. 0. 0.
      0. 0. 0. 0. 0. 0. 0. 0. 0. 0. 0. 0. 0. 0. 0. 0. 0. 0. 0. 0. 0. 0.
      2.57684030e-02 0. 0. 0. 0. 2.57684030e-02 2.57684030e-02 0. 0. 0.
      0. 0. 0. 0. 0. 0. 0. 0. 0. 0. 0. 0. 0. 0. 0. 0. 0. 0. 0. 0. 0. 0.
      0. 0. 0. 0. 0. 2.57684030e-02 2.57684030e-02 0. 0. 2.57684030e-02
      0. 0. 0. 0. 0. 0. 0. 0. 0. 0. 0. 7.73052126e-02 2.57684030e-02
      2.57684030e-02 7.73052126e-02 0. 0. 0. 0. 1.03073612e-01
      2.57684030e-02 0. 0. 0. 2.57684030e-02 0. 0. 7.38860011e-01 0. 0.
      0. 0. 0. 0. 0. 0. 0. 0. 0. 0. 0. 0. 0. 0. 0. 0. 0. 0. 0. 0. 0. 0.
      0. 0. 0. 0. 0. 0. 0. 0. 0. 0. 0. 0. 0. 0. 0. 0. 0. 0. 0. 0. 0. 0.
      0. 0. 0. 0. 0. 0. 0. 0. 0. 1.02619447e-01 0. 0. 0. 5.95192790e-01
      0. 2.05238890e-02 0. 0. 0. 0. 0. 0. 0. 0. 0. 0. 0. 0. 0. 0. 0. 0.
      0. 0. 0. 0. 0. 0. 0. 0. 0. 0. 0. 0. 0. 0. 0. 0. 0. 0. 0. 0. 0. 0.
      0. 0. 0. 0. 0. 0. 0. 0. 0. 0. 0. 0. 0. 0. 0. 0. 0. 0. 0.
      8.20955560e-02 0. 0. 0. 2.05238890e-02 0. 0. 0. 0. 0. 0. 0. 0. 0.
      0. 0. 0. 0. 0. 0. 0. 0. 0. 0. 0. 0. 0. 0. 0. 0. 0. 0. 0. 0. 0. 0.
      0. 0. 0. 0. 0. 0. 0. 0. 0. 0. 0. 0. 0. 0. 0. 0. 0. 0. 0. 0. 0. 0.
      0. 0. 0. 0. 0. 0. 0. 0. 0. 0. 0. 0. 0. 0. 0. 0. 0. 0. 0. 0. 0. 0.
      0. 0. 0. 0. 0. 0. 0. 0. 0. 0. 0. 0. 0. 0. 0. 0. 0. 0. 0. 0. 0. 0.
      0. 0. 0. 0. 0. 0. 0. 0. 0. 0. 0. 0. 0. 0. 0. 0. 0. 0. 0. 0. 0. 0.
      0. 0. 0. 0. 2.66810566e-01 0. 0. 0. 1.02619447e-01 0. 0. 0.</_>
    <_>
      3.08606684e-01 0. 5.14344499e-02 0. 0. 0. 0. 0. 5.14344499e-02 0.
      0. 0. 0. 0. 5.14344499e-02 1.54303342e-01 0. 0. 0. 0. 0. 0. 0. 0.
      0. 0. 0. 0. 0. 0. 1.02868900e-01 5.14344499e-02 5.14344499e-02 0.
      0. 0. 0. 0. 0. 0. 0. 0. 0. 0. 0. 0. 0. 0. 0. 0. 0. 0. 0. 0. 0. 0.
      5.14344499e-02 5.14344499e-02 0. 0. 5.14344499e-02 0. 0. 0. 0. 0.
      0. 0. 0. 0. 0. 0. 0. 0. 0. 5.14344499e-02 0. 0. 0. 0.
      5.14344499e-02 0. 0. 0. 0. 0. 0. 0. 0. 5.14344499e-02 0. 0. 0. 0.
      0. 0. 0. 0. 0. 0. 0. 0. 0. 0. 0. 0. 0. 0. 0. 0. 0. 0. 0. 0. 0.
      5.14344499e-02 0. 0. 0. 5.14344499e-02 1.54303342e-01
      5.14344499e-02 0. 0. 5.14344499e-02 0. 0. 5.14344499e-02
      1.02868900e-01 0. 0. 1.02868900e-01 0. 0. 0. 0. 0. 0. 0. 0. 0. 0.
      0. 4.11475599e-01 1.02868900e-01 5.14344499e-02 0. 0. 0. 0. 0. 0.
      0. 0. 0. 0. 0. 0. 0. 1.02868900e-01 0. 0. 0. 0. 1.02868900e-01 0.
      0. 0. 0. 0. 0. 0. 0. 0. 0. 0. 0. 0. 0. 0. 0. 0. 5.14344499e-02 0.
      0. 0. 0. 0. 0. 0. 0. 2.05737799e-01 1.02868900e-01 5.14344499e-02
      0. 5.14344499e-02 1.02868900e-01 0. 5.14344499e-02 0. 0. 0. 0. 0.
      0. 0. 0. 0. 0. 0. 0. 0. 0. 0. 0. 0. 0. 0. 1.02868900e-01 0. 0. 0.
      0. 0. 3.08606684e-01 1.02868900e-01 0. 2.57172257e-01 0. 0. 0. 0.
      0. 0. 0. 0. 0. 0. 0. 0. 5.14344513e-01 1.02868900e-01 0.
      5.14344499e-02 0. 0. 0. 0. 2.05737799e-01 0. 0. 5.14344499e-02 0.
      0. 0. 0. 2.35964581e-01 0. 0. 0. 0. 0. 0. 0. 0. 0. 0. 0. 0. 0. 0.
      0. 0. 0. 0. 0. 0. 0. 0. 0. 0. 0. 0. 0. 0. 0. 0. 4.71929163e-02 0.
      0. 0. 0. 0. 0. 0. 0. 0. 0. 0. 0. 0. 0. 0. 0. 0. 0. 0. 0. 0. 0. 0.
      0. 0. 0. 0. 0. 0. 0. 0. 0. 0. 0. 0. 0. 0. 0. 0. 0. 0. 0. 0.
      4.71929163e-02 0. 0. 0. 0. 4.71929163e-02 0. 0. 0. 0. 0. 0. 0. 0.
      4.71929163e-02 0. 0. 0. 0. 0. 0. 0. 0. 0. 0. 0. 0. 0. 0. 0. 0. 0.
      0. 0. 0. 0. 0. 0. 0. 0. 4.71929163e-02 0. 0. 0. 4.71929163e-02 0.
      4.71929163e-02 0. 0. 0. 0. 0. 0. 9.43858325e-02 0. 0. 0. 0. 0. 0.
      0. 0. 0. 0. 0. 0. 0. 0. 0. 9.43858325e-02 4.71929163e-02 0. 0. 0.
      0. 0. 0. 0. 0. 0. 0. 0. 0. 0. 0. 0. 0. 0. 0. 9.43858325e-02 0. 0.
      0. 0. 0. 0. 0. 0. 0. 0. 0. 0. 0. 0. 0. 0. 0. 4.71929163e-02 0. 0.
      0. 0. 0. 0. 0. 0. 1.41578749e-01 9.43858325e-02 9.43858325e-02 0.
      4.71929163e-02 9.43858325e-02 0. 4.71929163e-02 4.71929163e-02 0.
      0. 0. 0. 0. 0. 0. 0. 0. 0. 0. 0. 0. 0. 0. 0. 0. 0. 9.43858325e-02
      0. 0. 0. 0. 0. 4.24736261e-01 9.43858325e-02 0. 3.30350399e-01 0.
      0. 0. 9.43858325e-02 0. 0. 0. 0. 0. 0. 0. 4.71929163e-02
      2.83157498e-01 2.35964581e-01 0. 2.35964581e-01 0. 0. 0. 0.
      4.71929163e-01 3.30350399e-01 0. 4.71929163e-02 0. 0. 0. 0.
      2.87717670e-01 0. 0. 0. 0. 0. 0. 0. 5.75435348e-02 0. 0. 0. 0. 0.
      5.75435348e-02 0. 0. 0. 0. 0. 0. 0. 0. 0. 0. 0. 0. 0.
      5.75435348e-02 0. 0. 5.75435348e-02 0. 0. 0. 0. 0. 0. 0. 0. 0. 0.
      0. 0. 0. 0. 0. 0. 0. 0. 0. 0. 0. 0. 0. 0. 0. 0. 0. 0. 0. 0.
      5.75435348e-02 0. 0. 0. 0. 0. 0. 0. 0. 0. 0. 0. 0. 5.75435348e-02
      0. 0. 5.75435348e-02 0. 5.75435348e-02 0. 0. 0. 0. 0. 0. 0. 0.
      5.75435348e-02 0. 0. 0. 0. 0. 0. 0. 0. 0. 0. 0. 0. 0. 0. 0. 0. 0.
      0. 0. 0. 0. 0. 0. 0. 0. 5.75435348e-02 0. 0. 0. 5.75435348e-02
      2.30174139e-01 5.75435348e-02 0. 0. 0. 0. 0. 0. 2.30174139e-01 0.
      0. 2.30174139e-01 0. 0. 0. 1.15087070e-01 5.75435348e-02 0. 0. 0.
      0. 0. 0. 0. 1.15087070e-01 5.75435348e-02 0. 0. 0. 0. 0. 0. 0. 0.
      0. 0. 0. 0. 0. 0. 0. 0. 0. 0. 1.15087070e-01 0. 0. 0. 0. 0. 0. 0.
      0. 0. 0. 0. 0. 0. 0. 0. 0. 0. 5.75435348e-02 0. 0. 0. 0. 0. 0. 0.
      0. 1.72630608e-01 1.15087070e-01 5.75435348e-02 0. 5.75435348e-02
      1.15087070e-01 0. 5.75435348e-02 1.15087070e-01 0. 5.75435348e-02
      0. 0. 0. 0. 0. 2.30174139e-01 0. 0. 0. 0. 0. 0. 0. 0. 0. 0.
      1.15087070e-01 0. 0. 0. 0. 0. 2.87717670e-01 0. 0. 2.87717670e-01
      5.75435348e-02 0. 0. 5.75435348e-02 0. 0. 0. 0. 0. 0. 0.
      5.75435348e-02 1.15087070e-01 5.75435348e-02 0. 5.75435348e-02 0.
      0. 0. 0. 5.17891824e-01 2.30174139e-01 0. 0. 5.75435348e-02 0. 0.
      0. 1.74501210e-01 0. 0. 0. 0. 0. 0. 0. 0. 0. 0. 0. 0. 0. 0. 0. 0.
      0. 0. 0. 0. 0. 0. 0. 0. 0. 0. 0. 0. 0. 0. 3.49002406e-02 0. 0. 0.
      0. 0. 0. 0. 0. 0. 0. 0. 0. 0. 0. 0. 0. 0. 0. 0. 0. 0. 0. 0. 0. 0.
      0. 0. 0. 0. 0. 0. 0. 0. 0. 0. 0. 0. 0. 0. 0. 0. 0. 0.
      3.49002406e-02 0. 0. 0. 0. 3.49002406e-02 0. 0. 0. 0. 0. 0. 0. 0.
      3.49002406e-02 0. 0. 0. 0. 0. 0. 0. 0. 0. 0. 0. 0. 0. 0. 0. 0. 0.
      0. 0. 0. 0. 0. 0. 0. 0. 3.49002406e-02 0. 0. 0. 3.49002406e-02 0.
      3.49002406e-02 0. 0. 0. 0. 0. 0. 1.04700722e-01 0. 0.
      1.74501210e-01 0. 0. 0. 0. 0. 0. 0. 0. 0. 0. 0. 0. 6.98004812e-02
      3.49002406e-02 0. 0. 0. 0. 0. 0. 0. 0. 0. 0. 0. 0. 0. 0. 0. 0. 0.
      0. 6.98004812e-02 0. 0. 0. 0. 0. 0. 0. 0. 0. 0. 0. 0. 0. 0. 0. 0.
      0. 3.49002406e-02 0. 0. 0. 0. 0. 0. 0. 0. 1.04700722e-01
      1.04700722e-01 1.74501210e-01 0. 3.49002421e-01 6.98004812e-02 0.
      3.49002406e-02 0. 3.49002406e-02 0. 0. 0. 0. 0. 0. 2.44301677e-01
      0. 0. 0. 0. 0. 0. 0. 0. 0. 0. 6.98004812e-02 0. 0. 0. 0. 0.
      6.98004812e-02 6.98004812e-02 0. 8.02705526e-01 0. 0. 0.
      6.98004812e-02 0. 0. 0. 0. 0. 0. 0. 0. 3.49002406e-02 0. 0. 0. 0.
      0. 0. 0. 0. 3.49002406e-02 0. 0. 0. 0. 0. 0. 1.80775374e-01 0. 0.
      0. 0. 0. 0. 0. 0. 0. 0. 0. 0. 0. 2.89240599e-01 6.86946392e-01 0.
      0. 0. 0. 0. 0. 0. 0. 0. 0. 0. 0. 0. 0. 3.61550748e-02
      2.16930449e-01 0. 0. 0. 0. 0. 0. 0. 0. 0. 0. 0. 0. 0. 0. 0. 0. 0.
      0. 0. 0. 0. 0. 0. 0. 0. 0. 0. 0. 0. 0. 3.61550748e-02
      7.23101497e-02 0. 0. 0. 0. 0. 0. 0. 0. 0. 0. 0. 3.61550748e-02 0.
      0. 0. 3.61550748e-02 3.61550748e-02 0. 0. 0. 0. 0. 0. 0. 0.
      3.61550748e-02 0. 0. 0. 0. 0. 0. 0. 0. 0. 0. 0. 0. 0. 0. 0. 0. 0.
      0. 0. 0. 0. 0. 0. 0. 0. 3.61550748e-02 0. 0. 0. 3.61550748e-02 0.
      3.61550748e-02 0. 0. 0. 0. 0. 0. 7.23101497e-02 0. 0. 0. 0. 0. 0.
      0. 0. 0. 0. 0. 0. 0. 0. 5.06171048e-01 7.23101497e-02
      3.61550748e-02 0. 0. 0. 0. 0. 0. 0. 0. 0. 0. 0. 0. 0.
      1.44620299e-01 0. 0. 0. 0. 7.23101497e-02 0. 0. 0. 0. 0. 0. 0. 0.
      0. 0. 0. 0. 0. 0. 0. 0. 0. 3.61550748e-02 0. 0. 0. 0. 0. 0. 0. 0.
      1.44620299e-01 7.23101497e-02 3.61550748e-02 0. 3.61550748e-02
      7.23101497e-02 0. 3.61550748e-02 0. 0. 0. 0. 0. 0. 0. 0.
      7.23101497e-02 0. 0. 0. 0. 0. 0. 0. 0. 0. 0. 7.23101497e-02 0. 0.
      0. 0. 0. 3.61550748e-02 0. 0. 0. 3.61550748e-02 0. 0. 0. 0. 0. 0.
      0. 0. 0. 0. 3.61550748e-02 3.61550748e-02 3.61550748e-02 0. 0. 0.
      0. 0. 0. 0. 0. 0. 0. 0. 0. 0. 0. 2.32119173e-01 0. 0. 0. 0. 0. 0.
      4.64238338e-02 9.28476676e-02 0. 0. 0. 0. 0. 4.64238338e-02
      2.78542995e-01 0. 0. 0. 0. 0. 0. 0. 0. 0. 0. 0. 0. 0. 0. 0.
      4.64238338e-02 0. 0. 0. 0. 0. 0. 0. 0. 0. 0. 0. 0. 0. 0. 0. 0. 0.
      0. 0. 0. 0. 0. 0. 0. 0. 0. 0. 0. 0. 0. 0. 4.64238338e-02 0. 0. 0.
      0. 0. 0. 0. 0. 0. 0. 0. 4.64238338e-02 0. 0. 0. 0. 4.64238338e-02
      0. 0. 0. 0. 0. 0. 0. 0. 4.64238338e-02 0. 0. 0. 0. 0. 0. 0. 0. 0.
      0. 0. 0. 0. 0. 0. 0. 0. 0. 0. 0. 0. 0. 0. 0. 0. 4.64238338e-02 0.
      0. 0. 4.64238338e-02 0. 4.64238338e-02 0. 0. 0. 0. 0. 0.
      1.39271498e-01 0. 0. 3.24966848e-01 0. 0. 0. 3.24966848e-01 0. 0.
      0. 0. 0. 0. 0. 6.03509843e-01 9.28476676e-02 4.64238338e-02 0. 0.
      0. 0. 0. 0. 0. 0. 0. 0. 0. 0. 0. 9.28476676e-02 0. 0. 0. 0.
      9.28476676e-02 0. 0. 0. 0. 0. 0. 0. 0. 0. 0. 0. 0. 0. 0. 0. 0. 0.
      4.64238338e-02 0. 0. 0. 0. 0. 0. 0. 0. 2.78542995e-01
      9.28476676e-02 4.64238338e-02 0. 9.28476676e-02 9.28476676e-02 0.
      4.64238338e-02 1.39271498e-01 0. 0. 0. 0. 0. 0. 0. 1.85695335e-01
      0. 0. 0. 0. 0. 0. 0. 0. 0. 0. 9.28476676e-02 0. 0. 0. 0. 0.
      4.64238338e-02 0. 0. 4.64238338e-02 0. 0. 0. 1.85695335e-01 0. 0.
      0. 0. 0. 0. 0. 0. 4.64238338e-02 0. 0. 0. 0. 0. 0. 4.64238338e-02
      0. 0. 0. 0. 0. 0. 0. 0. 2.50942796e-01 0. 0. 0. 0. 0. 0. 0. 0. 0.
      0. 5.01885600e-02 0. 0. 0. 5.01885600e-02 0. 0. 0. 0. 0. 0. 0. 0.
      0. 0. 0. 0. 0. 0. 0. 5.01885600e-02 0. 0. 0. 0. 0. 0. 0. 0. 0. 0.
      0. 0. 0. 0. 0. 0. 0. 0. 0. 0. 0. 0. 0. 0. 0. 0. 0. 0. 0. 0. 0. 0.
      0. 0. 0. 0. 0. 0. 0. 0. 0. 0. 0. 5.01885600e-02 0. 0. 0. 0.
      5.01885600e-02 0. 0. 0. 0. 0. 0. 0. 0. 5.01885600e-02 0. 0. 0. 0.
      0. 0. 0. 0. 0. 0. 0. 0. 0. 0. 0. 0. 0. 0. 0. 0. 0. 0. 0. 0. 0.
      5.01885600e-02 0. 0. 0. 5.01885600e-02 0. 5.01885600e-02 0. 0. 0.
      0. 0. 0. 1.50565684e-01 5.01885600e-02 0. 3.01131368e-01 0. 0. 0.
      2.50942796e-01 0. 5.01885600e-02 0. 0. 0. 0. 0. 1.00377120e-01
      1.00377120e-01 5.01885600e-02 0. 0. 0. 0. 0. 0. 0. 0. 0. 0. 0. 0.
      0. 0. 0. 0. 0. 0. 1.00377120e-01 0. 0. 0. 0. 0. 0. 0. 0. 0. 0. 0.
      0. 0. 0. 0. 0. 0. 5.01885600e-02 5.01885600e-02 0. 0. 0. 0. 0. 0.
      0. 1.50565684e-01 1.50565684e-01 5.01885600e-02 0. 2.50942796e-01
      1.00377120e-01 0. 5.01885600e-02 4.01508480e-01 0. 0. 0. 0. 0. 0.
      0. 4.01508480e-01 0. 0. 0. 0. 0. 0. 0. 0. 0. 0. 1.00377120e-01 0.
      0. 0. 0. 0. 5.01885600e-02 0. 0. 3.51319909e-01 0. 0. 0.
      2.00754240e-01 0. 5.01885600e-02 0. 0. 0. 0. 0. 2.50942796e-01
      5.01885600e-02 0. 0. 5.01885600e-02 0. 0. 0. 0. 0. 0. 0.
      5.01885600e-02 0. 0. 0. 0. 1.80421948e-01 0. 0. 0. 0. 0. 0. 0. 0.
      0. 0. 0. 0. 0. 0. 0. 0. 0. 0. 0. 0. 0. 0. 0. 0. 0. 0. 0. 0. 0. 0.
      3.60843912e-02 0. 0. 0. 0. 0. 0. 0. 0. 0. 0. 0. 0. 0. 0. 0. 0. 0.
      0. 0. 0. 0. 0. 0. 0. 0. 0. 0. 0. 0. 0. 0. 0. 0. 0. 0. 0. 0. 0. 0.
      0. 0. 0. 0. 3.60843912e-02 0. 0. 0. 0. 3.60843912e-02 0. 0. 0. 0.
      0. 0. 0. 0. 3.60843912e-02 0. 0. 0. 0. 0. 0. 0. 0. 0. 0. 0. 0. 0.
      0. 0. 0. 0. 0. 0. 0. 0. 0. 0. 0. 0. 3.60843912e-02 0. 0. 0.
      3.60843912e-02 0. 3.60843912e-02 0. 0. 0. 0. 0. 0. 7.21687824e-02
      0. 0. 4.69097078e-01 0. 0. 0. 0. 0. 0. 0. 0. 0. 0. 0.
      3.60843912e-02 7.21687824e-02 3.60843912e-02 0. 0. 0. 0. 0. 0. 0.
      0. 0. 0. 0. 0. 0. 0. 0. 0. 0. 0. 7.21687824e-02 0. 0. 0. 0. 0. 0.
      0. 0. 0. 0. 0. 0. 0. 0. 0. 0. 0. 3.60843912e-02 0. 0. 0. 0. 0. 0.
      0. 0. 1.08253174e-01 7.21687824e-02 3.60843912e-02 0.
      5.05181491e-01 7.21687824e-02 0. 3.60843912e-02 2.16506347e-01 0.
      0. 0. 0. 0. 0. 0. 3.96928310e-01 0. 0. 0. 0. 0. 0. 0. 0. 0. 0.
      7.21687824e-02 0. 0. 0. 0. 0. 3.60843912e-02 3.60843912e-02 0.
      4.69097078e-01 0. 0. 0. 7.21687824e-02 0. 0. 0. 0. 0. 0. 0. 0.
      3.60843912e-02 0. 0. 0. 0. 0. 0. 0. 0. 0. 0. 0. 0. 0. 0. 0.
      3.49128276e-01 0. 0. 0. 0. 0. 0. 0. 4.98754680e-02 4.98754680e-02
      0. 0. 0. 0. 1.49626404e-01 1.49626404e-01 0. 0. 0. 0. 0. 0. 0. 0.
      0. 0. 0. 0. 0. 0. 0. 4.98754680e-02 0. 0. 0. 0. 0. 0. 0. 0. 0. 0.
      0. 0. 0. 0. 0. 0. 0. 0. 0. 0. 0. 0. 0. 0. 4.98754680e-02 0. 0. 0.
      0. 0. 0. 4.98754680e-02 0. 0. 0. 0. 0. 0. 0. 0. 0. 0. 0.
      4.98754680e-02 0. 0. 0. 0. 4.98754680e-02 0. 0. 0. 0. 0. 0. 0. 0.
      4.98754680e-02 0. 0. 0. 0. 0. 0. 0. 0. 0. 4.98754680e-02 0. 0. 0.
      0. 0. 0. 0. 0. 0. 0. 0. 0. 0. 0. 0. 4.98754680e-02 0. 0. 0.
      4.98754680e-02 0. 4.98754680e-02 0. 0. 0. 0. 4.98754680e-02 0.
      1.49626404e-01 0. 0. 9.97509360e-02 0. 0. 0. 0. 0. 0. 0. 0. 0. 0.
      0. 0. 9.97509360e-02 9.97509360e-02 0. 4.98754680e-02 0. 0. 0. 0.
      0. 0. 0. 0. 0. 0. 0. 0. 0. 0. 0. 0. 9.97509360e-02 0. 0. 0. 0. 0.
      0. 0. 0. 0. 0. 0. 0. 0. 0. 0. 0. 0. 4.98754680e-02 0. 0. 0. 0. 0.
      0. 0. 0. 1.99501872e-01 9.97509360e-02 9.97509360e-02 0.
      4.98754680e-02 9.97509360e-02 0. 4.98754680e-02 4.98754680e-02 0.
      0. 0. 0. 0. 0. 0. 4.98754680e-02 0. 0. 0. 0. 0. 0. 0. 0. 0. 0.
      9.97509360e-02 0. 0. 0. 0. 0. 4.98754680e-01 4.98754680e-01 0.
      1.49626404e-01 0. 0. 0. 9.97509360e-02 0. 0. 0. 0. 0. 0. 0.
      4.98754680e-02 1.49626404e-01 1.49626404e-01 0. 4.98754680e-02 0.
      0. 0. 4.98754680e-02 0. 2.49377340e-01 0. 0. 0. 0. 0. 0.
      2.25646853e-01 0. 0. 0. 0. 0. 0. 9.02587399e-02 0. 0. 0. 0. 0. 0.
      3.61034960e-01 2.70776212e-01 0. 0. 0. 0. 0. 0. 0. 0. 0. 0. 0. 0.
      0. 0. 0. 1.35388106e-01 0. 0. 0. 0. 0. 0. 0. 0. 0. 0. 0. 0. 0. 0.
      0. 0. 0. 0. 0. 0. 0. 0. 0. 0. 0. 0. 0. 0. 0. 0. 0. 0. 0. 0. 0. 0.
      0. 0. 0. 0. 0. 0. 0. 4.51293699e-02 0. 0. 0. 0. 4.51293699e-02 0.
      0. 0. 0. 0. 0. 0. 0. 4.51293699e-02 0. 0. 0. 0. 0. 0. 0. 0. 0. 0.
      0. 0. 0. 0. 0. 0. 0. 0. 0. 0. 0. 0. 0. 0. 0. 4.51293699e-02 0. 0.
      0. 9.02587399e-02 0. 4.51293699e-02 0. 0. 0. 0. 4.51293699e-02 0.
      9.02587399e-02 0. 0. 1.35388106e-01 0. 0. 0. 3.15905601e-01 0. 0.
      0. 0. 0. 0. 0. 5.86681783e-01 9.02587399e-02 4.51293699e-02 0. 0.
      0. 0. 0. 0. 0. 0. 0. 0. 0. 0. 0. 3.15905601e-01 0. 0. 0. 0.
      9.02587399e-02 0. 0. 0. 0. 0. 0. 0. 0. 0. 0. 0. 0. 0. 0. 0. 0. 0.
      4.51293699e-02 0. 0. 0. 0. 0. 0. 0. 0. 1.35388106e-01
      9.02587399e-02 4.51293699e-02 0. 4.51293699e-02 9.02587399e-02 0.
      4.51293699e-02 1.35388106e-01 0. 0. 0. 0. 0. 0. 0. 1.80517480e-01
      0. 0. 0. 0. 0. 0. 0. 0. 0. 0. 9.02587399e-02 0. 0. 0. 0. 0.
      4.51293699e-02 0. 0. 0. 0. 0. 0. 4.51293699e-02 0. 0. 0. 0. 0. 0.
      0. 0. 4.51293699e-02 0. 0. 4.51293699e-02 0. 0. 0. 0. 0. 0. 0. 0.
      0. 0. 0. 0. 2.22497076e-01 0. 0. 0. 0. 0. 0. 0. 0. 0. 0. 0. 0. 0.
      0. 0. 0. 0. 0. 0. 0. 0. 0. 0. 0. 0. 0. 0. 0. 0. 0. 4.44994159e-02
      0. 0. 0. 0. 0. 0. 0. 0. 0. 0. 0. 0. 0. 0. 0. 0. 0. 0. 0. 0. 0. 0.
      0. 0. 4.44994159e-02 4.44994159e-02 0. 0. 0. 0. 0. 0. 0. 0. 0. 0.
      0. 0. 0. 0. 0. 0. 0. 4.44994159e-02 0. 0. 0. 0. 4.44994159e-02 0.
      0. 0. 0. 0. 0. 0. 0. 4.44994159e-02 0. 0. 0. 0. 0. 0. 0. 0. 0. 0.
      0. 0. 0. 0. 0. 0. 0. 0. 0. 0. 0. 0. 0. 0. 0. 4.44994159e-02 0. 0.
      0. 4.44994159e-02 4.44994159e-02 4.44994159e-02 0. 0. 0. 0. 0. 0.
      1.33498251e-01 0. 0. 4.89493579e-01 0. 0. 0. 3.11495900e-01 0.
      4.44994159e-02 0. 0. 0. 0. 0. 4.44994159e-02 8.89988318e-02
      4.44994159e-02 0. 0. 0. 0. 0. 4.44994159e-02 0. 0. 0. 0. 0. 0. 0.
      0. 0. 0. 0. 0. 8.89988318e-02 0. 0. 0. 0. 0. 0. 0. 0. 0. 0. 0. 0.
      0. 0. 4.44994159e-02 0. 0. 4.44994159e-02 4.44994159e-02 0. 0. 0.
      0. 0. 0. 0. 1.33498251e-01 8.89988318e-02 4.44994159e-02 0.
      3.11495900e-01 8.89988318e-02 0. 4.44994159e-02 5.78492403e-01 0.
      0. 0. 0. 0. 0. 0. 1.77997664e-01 0. 0. 0. 0. 0. 0. 0. 0. 0. 0.
      8.89988318e-02 0. 0. 0. 0. 0. 4.44994159e-02 0. 0. 8.89988318e-02
      0. 0. 0. 4.44994159e-02 0. 0. 0. 0. 0. 0. 0. 0. 4.44994159e-02
      4.44994159e-02 0. 8.89988318e-02 0. 0. 0. 0. 4.44994159e-02
      8.89988318e-02 0. 4.44994159e-02 4.44994159e-02 0. 0. 0.
      2.13980243e-01 0. 0. 0. 0. 0. 0. 0. 0. 0. 0. 0. 0. 0. 0. 0. 0. 0.
      0. 0. 0. 0. 0. 0. 0. 0. 0. 0. 0. 0. 0. 4.27960493e-02 0. 0. 0. 0.
      0. 0. 0. 0. 0. 0. 0. 0. 0. 0. 0. 0. 0. 0. 0. 0. 0. 0. 0. 0.
      8.55920985e-02 0. 0. 0. 0. 0. 4.27960493e-02 0. 0. 0. 0. 0. 0. 0.
      0. 0. 0. 0. 0. 4.27960493e-02 0. 0. 0. 0. 4.27960493e-02 0. 0. 0.
      0. 0. 0. 0. 0. 4.27960493e-02 0. 0. 0. 0. 0. 0. 0. 0. 0. 0. 0. 0.
      0. 0. 0. 0. 0. 0. 0. 0. 0. 0. 0. 0. 0. 4.27960493e-02 0. 0. 0.
      4.27960493e-02 6.84736788e-01 4.27960493e-02 0. 0. 1.28388152e-01
      0. 0. 4.27960493e-02 8.55920985e-02 0. 0. 4.27960493e-02 0. 0. 0.
      2.56776303e-01 0. 0. 0. 0. 0. 0. 0. 8.55920985e-02 8.55920985e-02
      4.27960493e-02 0. 4.27960493e-02 0. 0. 0. 0. 0. 0. 0. 0. 0. 0. 0.
      0. 0. 0. 0. 0. 8.55920985e-02 0. 0. 0. 0. 0. 0. 0. 0. 0. 0. 0. 0.
      0. 0. 0. 0. 0. 4.27960493e-02 0. 0. 0. 0. 0. 0. 0. 0.
      1.28388152e-01 8.55920985e-02 4.27960493e-02 0. 4.27960493e-02
      8.55920985e-02 0. 4.27960493e-02 0. 0. 4.27960493e-02 0. 0. 0. 0.
      0. 0. 0. 0. 0. 0. 0. 0. 0. 0. 0. 0. 8.55920985e-02 0. 0. 0. 0. 0.
      2.56776303e-01 0. 0. 0. 0. 0. 0. 0. 0. 0. 0. 0. 0. 0. 0. 0.
      3.85164440e-01 8.55920985e-02 0. 4.27960493e-02 0. 0. 0.
      8.55920985e-02 2.13980243e-01 1.28388152e-01 0. 4.27960493e-02 0.
      0. 4.27960493e-02 0. 3.18896413e-01 0. 0. 0. 0. 0. 0. 0. 0. 0. 0.
      0. 0. 0. 0. 0. 0. 0. 0. 0. 0. 0. 0. 0. 0. 0. 5.31494021e-02 0. 0.
      0. 5.31494021e-02 1.59448206e-01 0. 0. 0. 0. 0. 0. 0. 0. 0. 0. 0.
      0. 0. 0. 0. 0. 0. 0. 0. 0. 0. 0. 0. 0. 2.12597609e-01
      5.31494021e-02 0. 0. 1.59448206e-01 0. 1.06298804e-01
      2.12597609e-01 0. 0. 0. 0. 0. 0. 0. 0. 0. 0. 0. 5.31494021e-02
      5.31494021e-02 0. 0. 0. 5.31494021e-02 0. 0. 0. 0. 0. 0. 0. 0.
      5.31494021e-02 0. 0. 0. 0. 0. 0. 5.31494021e-02 0. 0. 0. 0. 0. 0.
      0. 0. 0. 0. 0. 0. 0. 0. 0. 0. 0. 0. 5.31494021e-02 0. 0. 0.
      5.31494021e-02 1.59448206e-01 5.31494021e-02 0. 0. 2.12597609e-01
      0. 4.78344619e-01 0. 1.06298804e-01 0. 0. 0. 0. 0. 0.
      2.12597609e-01 0. 0. 0. 0. 0. 0. 0. 1.59448206e-01 1.06298804e-01
      5.31494021e-02 0. 0. 0. 0. 0. 5.31494021e-02 0. 0. 0. 0. 0. 0. 0.
      1.06298804e-01 0. 0. 0. 0. 1.06298804e-01 0. 0. 0. 0. 0. 0. 0. 0.
      0. 0. 0. 0. 0. 0. 0. 0. 0. 5.31494021e-02 0. 0. 0. 0. 0. 0. 0. 0.
      2.12597609e-01 1.06298804e-01 5.31494021e-02 0. 5.31494021e-02
      1.06298804e-01 0. 5.31494021e-02 1.06298804e-01 0. 0. 0. 0. 0. 0.
      0. 5.31494021e-02 0. 0. 0. 0. 0. 0. 0. 0. 0. 0. 1.06298804e-01 0.
      0. 0. 0. 0. 5.31494021e-02 0. 0. 0. 0. 0. 0. 0. 0. 0. 0. 0. 0. 0.
      0. 0. 2.12597609e-01 5.31494021e-02 0. 0. 0. 0. 0. 0.
      3.72045815e-01 0. 0. 0. 0. 0. 0. 0. 2.46033907e-01 0. 0. 0. 0. 0.
      0. 0. 0. 0. 0. 0. 0. 0. 4.92067821e-02 0. 0. 0. 0. 0. 0. 0. 0. 0.
      0. 0. 0. 0. 0. 0. 0. 4.92067821e-02 0. 0. 0. 0. 0. 0. 0. 0. 0. 0.
      0. 0. 0. 0. 0. 0. 0. 0. 0. 0. 0. 0. 0. 0. 2.46033907e-01 0. 0. 0.
      0. 0. 1.47620350e-01 0. 0. 0. 0. 0. 0. 0. 0. 0. 0. 0. 0.
      4.92067821e-02 0. 0. 0. 0. 4.92067821e-02 0. 0. 0. 0. 0. 0. 0. 0.
      4.92067821e-02 0. 0. 0. 0. 0. 0. 4.92067821e-02 0. 0. 0. 0. 0. 0.
      0. 0. 0. 0. 0. 0. 0. 0. 0. 4.92067821e-02 0. 0. 4.92067821e-02 0.
      0. 0. 4.92067821e-02 2.95240700e-01 4.92067821e-02 0. 0. 0. 0.
      9.84135643e-02 0. 9.84135643e-02 0. 0. 9.84135643e-02 0. 0. 0. 0.
      0. 0. 0. 0. 0. 0. 0. 0. 9.84135643e-02 4.92067821e-02 0. 0. 0. 0.
      0. 0. 0. 0. 0. 0. 0. 0. 0. 0. 0. 0. 0. 0. 9.84135643e-02 0. 0. 0.
      0. 0. 0. 0. 0. 0. 0. 0. 0. 0. 0. 0. 0. 0. 4.92067821e-02 0. 0. 0.
      0. 0. 0. 0. 0. 1.47620350e-01 1.47620350e-01 9.84135643e-02 0.
      2.95240700e-01 9.84135643e-02 0. 4.92067821e-02 4.92067821e-02 0.
      0. 0. 0. 0. 0. 0. 0. 0. 0. 0. 0. 0. 0. 0. 0. 0. 0. 9.84135643e-02
      0. 0. 0. 0. 0. 2.95240700e-01 0. 0. 3.93654257e-01 0. 0. 0.
      9.84135643e-02 0. 0. 0. 0. 0. 0. 0. 4.92067821e-02 1.47620350e-01
      0. 0. 0. 0. 0. 0. 0. 4.92067814e-01 0. 0. 0. 9.84135643e-02 0. 0.
      0. 2.98807144e-01 0. 0. 0. 0. 0. 0. 0. 5.97614311e-02 0. 0. 0. 0.
      0. 2.39045724e-01 0. 0. 0. 0. 0. 0. 0. 0. 0. 0. 0. 0.
      5.97614311e-02 0. 0. 0. 1.19522862e-01 0. 0. 0. 0. 0. 0. 0. 0. 0.
      0. 0. 0. 0. 0. 0. 0. 0. 0. 0. 0. 0. 0. 0. 0. 2.98807144e-01
      5.97614311e-02 0. 5.97614311e-02 2.98807144e-01 0. 0. 0. 0. 0. 0.
      0. 0. 0. 0. 0. 0. 0. 0. 5.97614311e-02 5.97614311e-02 0. 0. 0.
      5.97614311e-02 0. 0. 0. 0. 0. 0. 0. 0. 5.97614311e-02 0. 0. 0. 0.
      0. 0. 0. 0. 0. 0. 0. 0. 0. 0. 0. 0. 0. 0. 0. 0. 0. 0. 0. 0. 0.
      5.97614311e-02 0. 0. 0. 5.97614311e-02 0. 5.97614311e-02 0. 0.
      1.19522862e-01 0. 1.19522862e-01 0. 1.19522862e-01 0. 0.
      3.58568579e-01 0. 0. 0. 0. 0. 0. 0. 0. 5.97614311e-02 0. 0.
      5.97614311e-02 1.19522862e-01 5.97614311e-02 0. 5.97614311e-02 0.
      0. 0. 0. 0. 0. 0. 0. 0. 0. 0. 0. 0. 0. 0. 0. 1.19522862e-01 0. 0.
      0. 0. 0. 0. 0. 0. 0. 0. 0. 0. 0. 0. 0. 0. 0. 5.97614311e-02 0. 0.
      0. 0. 0. 0. 0. 0. 1.79284289e-01 1.19522862e-01 1.79284289e-01 0.
      5.97614311e-02 1.19522862e-01 0. 5.97614311e-02 1.19522862e-01 0.
      0. 0. 0. 0. 0. 0. 1.79284289e-01 0. 0. 0. 0. 0. 0. 0. 0. 0. 0.
      1.19522862e-01 0. 0. 0. 0. 1.19522862e-01 2.39045724e-01
      2.39045724e-01 0. 2.39045724e-01 5.97614311e-02 0. 0. 0. 0. 0. 0.
      0. 0. 0. 0. 0. 1.19522862e-01 0. 0. 0. 0. 0. 0. 0. 0.
      5.97614311e-02 0. 0. 1.79284289e-01 0. 5.97614311e-02 0.
      2.11666882e-01 0. 0. 0. 0. 0. 0. 0. 0. 0. 0. 0. 0. 0. 0. 0. 0. 0.
      0. 0. 0. 0. 0. 0. 0. 0. 0. 0. 0. 0. 0. 4.23333757e-02 0. 0. 0. 0.
      0. 0. 0. 0. 0. 0. 0. 0. 0. 0. 0. 0. 0. 0. 0. 0. 0. 0. 0. 0. 0. 0.
      0. 0. 0. 0. 0. 0. 0. 0. 0. 0. 0. 0. 0. 0. 0. 0. 0. 4.23333757e-02
      0. 0. 0. 0. 4.23333757e-02 0. 0. 0. 0. 0. 0. 0. 0. 4.23333757e-02
      0. 0. 0. 0. 0. 0. 0. 0. 0. 0. 0. 0. 0. 0. 0. 0. 0. 0. 0. 0. 0. 0.
      0. 0. 0. 4.23333757e-02 0. 0. 0. 4.23333757e-02 0. 4.23333757e-02
      0. 0. 0. 0. 0. 0. 1.27000123e-01 4.23333757e-02 0. 4.65667129e-01
      0. 0. 0. 1.27000123e-01 0. 4.23333757e-02 0. 0. 0. 0. 0.
      8.46667513e-02 8.46667513e-02 4.23333757e-02 0. 0. 0. 0. 0. 0. 0.
      0. 0. 0. 0. 0. 0. 0. 0. 0. 0. 0. 8.46667513e-02 0. 0. 0. 0. 0. 0.
      0. 0. 0. 0. 0. 0. 0. 0. 0. 0. 0. 4.23333757e-02 0. 0. 0. 0. 0. 0.
      0. 0. 1.27000123e-01 8.46667513e-02 4.23333757e-02 0.
      5.50333858e-01 8.46667513e-02 0. 4.23333757e-02 2.11666882e-01 0.
      0. 0. 0. 0. 0. 0. 3.81000370e-01 0. 0. 0. 0. 0. 0. 0. 0. 0. 0.
      8.46667513e-02 0. 0. 0. 0. 0. 1.69333503e-01 2.11666882e-01 0.
      2.11666882e-01 0. 0. 0. 8.46667513e-02 0. 0. 0. 0. 0. 0. 0. 0.
      4.23333757e-02 0. 0. 0. 0. 0. 0. 0. 4.23333757e-02 4.23333757e-02
      0. 0. 0. 0. 0. 0.</_>
    <_>
      8.85352969e-01 0. 2.85597742e-02 0. 0. 0. 0. 0. 2.85597742e-02 0.
      0. 0. 0. 0. 5.71195483e-02 0. 0. 2.85597742e-02 2.85597742e-02 0.
      0. 0. 0. 2.85597742e-02 0. 0. 0. 0. 5.71195483e-02 2.85597742e-02
      5.71195483e-02 5.71195483e-02 2.85597742e-02 0. 0. 0. 0. 0. 0. 0.
      0. 0. 0. 0. 0. 0. 0. 0. 0. 0. 0. 0. 2.85597742e-02 0. 0. 0.
